{"learner":{"attributes":{"best_iteration":"80","best_score":"23.3"},"feature_names":["diffPriceClosePoc_0_0","diffPriceClosePoc_0_2","diffHighPrice_0_1","diffPriceCloseVWAP","deltaTimestampOpeningSection5min","perctBB","diffVolCandle_0_1Ratio","diffVolDelta_0_1Ratio","asymetrie_volume","bear_imbalance_high_1","bear_imbalance_high_2","bear_imbalance_high_3","bull_imbalance_high_0","bull_imbalance_high_1","bull_imbalance_high_2","finished_auction_high","finished_auction_low","bearish_repeatAskBid_ratio","bearish_ask_score"],"feature_types":["float","float","float","float","float","float","float","float","float","float","float","float","float","float","float","float","float","float","float"],"gradient_booster":{"model":{"gbtree_model_param":{"num_parallel_tree":"1","num_trees":"131"},"iteration_indptr":[0,1,2,3,4,5,6,7,8,9,10,11,12,13,14,15,16,17,18,19,20,21,22,23,24,25,26,27,28,29,30,31,32,33,34,35,36,37,38,39,40,41,42,43,44,45,46,47,48,49,50,51,52,53,54,55,56,57,58,59,60,61,62,63,64,65,66,67,68,69,70,71,72,73,74,75,76,77,78,79,80,81,82,83,84,85,86,87,88,89,90,91,92,93,94,95,96,97,98,99,100,101,102,103,104,105,106,107,108,109,110,111,112,113,114,115,116,117,118,119,120,121,122,123,124,125,126,127,128,129,130,131],"tree_info":[0,0,0,0,0,0,0,0,0,0,0,0,0,0,0,0,0,0,0,0,0,0,0,0,0,0,0,0,0,0,0,0,0,0,0,0,0,0,0,0,0,0,0,0,0,0,0,0,0,0,0,0,0,0,0,0,0,0,0,0,0,0,0,0,0,0,0,0,0,0,0,0,0,0,0,0,0,0,0,0,0,0,0,0,0,0,0,0,0,0,0,0,0,0,0,0,0,0,0,0,0,0,0,0,0,0,0,0,0,0,0,0,0,0,0,0,0,0,0,0,0,0,0,0,0,0,0,0,0,0,0],"trees":[{"base_weights":[-4.1448775E-1,-1.1724708E0,-4.1181192E-1,-1.5760866E0,-8.595132E-1,-5.5884427E-1,-4.0539035E-1,-8.624344E-3,-4.712116E-2,-1.2160507E0,-1.3218399E-2,-5.177244E-1,-6.832151E-1,-3.9379337E-1,-4.3993685E-1,3.5780263E-3,-3.5192005E-2,-1.9728692E-2,-4.9253464E-1,-7.8036207E-1,-3.8167295E-1,-4.1080308E-1,-3.5909724E-1,-3.4290013E-1,-1.1791808E-2,-8.691068E-3,-1.467845E-2,-2.4769066E-2,-1.5826365E-2,-3.688687E-2,-6.0721505E-3,-1.5405925E-2,-1.03349E-2,-1.2072057E-2,-8.799603E-3,-1.8649485E-2,-8.40274E-3],"categories":[],"categories_nodes":[],"categories_segments":[],"categories_sizes":[],"default_left":[0,1,1,0,0,0,0,0,0,0,0,0,1,0,0,0,0,0,0,0,0,0,0,0,0,0,0,0,0,0,0,0,0,0,0,0,0],"id":0,"left_children":[1,3,5,7,9,11,13,-1,-1,15,-1,17,19,21,23,-1,-1,-1,25,27,29,31,33,35,-1,-1,-1,-1,-1,-1,-1,-1,-1,-1,-1,-1,-1],"loss_changes":[8.873682E1,1.5604782E1,4.085254E1,1.922612E1,8.287849E0,7.695862E0,1.5967285E1,0E0,0E0,1.1439465E1,0E0,7.2538757E0,1.1522583E1,1.7858887E1,2.4031982E1,0E0,0E0,0E0,1.5205383E1,7.8498383E0,1.5057526E1,1.5522949E1,1.4510254E1,8.696243E0,0E0,0E0,0E0,0E0,0E0,0E0,0E0,0E0,0E0,0E0,0E0,0E0,0E0],"parents":[2147483647,0,0,1,1,2,2,3,3,4,4,5,5,6,6,9,9,11,11,12,12,13,13,14,14,18,18,19,19,20,20,21,21,22,22,23,23],"right_children":[2,4,6,8,10,12,14,-1,-1,16,-1,18,20,22,24,-1,-1,-1,26,28,30,32,34,36,-1,-1,-1,-1,-1,-1,-1,-1,-1,-1,-1,-1,-1],"split_conditions":[4E-1,9.146745E-2,9.962049E-3,3.2692307E-1,3.3333334E-1,1E0,1.3579036E-1,-8.624344E-3,-4.712116E-2,3.3849612E-1,-1.3218399E-2,4.6153846E-1,7.787012E-2,6.445916E-1,3.6404446E-1,3.5780263E-3,-3.5192005E-2,-1.9728692E-2,4.404115E-1,4.2917326E-1,5.948329E-1,4.6153846E-1,2.708526E-3,3.310811E-1,-1.1791808E-2,-8.691068E-3,-1.467845E-2,-2.4769066E-2,-1.5826365E-2,-3.688687E-2,-6.0721505E-3,-1.5405925E-2,-1.03349E-2,-1.2072057E-2,-8.799603E-3,-1.8649485E-2,-8.40274E-3],"split_indices":[2,10,14,1,2,10,9,0,0,18,0,1,9,18,3,0,0,0,7,7,18,1,9,8,0,0,0,0,0,0,0,0,0,0,0,0,0],"split_type":[0,0,0,0,0,0,0,0,0,0,0,0,0,0,0,0,0,0,0,0,0,0,0,0,0,0,0,0,0,0,0,0,0,0,0,0,0],"sum_hessian":[4.495031E4,1.5543394E2,4.4794875E4,6.495054E1,9.0483406E1,1.8635636E3,4.2931312E4,1.3074876E1,5.1875664E1,4.142499E1,4.905841E1,1.4110067E3,4.525569E2,3.2176494E4,1.0754817E4,3.7110987E0,3.7713894E1,1.18834915E2,1.2921718E3,3.3817307E2,1.1438383E2,2.1560836E4,1.0615657E4,2.1572664E3,8.597551E3,4.7390164E2,8.1827014E2,1.4607156E2,1.921015E2,1.1701225E1,1.026826E2,4.2807874E2,2.1132758E4,1.0392477E3,9.576409E3,6.0759636E1,2.0965066E3],"tree_param":{"num_deleted":"0","num_feature":"19","num_nodes":"37","size_leaf_vector":"1"}},{"base_weights":[-4.0839773E-1,-3.6391783E-1,-4.2627943E-1,-4.984018E-1,-3.5656142E-1,-6.434296E-1,-4.219101E-1,-5.473159E-1,4.6018516E-3,-9.185666E-3,-1.9355853E-1,-3.1472772E-2,-5.463694E-1,-4.3303332E-1,-3.760675E-1,-1.4537421E-2,4.997512E-3,-7.4644596E-3,1.4556847E-4,-5.185698E-3,-6.120643E-1,-3.9215654E-1,-4.6481383E-1,-3.2050326E-1,-1.1643169E-2,-3.824727E-3,-1.6825672E-2,-8.491573E-3,-1.0592722E-2,-1.2014905E-2,-1.0073684E-2,-1.7851438E-2,-7.860122E-3],"categories":[],"categories_nodes":[],"categories_segments":[],"categories_sizes":[],"default_left":[0,1,1,1,1,0,1,0,0,0,0,0,0,0,0,0,0,0,0,0,0,0,0,0,0,0,0,0,0,0,0,0,0],"id":1,"left_children":[1,3,5,7,9,11,13,15,-1,-1,17,-1,19,21,23,-1,-1,-1,-1,-1,25,27,29,31,-1,-1,-1,-1,-1,-1,-1,-1,-1],"loss_changes":[3.4513184E1,1.1485474E1,2.8726074E1,2.2404312E1,9.110474E0,3.3191742E1,1.4789551E1,1.194928E1,0E0,0E0,7.80396E0,0E0,1.0937393E1,3.146289E1,2.6935547E1,0E0,0E0,0E0,0E0,0E0,9.222504E0,1.4738281E1,6.513672E0,1.4170929E1,0E0,0E0,0E0,0E0,0E0,0E0,0E0,0E0,0E0],"parents":[2147483647,0,0,1,1,2,2,3,3,4,4,5,5,6,6,7,7,10,10,12,12,13,13,14,14,20,20,21,21,22,22,23,23],"right_children":[2,4,6,8,10,12,14,16,-1,-1,18,-1,20,22,24,-1,-1,-1,-1,-1,26,28,30,32,-1,-1,-1,-1,-1,-1,-1,-1,-1],"split_conditions":[6.109091E-1,7.672634E-4,3.5609915E-3,6.912401E-1,5.4654187E-1,4.6153846E-1,2.2110371E-1,9.6182615E-1,4.6018516E-3,-9.185666E-3,8.274302E-1,-3.1472772E-2,9.995897E-1,9.3859243E-1,1.3421774E-1,-1.4537421E-2,4.997512E-3,-7.4644596E-3,1.4556847E-4,-5.185698E-3,4.9825785E-1,6.332418E-1,3.1453267E-1,4.8076922E-1,-1.1643169E-2,-3.824727E-3,-1.6825672E-2,-8.491573E-3,-1.0592722E-2,-1.2014905E-2,-1.0073684E-2,-1.7851438E-2,-7.860122E-3],"split_indices":[4,14,10,12,9,1,12,17,0,0,5,0,6,17,11,0,0,0,0,0,8,8,10,1,0,0,0,0,0,0,0,0,0],"split_type":[0,0,0,0,0,0,0,0,0,0,0,0,0,0,0,0,0,0,0,0,0,0,0,0,0,0,0,0,0,0,0,0,0],"sum_hessian":[4.485398E4,1.2886892E4,3.196709E4,6.567596E2,1.2230132E4,6.227042E2,3.1344385E4,6.1462744E2,4.2132103E1,1.1859628E4,3.70504E2,8.436532E1,5.383389E2,2.5196215E4,6.14817E3,5.966598E2,1.7967651E1,2.5086278E2,1.1964123E2,9.040398E1,4.4793494E2,1.1043011E4,1.4153205E4,3.6797297E3,2.4684402E3,4.6792656E1,4.0114227E2,3.3242222E3,7.718788E3,1.2637615E4,1.5155903E3,9.9797554E1,3.5799321E3],"tree_param":{"num_deleted":"0","num_feature":"19","num_nodes":"33","size_leaf_vector":"1"}},{"base_weights":[-3.9104393E-1,-5.388889E-1,-3.865446E-1,-4.101211E-1,-6.4001304E-1,-1.1686071E0,-3.8531646E-1,-2.7922353E-2,-3.541687E-1,-2.3496278E-2,-5.712327E-1,-8.9819664E-1,-4.7834806E-2,-3.5260084E-1,-4.0785792E-1,-4.7011372E-1,-5.8752388E-2,-1.0333814E-3,-6.01543E-1,-0E0,-2.7581275E-2,-6.165596E-1,-3.4959298E-1,-3.5742489E-1,-4.3249524E-1,-9.588518E-3,-2.824799E-2,3.0713417E-3,-9.180952E-3,-2.2868743E-2,-1.17556155E-2,-2.68319E-2,-1.2737678E-2,5.411179E-4,-8.919684E-3,-9.901058E-3,-7.453385E-3,-1.1667251E-2,-1.0319087E-2],"categories":[],"categories_nodes":[],"categories_segments":[],"categories_sizes":[],"default_left":[1,0,0,0,0,0,0,0,0,0,0,0,0,0,0,0,0,0,0,0,0,1,0,0,0,0,0,0,0,0,0,0,0,0,0,0,0,0,0],"id":2,"left_children":[1,3,5,7,9,11,13,-1,15,-1,17,19,-1,21,23,25,27,-1,29,-1,-1,31,33,35,37,-1,-1,-1,-1,-1,-1,-1,-1,-1,-1,-1,-1,-1,-1],"loss_changes":[2.8608398E1,1.5621765E1,3.9654785E1,2.048581E1,1.2014252E1,8.087212E0,3.110498E1,0E0,1.8005096E1,0E0,8.6949005E0,7.8151665E0,0E0,1.2736572E1,3.0945312E1,2.0908401E1,8.949406E0,0E0,2.1165344E1,0E0,0E0,7.465164E0,1.0065918E1,1.6580933E1,1.0920166E1,0E0,0E0,0E0,0E0,0E0,0E0,0E0,0E0,0E0,0E0,0E0,0E0,0E0,0E0],"parents":[2147483647,0,0,1,1,2,2,3,3,4,4,5,5,6,6,8,8,10,10,11,11,13,13,14,14,15,15,16,16,18,18,21,21,22,22,23,23,24,24],"right_children":[2,4,6,8,10,12,14,-1,16,-1,18,20,-1,22,24,26,28,-1,30,-1,-1,32,34,36,38,-1,-1,-1,-1,-1,-1,-1,-1,-1,-1,-1,-1,-1,-1],"split_conditions":[1.0970292E-2,6.181818E-1,3.3333334E-1,2.0816703E-1,6.363636E-1,7.287111E-1,4.477137E-1,-2.7922353E-2,4.4E-1,-2.3496278E-2,9.990902E-1,5.527273E-1,-4.7834806E-2,5.4545455E-2,6.2545455E-1,6.876026E-1,9.216534E-1,-1.0333814E-3,8.049923E-1,-0E0,-2.7581275E-2,1.4851689E-2,1.859542E-1,5.320974E-1,6.126978E-1,-9.588518E-3,-2.824799E-2,3.0713417E-3,-9.180952E-3,-2.2868743E-2,-1.17556155E-2,-2.68319E-2,-1.2737678E-2,5.411179E-4,-8.919684E-3,-9.901058E-3,-7.453385E-3,-1.1667251E-2,-1.0319087E-2],"split_indices":[10,4,2,3,4,5,3,0,4,0,6,4,0,4,4,3,12,0,17,0,0,12,18,3,18,0,0,0,0,0,0,0,0,0,0,0,0,0,0],"split_type":[0,0,0,0,0,0,0,0,0,0,0,0,0,0,0,0,0,0,0,0,0,0,0,0,0,0,0,0,0,0,0,0,0,0,0,0,0,0,0],"sum_hessian":[4.507853E4,1.3203772E3,4.3758152E4,5.8801654E2,7.323607E2,6.59967E1,4.3692156E4,4.1526035E1,5.4649054E2,1.3721497E2,5.9514575E2,5.021431E1,1.5782387E1,1.7852236E4,2.5839922E4,3.889107E2,1.575798E2,3.465535E1,5.6049036E2,9.391033E0,4.0823277E1,1.9470044E2,1.7657535E4,8.501466E3,1.7338455E4,3.424714E2,4.6439312E1,9.62899E1,6.1289906E1,1.7381927E2,3.866711E2,3.6997635E1,1.577028E2,6.5938705E1,1.7591596E4,5.6384067E3,2.863059E3,8.582011E3,8.756445E3],"tree_param":{"num_deleted":"0","num_feature":"19","num_nodes":"39","size_leaf_vector":"1"}},{"base_weights":[-3.8474178E-1,-9.2745095E-1,-3.8193828E-1,-4.0966544E-2,-8.558119E-1,-1.1072999E0,-3.805401E-1,-1.6927805E-2,-1.4412824E0,-1.8435286E-2,-4.4334184E-2,-3.9701226E-1,-3.381677E-1,-1.7956926E-2,-4.522585E-2,2.898318E-6,-3.982424E-1,-3.8775507E-1,-3.0895835E-1,-1.3926012E-2,-1.0012229E-2,-1.7587813E-2,-9.577704E-3,-7.4287066E-3,-1.07800905E-2],"categories":[],"categories_nodes":[],"categories_segments":[],"categories_sizes":[],"default_left":[0,0,0,0,0,0,1,0,0,0,0,0,1,0,0,0,1,0,0,0,0,0,0,0,0],"id":3,"left_children":[1,3,5,-1,7,9,11,-1,13,-1,-1,15,17,-1,-1,-1,19,21,23,-1,-1,-1,-1,-1,-1],"loss_changes":[6.66582E1,7.071869E0,4.3257812E1,0E0,1.991864E1,1.639048E1,3.01958E1,0E0,8.122253E0,0E0,0E0,1.6288086E1,1.7189453E1,0E0,0E0,0E0,1.8731934E1,1.364624E1,1.4116699E1,0E0,0E0,0E0,0E0,0E0,0E0],"parents":[2147483647,0,0,1,1,2,2,4,4,5,5,6,6,8,8,11,11,12,12,16,16,17,17,18,18],"right_children":[2,4,6,-1,8,10,12,-1,14,-1,-1,16,18,-1,-1,-1,20,22,24,-1,-1,-1,-1,-1,-1],"split_conditions":[4.3333334E-1,3.9198805E-2,4.0384614E-1,-4.0966544E-2,7.529716E-1,6.141565E-1,1.7809728E-1,-1.6927805E-2,2.2184381E-1,-1.8435286E-2,-4.4334184E-2,9.990902E-1,1.5876289E-1,-1.7956926E-2,-4.522585E-2,2.898318E-6,1.9354839E-2,4.6153846E-1,6.225E-1,-1.3926012E-2,-1.0012229E-2,-1.7587813E-2,-9.577704E-3,-7.4287066E-3,-1.07800905E-2],"split_indices":[2,11,1,0,5,5,12,0,7,0,0,6,13,0,0,0,13,1,13,0,0,0,0,0,0],"split_type":[0,0,0,0,0,0,0,0,0,0,0,0,0,0,0,0,0,0,0,0,0,0,0,0,0],"sum_hessian":[4.5115625E4,2.2837222E2,4.488725E4,1.8629276E1,2.0974295E2,8.359079E1,4.480366E4,1.6114565E2,4.859731E1,5.440778E1,2.918301E1,3.2235314E4,1.2568346E4,1.7176361E1,3.1420948E1,9.614033E1,3.2139176E4,4.6390884E3,7.9292573E3,8.6146185E2,3.1277713E4,1.5328134E2,4.485807E3,6.944717E3,9.8454065E2],"tree_param":{"num_deleted":"0","num_feature":"19","num_nodes":"25","size_leaf_vector":"1"}},{"base_weights":[-3.681335E-1,-9.033184E-1,-3.6537892E-1,-1.0756421E0,-3.9121893E-1,-5.730404E-1,-3.635161E-1,-0E0,-2.8555254E-2,-4.136514E-4,-3.1328537E-2,-6.1676466E-1,-0E0,-1.5892858E-2,-3.5979494E-1,-2.5636666E-2,-5.353064E-1,-3.3805206E-1,-4.0244812E-1,-2.4851404E-2,-1.1406805E-2,-9.8207295E-3,-8.2224915E-3,-9.000191E-3,-1.0524006E-2],"categories":[],"categories_nodes":[],"categories_segments":[],"categories_sizes":[],"default_left":[0,1,0,0,0,0,0,0,0,0,0,0,0,0,0,0,1,0,0,0,0,0,0,0,0],"id":4,"left_children":[1,3,5,7,9,11,13,-1,-1,-1,-1,15,-1,-1,17,-1,19,21,23,-1,-1,-1,-1,-1,-1],"loss_changes":[6.49751E1,1.8007812E1,1.60708E1,8.771057E0,1.7444057E1,1.0469177E1,4.2161133E1,0E0,0E0,0E0,0E0,9.32991E0,0E0,0E0,3.984375E1,0E0,9.600204E0,1.9428223E1,7.303955E0,0E0,0E0,0E0,0E0,0E0,0E0],"parents":[2147483647,0,0,1,1,2,2,3,3,4,4,5,5,6,6,11,11,14,14,16,16,17,17,18,18],"right_children":[2,4,6,8,10,12,14,-1,-1,-1,-1,16,-1,-1,18,-1,20,22,24,-1,-1,-1,-1,-1,-1],"split_conditions":[4.3333334E-1,2.7441692E-1,1.0909091E-2,2.8196985E-1,5.682216E-1,9.3175566E-1,4.8669347E-1,-0E0,-2.8555254E-2,-4.136514E-4,-3.1328537E-2,6.0955912E-2,-0E0,-1.5892858E-2,9.4960827E-1,-2.5636666E-2,2.8785134E-2,5.3333336E-1,2.9682478E-2,-2.4851404E-2,-1.1406805E-2,-9.8207295E-3,-8.2224915E-3,-9.000191E-3,-1.0524006E-2],"split_indices":[2,10,4,18,3,17,17,0,0,0,0,12,0,0,17,0,11,2,9,0,0,0,0,0,0],"split_type":[0,0,0,0,0,0,0,0,0,0,0,0,0,0,0,0,0,0,0,0,0,0,0,0,0],"sum_hessian":[4.5373902E4,2.2883083E2,4.514507E4,1.6874799E2,6.008283E1,3.9329337E2,4.4751777E4,7.279693E0,1.6146829E2,4.309966E1,1.6983171E1,3.669474E2,2.6345974E1,6.202272E2,4.413155E4,5.9080963E1,3.0786642E2,2.9255402E4,1.4876149E4,4.6685047E1,2.611814E2,6.686678E3,2.2568725E4,2.9421345E3,1.1934015E4],"tree_param":{"num_deleted":"0","num_feature":"19","num_nodes":"25","size_leaf_vector":"1"}},{"base_weights":[-3.5765326E-1,-2.5035767E-2,-3.5549924E-1,-4.3224913E-1,-3.50413E-1,-6.7390406E-1,-4.0248707E-1,-3.1293142E-1,-3.795149E-1,-1.0382516E0,-4.9370673E-1,-7.810302E-1,-3.7257576E-1,-4.782309E-1,-3.0079246E-1,-2.6977834E-1,-3.8571018E-1,-7.413593E-4,-2.912795E-2,-0E0,-1.5901143E-2,-1.462839E-2,-3.849532E-2,-5.4899952E-3,-1.0212247E-2,-1.3372382E-2,-8.9609055E-3,5.1339827E-3,-7.6743593E-3,-1.6953645E-2,-6.346637E-3,-1.0675134E-2,-9.524203E-3],"categories":[],"categories_nodes":[],"categories_segments":[],"categories_sizes":[],"default_left":[0,0,1,1,0,0,0,0,0,0,0,0,0,0,0,0,0,0,0,0,0,0,0,0,0,0,0,0,0,0,0,0,0],"id":5,"left_children":[1,-1,3,5,7,9,11,13,15,17,19,21,23,25,27,29,31,-1,-1,-1,-1,-1,-1,-1,-1,-1,-1,-1,-1,-1,-1,-1,-1],"loss_changes":[5.925049E1,0E0,1.6481445E1,1.8432678E1,4.521826E1,1.7306595E1,2.6444366E1,3.607422E1,1.5253174E1,8.886055E0,1.2780857E1,2.353318E1,9.728821E0,6.305084E0,1.1081177E1,8.885117E0,7.2597656E0,0E0,0E0,0E0,0E0,0E0,0E0,0E0,0E0,0E0,0E0,0E0,0E0,0E0,0E0,0E0,0E0],"parents":[2147483647,0,0,2,2,3,3,4,4,5,5,6,6,7,7,8,8,9,9,10,10,11,11,12,12,13,13,14,14,15,15,16,16],"right_children":[2,-1,4,6,8,10,12,14,16,18,20,22,24,26,28,30,32,-1,-1,-1,-1,-1,-1,-1,-1,-1,-1,-1,-1,-1,-1,-1,-1],"split_conditions":[4E-1,-2.5035767E-2,2.708526E-3,6.1561125E-3,9.255005E-1,5E-1,4.8076922E-1,6.784212E-1,1.4509961E-2,5.0138116E-1,9.996914E-1,7.317144E-1,5.5030495E-1,7.8803617E-1,9.990902E-1,2.782563E-2,5.4297733E-1,-7.413593E-4,-2.912795E-2,-0E0,-1.5901143E-2,-1.462839E-2,-3.849532E-2,-5.4899952E-3,-1.0212247E-2,-1.3372382E-2,-8.9609055E-3,5.1339827E-3,-7.6743593E-3,-1.6953645E-2,-6.346637E-3,-1.0675134E-2,-9.524203E-3],"split_indices":[2,0,9,11,17,1,1,17,9,18,6,5,18,5,6,11,18,0,0,0,0,0,0,0,0,0,0,0,0,0,0,0,0],"split_type":[0,0,0,0,0,0,0,0,0,0,0,0,0,0,0,0,0,0,0,0,0,0,0,0,0,0,0,0,0,0,0,0,0],"sum_hessian":[4.531897E4,1.5190816E2,4.5167062E4,2.787546E3,4.2379516E4,2.9926782E2,2.488278E3,1.854638E4,2.3833135E4,9.5610435E1,2.0365738E2,1.7781111E2,2.310467E3,1.2596055E3,1.7286775E4,1.2867255E3,2.254641E4,1.0543096E1,8.506734E1,4.4508472E1,1.591489E2,1.4121988E2,3.6591225E1,3.730348E2,1.9374321E3,9.016311E2,3.5797437E2,4.010989E1,1.7246664E4,5.7440445E1,1.229285E3,5.368375E3,1.7178035E4],"tree_param":{"num_deleted":"0","num_feature":"19","num_nodes":"33","size_leaf_vector":"1"}},{"base_weights":[-3.5686475E-1,-3.2000914E-1,-3.719021E-1,-3.1439623E-1,-7.104751E-1,-9.9152803E-1,-3.6833906E-1,-4.358865E-1,-3.0390078E-1,-2.04826E-2,-2.670271E-1,-1.1784813E0,-5.3753936E-1,-3.9824036E-1,-3.4546083E-1,-8.4898835E-1,-4.000714E-1,-2.5876164E-1,-3.3639E-1,-3.787649E-2,-1.3959494E-3,-7.2501945E-1,-3.8052667E-2,6.6052977E-4,-1.962608E-2,-3.1392106E-1,-4.2786923E-1,-5.491334E-1,-3.3924758E-1,-3.2873962E-2,-1.3526982E-2,-1.3700991E-2,-8.064654E-3,-7.4242004E-3,-4.872247E-3,-1.4711124E-2,-8.330067E-3,-3.108025E-2,-9.962058E-3,-9.185941E-3,-6.0875914E-3,-2.1939449E-2,-1.0789572E-2,-1.449648E-2,-0E0,-1.6810372E-2,-8.5734585E-3],"categories":[],"categories_nodes":[],"categories_segments":[],"categories_sizes":[],"default_left":[0,0,0,0,1,0,1,0,0,0,0,0,0,0,1,1,0,0,0,0,0,0,0,0,0,0,0,0,0,0,0,0,0,0,0,0,0,0,0,0,0,0,0,0,0,0,0],"id":6,"left_children":[1,3,5,7,9,11,13,15,17,-1,19,21,23,25,27,29,31,33,35,-1,-1,37,-1,-1,-1,39,41,43,45,-1,-1,-1,-1,-1,-1,-1,-1,-1,-1,-1,-1,-1,-1,-1,-1,-1,-1],"loss_changes":[2.4174316E1,2.74021E1,6.9120605E1,1.5513428E1,6.187294E0,1.2729782E1,2.0842285E1,1.32453E1,1.6728271E1,0E0,7.172268E0,1.4606216E1,8.4682865E0,3.3559814E1,2.1708252E1,8.114887E0,9.617813E0,1.0600281E1,1.3057251E1,0E0,0E0,6.6530495E0,0E0,0E0,0E0,1.1945862E1,1.2381348E1,6.530258E0,8.838623E0,0E0,0E0,0E0,0E0,0E0,0E0,0E0,0E0,0E0,0E0,0E0,0E0,0E0,0E0,0E0,0E0,0E0,0E0],"parents":[2147483647,0,0,1,1,2,2,3,3,4,4,5,5,6,6,7,7,8,8,10,10,11,11,12,12,13,13,14,14,15,15,16,16,17,17,18,18,21,21,25,25,26,26,27,27,28,28],"right_children":[2,4,6,8,10,12,14,16,18,-1,20,22,24,26,28,30,32,34,36,-1,-1,38,-1,-1,-1,40,42,44,46,-1,-1,-1,-1,-1,-1,-1,-1,-1,-1,-1,-1,-1,-1,-1,-1,-1,-1],"split_conditions":[6.181818E-1,8.5280436E-1,4.3333334E-1,6.784212E-1,3.2463235E-1,7.899868E-2,7.200417E-2,2.006101E-1,7.7122545E-1,-2.04826E-2,5.248374E-1,5.138383E-1,3.184834E-1,3.772986E-1,2.506168E-2,2.6229508E-2,1.3818182E-1,4.4727272E-1,1.8181818E-2,-3.787649E-2,-1.3959494E-3,2.7655838E-2,-3.8052667E-2,6.6052977E-4,-1.962608E-2,8.6545455E-1,4.117647E-1,8.0514705E-1,1.612218E-3,-3.2873962E-2,-1.3526982E-2,-1.3700991E-2,-8.064654E-3,-7.4242004E-3,-4.872247E-3,-1.4711124E-2,-8.330067E-3,-3.108025E-2,-9.962058E-3,-9.185941E-3,-6.0875914E-3,-2.1939449E-2,-1.0789572E-2,-1.449648E-2,-0E0,-1.6810372E-2,-8.5734585E-3],"split_indices":[4,3,2,17,11,9,12,3,5,0,5,5,7,3,10,13,4,4,4,0,0,14,0,0,0,4,0,14,9,0,0,0,0,0,0,0,0,0,0,0,0,0,0,0,0,0,0],"split_type":[0,0,0,0,0,0,0,0,0,0,0,0,0,0,0,0,0,0,0,0,0,0,0,0,0,0,0,0,0,0,0,0,0,0,0,0,0,0,0,0,0,0,0,0,0,0,0],"sum_hessian":[4.5437664E4,1.3196714E4,3.224095E4,1.3014176E4,1.8253775E2,1.812216E2,3.2059727E4,1.02270154E3,1.1991475E4,1.4722972E2,3.5308025E1,1.2557823E2,5.5643364E1,1.3866973E4,1.8192754E4,7.750113E1,9.4520044E2,5.038388E3,6.9530864E3,3.744764E0,3.1563263E1,5.443175E1,7.1146484E1,1.4826496E1,4.0816868E1,3.6193826E3,1.024759E4,5.3057056E2,1.7662184E4,2.968359E1,4.781754E1,3.4488217E2,6.003183E2,3.3460994E3,1.6922888E3,2.2955939E2,6.7235273E3,1.9538666E1,3.4893085E1,2.1935083E3,1.4258744E3,7.078501E1,1.0176805E4,5.1149896E2,1.9071604E1,9.340939E1,1.7568775E4],"tree_param":{"num_deleted":"0","num_feature":"19","num_nodes":"47","size_leaf_vector":"1"}},{"base_weights":[-3.392515E-1,-4.7286537E-1,-3.327211E-1,-4.2399094E-1,-7.740654E-1,-3.1695792E-1,-3.6148983E-1,-1.839758E-2,-9.106736E-3,-3.0214256E-2,-6.540466E-1,-2.7000242E-1,-3.537213E-1,-3.5315685E-2,-3.5852957E-1,-4.237735E-1,-2.3379853E-2,-3.295365E-1,-2.5288576E-1,-2.1065097E-1,-3.5697132E-1,-3.226865E-1,-3.8771605E-1,-1.2911521E-2,1.5070462E-2,-1.1646139E-2,-7.170852E-3,7.962657E-3,-6.4842217E-3,-4.1423417E-3,-1.6385209E-2,-8.585615E-3,-9.755743E-3,-9.245895E-3,-6.9455276E-3,-9.992734E-3,-4.9038017E-3],"categories":[],"categories_nodes":[],"categories_segments":[],"categories_sizes":[],"default_left":[0,0,0,0,0,0,0,0,0,0,0,0,0,0,0,0,0,1,0,0,0,0,1,0,0,0,0,0,0,0,0,0,0,0,0,0,0],"id":7,"left_children":[1,3,5,7,9,11,13,-1,-1,-1,15,17,19,-1,21,23,-1,25,27,29,31,33,35,-1,-1,-1,-1,-1,-1,-1,-1,-1,-1,-1,-1,-1,-1],"loss_changes":[3.8504395E1,2.9220612E1,1.868457E1,3.417737E1,1.1477936E1,4.7535156E1,4.3978027E1,0E0,0E0,0E0,1.1958839E1,1.1736023E1,6.4953613E0,0E0,1.4946167E1,1.091164E1,0E0,1.5594177E1,1.2588379E1,6.2832413E0,6.847046E0,1.3066345E1,8.280518E0,0E0,0E0,0E0,0E0,0E0,0E0,0E0,0E0,0E0,0E0,0E0,0E0,0E0,0E0],"parents":[2147483647,0,0,1,1,2,2,3,3,4,4,5,5,6,6,10,10,11,11,12,12,14,14,15,15,17,17,18,18,19,19,20,20,21,21,22,22],"right_children":[2,4,6,8,10,12,14,-1,-1,-1,16,18,20,-1,22,24,-1,26,28,30,32,34,36,-1,-1,-1,-1,-1,-1,-1,-1,-1,-1,-1,-1,-1,-1],"split_conditions":[4.8076922E-1,9.216534E-1,1E0,7.2159344E-1,4.912342E-1,9.255005E-1,4E-1,-1.839758E-2,-9.106736E-3,-3.0214256E-2,3.5041323E-1,8.1572074E-1,4.117647E-1,-3.5315685E-2,9.243717E-1,3.0927834E-1,-2.3379853E-2,4.3888256E-2,1.859542E-1,7.4762684E-1,9.589545E-1,6E-1,5.037951E-1,-1.2911521E-2,1.5070462E-2,-1.1646139E-2,-7.170852E-3,7.962657E-3,-6.4842217E-3,-4.1423417E-3,-1.6385209E-2,-8.585615E-3,-9.755743E-3,-9.245895E-3,-6.9455276E-3,-9.992734E-3,-4.9038017E-3],"split_indices":[1,12,16,17,7,17,2,0,0,0,13,17,0,0,17,13,0,12,18,18,17,2,14,0,0,0,0,0,0,0,0,0,0,0,0,0,0],"split_type":[0,0,0,0,0,0,0,0,0,0,0,0,0,0,0,0,0,0,0,0,0,0,0,0,0,0,0,0,0,0,0,0,0,0,0,0,0],"sum_hessian":[4.5486594E4,2.1079182E3,4.3378676E4,1.8187263E3,2.8919193E2,2.8058748E4,1.5319929E4,3.213424E2,1.4973839E3,6.1145664E1,2.2804626E2,1.2339771E4,1.5718977E4,4.185985E1,1.5278069E4,1.2581409E2,1.0223218E2,2.7354597E3,9.604312E3,3.5928064E2,1.5359695E4,6.8811333E3,8.396936E3,1.1767678E2,8.137309E0,7.2559344E2,2.0098663E3,3.6483486E1,9.567828E3,3.273235E2,3.195715E1,9.037463E3,6.322233E3,3.731761E3,3.1493723E3,8.155729E3,2.412068E2],"tree_param":{"num_deleted":"0","num_feature":"19","num_nodes":"37","size_leaf_vector":"1"}},{"base_weights":[-3.326835E-1,-9.3590426E-1,-3.304182E-1,-1.024613E0,-6.988829E-3,-9.086113E-1,-3.2924566E-1,-1.9481555E-2,-1.6796175E0,-1.1154542E0,-4.420695E-1,-6.9760946E-3,-3.304702E-1,-2.775836E-3,-4.764646E-2,-3.9972067E-2,-1.2969024E-2,-3.0981153E-2,-0E0,-1.620204E-2,4.184451E-3,-4.2913106E-1,-3.2733905E-1,-1.7430162E-2,-1.0339241E-2,-6.887417E-3,-8.782616E-3],"categories":[],"categories_nodes":[],"categories_segments":[],"categories_sizes":[],"default_left":[0,0,0,0,0,0,0,0,0,0,0,0,1,0,0,0,0,0,0,0,0,0,0,0,0,0,0],"id":8,"left_children":[1,3,5,7,-1,9,11,-1,13,15,17,19,21,-1,-1,-1,-1,-1,-1,-1,-1,23,25,-1,-1,-1,-1],"loss_changes":[6.0493164E1,7.9349213E0,2.8986816E1,2.063533E1,0E0,6.222992E0,1.7459473E1,0E0,9.27787E0,1.3187912E1,1.1739581E1,1.9831669E1,1.2863281E1,0E0,0E0,0E0,0E0,0E0,0E0,0E0,0E0,6.1996E0,4.432666E1,0E0,0E0,0E0,0E0],"parents":[2147483647,0,0,1,1,2,2,3,3,5,5,6,6,8,8,9,9,10,10,11,11,12,12,21,21,22,22],"right_children":[2,4,6,8,-1,10,12,-1,14,16,18,20,22,-1,-1,-1,-1,-1,-1,-1,-1,24,26,-1,-1,-1,-1],"split_conditions":[4E-1,6.3461536E-1,4.0384614E-1,6.8545574E-1,-6.988829E-3,7.490909E-1,1.859542E-1,-1.9481555E-2,3.846154E-1,7.010352E-1,7.5445116E-1,3.7305018E-1,1.9354839E-2,-2.775836E-3,-4.764646E-2,-3.9972067E-2,-1.2969024E-2,-3.0981153E-2,-0E0,-1.620204E-2,4.184451E-3,2.261404E-1,3.8329548E-1,-1.7430162E-2,-1.0339241E-2,-6.887417E-3,-8.782616E-3],"split_indices":[2,1,1,5,0,4,18,0,1,17,17,12,13,0,0,0,0,0,0,0,0,17,3,0,0,0,0],"split_type":[0,0,0,0,0,0,0,0,0,0,0,0,0,0,0,0,0,0,0,0,0,0,0,0,0,0,0],"sum_hessian":[4.5659395E4,1.6767372E2,4.5491723E4,1.4573349E2,2.194023E1,8.8803246E1,4.5402918E4,1.0697364E2,3.8759857E1,5.894236E1,2.9860888E1,1.7607777E2,4.522684E4,5.164022E0,3.3595837E1,3.1740255E1,2.7202103E1,1.1307439E1,1.8553448E1,3.901902E1,1.3705876E2,1.3753939E3,4.3851445E4,1.0313831E2,1.2722556E3,1.0794836E4,3.305661E4],"tree_param":{"num_deleted":"0","num_feature":"19","num_nodes":"27","size_leaf_vector":"1"}},{"base_weights":[-3.247823E-1,-4.9777755E-1,-3.170705E-1,-8.087658E-1,-4.162789E-1,-3.1210443E-1,-4.4590405E-1,-2.1226736E-2,1.9253065E-3,-1.1635195E-2,-2.7405072E-3,-2.0355592E-2,-3.110222E-1,-1.636062E-2,-3.8483006E-1,-2.2671615E-1,-3.1449944E-1,1.2219008E-2,-9.972912E-3,-3.6351334E-3,-8.315434E-3,-8.51821E-3,-7.756877E-3],"categories":[],"categories_nodes":[],"categories_segments":[],"categories_sizes":[],"default_left":[0,0,0,0,0,0,0,0,0,0,0,0,0,0,0,1,0,0,0,0,0,0,0],"id":9,"left_children":[1,3,5,7,9,11,13,-1,-1,-1,-1,-1,15,-1,17,19,21,-1,-1,-1,-1,-1,-1],"loss_changes":[5.97334E1,4.7323303E1,2.6869629E1,1.0479401E1,1.9019348E1,2.0637695E1,1.7949158E1,0E0,0E0,0E0,0E0,0E0,1.1545654E1,0E0,8.2300415E0,1.3486977E1,6.781006E0,0E0,0E0,0E0,0E0,0E0,0E0],"parents":[2147483647,0,0,1,1,2,2,3,3,4,4,5,5,6,6,12,12,14,14,15,15,16,16],"right_children":[2,4,6,8,10,12,14,-1,-1,-1,-1,-1,16,-1,18,20,22,-1,-1,-1,-1,-1,-1],"split_conditions":[6.784212E-1,4.8076922E-1,9.563636E-1,6.666667E-1,6.923077E-1,4E-1,4.992385E-1,-2.1226736E-2,1.9253065E-3,-1.1635195E-2,-2.7405072E-3,-2.0355592E-2,3.871037E-1,-1.636062E-2,5.0138116E-1,1.2474355E-1,1E0,1.2219008E-2,-9.972912E-3,-3.6351334E-3,-8.315434E-3,-8.51821E-3,-7.756877E-3],"split_indices":[17,1,4,2,1,2,18,0,0,0,0,0,18,0,18,10,15,0,0,0,0,0,0],"split_type":[0,0,0,0,0,0,0,0,0,0,0,0,0,0,0,0,0,0,0,0,0,0,0],"sum_hessian":[4.567161E4,1.9399633E3,4.3731645E4,3.9827704E2,1.5416862E3,4.2120594E4,1.6110522E3,3.8813757E2,1.01394825E1,1.3540992E3,1.8758696E2,8.927173E1,4.203132E4,3.7320007E2,1.2378522E3,1.6819241E3,4.03494E4,9.016956E0,1.2288352E3,9.2634216E2,7.555819E2,1.2342483E4,2.8006914E4],"tree_param":{"num_deleted":"0","num_feature":"19","num_nodes":"23","size_leaf_vector":"1"}},{"base_weights":[-3.157419E-1,-2.2680793E-2,-3.136144E-1,-5.017218E-1,-3.0886903E-1,-9.3400794E-1,-4.0964362E-1,-2.943943E-1,-3.3961943E-1,-5.090551E-3,-1.1195884E0,-3.5223618E-1,-2.8571703E-2,-8.516779E-2,-2.9662064E-1,-5.987341E-3,-3.5642138E-1,-1.9431738E-2,-3.480572E-2,-9.748596E-3,2.0186426E-3,4.9395824E-4,-7.956539E-3,-6.7725354E-3,-8.233451E-3,-7.3381676E-3,-9.912707E-3],"categories":[],"categories_nodes":[],"categories_segments":[],"categories_sizes":[],"default_left":[0,0,0,1,0,0,0,0,0,0,0,0,0,0,0,0,0,0,0,0,0,0,0,0,0,0,0],"id":10,"left_children":[1,-1,3,5,7,9,11,13,15,-1,17,19,-1,21,23,-1,25,-1,-1,-1,-1,-1,-1,-1,-1,-1,-1],"loss_changes":[5.429004E1,0E0,3.945508E1,4.2232086E1,1.8854004E1,2.4259262E1,3.5550278E1,1.35529785E1,2.3925537E1,0E0,9.972794E0,1.2037117E1,0E0,8.167883E0,2.38208E1,0E0,2.6823242E1,0E0,0E0,0E0,0E0,0E0,0E0,0E0,0E0,0E0,0E0],"parents":[2147483647,0,0,2,2,3,3,4,4,5,5,6,6,7,7,8,8,10,10,11,11,13,13,14,14,16,16],"right_children":[2,-1,4,6,8,10,12,14,16,-1,18,20,-1,22,24,-1,26,-1,-1,-1,-1,-1,-1,-1,-1,-1,-1],"split_conditions":[4E-1,-2.2680793E-2,4.6153846E-1,6.207039E-3,1.0427826E-1,3.0352888E-1,7.2430366E-1,2.4705644E-1,3.2200685E-1,-5.090551E-3,6.3272727E-1,5.1979804E-1,-2.8571703E-2,1.7976943E-2,4.6773413E-1,-5.987341E-3,9.2717564E-1,-1.9431738E-2,-3.480572E-2,-9.748596E-3,2.0186426E-3,4.9395824E-4,-7.956539E-3,-6.7725354E-3,-8.233451E-3,-7.3381676E-3,-9.912707E-3],"split_indices":[2,0,1,9,9,5,5,18,3,0,4,9,0,9,3,0,17,0,0,0,0,0,0,0,0,0,0],"split_type":[0,0,0,0,0,0,0,0,0,0,0,0,0,0,0,0,0,0,0,0,0,0,0,0,0,0,0],"sum_hessian":[4.5698586E4,1.6464906E2,4.5533938E4,1.1118654E3,4.442207E4,1.9170833E2,9.2015704E2,3.0238611E4,1.4183458E4,4.042657E1,1.5128175E2,8.543304E2,6.58267E1,3.250347E2,2.9913578E4,1.9856903E3,1.2197768E4,6.581009E1,8.547167E1,7.993068E2,5.502357E1,2.1909633E2,1.0593837E2,1.4297804E4,1.5615773E4,4.0747727E3,8.122995E3],"tree_param":{"num_deleted":"0","num_feature":"19","num_nodes":"27","size_leaf_vector":"1"}},{"base_weights":[-3.0248094E-1,-4.748697E-1,-2.965102E-1,-5.576088E-1,-2.9999664E-1,-2.710823E-1,-8.27476E-3,-6.0625494E-1,-3.8305887E-3,-3.4126908E-1,1.0971573E-2,-7.3819025E-3,-2.3252763E-1,-1.3325752E-2,-7.969369E-1,-6.75541E-3,-1.8901091E-2,-1.8657394E-1,-2.682845E-1,-1.798783E-2,-3.0856661E-2,-8.671621E-3,-4.3596937E-3,-1.7036753E-2,-6.6846306E-3],"categories":[],"categories_nodes":[],"categories_segments":[],"categories_sizes":[],"default_left":[1,0,0,1,0,0,0,0,0,1,0,0,0,0,0,0,0,1,0,0,0,0,0,0,0],"id":11,"left_children":[1,3,5,7,9,11,-1,13,-1,15,-1,-1,17,-1,19,-1,-1,21,23,-1,-1,-1,-1,-1,-1],"loss_changes":[4.6100098E1,2.0838959E1,3.203833E1,1.9323029E1,1.4979618E1,1.7047852E1,0E0,1.2270966E1,0E0,1.2861782E1,0E0,0E0,1.2472107E1,0E0,6.889557E0,0E0,0E0,7.413162E0,7.9673157E0,0E0,0E0,0E0,0E0,0E0,0E0],"parents":[2147483647,0,0,1,1,2,2,3,3,4,4,5,5,7,7,9,9,12,12,14,14,17,17,18,18],"right_children":[2,4,6,8,10,12,-1,14,-1,16,-1,-1,18,-1,20,-1,-1,22,24,-1,-1,-1,-1,-1,-1],"split_conditions":[6.1561125E-3,5.576923E-1,9.3686736E-1,6.571429E-1,7.2777176E-1,6.401988E-1,-8.27476E-3,9.9993E-1,-3.8305887E-3,4.6341464E-1,1.0971573E-2,-7.3819025E-3,7.8145695E-1,-1.3325752E-2,5.523495E-1,-6.75541E-3,-1.8901091E-2,6.9193197E-3,7.893873E-1,-1.798783E-2,-3.0856661E-2,-8.671621E-3,-4.3596937E-3,-1.7036753E-2,-6.6846306E-3],"split_indices":[11,1,17,13,7,18,0,6,0,13,0,0,8,0,7,0,0,12,8,0,0,0,0,0,0],"split_type":[0,0,0,0,0,0,0,0,0,0,0,0,0,0,0,0,0,0,0,0,0,0,0,0,0],"sum_hessian":[4.5885145E4,1.5268888E3,4.4358258E4,1.0303452E3,4.9654355E2,2.372656E4,2.0631697E4,9.170687E2,1.13276474E2,4.7208752E2,2.4456013E1,1.5743418E4,7.9831416E3,6.48337E2,2.6873175E2,4.0129828E2,7.078925E1,3.5116611E3,4.4714805E3,2.2551585E2,4.3215897E1,3.009486E2,3.2107124E3,5.2673836E1,4.4188066E3],"tree_param":{"num_deleted":"0","num_feature":"19","num_nodes":"25","size_leaf_vector":"1"}},{"base_weights":[-2.957163E-1,-2.8215292E-1,-3.2001823E-1,-4.9268538E-1,-2.804647E-1,-2.793957E-1,-3.3618626E-1,-1.0477986E0,-3.9196387E-1,-3.7308526E-1,-2.745774E-1,-2.8399682E-1,1.9347315E-1,-1.6609715E-1,-3.4142703E-1,2.6568417E-3,-3.646761E-2,8.676047E-4,-4.911067E-1,-3.391065E-1,-5.552363E-1,-2.3891611E-1,-3.1270924E-1,-3.9922273E-1,-2.690552E-1,9.46336E-3,-1.716716E-2,-2.773826E-1,1.956594E-1,-5.9677666E-1,-3.342373E-1,-9.274215E-3,-2.5542391E-2,-1.7375294E-2,-8.219118E-3,-1.2435953E-2,-3.1146228E-2,-9.597038E-3,-5.915146E-3,-6.062452E-3,-8.505317E-3,6.40112E-3,-1.0618058E-2,-8.129086E-3,-5.991707E-3,-1.2223395E-2,-2.9984394E-3,-3.3635471E-3,1.2000766E-2,-1.660346E-2,8.5095846E-4,-6.773183E-3,-9.10155E-3],"categories":[],"categories_nodes":[],"categories_segments":[],"categories_sizes":[],"default_left":[0,0,0,0,1,1,0,0,1,0,0,0,0,1,1,0,0,0,0,0,0,0,0,0,1,0,0,0,0,0,0,0,0,0,0,0,0,0,0,0,0,0,0,0,0,0,0,0,0,0,0,0,0],"id":12,"left_children":[1,3,5,7,9,11,13,15,17,19,21,23,25,27,29,-1,-1,-1,31,33,35,37,39,41,43,-1,-1,45,47,49,51,-1,-1,-1,-1,-1,-1,-1,-1,-1,-1,-1,-1,-1,-1,-1,-1,-1,-1,-1,-1,-1,-1],"loss_changes":[1.4270508E1,9.362305E0,9.889526E0,1.0534351E1,1.5034912E1,1.0381561E1,9.719971E0,1.6425568E1,8.897926E0,9.416458E0,3.6684082E1,7.049713E0,6.3962655E0,1.4596515E1,1.9466675E1,0E0,0E0,0E0,8.389027E0,6.420059E0,9.037018E0,1.1211121E1,2.0897217E1,6.6503143E0,6.1958923E0,0E0,0E0,8.168476E0,7.9348183E0,1.1755669E1,1.7026855E1,0E0,0E0,0E0,0E0,0E0,0E0,0E0,0E0,0E0,0E0,0E0,0E0,0E0,0E0,0E0,0E0,0E0,0E0,0E0,0E0,0E0,0E0],"parents":[2147483647,0,0,1,1,2,2,3,3,4,4,5,5,6,6,7,7,8,8,9,9,10,10,11,11,12,12,13,13,14,14,18,18,19,19,20,20,21,21,22,22,23,23,24,24,27,27,28,28,29,29,30,30],"right_children":[2,4,6,8,10,12,14,16,18,20,22,24,26,28,30,-1,-1,-1,32,34,36,38,40,42,44,-1,-1,46,48,50,52,-1,-1,-1,-1,-1,-1,-1,-1,-1,-1,-1,-1,-1,-1,-1,-1,-1,-1,-1,-1,-1,-1],"split_conditions":[1E0,2.6779026E-1,6.181818E-1,1E0,2.708526E-3,1E0,3.310811E-1,8.811895E-1,8.019802E-2,3.28877E-1,9.355246E-1,1.2383901E-2,7.104512E-1,2.601072E-1,1.1111111E-2,2.6568417E-3,-3.646761E-2,8.676047E-4,8.872727E-1,4.305365E-1,9.999941E-1,6.784212E-1,3.853135E-1,2.4705644E-1,9.27521E-2,9.46336E-3,-1.716716E-2,5.3081053E-1,5.258888E-1,9.633098E-1,3.812628E-1,-9.274215E-3,-2.5542391E-2,-1.7375294E-2,-8.219118E-3,-1.2435953E-2,-3.1146228E-2,-9.597038E-3,-5.915146E-3,-6.062452E-3,-8.505317E-3,6.40112E-3,-1.0618058E-2,-8.129086E-3,-5.991707E-3,-1.2223395E-2,-2.9984394E-3,-3.3635471E-3,1.2000766E-2,-1.660346E-2,8.5095846E-4,-6.773183E-3,-9.10155E-3],"split_indices":[16,8,4,15,9,9,8,17,13,14,17,14,18,10,13,0,0,0,4,17,6,17,3,18,11,0,0,7,7,17,3,0,0,0,0,0,0,0,0,0,0,0,0,0,0,0,0,0,0,0,0,0,0],"split_type":[0,0,0,0,0,0,0,0,0,0,0,0,0,0,0,0,0,0,0,0,0,0,0,0,0,0,0,0,0,0,0,0,0,0,0,0,0,0,0,0,0,0,0,0,0,0,0,0,0,0,0,0,0],"sum_hessian":[4.593365E4,2.9520809E4,1.641284E4,2.2708133E2,2.9293729E4,4.6996167E3,1.1713223E4,3.1953604E1,1.9512773E2,1.7347628E3,2.7558965E4,4.6574033E3,4.2213642E1,3.5843182E2,1.135479E4,7.268695E0,2.4684908E1,3.4321926E1,1.608058E2,1.4697324E3,2.6503046E2,1.4261406E4,1.3297559E4,5.224501E2,4.134953E3,3.657878E1,5.6348596E0,2.7708127E2,8.1350525E1,3.044627E2,1.1050328E4,1.3206735E2,2.8738459E1,5.883952E1,1.410893E3,2.4412778E2,2.090268E1,5.902195E2,1.3671187E4,3.0643804E3,1.0233179E4,1.2341528E1,5.1010852E2,1.6154164E3,2.5195366E3,1.1736447E2,1.5971681E2,3.51178E1,4.6232727E1,2.8128665E2,2.3176062E1,2.9084695E3,8.1418584E3],"tree_param":{"num_deleted":"0","num_feature":"19","num_nodes":"53","size_leaf_vector":"1"}},{"base_weights":[-2.8691313E-1,-2.7036855E-1,-3.1655833E-1,-2.5236115E-2,-2.694095E-1,-4.6263066E-1,-3.1119287E-1,-4.02091E-1,-2.657863E-1,-3.1537405E-1,-5.8682257E-1,-9.241017E-1,-3.090857E-1,-5.0216186E-1,-2.2866672E-1,-1.5420884E-1,-6.8367166E-3,-4.449517E-1,2.2340736E-3,-1.9615222E-2,-9.719261E-3,-0E0,-2.6660418E-2,-1.0996167E-2,-3.0292484E-1,-1.0406012E-2,-2.148389E-2,-3.9378065E-3,-1.5567703E-2,-6.640937E-3,3.373923E-4,-4.3929755E-3,-1.8285174E-2,-7.130344E-3,-8.547023E-3],"categories":[],"categories_nodes":[],"categories_segments":[],"categories_sizes":[],"default_left":[0,0,1,0,1,0,0,0,0,0,0,0,0,0,1,0,0,0,0,0,0,0,0,0,0,0,0,0,0,0,0,0,0,0,0],"id":13,"left_children":[1,3,5,-1,7,9,11,13,15,17,19,21,23,25,27,29,-1,31,-1,-1,-1,-1,-1,-1,33,-1,-1,-1,-1,-1,-1,-1,-1,-1,-1],"loss_changes":[2.1723389E1,1.8628418E1,1.1757935E1,0E0,1.3227783E1,9.139748E0,1.866504E1,1.2371605E1,9.968506E0,1.4526754E1,9.797852E0,6.751816E0,1.0986206E1,1.3524681E1,7.086563E0,1.5373322E1,0E0,1.4087807E1,0E0,0E0,0E0,0E0,0E0,0E0,1.0362793E1,0E0,0E0,0E0,0E0,0E0,0E0,0E0,0E0,0E0,0E0],"parents":[2147483647,0,0,1,1,2,2,4,4,5,5,6,6,7,7,8,8,9,9,10,10,11,11,12,12,13,13,14,14,15,15,17,17,24,24],"right_children":[2,4,6,-1,8,10,12,14,16,18,20,22,24,26,28,30,-1,32,-1,-1,-1,-1,-1,-1,34,-1,-1,-1,-1,-1,-1,-1,-1,-1,-1],"split_conditions":[1E0,3.653846E-1,3.5609915E-3,-2.5236115E-2,1.9354839E-2,5.9636366E-1,4.0384614E-1,5.769231E-1,4.117647E-1,4.4E-1,7.054545E-1,2.3076923E-1,6.784212E-1,3.0042017E-1,1.1111111E-2,1E0,-6.8367166E-3,9.9989504E-1,2.2340736E-3,-1.9615222E-2,-9.719261E-3,-0E0,-2.6660418E-2,-1.0996167E-2,1.3098848E-1,-1.0406012E-2,-2.148389E-2,-3.9378065E-3,-1.5567703E-2,-6.640937E-3,3.373923E-4,-4.3929755E-3,-1.8285174E-2,-7.130344E-3,-8.547023E-3],"split_indices":[16,1,10,0,13,4,1,1,0,4,4,1,17,14,13,15,0,6,0,0,0,0,0,0,14,0,0,0,0,0,0,0,0,0,0],"split_type":[0,0,0,0,0,0,0,0,0,0,0,0,0,0,0,0,0,0,0,0,0,0,0,0,0,0,0,0,0,0,0,0,0,0,0],"sum_hessian":[4.6016348E4,2.956709E4,1.6449256E4,3.649187E1,2.9530598E4,5.720571E2,1.5877199E4,7.7329504E2,2.8757303E4,2.676778E2,3.0437933E2,5.130788E1,1.5825892E4,4.8468042E2,2.8861462E2,8.370554E2,2.7920248E4,2.0508687E2,6.2590927E1,1.5530922E2,1.4907013E2,5.513638E0,4.5794243E1,7.384209E2,1.5087471E4,3.8587067E2,9.8809746E1,2.4581375E2,4.2800884E1,5.1518585E2,3.2186957E2,1.0600691E2,9.9079956E1,9.084013E3,6.003458E3],"tree_param":{"num_deleted":"0","num_feature":"19","num_nodes":"35","size_leaf_vector":"1"}},{"base_weights":[-2.8341016E-1,-4.7922936E-1,-2.7813286E-1,-2.163259E-2,-4.1466087E-1,-2.7394375E-1,-3.874655E-1,-1.727798E-2,-3.0072463E-1,-2.540616E-1,-3.1502938E-1,-5.363448E-1,-3.4309193E-1,-3.2935256E-1,1.821618E-5,-2.4512374E-1,-8.952866E-3,-1.757945E-2,-3.126288E-1,-2.123779E-2,-3.8507786E-1,-5.27494E-1,-2.7845407E-1,-8.841085E-3,1.5860923E-2,-5.5698957E-3,-6.6983965E-3,-5.5036256E-3,-8.540423E-3,-3.6300465E-3,-1.555342E-2,-1.217296E-2,-3.6747158E-2,-9.334302E-3,-4.7667706E-3],"categories":[],"categories_nodes":[],"categories_segments":[],"categories_sizes":[],"default_left":[0,0,0,0,0,0,1,0,0,0,0,0,0,1,0,0,0,0,0,0,0,0,0,0,0,0,0,0,0,0,0,0,0,0,0],"id":14,"left_children":[1,3,5,-1,7,9,11,-1,13,15,17,19,21,23,-1,25,-1,-1,27,-1,29,31,33,-1,-1,-1,-1,-1,-1,-1,-1,-1,-1,-1,-1],"loss_changes":[4.652539E1,2.696045E1,1.9600586E1,0E0,2.9647537E1,3.4509033E1,9.553757E0,0E0,6.695717E0,2.4768188E1,1.1246948E1,1.4883232E1,1.4011597E1,1.1567657E1,0E0,1.21397705E1,0E0,0E0,3.079126E1,0E0,1.2642872E1,1.1415672E1,6.8843307E0,0E0,0E0,0E0,0E0,0E0,0E0,0E0,0E0,0E0,0E0,0E0,0E0],"parents":[2147483647,0,0,1,1,2,2,4,4,5,5,6,6,8,8,9,9,10,10,11,11,12,12,13,13,15,15,18,18,20,20,21,21,22,22],"right_children":[2,4,6,-1,8,10,12,-1,14,16,18,20,22,24,-1,26,-1,-1,28,-1,30,32,34,-1,-1,-1,-1,-1,-1,-1,-1,-1,-1,-1,-1],"split_conditions":[4.6153846E-1,6.86945E-3,9.563636E-1,-2.163259E-2,7.8369343E-1,9.503683E-1,1.1121076E-1,-1.727798E-2,7.9577446E-1,4.770108E-1,2.504537E-1,5.3846157E-1,4.992385E-1,6.912401E-1,1.821618E-5,4.477137E-1,-8.952866E-3,-1.757945E-2,2.9271832E-2,-2.123779E-2,4.4662043E-1,9.216534E-1,8.182006E-2,-8.841085E-3,1.5860923E-2,-5.5698957E-3,-6.6983965E-3,-5.5036256E-3,-8.540423E-3,-3.6300465E-3,-1.555342E-2,-1.217296E-2,-3.6747158E-2,-9.334302E-3,-4.7667706E-3],"split_indices":[1,9,4,0,17,17,13,0,18,11,8,1,18,12,0,3,0,0,9,0,3,12,9,0,0,0,0,0,0,0,0,0,0,0,0],"split_type":[0,0,0,0,0,0,0,0,0,0,0,0,0,0,0,0,0,0,0,0,0,0,0,0,0,0,0,0,0,0,0,0,0,0,0],"sum_hessian":[4.6091254E4,1.2014175E3,4.4889836E4,1.7344449E2,1.027973E3,4.324728E4,1.6425555E3,3.0432928E2,7.236437E2,2.916906E4,1.4078222E4,3.6863208E2,1.2739235E3,6.649387E2,5.8704983E1,2.6752592E4,2.4164697E3,8.445953E1,1.3993762E4,1.1978997E2,2.488421E2,3.2410092E2,9.498226E2,6.539702E2,1.0968492E1,1.1183793E4,1.5568799E4,2.7645403E3,1.1229222E4,1.2376452E2,1.2507758E2,3.101415E2,1.3959414E1,4.7152563E2,4.782969E2],"tree_param":{"num_deleted":"0","num_feature":"19","num_nodes":"35","size_leaf_vector":"1"}},{"base_weights":[-2.7418742E-1,-3.8428265E-1,-2.6728156E-1,-1.3155718E-2,-3.312589E-1,-4.0368086E-1,-2.6285493E-1,-2.8139483E-2,-3.218872E-1,-4.4599184E-1,-2.6006743E-1,-2.0750266E-1,-6.872714E-3,-3.314131E-1,3.2810792E-3,-1.5020216E-2,-1.0038416E-2,-4.5387316E-1,-1.2747021E-1,-2.537534E-1,-4.3571936E-3,-1.00055365E-2,-6.166822E-3,-8.045949E-3,-2.3951786E-2,-1.1172998E-3,-2.1053998E-2,1.2490043E-3,-6.842821E-3],"categories":[],"categories_nodes":[],"categories_segments":[],"categories_sizes":[],"default_left":[1,0,0,0,0,0,0,0,0,1,0,0,0,1,0,0,0,0,0,0,0,0,0,0,0,0,0,0,0],"id":15,"left_children":[1,3,5,-1,7,9,11,-1,13,15,17,19,-1,21,-1,-1,-1,23,25,27,-1,-1,-1,-1,-1,-1,-1,-1,-1],"loss_changes":[3.411328E1,1.7920898E1,2.5239014E1,0E0,1.2019028E1,7.1985474E0,1.7104004E1,0E0,8.578323E0,6.190048E0,7.316906E0,7.933365E0,0E0,9.539429E0,0E0,0E0,0E0,6.4510193E0,1.0096638E1,1.0801346E1,0E0,0E0,0E0,0E0,0E0,0E0,0E0,0E0,0E0],"parents":[2147483647,0,0,1,1,2,2,4,4,5,5,6,6,8,8,9,9,10,10,11,11,13,13,17,17,18,18,19,19],"right_children":[2,4,6,-1,8,10,12,-1,14,16,18,20,-1,22,-1,-1,-1,24,26,28,-1,-1,-1,-1,-1,-1,-1,-1,-1],"split_conditions":[1.612218E-3,7.3060745E-1,6.784212E-1,-1.3155718E-2,4.3333334E-1,6.797359E-2,1.9396996E-2,-2.8139483E-2,1E0,1.5107236E-3,4.7058824E-1,1E0,-6.872714E-3,1.1727556E-1,3.2810792E-3,-1.5020216E-2,-1.0038416E-2,2.5974765E-1,3.356217E-1,3.2366753E-1,-4.3571936E-3,-1.00055365E-2,-6.166822E-3,-8.045949E-3,-2.3951786E-2,-1.1172998E-3,-2.1053998E-2,1.2490043E-3,-6.842821E-3],"split_indices":[9,17,17,0,2,9,9,0,2,10,0,15,0,11,0,0,0,9,9,18,0,0,0,0,0,0,0,0,0],"split_type":[0,0,0,0,0,0,0,0,0,0,0,0,0,0,0,0,0,0,0,0,0,0,0,0,0,0,0,0,0],"sum_hessian":[4.6109297E4,2.7080598E3,4.340124E4,7.610863E2,1.9469736E3,1.3529379E3,4.20483E4,2.0673258E1,1.9263004E3,1.0367935E3,3.161445E2,5.1241777E3,3.692412E4,1.8895555E3,3.674488E1,2.6060226E2,7.7619116E2,1.23693405E2,1.924511E2,2.2251597E3,2.899018E3,1.099161E3,7.903945E2,9.951092E1,2.4182493E1,1.74262E2,1.8189089E1,1.04439354E2,2.1207205E3],"tree_param":{"num_deleted":"0","num_feature":"19","num_nodes":"29","size_leaf_vector":"1"}},{"base_weights":[-2.7333656E-1,-8.532031E-1,-2.712457E-1,-0E0,-9.4150966E-1,-1.2609673E0,-2.7024212E-1,-2.0278726E-2,-3.6534354E-2,-1.696761E-1,-4.0627096E-2,-2.4142033E-1,-2.885294E-1,-3.540477E-2,1.2727921E-2,-3.8862962E-1,-2.3338358E-1,-3.0120507E-1,-2.4747579E-1,-1.5914846E-2,-8.27136E-3,-5.0779544E-3,-6.557177E-3,-7.388282E-3,-8.745547E-3,6.9268206E-3,-6.3792327E-3],"categories":[],"categories_nodes":[],"categories_segments":[],"categories_sizes":[],"default_left":[0,0,0,0,0,0,0,0,0,0,0,0,0,0,0,1,0,0,0,0,0,0,0,0,0,0,0],"id":16,"left_children":[1,3,5,-1,7,9,11,-1,-1,13,-1,15,17,-1,-1,19,21,23,25,-1,-1,-1,-1,-1,-1,-1,-1],"loss_changes":[5.424756E1,1.1775864E1,4.3364258E1,0E0,6.766556E0,1.404789E1,2.3436523E1,0E0,0E0,1.1681613E1,0E0,2.022461E1,1.3811035E1,0E0,0E0,1.2306015E1,1.3371887E1,8.669556E0,1.24505005E1,0E0,0E0,0E0,0E0,0E0,0E0,0E0,0E0],"parents":[2147483647,0,0,1,1,2,2,4,4,5,5,6,6,9,9,11,11,12,12,15,15,16,16,17,17,18,18],"right_children":[2,4,6,-1,8,10,12,-1,-1,14,-1,16,18,-1,-1,20,22,24,26,-1,-1,-1,-1,-1,-1,-1,-1],"split_conditions":[4E-1,2.929588E-1,3.846154E-1,-0E0,7.6038235E-1,1E0,4.417549E-1,-2.0278726E-2,-3.6534354E-2,6.893635E-1,-4.0627096E-2,4.8076922E-1,5.364709E-1,-3.540477E-2,1.2727921E-2,2.3219815E-2,9.9995506E-1,1.995756E-1,9.990902E-1,-1.5914846E-2,-8.27136E-3,-5.0779544E-3,-6.557177E-3,-7.388282E-3,-8.745547E-3,6.9268206E-3,-6.3792327E-3],"split_indices":[2,5,1,0,5,15,3,0,0,17,0,1,7,0,0,14,6,9,6,0,0,0,0,0,0,0,0],"split_type":[0,0,0,0,0,0,0,0,0,0,0,0,0,0,0,0,0,0,0,0,0,0,0,0,0,0,0],"sum_hessian":[4.6113637E4,1.624817E2,4.5951156E4,1.5870948E1,1.4661075E2,4.442715E1,4.590673E4,1.1706975E2,2.9541006E1,1.1665659E1,3.276149E1,1.7852576E4,2.8054152E4,4.620128E0,7.0455313E0,9.140059E2,1.693857E4,2.1407578E4,6.6465747E3,1.8605536E2,7.2795056E2,7.2101E3,9.72847E3,1.7262064E4,4.1455137E3,4.277212E1,6.6038027E3],"tree_param":{"num_deleted":"0","num_feature":"19","num_nodes":"27","size_leaf_vector":"1"}},{"base_weights":[-2.5888652E-1,-9.1136815E-3,-2.556237E-1,-2.3889485E-1,-2.8613505E-1,-2.502219E-1,-2.0888685E-1,-2.2354553E-2,-2.8376302E-1,-1.8908834E-1,-2.7174714E-1,-1.510342E-3,-2.2106664E-1,-1.0513172E0,-2.82088E-1,-4.172356E-3,-7.4287746E-3,-1.2819318E-2,-6.8430663E-3,-1.2779062E-2,-5.4962886E-3,-4.2701915E-2,-1.1462595E-2,-5.950264E-3,-7.647572E-3],"categories":[],"categories_nodes":[],"categories_segments":[],"categories_sizes":[],"default_left":[1,0,0,1,0,0,0,0,0,0,1,0,0,1,0,0,0,0,0,0,0,0,0,0,0],"id":17,"left_children":[1,-1,3,5,7,9,11,-1,13,15,17,-1,19,21,23,-1,-1,-1,-1,-1,-1,-1,-1,-1,-1],"loss_changes":[1.4162598E1,0E0,2.2097412E1,9.185303E0,2.055481E1,2.6949951E1,1.4115906E1,0E0,1.8280151E1,1.3434799E1,7.5926514E0,0E0,8.8012085E0,8.876629E0,1.347583E1,0E0,0E0,0E0,0E0,0E0,0E0,0E0,0E0,0E0,0E0],"parents":[2147483647,0,0,2,2,3,3,4,4,5,5,6,6,8,8,9,9,10,10,12,12,13,13,14,14],"right_children":[2,-1,4,6,8,10,12,-1,14,16,18,-1,20,22,24,-1,-1,-1,-1,-1,-1,-1,-1,-1,-1],"split_conditions":[1.9354839E-2,-9.1136815E-3,1E0,1.8025534E-1,4E-1,3.8930777E-1,2.2860952E-1,-2.2354553E-2,4.0384614E-1,5.400133E-1,-1E-5,-1.510342E-3,1.893891E-2,1.7037151E-2,7.301933E-1,-4.172356E-3,-7.4287746E-3,-1.2819318E-2,-6.8430663E-3,-1.2779062E-2,-5.4962886E-3,-4.2701915E-2,-1.1462595E-2,-5.950264E-3,-7.647572E-3],"split_indices":[13,0,16,12,2,3,3,0,1,7,11,0,11,9,5,0,0,0,0,0,0,0,0,0,0],"split_type":[0,0,0,0,0,0,0,0,0,0,0,0,0,0,0,0,0,0,0,0,0,0,0,0,0],"sum_hessian":[4.6213645E4,1.4477137E3,4.476593E4,2.8945354E4,1.5820577E4,2.0977494E4,7.967859E3,5.9812603E1,1.5760765E4,5.4806714E3,1.5496823E4,6.091068E2,7.358752E3,3.1750233E1,1.5729015E4,4.4288716E3,1.0517998E3,1.5226118E2,1.5344562E4,1.1602618E2,7.242726E3,1.3876262E1,1.787397E1,4.4738545E3,1.125516E4],"tree_param":{"num_deleted":"0","num_feature":"19","num_nodes":"25","size_leaf_vector":"1"}},{"base_weights":[-2.514083E-1,-3.8611764E-1,-2.478619E-1,-4.7008532E-1,-6.130386E-3,-1.8751314E-2,-2.4638443E-1,-1.8017877E-2,-9.342186E-3,-1.1031141E0,-2.4568968E-1,-1.18511684E-1,-3.8790546E-2,-8.141905E-3,-2.4148764E-1,-2.5013328E-2,1.2126454E-2,-4.4706953E-3,-6.3359104E-3],"categories":[],"categories_nodes":[],"categories_segments":[],"categories_sizes":[],"default_left":[1,0,0,0,0,0,0,0,0,0,1,0,0,0,0,0,0,0,0],"id":18,"left_children":[1,3,5,7,-1,-1,9,-1,-1,11,13,15,-1,-1,17,-1,-1,-1,-1],"loss_changes":[2.1162842E1,1.3253693E1,3.117627E1,1.6426712E1,0E0,0E0,2.4742432E1,0E0,0E0,1.2109165E1,1.3289795E1,7.1686125E0,0E0,0E0,2.1350586E1,0E0,0E0,0E0,0E0],"parents":[2147483647,0,0,1,1,2,2,3,3,6,6,9,9,10,10,11,11,14,14],"right_children":[2,4,6,8,-1,-1,10,-1,-1,12,14,16,-1,-1,18,-1,-1,-1,-1],"split_conditions":[3.5609915E-3,6.4646256E-1,4E-1,5E-1,-6.130386E-3,-1.8751314E-2,3.846154E-1,-1.8017877E-2,-9.342186E-3,3.4865648E-1,2.708526E-3,6.545454E-1,-3.8790546E-2,-8.141905E-3,1.7976943E-2,-2.5013328E-2,1.2126454E-2,-4.4706953E-3,-6.3359104E-3],"split_indices":[10,18,2,1,0,0,1,0,0,5,9,4,0,0,9,0,0,0,0],"split_type":[0,0,0,0,0,0,0,0,0,0,0,0,0,0,0,0,0,0,0],"sum_hessian":[4.621553E4,1.1740343E3,4.5041496E4,7.36417E2,4.3761734E2,1.3171722E2,4.4909777E4,2.158134E2,5.206036E2,3.4048225E1,4.487573E4,1.1432573E1,2.2615652E1,2.3685828E3,4.250715E4,5.4304276E0,6.0021453E0,4.583366E3,3.792378E4],"tree_param":{"num_deleted":"0","num_feature":"19","num_nodes":"19","size_leaf_vector":"1"}},{"base_weights":[-2.4760348E-1,-3.9196524E-1,-2.4118432E-1,-5.2744085E-1,-3.3104312E-1,-2.2889762E-1,-2.642001E-1,-1.7289814E-2,-3.4424865E-1,-2.9462961E-2,-3.1896532E-1,-2.4233442E-2,-2.2817194E-1,7.2838217E-3,-2.650043E-1,-2.3812324E-2,-2.782423E-1,-7.6571926E-3,-1.7363349E-2,-1.9420955E-1,-2.531872E-1,-2.8237864E-1,-2.1919315E-1,-3.4854554E-3,-1.2457667E-2,-4.85295E-3,-1.0267437E-2,-6.238114E-3,-8.24206E-3,-1.0515483E-3,-7.249557E-3,-1.6492824E-3,-5.982634E-3],"categories":[],"categories_nodes":[],"categories_segments":[],"categories_sizes":[],"default_left":[0,1,0,0,0,0,1,0,0,0,0,0,0,0,0,0,1,0,0,1,1,0,0,0,0,0,0,0,0,0,0,0,0],"id":19,"left_children":[1,3,5,7,9,11,13,-1,15,-1,17,-1,19,-1,21,-1,23,-1,-1,25,27,29,31,-1,-1,-1,-1,-1,-1,-1,-1,-1,-1],"loss_changes":[4.211328E1,1.4965546E1,1.1870117E1,1.5356201E1,1.1438095E1,1.35407715E1,6.8530273E0,0E0,9.130543E0,0E0,7.185547E0,0E0,2.4007568E1,0E0,1.155188E1,0E0,6.7151966E0,0E0,0E0,7.446411E0,8.285645E0,7.4766846E0,1.0284164E1,0E0,0E0,0E0,0E0,0E0,0E0,0E0,0E0,0E0,0E0],"parents":[2147483647,0,0,1,1,2,2,3,3,4,4,5,5,6,6,8,8,10,10,12,12,14,14,16,16,19,19,20,20,21,21,22,22],"right_children":[2,4,6,8,10,12,14,-1,16,-1,18,-1,20,-1,22,-1,24,-1,-1,26,28,30,32,-1,-1,-1,-1,-1,-1,-1,-1,-1,-1],"split_conditions":[6.784212E-1,7.672634E-4,1E0,5.192308E-1,3.3333334E-1,3.3333334E-1,-1E-5,-1.7289814E-2,7.68559E-1,-2.9462961E-2,2.8870428E-1,-2.4233442E-2,9.249694E-1,7.2838217E-3,6.549996E-1,-2.3812324E-2,1.0756934E-1,-7.6571926E-3,-1.7363349E-2,1E0,3.3538064E-1,6.0818004E-3,9.364585E-3,-3.4854554E-3,-1.2457667E-2,-4.85295E-3,-1.0267437E-2,-6.238114E-3,-8.24206E-3,-1.0515483E-3,-7.249557E-3,-1.6492824E-3,-5.982634E-3],"split_indices":[17,14,16,1,2,2,9,0,8,0,9,0,17,0,18,0,10,0,0,10,10,12,9,0,0,0,0,0,0,0,0,0,0],"split_type":[0,0,0,0,0,0,0,0,0,0,0,0,0,0,0,0,0,0,0,0,0,0,0,0,0,0,0,0,0,0,0,0,0],"sum_hessian":[4.6431723E4,1.9662174E3,4.4465504E4,6.016073E2,1.3646101E3,2.9032322E4,1.5433184E4,3.2286032E2,2.78747E2,1.718621E1,1.3474238E3,2.6390175E1,2.9005932E4,1.9733486E1,1.541345E4,2.508214E1,2.5366486E2,1.2899486E3,5.747529E1,1.2328004E4,1.6677928E4,1.1151483E4,4.261967E3,1.5675987E2,9.6904976E1,1.2149949E4,1.7805525E2,1.5076145E4,1.6017831E3,1.4049707E2,1.1010986E4,4.148425E2,3.847124E3],"tree_param":{"num_deleted":"0","num_feature":"19","num_nodes":"33","size_leaf_vector":"1"}},{"base_weights":[-2.4080174E-1,-2.3631665E-1,-3.5659826E-1,-2.0794456E-1,-2.4826886E-1,-2.9243344E-1,-4.511879E-1,-3.0703697E-1,-1.985278E-1,-2.0788267E-1,-2.638637E-1,-7.677052E-3,1.1163271E-2,-1.9095689E-1,-5.2791E-1,-5.7926984E-3,-4.1905257E-1,5.587025E-3,-2.0063214E-1,-2.51596E-2,-2.0429973E-1,-7.4038374E-1,-2.6053256E-1,1.2323569E-3,-1.1360043E-2,-4.4719636E-1,-1.8735657E-2,-7.05233E-3,-1.4276657E-2,-6.2317713E-3,-4.5508943E-3,-1.000071E-2,-5.0544087E-3,-2.361526E-2,-2.4043208E-3,-6.0827457E-3,-7.2138696E-3,-1.7803572E-2,-8.171595E-3],"categories":[],"categories_nodes":[],"categories_segments":[],"categories_sizes":[],"default_left":[0,0,0,0,0,0,0,0,0,0,0,0,0,0,0,0,0,0,0,0,0,0,0,0,0,0,0,0,0,0,0,0,0,0,0,0,0,0,0],"id":20,"left_children":[1,3,5,7,9,11,13,15,17,19,21,-1,-1,23,25,-1,27,-1,29,-1,31,33,35,-1,-1,37,-1,-1,-1,-1,-1,-1,-1,-1,-1,-1,-1,-1,-1],"loss_changes":[2.324878E1,1.4506348E1,9.341156E0,1.1674011E1,1.9109375E1,7.2464905E0,1.2637375E1,9.15361E0,1.0693939E1,2.2862122E1,3.445459E1,0E0,0E0,1.0420818E1,7.067108E0,0E0,8.137909E0,0E0,1.1009369E1,0E0,8.03125E0,1.735727E1,1.0359253E1,0E0,0E0,1.0730782E1,0E0,0E0,0E0,0E0,0E0,0E0,0E0,0E0,0E0,0E0,0E0,0E0,0E0],"parents":[2147483647,0,0,1,1,2,2,3,3,4,4,5,5,6,6,7,7,8,8,9,9,10,10,13,13,14,14,16,16,18,18,20,20,21,21,22,22,25,25],"right_children":[2,4,6,8,10,12,14,16,18,20,22,-1,-1,24,26,-1,28,-1,30,-1,32,34,36,-1,-1,38,-1,-1,-1,-1,-1,-1,-1,-1,-1,-1,-1,-1,-1],"split_conditions":[9.563636E-1,6.109091E-1,5.092595E-1,6.784212E-1,3.8329548E-1,5.056529E-1,5.838641E-1,9.9995893E-1,4.0002316E-3,4E-1,4.6666667E-1,-7.677052E-3,1.1163271E-2,9.9997985E-1,6.340103E-1,-5.7926984E-3,6.1847216E-1,5.587025E-3,1E0,-2.51596E-2,1.4362058E-3,5.575062E-1,8.327288E-1,1.2323569E-3,-1.1360043E-2,4.7058824E-1,-1.8735657E-2,-7.05233E-3,-1.4276657E-2,-6.2317713E-3,-4.5508943E-3,-1.000071E-2,-5.0544087E-3,-2.361526E-2,-2.4043208E-3,-6.0827457E-3,-7.2138696E-3,-1.7803572E-2,-8.171595E-3],"split_indices":[4,4,3,17,3,3,8,6,12,2,2,0,0,6,18,0,18,0,15,0,3,7,8,0,0,0,0,0,0,0,0,0,0,0,0,0,0,0,0],"split_type":[0,0,0,0,0,0,0,0,0,0,0,0,0,0,0,0,0,0,0,0,0,0,0,0,0,0,0,0,0,0,0,0,0,0,0,0,0,0,0],"sum_hessian":[4.6408656E4,4.4691168E4,1.7174865E3,1.32834E4,3.140777E4,1.0333018E3,6.8418475E2,1.1386548E3,1.2144746E4,8.775969E3,2.26318E4,1.02192816E3,1.1373554E1,1.6027867E2,5.2390607E2,6.7571326E2,4.6294147E2,5.7242058E1,1.2087504E4,3.7541004E1,8.738428E3,1.5337817E2,2.2478422E4,8.034948E1,7.99292E1,3.842025E2,1.3970358E2,2.3822202E2,2.2471945E2,3.9091072E3,8.1783965E3,2.3282164E2,8.505606E3,1.16816605E2,3.656157E1,1.1844511E4,1.0633912E4,1.227968E2,2.614057E2],"tree_param":{"num_deleted":"0","num_feature":"19","num_nodes":"39","size_leaf_vector":"1"}},{"base_weights":[-2.3002426E-1,-6.8174607E-1,-2.2831349E-1,-1.0612017E0,-1.0862973E-2,-1.7918469E-1,-2.4125794E-1,-2.0104542E-2,-4.215113E-2,-4.4297174E-2,-1.8832403E-1,-2.7344465E-1,-2.2228362E-1,1.013516E-2,-2.1596806E-1,-4.0954822E-1,-1.7695552E-1,-2.8670815E-1,-2.0045644E-1,-9.606428E-1,-2.210903E-1,2.9648403E-3,-3.1299822E-3,1.6920331E-3,-9.862128E-3,-1.5908355E-2,-6.112559E-3,-5.9044003E-3,-3.804211E-3,-6.2476667E-3,-7.775986E-3,-5.5895047E-3,1.608057E-3,-7.366681E-3,-3.4139507E-2,-6.312268E-3,-5.100149E-3],"categories":[],"categories_nodes":[],"categories_segments":[],"categories_sizes":[],"default_left":[0,1,0,0,0,0,1,0,0,0,0,1,0,0,1,0,1,0,0,0,0,0,0,0,0,0,0,0,0,0,0,0,0,0,0,0,0],"id":21,"left_children":[1,3,5,7,-1,9,11,-1,-1,13,15,17,19,21,23,25,27,29,31,33,35,-1,-1,-1,-1,-1,-1,-1,-1,-1,-1,-1,-1,-1,-1,-1,-1],"loss_changes":[3.4571777E1,1.4301064E1,2.8836182E1,6.6237793E0,0E0,1.1607117E1,2.1647705E1,0E0,0E0,6.1126995E0,2.1926758E1,1.2420105E1,1.8589233E1,6.6547065E0,8.054956E0,1.4696007E1,1.246582E1,8.24176E0,1.1045448E1,6.5962715E0,1.2180908E1,0E0,0E0,0E0,0E0,0E0,0E0,0E0,0E0,0E0,0E0,0E0,0E0,0E0,0E0,0E0,0E0],"parents":[2147483647,0,0,1,1,2,2,3,3,5,5,6,6,9,9,10,10,11,11,12,12,13,13,14,14,15,15,16,16,17,17,18,18,19,19,20,20],"right_children":[2,4,6,8,-1,10,12,-1,-1,14,16,18,20,22,24,26,28,30,32,34,36,-1,-1,-1,-1,-1,-1,-1,-1,-1,-1,-1,-1,-1,-1,-1,-1],"split_conditions":[4E-1,9.146745E-2,3.6175606E-1,7.164249E-1,-1.0862973E-2,9.997951E-1,6.1939072E-2,-2.0104542E-2,-4.215113E-2,1.3542631E-1,4.8076922E-1,4.4878772E-1,4.0384614E-1,1E0,6.657666E-2,2.4729119E-1,7.753782E-2,7.47043E-1,9.2626625E-1,1E0,1E0,2.9648403E-3,-3.1299822E-3,1.6920331E-3,-9.862128E-3,-1.5908355E-2,-6.112559E-3,-5.9044003E-3,-3.804211E-3,-6.2476667E-3,-7.775986E-3,-5.5895047E-3,1.608057E-3,-7.366681E-3,-3.4139507E-2,-6.312268E-3,-5.100149E-3],"split_indices":[2,10,3,5,0,6,12,0,0,9,1,9,1,16,11,3,11,5,5,16,15,0,0,0,0,0,0,0,0,0,0,0,0,0,0,0,0],"split_type":[0,0,0,0,0,0,0,0,0,0,0,0,0,0,0,0,0,0,0,0,0,0,0,0,0,0,0,0,0,0,0,0,0,0,0,0,0],"sum_hessian":[4.6451465E4,1.713816E2,4.6280082E4,6.585974E1,1.0552187E2,9.674691E3,3.660539E4,4.788077E1,1.7978968E1,6.235508E2,9.051141E3,1.3546561E4,2.3058828E4,4.6786047E2,1.5569032E2,4.3555322E2,8.615588E3,1.144623E4,2.100331E3,3.4606297E1,2.3024223E4,2.657308E2,2.0212967E2,5.610532E1,9.9585E1,1.8666975E2,2.4888347E2,2.8202498E3,5.795338E3,3.7051936E3,7.741036E3,1.9603694E3,1.3996162E2,1.4243423E1,2.0362873E1,9.794257E3,1.3229966E4],"tree_param":{"num_deleted":"0","num_feature":"19","num_nodes":"37","size_leaf_vector":"1"}},{"base_weights":[-2.259146E-1,-4.779951E-1,-2.2249523E-1,-2.483858E-1,-5.971255E-1,-3.958686E-1,-2.2024095E-1,1.0740303E-2,-8.339284E-3,-2.7344666E-2,-3.8998175E-1,-1.0642689E-2,5.5654842E-2,-1.6034591E-1,-2.3360269E-1,-2.3616302E-1,-4.0923037E-2,-2.840441E-2,7.7603594E-3,-3.3593425E-1,-1.4376837E-1,-1.9257547E-1,-2.6431742E-1,-9.910326E-3,1.8012318E-3,-7.474032E-3,-1.4930946E-2,-4.6722316E-3,-2.3956676E-3,-9.441804E-3,-4.6362747E-3,-6.94233E-3,-5.4939147E-3],"categories":[],"categories_nodes":[],"categories_segments":[],"categories_sizes":[],"default_left":[0,0,0,0,0,0,0,0,0,0,0,0,0,0,0,0,0,0,0,0,0,1,0,0,0,0,0,0,0,0,0,0,0],"id":22,"left_children":[1,3,5,7,9,11,13,-1,-1,-1,15,-1,17,19,21,23,-1,-1,-1,25,27,29,31,-1,-1,-1,-1,-1,-1,-1,-1,-1,-1],"loss_changes":[3.908203E1,1.5634689E1,1.7052246E1,1.1502949E1,3.7632553E1,6.5385056E0,3.5713135E1,0E0,0E0,0E0,5.047648E1,0E0,6.6676645E0,2.3441574E1,4.601819E1,1.2419846E1,0E0,0E0,0E0,6.1395187E0,1.4659836E1,2.7919678E1,8.375732E0,0E0,0E0,0E0,0E0,0E0,0E0,0E0,0E0,0E0,0E0],"parents":[2147483647,0,0,1,1,2,2,3,3,4,4,5,5,6,6,10,10,12,12,13,13,14,14,15,15,19,19,20,20,21,21,22,22],"right_children":[2,4,6,8,10,12,14,-1,-1,-1,16,-1,18,20,22,24,-1,-1,-1,26,28,30,32,-1,-1,-1,-1,-1,-1,-1,-1,-1,-1],"split_conditions":[4.4230768E-1,5.890909E-1,1.8181818E-2,2.023343E-2,7.5445116E-1,5.397562E-1,3.4434426E-1,1.0740303E-2,-8.339284E-3,-2.7344666E-2,6.7106324E-1,-1.0642689E-2,5.352905E-1,7.468857E-1,9.255005E-1,8.690909E-1,-4.0923037E-2,-2.840441E-2,7.7603594E-3,6.0821486E-1,8.2545453E-1,6.1561125E-3,5.400133E-1,-9.910326E-3,1.8012318E-3,-7.474032E-3,-1.4930946E-2,-4.6722316E-3,-2.3956676E-3,-9.441804E-3,-4.6362747E-3,-6.94233E-3,-5.4939147E-3],"split_indices":[1,4,4,12,17,3,3,0,0,0,5,0,5,17,17,4,0,0,0,7,4,11,7,0,0,0,0,0,0,0,0,0,0],"split_type":[0,0,0,0,0,0,0,0,0,0,0,0,0,0,0,0,0,0,0,0,0,0,0,0,0,0,0,0,0,0,0,0,0],"sum_hessian":[4.6515492E4,6.161142E2,4.589938E4,2.1497758E2,4.0113663E2,5.800975E2,4.531928E4,2.0778492E1,1.941991E2,1.18358246E2,2.8277838E2,5.548715E2,2.5225964E1,8.285963E3,3.703332E4,2.527455E2,3.003288E1,3.1135936E0,2.2112371E1,7.067642E2,7.579199E3,1.5875738E4,2.115758E4,1.7120135E2,8.154415E1,6.1189264E2,9.487153E1,4.1693813E3,3.4098174E3,8.39557E2,1.5036181E4,1.7821309E4,3.336271E3],"tree_param":{"num_deleted":"0","num_feature":"19","num_nodes":"33","size_leaf_vector":"1"}},{"base_weights":[-2.2168188E-1,-6.634515E-1,-2.2013642E-1,-5.0362676E-1,-3.7070792E-2,-3.1231573E-1,-2.1708134E-1,-1.4604951E-2,6.3851443E-3,-8.929294E-3,-1.4671303E-1,-1.8117578E-1,-2.4553674E-1,-1.766353E-1,1.825589E-2,-1.9862822E-1,-1.5681821E-1,-3.5925996E-1,-2.4093091E-1,1.7694354E-3,-6.9529414E-3,-1.1519676E-2,-4.9200463E-3,-6.6154185E-3,-3.3533622E-3,-1.2280248E-2,-7.258191E-3,-4.635006E-3,-6.5578395E-3],"categories":[],"categories_nodes":[],"categories_segments":[],"categories_sizes":[],"default_left":[0,0,1,1,0,0,0,0,0,0,0,0,0,0,0,0,0,0,0,0,0,0,0,0,0,0,0,0,0],"id":23,"left_children":[1,3,5,7,-1,9,11,-1,-1,-1,13,15,17,19,-1,21,23,25,27,-1,-1,-1,-1,-1,-1,-1,-1,-1,-1],"loss_changes":[3.0372803E1,1.7031929E1,1.2255859E1,7.733574E0,0E0,8.79747E0,4.511084E1,0E0,0E0,0E0,6.795036E0,7.9190063E0,1.2197754E1,6.985633E0,0E0,1.3680481E1,2.0800842E1,7.62294E0,2.3469238E1,0E0,0E0,0E0,0E0,0E0,0E0,0E0,0E0,0E0,0E0],"parents":[2147483647,0,0,1,1,2,2,3,3,5,5,6,6,10,10,11,11,12,12,13,13,15,15,16,16,17,17,18,18],"right_children":[2,4,6,8,-1,10,12,-1,-1,-1,14,16,18,20,-1,22,24,26,28,-1,-1,-1,-1,-1,-1,-1,-1,-1,-1],"split_conditions":[4E-1,7.7216154E-1,7.672634E-4,6.010915E-1,-3.7070792E-2,9.170658E-1,9.255005E-1,-1.4604951E-2,6.3851443E-3,-8.929294E-3,6.2729144E-1,9.9997085E-1,3.4864366E-1,9.355246E-1,1.825589E-2,4.8669347E-1,8.011144E-1,1.2236861E-1,3.853135E-1,1.7694354E-3,-6.9529414E-3,-1.1519676E-2,-4.9200463E-3,-6.6154185E-3,-3.3533622E-3,-1.2280248E-2,-7.258191E-3,-4.635006E-3,-6.5578395E-3],"split_indices":[2,5,14,10,0,17,17,0,0,0,7,6,8,17,0,17,17,10,3,0,0,0,0,0,0,0,0,0,0],"split_type":[0,0,0,0,0,0,0,0,0,0,0,0,0,0,0,0,0,0,0,0,0,0,0,0,0,0,0,0,0],"sum_hessian":[4.6367773E4,1.5770424E2,4.621007E4,1.3354556E2,2.4158669E1,1.4662378E3,4.4743832E4,1.2380715E2,9.738413E0,1.1788771E3,2.8736078E2,1.9805234E4,2.49386E4,2.7972464E2,7.636145E0,1.15031875E4,8.302046E3,9.574753E2,2.3981123E4,7.514951E1,2.0457512E2,2.1452518E2,1.1288662E4,1.594378E3,6.707668E3,3.4840118E2,6.090741E2,5.461114E3,1.852001E4],"tree_param":{"num_deleted":"0","num_feature":"19","num_nodes":"29","size_leaf_vector":"1"}},{"base_weights":[-2.1211575E-1,-2.5150242E-1,-1.9512013E-1,-5.6791836E-1,-2.4605757E-1,-1.6233926E-1,-2.0907408E-1,-3.9716917E-1,-7.9141694E-1,-2.6923436E-1,-2.1949999E-1,-2.7657E-1,-1.502185E-1,-2.2695082E-1,-1.7031637E-1,-2.5293934E-1,-2.7867E-2,-0E0,-2.2262447E-2,5.800605E-3,-2.70905E-1,-6.993352E-2,-2.2948685E-1,-2.3055838E-1,-5.883813E-1,-1.4118488E-1,-2.7603677E-1,-4.894827E-1,-2.2138345E-1,-1.6592331E-1,-1.4244726E-2,-1.6126445E-2,-9.1892015E-4,-1.1900463E-2,-6.683193E-3,3.4445517E-3,-3.583628E-3,-5.9925714E-3,-0E0,-1.2165061E-2,-4.5707733E-3,-1.7557023E-2,6.058877E-3,-3.4533734E-3,-8.4948465E-3,-1.3274257E-2,-5.346954E-3,-1.7749542E-2,-7.950814E-3,-2.0892934E-3,-5.938814E-3,-8.480314E-3,-4.0465053E-3],"categories":[],"categories_nodes":[],"categories_segments":[],"categories_sizes":[],"default_left":[1,0,0,0,0,0,0,0,0,0,0,0,0,0,0,1,0,0,0,0,1,0,1,1,0,0,0,0,0,0,0,0,0,0,0,0,0,0,0,0,0,0,0,0,0,0,0,0,0,0,0,0,0],"id":24,"left_children":[1,3,5,7,9,11,13,15,17,19,21,23,25,27,29,31,-1,-1,-1,-1,33,35,37,39,41,43,45,47,49,51,-1,-1,-1,-1,-1,-1,-1,-1,-1,-1,-1,-1,-1,-1,-1,-1,-1,-1,-1,-1,-1,-1,-1],"loss_changes":[3.0551025E1,2.2962708E1,1.4375E1,7.073509E0,7.7873535E0,1.2905426E1,1.5246033E1,1.17698765E1,7.670574E0,6.1879883E0,9.225616E0,1.2073166E1,9.450439E0,2.1755249E1,1.1353668E1,8.632231E0,0E0,0E0,0E0,0E0,1.0292358E1,6.0593457E0,9.065826E0,9.24733E0,1.0445133E1,7.7309113E0,8.331902E0,1.0244614E1,2.5816284E1,7.2956696E0,0E0,0E0,0E0,0E0,0E0,0E0,0E0,0E0,0E0,0E0,0E0,0E0,0E0,0E0,0E0,0E0,0E0,0E0,0E0,0E0,0E0,0E0,0E0],"parents":[2147483647,0,0,1,1,2,2,3,3,4,4,5,5,6,6,7,7,8,8,9,9,10,10,11,11,12,12,13,13,14,14,15,15,20,20,21,21,22,22,23,23,24,24,25,25,26,26,27,27,28,28,29,29],"right_children":[2,4,6,8,10,12,14,16,18,20,22,24,26,28,30,32,-1,-1,-1,-1,34,36,38,40,42,44,46,48,50,52,-1,-1,-1,-1,-1,-1,-1,-1,-1,-1,-1,-1,-1,-1,-1,-1,-1,-1,-1,-1,-1,-1,-1],"split_conditions":[4.800278E-2,4.4230768E-1,6.109091E-1,3.8547687E-2,6.366822E-1,5.4545455E-2,6.4825183E-1,5.7675165E-1,7.636364E-2,1.859542E-1,6.428403E-1,8.8776934E-1,9.2626625E-1,4.6153846E-1,9.7829753E-1,1.225058E-1,-2.7867E-2,-0E0,-2.2262447E-2,5.800605E-3,6.1561125E-3,3.7072796E-1,8.579569E-1,9.641434E-2,7.5E-1,7.432658E-1,1.7454545E-1,7.3454547E-1,2.2214733E-1,4.8076922E-1,-1.4244726E-2,-1.6126445E-2,-9.1892015E-4,-1.1900463E-2,-6.683193E-3,3.4445517E-3,-3.583628E-3,-5.9925714E-3,-0E0,-1.2165061E-2,-4.5707733E-3,-1.7557023E-2,6.058877E-3,-3.4533734E-3,-8.4948465E-3,-1.3274257E-2,-5.346954E-3,-1.7749542E-2,-7.950814E-3,-2.0892934E-3,-5.938814E-3,-8.480314E-3,-4.0465053E-3],"split_indices":[12,1,4,12,18,4,18,5,4,18,18,5,5,1,5,13,0,0,0,0,11,3,11,13,1,3,4,4,3,1,0,0,0,0,0,0,0,0,0,0,0,0,0,0,0,0,0,0,0,0,0,0,0],"split_type":[0,0,0,0,0,0,0,0,0,0,0,0,0,0,0,0,0,0,0,0,0,0,0,0,0,0,0,0,0,0,0,0,0,0,0,0,0,0,0,0,0,0,0,0,0,0,0,0,0,0,0,0,0],"sum_hessian":[4.6587184E4,1.401652E4,3.2570664E4,2.3186816E2,1.3784651E4,9.756111E3,2.2814553E4,1.3581578E2,9.605238E1,7.3306943E3,6.453957E3,9.23923E2,8.832188E3,1.5587201E4,7.227352E3,1.1487633E2,2.093945E1,7.8077607E0,8.824462E1,2.1547785E1,7.3091465E3,4.1276593E2,6.041191E3,8.0980347E2,1.1411949E2,8.251754E3,5.804342E2,3.1755994E2,1.5269641E4,7.151183E3,7.616865E1,3.8926426E1,7.5949905E1,2.72127E2,7.0370195E3,1.0107147E2,3.1169446E2,5.882279E3,1.5891225E2,1.3187543E2,6.7792804E2,1.0306439E2,1.1055096E1,8.0405312E3,2.1122293E2,1.1681105E2,4.6362317E2,1.410628E2,1.7649715E2,1.2546414E3,1.4015E4,2.6408374E2,6.8870996E3],"tree_param":{"num_deleted":"0","num_feature":"19","num_nodes":"53","size_leaf_vector":"1"}},{"base_weights":[-2.098082E-1,-1.809747E-1,-2.2825807E-1,-3.6902338E-1,-1.735948E-1,-2.153278E-1,-2.9116392E-1,-7.702564E-1,-8.454987E-3,-1.9398615E-1,-1.3540846E-1,-2.1041965E-1,-3.608406E-1,-3.6999914E-1,-2.5843278E-1,-1.4602101E-3,-9.760996E-1,-5.820849E-1,-1.8914482E-1,-1.265719E-1,-3.5730034E-1,-2.706131E-1,-5.141457E-3,-2.4645882E-2,-3.3261234E-1,-4.7281158E-1,-7.118621E-3,-2.6772952E-1,2.0036716E-3,-3.3031266E-2,-5.935939E-3,-1.1167782E-2,-3.1832542E-2,-8.007734E-3,-4.6090293E-3,-4.3946547E-3,-2.1663336E-3,-1.061614E-2,5.958493E-3,-5.1655252E-3,-8.296508E-3,-3.1035565E-2,-7.852615E-3,-2.7354931E-2,-1.14370305E-2,-3.7267494E-3,-7.317586E-3],"categories":[],"categories_nodes":[],"categories_segments":[],"categories_sizes":[],"default_left":[0,1,0,0,0,0,0,0,0,0,0,0,0,0,0,0,0,0,0,0,0,0,0,0,1,0,0,1,0,0,0,0,0,0,0,0,0,0,0,0,0,0,0,0,0,0,0],"id":25,"left_children":[1,3,5,7,9,11,13,15,-1,17,19,21,23,25,27,-1,29,31,33,35,37,39,-1,-1,41,43,-1,45,-1,-1,-1,-1,-1,-1,-1,-1,-1,-1,-1,-1,-1,-1,-1,-1,-1,-1,-1],"loss_changes":[2.424585E1,2.4540161E1,2.239746E1,8.263199E0,1.321106E1,1.6035034E1,1.1547089E1,6.3282375E0,0E0,2.0351013E1,1.1351845E1,1.0410156E1,1.1114998E1,1.1854233E1,1.1008789E1,0E0,7.251034E0,1.0478638E1,1.0305298E1,1.0966446E1,8.505058E0,9.31514E0,0E0,0E0,1.2972649E1,6.4891205E0,0E0,7.5766907E0,0E0,0E0,0E0,0E0,0E0,0E0,0E0,0E0,0E0,0E0,0E0,0E0,0E0,0E0,0E0,0E0,0E0,0E0,0E0],"parents":[2147483647,0,0,1,1,2,2,3,3,4,4,5,5,6,6,7,7,9,9,10,10,11,11,12,12,13,13,14,14,16,16,17,17,18,18,19,19,20,20,21,21,24,24,25,25,27,27],"right_children":[2,4,6,8,10,12,14,16,-1,18,20,22,24,26,28,-1,30,32,34,36,38,40,-1,-1,42,44,-1,46,-1,-1,-1,-1,-1,-1,-1,-1,-1,-1,-1,-1,-1,-1,-1,-1,-1,-1,-1],"split_conditions":[4.417549E-1,6.1561125E-3,9.6555996E-1,4.4230768E-1,8.109091E-1,9.563636E-1,1E0,9.99432E-2,-8.454987E-3,4.0347856E-2,9.3333334E-1,9.998694E-1,4.0622884E-1,1.2993413E-1,7.692308E-1,-1.4602101E-3,5.9678066E-1,8.8116884E-1,7.2159344E-1,9.2576794E-2,9.78388E-1,8.8383955E-1,-5.141457E-3,-2.4645882E-2,1.9354839E-2,2.506168E-2,-7.118621E-3,9.641434E-2,2.0036716E-3,-3.3031266E-2,-5.935939E-3,-1.1167782E-2,-3.1832542E-2,-8.007734E-3,-4.6090293E-3,-4.3946547E-3,-2.1663336E-3,-1.061614E-2,5.958493E-3,-5.1655252E-3,-8.296508E-3,-3.1035565E-2,-7.852615E-3,-2.7354931E-2,-1.14370305E-2,-3.7267494E-3,-7.317586E-3],"split_indices":[3,11,17,1,4,4,15,10,0,3,13,6,7,10,1,0,17,13,17,12,17,17,0,0,13,10,0,13,0,0,0,0,0,0,0,0,0,0,0,0,0,0,0,0,0,0,0],"split_type":[0,0,0,0,0,0,0,0,0,0,0,0,0,0,0,0,0,0,0,0,0,0,0,0,0,0,0,0,0,0,0,0,0,0,0,0,0,0,0,0,0,0,0,0,0,0,0],"sum_hessian":[4.6665402E4,1.8239924E4,2.8425479E4,6.8075653E2,1.7559168E4,2.3598906E4,4.8265723E3,5.231943E1,6.284371E2,1.1421961E4,6.137206E3,2.28393E4,7.5960406E2,1.4020702E3,3.4245022E3,1.3369217E1,3.8950214E1,1.3640813E2,1.1285553E4,5.9089297E3,2.2827608E2,2.6755754E3,2.0163727E4,3.0639658E1,7.289644E2,6.45555E2,7.5651514E2,3.3366765E3,8.782556E1,2.5537733E1,1.3412481E1,1.1497517E2,2.1432957E1,6.4173175E2,1.0643821E4,2.7668606E3,3.1420693E3,2.0933131E2,1.8944773E1,1.2264126E3,1.4491628E3,1.6551956E1,7.124125E2,2.0204044E1,6.2535095E2,4.889991E2,2.8476775E3],"tree_param":{"num_deleted":"0","num_feature":"19","num_nodes":"47","size_leaf_vector":"1"}},{"base_weights":[-2.0527317E-1,-7.3033935E-1,-2.0336396E-1,-5.8055395E-1,-1.297613E0,-1.5090314E-1,-2.1262716E-1,-1.6983967E-2,2.7194023E-3,-2.1856588E-3,-3.958605E-2,-1.3508299E-1,-2.1865088E-1,-2.0191528E-1,-2.6742125E-1,-2.9753113E-1,-1.1778967E-1,-2.534006E-1,-6.098701E-4,4.4066785E-3,-2.0347506E-1,-2.8950386E-3,-2.8060535E-1,-1.0633849E-2,-2.8748852E-3,-1.4187537E-2,-2.9035425E-3,-5.631014E-3,-1.8645605E-2,-9.487571E-3,-5.0782426E-3,-7.516648E-3,-4.8966543E-3],"categories":[],"categories_nodes":[],"categories_segments":[],"categories_sizes":[],"default_left":[0,0,0,0,0,0,0,0,0,0,0,0,1,0,0,0,0,1,0,0,0,0,1,0,0,0,0,0,0,0,0,0,0],"id":26,"left_children":[1,3,5,7,9,11,13,-1,-1,-1,-1,15,17,19,21,23,25,27,-1,-1,29,-1,31,-1,-1,-1,-1,-1,-1,-1,-1,-1,-1],"loss_changes":[4.540454E1,1.1128548E1,2.2074097E1,8.928669E0,7.896469E0,7.0043945E0,2.2503906E1,0E0,0E0,0E0,0E0,1.5406204E1,8.466236E0,1.940918E1,1.2463715E1,1.1291374E1,7.0236053E0,1.5458244E1,0E0,0E0,1.9345337E1,0E0,7.2244873E0,0E0,0E0,0E0,0E0,0E0,0E0,0E0,0E0,0E0,0E0],"parents":[2147483647,0,0,1,1,2,2,3,3,4,4,5,5,6,6,11,11,12,12,13,13,14,14,15,15,16,16,17,17,20,20,22,22],"right_children":[2,4,6,8,10,12,14,-1,-1,-1,-1,16,18,20,22,24,26,28,-1,-1,30,-1,32,-1,-1,-1,-1,-1,-1,-1,-1,-1,-1],"split_conditions":[4E-1,7.6038235E-1,3.2200685E-1,6.3461536E-1,9.9940515E-1,5.4820323E-1,9.659276E-1,-1.6983967E-2,2.7194023E-3,-2.1856588E-3,-3.958605E-2,2.6232114E-2,4.8207048E-1,9.990902E-1,3.536021E-2,2.5276342E-1,4.8669347E-1,3.8402224E-1,-6.098701E-4,4.4066785E-3,2.5454545E-2,-2.8950386E-3,2.3084484E-1,-1.0633849E-2,-2.8748852E-3,-1.4187537E-2,-2.9035425E-3,-5.631014E-3,-1.8645605E-2,-9.487571E-3,-5.0782426E-3,-7.516648E-3,-4.8966543E-3],"split_indices":[2,5,3,1,6,7,17,0,0,0,0,14,12,6,14,3,17,12,0,0,4,0,12,0,0,0,0,0,0,0,0,0,0],"split_type":[0,0,0,0,0,0,0,0,0,0,0,0,0,0,0,0,0,0,0,0,0,0,0,0,0,0,0,0,0,0,0,0,0],"sum_hessian":[4.6642945E4,1.655956E2,4.6477348E4,1.3384157E2,3.175402E1,6.9985757E3,3.9478773E4,1.20434074E2,1.3407503E1,6.678015E0,2.5076006E1,5.6913447E3,1.3072311E3,3.304601E4,6.432759E3,5.391103E2,5.1522344E3,1.103145E3,2.0408604E2,1.3288606E2,3.291313E4,5.174615E2,5.9152974E3,3.206112E2,2.1849907E2,3.6951794E1,5.1152827E3,1.0381708E3,6.497419E1,6.747398E2,3.2238387E4,5.0270107E3,8.8828674E2],"tree_param":{"num_deleted":"0","num_feature":"19","num_nodes":"33","size_leaf_vector":"1"}},{"base_weights":[-1.951709E-1,-2.9847077E-1,-1.901485E-1,-2.476429E-1,-6.506788E-1,-1.924336E-1,3.8575362E-3,-1.3873869E-1,-3.2269073E-1,-5.601726E-1,-3.0924646E-2,-1.943779E-1,-1.3590436E-3,-8.8055795E-3,-8.009968E-2,-2.5912088E-1,-4.6235615E-1,-2.9637603E-2,-4.9170026E-1,-1.8183012E-1,-2.1750687E-1,2.4184604E-4,-5.455035E-3,-1.2445038E-2,-4.0088017E-3,-5.3009703E-3,-1.5560655E-2,-8.449044E-3,-1.9995235E-2,-4.323596E-3,-6.1658146E-3,-6.8719283E-4,-5.5946414E-3],"categories":[],"categories_nodes":[],"categories_segments":[],"categories_sizes":[],"default_left":[0,0,0,0,0,1,0,0,1,0,0,0,0,0,0,0,0,0,0,0,0,0,0,0,0,0,0,0,0,0,0,0,0],"id":27,"left_children":[1,3,5,7,9,11,-1,13,15,17,-1,19,-1,-1,21,23,25,-1,27,29,31,-1,-1,-1,-1,-1,-1,-1,-1,-1,-1,-1,-1],"loss_changes":[2.3566406E1,3.7260605E1,3.493347E1,1.4772865E1,1.0927147E1,1.1630737E1,0E0,8.891179E0,8.801674E0,7.1371613E0,0E0,1.2116943E1,0E0,0E0,7.6732836E0,1.7089252E1,1.1743195E1,0E0,8.361256E0,1.9546509E1,7.505615E0,0E0,0E0,0E0,0E0,0E0,0E0,0E0,0E0,0E0,0E0,0E0,0E0],"parents":[2147483647,0,0,1,1,2,2,3,3,4,4,5,5,7,7,8,8,9,9,11,11,14,14,15,15,16,16,18,18,19,19,20,20],"right_children":[2,4,6,8,10,12,-1,14,16,18,-1,20,-1,-1,22,24,26,-1,28,30,32,-1,-1,-1,-1,-1,-1,-1,-1,-1,-1,-1,-1],"split_conditions":[4.8076922E-1,7.2582483E-1,6.6824645E-1,9.1071427E-1,8.8116884E-1,7.058824E-1,3.8575362E-3,9.064342E-2,2.3017642E-1,1.1111111E-2,-3.0924646E-2,1E0,-1.3590436E-3,-8.8055795E-3,1E0,6.893635E-1,1.2921765E-1,-2.9637603E-2,3.0418965E-1,9.6555996E-1,6.0818004E-3,2.4184604E-4,-5.455035E-3,-1.2445038E-2,-4.0088017E-3,-5.3009703E-3,-1.5560655E-2,-8.449044E-3,-1.9995235E-2,-4.323596E-3,-6.1658146E-3,-6.8719283E-4,-5.5946414E-3],"split_indices":[1,5,7,8,13,14,0,10,10,13,0,16,0,0,16,17,11,0,12,17,12,0,0,0,0,0,0,0,0,0,0,0,0],"split_type":[0,0,0,0,0,0,0,0,0,0,0,0,0,0,0,0,0,0,0,0,0,0,0,0,0,0,0,0,0,0,0,0,0],"sum_hessian":[4.6764914E4,2.154148E3,4.4610766E4,1.8867273E3,2.674207E2,4.4318848E4,2.919186E2,7.777966E2,1.1089308E3,2.3365686E2,3.376383E1,4.3697375E4,6.21472E2,1.654328E2,6.123638E2,7.6990106E2,3.3902972E2,2.0738972E1,2.129179E2,2.8370082E4,1.5327293E4,3.6188742E2,2.5047636E2,2.3021169E2,5.3968933E2,1.2989014E2,2.0913959E2,1.4214534E2,7.0772545E1,2.3827568E4,4.542514E3,2.2034366E2,1.5106949E4],"tree_param":{"num_deleted":"0","num_feature":"19","num_nodes":"33","size_leaf_vector":"1"}},{"base_weights":[-1.9260286E-1,-3.1105968E-1,-1.867226E-1,-2.4988856E-2,-2.90861E-1,-1.8760864E-1,3.6417653E-3,-3.219118E-1,-8.655983E-2,-1.9869834E-1,-1.5654121E-1,-5.147595E-1,-2.692564E-1,-3.4320566E-1,9.613967E-2,-1.6051382E-1,-2.118304E-1,-1.5239151E-1,-4.1009194E-1,-1.6573038E-2,-8.895542E-3,-2.3451416E-2,-6.4751413E-3,-4.604779E-3,-2.1573847E-2,5.0727534E-3,-1.39910495E-2,-3.7636848E-3,-5.9789736E-3,-7.125672E-3,-5.2132895E-3,-6.1703227E-3,-3.6268476E-3,-1.9964391E-2,-4.4791414E-3],"categories":[],"categories_nodes":[],"categories_segments":[],"categories_sizes":[],"default_left":[0,0,0,0,1,1,0,0,0,0,0,1,0,0,0,1,1,0,0,0,0,0,0,0,0,0,0,0,0,0,0,0,0,0,0],"id":28,"left_children":[1,3,5,-1,7,9,-1,11,13,15,17,19,21,23,25,27,29,31,33,-1,-1,-1,-1,-1,-1,-1,-1,-1,-1,-1,-1,-1,-1,-1,-1],"loss_changes":[3.181543E1,2.7936737E1,1.3088867E1,0E0,1.2974838E1,1.4791138E1,0E0,1.7615646E1,1.3871656E1,1.5858765E1,1.152121E1,7.338356E0,1.1996986E1,8.598249E0,1.0687916E1,7.2311707E0,1.0381958E1,9.515564E0,1.4682655E1,0E0,0E0,0E0,0E0,0E0,0E0,0E0,0E0,0E0,0E0,0E0,0E0,0E0,0E0,0E0,0E0],"parents":[2147483647,0,0,1,1,2,2,4,4,5,5,7,7,8,8,9,9,10,10,11,11,12,12,13,13,14,14,15,15,16,16,17,17,18,18],"right_children":[2,4,6,-1,8,10,-1,12,14,16,18,20,22,24,26,28,30,32,34,-1,-1,-1,-1,-1,-1,-1,-1,-1,-1,-1,-1,-1,-1,-1,-1],"split_conditions":[6.893635E-1,4.0384614E-1,7.2777176E-1,-2.4988856E-2,1.0156973E-1,1.8561076E-1,3.6417653E-3,4.570606E-1,4.5014134E-1,6.109091E-1,9.4477797E-1,2.74778E-2,4.3333334E-1,2.308403E-1,3.1252223E-1,1.3877168E-1,8.440049E-3,5E-1,1.3045654E-2,-1.6573038E-2,-8.895542E-3,-2.3451416E-2,-6.4751413E-3,-4.604779E-3,-2.1573847E-2,5.0727534E-3,-1.39910495E-2,-3.7636848E-3,-5.9789736E-3,-7.125672E-3,-5.2132895E-3,-6.1703227E-3,-3.6268476E-3,-1.9964391E-2,-4.4791414E-3],"split_indices":[17,1,7,0,9,12,0,7,3,4,3,9,2,9,9,12,12,2,9,0,0,0,0,0,0,0,0,0,0,0,0,0,0,0,0],"split_type":[0,0,0,0,0,0,0,0,0,0,0,0,0,0,0,0,0,0,0,0,0,0,0,0,0,0,0,0,0,0,0,0,0,0,0],"sum_hessian":[4.6693074E4,2.1958926E3,4.4497184E4,6.1255726E1,2.1346367E3,4.4382402E4,1.14782036E2,1.8469495E3,2.8768744E2,3.267281E4,1.170959E4,3.8949683E2,1.4574525E3,1.2250436E2,1.6518307E2,8.389493E3,2.4283318E4,1.1527227E4,1.8236404E2,2.0678986E2,1.8270697E2,2.8594852E1,1.4288577E3,9.543317E1,2.7071188E1,1.4455385E2,2.0629221E1,7.2150767E3,1.1744164E3,2.1239277E3,2.215939E4,1.0958187E3,1.0431407E4,6.719754E1,1.1516651E2],"tree_param":{"num_deleted":"0","num_feature":"19","num_nodes":"35","size_leaf_vector":"1"}},{"base_weights":[-1.9078057E-1,-3.2311594E-1,-1.8490024E-1,-1.4924255E-2,-2.5326675E-1,-1.519809E-1,-2.0906371E-1,-6.9843694E-3,-3.7967782E-2,-1.6583387E-2,-1.4986259E-1,-2.1862152E-1,-4.1607874E-3,-3.2249618E-1,4.931139E-3,-1.3388634E-1,-1.791201E-1,-2.0699145E-1,-2.559831E-1,-0E0,-1.8801983E-2,-4.3687513E-3,-2.4822305E-3,-7.09954E-3,-4.245522E-3,-5.492184E-3,-3.572276E-3,-8.002392E-3,-5.1088296E-3],"categories":[],"categories_nodes":[],"categories_segments":[],"categories_sizes":[],"default_left":[0,0,0,0,0,0,1,0,1,0,0,0,0,1,0,1,0,0,0,0,0,0,0,0,0,0,0,0,0],"id":29,"left_children":[1,3,5,-1,7,9,11,-1,13,-1,15,17,-1,19,-1,21,23,25,27,-1,-1,-1,-1,-1,-1,-1,-1,-1,-1],"loss_changes":[3.569336E1,3.5329315E1,3.514258E1,0E0,6.885948E0,1.9004211E1,1.0641113E1,0E0,1.0104354E1,0E0,8.405762E0,8.5946045E0,0E0,9.794504E0,0E0,1.6526062E1,7.389099E0,9.404785E0,1.5536438E1,0E0,0E0,0E0,0E0,0E0,0E0,0E0,0E0,0E0,0E0],"parents":[2147483647,0,0,1,1,2,2,4,4,5,5,6,6,8,8,10,10,11,11,13,13,15,15,16,16,17,17,18,18],"right_children":[2,4,6,-1,8,10,12,-1,14,-1,16,18,-1,20,-1,22,24,26,28,-1,-1,-1,-1,-1,-1,-1,-1,-1,-1],"split_conditions":[6.784212E-1,4.8076922E-1,9.243717E-1,-1.4924255E-2,9.0181816E-1,4E-1,2.2110371E-1,-6.9843694E-3,1.16557814E-1,-1.6583387E-2,1E0,1.2728827E-1,-4.1607874E-3,1.5825093E-1,4.931139E-3,1.0488469E-1,2.3219815E-2,1.02514416E-1,1E0,-0E0,-1.8801983E-2,-4.3687513E-3,-2.4822305E-3,-7.09954E-3,-4.245522E-3,-5.492184E-3,-3.572276E-3,-8.002392E-3,-5.1088296E-3],"split_indices":[17,1,17,0,4,2,12,0,10,0,16,12,0,12,0,12,14,12,15,0,0,0,0,0,0,0,0,0,0],"split_type":[0,0,0,0,0,0,0,0,0,0,0,0,0,0,0,0,0,0,0,0,0,0,0,0,0,0,0,0,0],"sum_hessian":[4.679829E4,1.979842E3,4.481845E4,4.0891757E2,1.5709244E3,1.8997479E4,2.5820969E4,1.4216727E3,1.4925179E2,7.657135E1,1.8920908E4,2.1295904E4,4.525065E3,6.956628E1,7.968551E1,1.2270284E4,6.6506235E3,1.6271124E4,5.024781E3,3.8946842E1,3.0619438E1,5.9614224E3,6.308862E3,6.9847363E2,5.95215E3,1.4277445E4,1.9936783E3,2.4094507E3,2.61533E3],"tree_param":{"num_deleted":"0","num_feature":"19","num_nodes":"29","size_leaf_vector":"1"}},{"base_weights":[-1.7911294E-1,-1.4322294E-1,-1.9345035E-1,-1.5254265E-1,-7.919428E-2,-1.2511323E-1,-2.0622563E-1,-1.2560946E-2,-1.4776367E-1,-1.9111413E-1,-3.7886303E-2,-2.9447487E-1,-8.7946884E-2,-7.173716E-3,-2.0092168E-1,-1.4429657E-1,-4.6381387E-1,-2.9724008E-5,-8.646453E-3,-1.8341859E-1,2.7985867E-2,-1.3103762E-2,-5.046762E-3,-2.6567397E-1,-7.470911E-2,-1.9520581E-1,-3.187064E-1,-5.100323E-3,-3.299414E-3,-1.6252613E-2,2.4862468E-4,-5.5120274E-4,-8.1676E-3,4.3269214E-3,-1.0149291E-3,-8.40874E-4,-1.0051939E-2,-1.3532523E-3,-9.8273745E-3,-6.0302275E-3,-4.616843E-3,-1.8217192E-3,-9.626969E-3],"categories":[],"categories_nodes":[],"categories_segments":[],"categories_sizes":[],"default_left":[0,1,0,0,0,0,0,0,0,0,1,0,0,0,0,0,1,0,0,0,0,0,0,1,0,0,0,0,0,0,0,0,0,0,0,0,0,0,0,0,0,0,0],"id":30,"left_children":[1,3,5,7,9,11,13,-1,15,17,19,21,23,-1,25,27,29,-1,-1,31,33,-1,-1,35,37,39,41,-1,-1,-1,-1,-1,-1,-1,-1,-1,-1,-1,-1,-1,-1,-1,-1],"loss_changes":[2.3617065E1,7.6704407E0,2.8714966E1,1.8153412E1,7.6436024E0,3.2716797E1,1.0672485E1,0E0,1.1754486E1,1.243268E1,1.2359377E1,1.8985718E1,9.7356415E0,0E0,1.6990845E1,8.823059E0,1.0889444E1,0E0,0E0,8.488585E0,8.555472E0,0E0,0E0,8.280457E0,2.647486E1,1.3690491E1,1.7311836E1,0E0,0E0,0E0,0E0,0E0,0E0,0E0,0E0,0E0,0E0,0E0,0E0,0E0,0E0,0E0,0E0],"parents":[2147483647,0,0,1,1,2,2,3,3,4,4,5,5,6,6,8,8,9,9,10,10,11,11,12,12,14,14,15,15,16,16,19,19,20,20,23,23,24,24,25,25,26,26],"right_children":[2,4,6,8,10,12,14,-1,16,18,20,22,24,-1,26,28,30,-1,-1,32,34,-1,-1,36,38,40,42,-1,-1,-1,-1,-1,-1,-1,-1,-1,-1,-1,-1,-1,-1,-1,-1],"split_conditions":[6.109091E-1,5.0149256E-1,3.0558282E-1,3.6363637E-3,1.5636364E-1,7.054545E-1,4.589987E-1,-1.2560946E-2,9.822303E-1,2.8260449E-2,2.5392432E-2,8.332782E-1,2.4886878E-2,-7.173716E-3,9.563636E-1,5.5339295E-1,2.7441692E-1,-2.9724008E-5,-8.646453E-3,7.8417724E-1,5.3846157E-1,-1.3103762E-2,-5.046762E-3,7.220217E-2,7.2E-1,4.9542028E-1,5.4845524E-1,-5.100323E-3,-3.299414E-3,-1.6252613E-2,2.4862468E-4,-5.5120274E-4,-8.1676E-3,4.3269214E-3,-1.0149291E-3,-8.40874E-4,-1.0051939E-2,-1.3532523E-3,-9.8273745E-3,-6.0302275E-3,-4.616843E-3,-1.8217192E-3,-9.626969E-3],"split_indices":[4,13,3,4,4,4,5,0,17,9,9,17,14,0,4,8,10,0,0,8,1,0,0,10,13,7,8,0,0,0,0,0,0,0,0,0,0,0,0,0,0,0,0],"split_type":[0,0,0,0,0,0,0,0,0,0,0,0,0,0,0,0,0,0,0,0,0,0,0,0,0,0,0,0,0,0,0,0,0,0,0,0,0,0,0,0,0,0,0],"sum_hessian":[4.6815145E4,1.3392232E4,3.3422914E4,1.1671401E4,1.720831E3,5.281867E3,2.8141047E4,1.5617549E2,1.1515226E4,4.5448245E2,1.2663486E3,9.432115E2,4.338656E3,1.8144933E3,2.6326555E4,1.1395369E4,1.1985639E2,2.0419643E2,2.5028603E2,4.0067215E2,8.6567645E2,2.8002274E2,6.631888E2,2.9287488E2,4.0457808E3,2.512058E4,1.2059742E3,2.3005408E3,9.094828E3,8.933938E1,3.0517014E1,1.8934784E2,2.113243E2,2.8586884E2,5.798076E2,1.08989E2,1.838859E2,3.790324E3,2.5545677E2,6.067823E3,1.9052756E4,2.409641E2,9.6501013E2],"tree_param":{"num_deleted":"0","num_feature":"19","num_nodes":"43","size_leaf_vector":"1"}},{"base_weights":[-1.84449E-1,-2.5906903E-1,-1.7976668E-1,-2.6200974E-2,-2.4774198E-1,-1.8105632E-1,1.4450352E-1,-4.7246858E-1,-2.3415601E-1,-2.2579363E-1,-1.744415E-1,-2.2956227E-1,1.1011795E-2,-1.987314E-2,-7.5364197E-3,-1.9470211E-2,-2.2529314E-1,-1.1249855E0,-2.2128968E-1,-1.623292E-1,-1.9683878E-1,-0E0,-2.123925E-2,-3.999845E-3,-7.686788E-3,5.572516E-4,-3.8604535E-2,-4.9868594E-3,-7.209069E-3,-4.517759E-3,-3.1781879E-3,-5.196688E-3,-3.0414169E-3],"categories":[],"categories_nodes":[],"categories_segments":[],"categories_sizes":[],"default_left":[1,0,0,0,0,0,0,1,0,0,0,1,0,0,0,0,0,0,0,0,0,0,0,0,0,0,0,0,0,0,0,0,0],"id":31,"left_children":[1,3,5,-1,7,9,11,13,15,17,19,21,-1,-1,-1,-1,23,25,27,29,31,-1,-1,-1,-1,-1,-1,-1,-1,-1,-1,-1,-1],"loss_changes":[1.5706665E1,2.2088043E1,1.8463623E1,0E0,7.2316895E0,1.2403198E1,1.8754377E1,6.453289E0,1.0611252E1,2.0774994E1,9.859741E0,9.081364E0,0E0,0E0,0E0,0E0,1.2548607E1,1.3969582E1,8.050446E0,1.3897888E1,7.4782715E0,0E0,0E0,0E0,0E0,0E0,0E0,0E0,0E0,0E0,0E0,0E0,0E0],"parents":[2147483647,0,0,1,1,2,2,4,4,5,5,6,6,7,7,8,8,9,9,10,10,11,11,16,16,17,17,18,18,19,19,20,20],"right_children":[2,4,6,-1,8,10,12,14,16,18,20,22,-1,-1,-1,-1,24,26,28,30,32,-1,-1,-1,-1,-1,-1,-1,-1,-1,-1,-1,-1],"split_conditions":[1.612218E-3,4.0384614E-1,7.2777176E-1,-2.6200974E-2,4.6153846E-1,4.7377324E-1,5E-1,5.0241545E-2,4.3333334E-1,3.3333334E-1,1E0,1.5853533E-1,1.1011795E-2,-1.987314E-2,-7.5364197E-3,-1.9470211E-2,7.949399E-1,5.076156E-2,3.593364E-1,1.8286774E-1,4.279105E-1,-0E0,-2.123925E-2,-3.999845E-3,-7.686788E-3,5.572516E-4,-3.8604535E-2,-4.9868594E-3,-7.209069E-3,-4.517759E-3,-3.1781879E-3,-5.196688E-3,-3.0414169E-3],"split_indices":[9,1,7,0,1,7,1,13,2,2,16,10,0,0,0,0,5,12,10,12,12,0,0,0,0,0,0,0,0,0,0,0,0],"split_type":[0,0,0,0,0,0,0,0,0,0,0,0,0,0,0,0,0,0,0,0,0,0,0,0,0,0,0,0,0,0,0,0,0],"sum_hessian":[4.6735223E4,2.740433E3,4.399479E4,3.711959E1,2.7033135E3,4.3824938E4,1.6985098E2,1.4728491E2,2.5560286E3,5.61629E3,3.820865E4,7.2022865E1,9.7828125E1,4.981106E1,9.7473854E1,3.8538807E1,2.5174897E3,2.5757942E1,5.590532E3,2.484049E4,1.3368155E4,5.4141582E1,1.7881279E1,1.3503794E3,1.1671105E3,5.8541026E0,1.990384E1,4.0087144E3,1.5818176E3,1.7519385E4,7.321106E3,1.2138998E4,1.2291572E3],"tree_param":{"num_deleted":"0","num_feature":"19","num_nodes":"33","size_leaf_vector":"1"}},{"base_weights":[-1.7872706E-1,-2.747518E-1,-1.7437926E-1,-1.8174677E-1,-3.908068E-1,-1.8539807E-1,-1.5271719E-1,-1.2542272E-1,-7.917562E-3,-1.4616664E-2,-7.38455E-3,-1.5273212E-1,-1.9796409E-1,-1.4642781E-1,-3.1322315E-1,-1.1277674E-3,-2.681459E-1,-2.9229403E-1,-1.4450276E-1,-6.8325675E-1,-1.960081E-1,-2.0032814E-1,-3.4502856E-3,9.329809E-3,-3.4385502E-1,-1.8255548E-3,-1.23840375E-2,-1.0584013E-3,-9.154312E-3,-4.1509354E-3,-1.0079982E-3,-2.6423365E-2,-9.233568E-3,-6.2661027E-3,-4.513196E-3,-0E0,-5.752109E-3,-3.2649323E-2,-8.100437E-3],"categories":[],"categories_nodes":[],"categories_segments":[],"categories_sizes":[],"default_left":[0,0,0,0,0,0,0,0,0,0,0,0,0,0,0,0,1,0,0,0,0,0,0,0,0,0,0,0,0,0,0,0,0,0,0,0,0,0,0],"id":32,"left_children":[1,3,5,7,9,11,13,15,-1,-1,-1,17,19,21,23,-1,25,27,29,31,33,35,-1,-1,37,-1,-1,-1,-1,-1,-1,-1,-1,-1,-1,-1,-1,-1,-1],"loss_changes":[1.8874023E1,2.0875107E1,1.0200195E1,7.6011353E0,1.5119202E1,1.1657288E1,1.4617462E1,8.726636E0,0E0,0E0,0E0,8.864899E0,1.8990295E1,7.873535E0,1.1749321E1,0E0,1.1296858E1,7.115143E0,1.5163544E1,7.3052177E0,1.9177124E1,1.2507874E1,0E0,0E0,1.0300053E1,0E0,0E0,0E0,0E0,0E0,0E0,0E0,0E0,0E0,0E0,0E0,0E0,0E0,0E0],"parents":[2147483647,0,0,1,1,2,2,3,3,4,4,5,5,6,6,7,7,11,11,12,12,13,13,14,14,16,16,17,17,18,18,19,19,20,20,21,21,24,24],"right_children":[2,4,6,8,10,12,14,16,-1,-1,-1,18,20,22,24,-1,26,28,30,32,34,36,-1,-1,38,-1,-1,-1,-1,-1,-1,-1,-1,-1,-1,-1,-1,-1,-1],"split_conditions":[6.784212E-1,5.890909E-1,6.4920974E-1,3.647059E-1,6.4363635E-1,6.109091E-1,9.4615823E-1,8.579569E-1,-7.917562E-3,-1.4616664E-2,-7.38455E-3,3.761842E-3,4.3333334E-1,4.7568306E-1,4.9450815E-1,-1.1277674E-3,1.12314485E-1,5.111311E-1,5.46949E-1,4.6517617E-1,7.054545E-1,9.445585E-1,-3.4502856E-3,9.329809E-3,5.009114E-1,-1.8255548E-3,-1.23840375E-2,-1.0584013E-3,-9.154312E-3,-4.1509354E-3,-1.0079982E-3,-2.6423365E-2,-9.233568E-3,-6.2661027E-3,-4.513196E-3,-0E0,-5.752109E-3,-3.2649323E-2,-8.100437E-3],"split_indices":[17,4,18,13,4,4,5,11,0,0,0,9,2,7,7,0,10,7,7,7,4,8,0,0,7,0,0,0,0,0,0,0,0,0,0,0,0,0,0],"split_type":[0,0,0,0,0,0,0,0,0,0,0,0,0,0,0,0,0,0,0,0,0,0,0,0,0,0,0,0,0,0,0,0,0,0,0,0,0,0,0],"sum_hessian":[4.6733812E4,2.0092443E3,4.472457E4,1.1227156E3,8.8652856E2,2.960062E4,1.5123951E4,7.911905E2,3.3152518E2,3.0621967E2,5.803089E2,8.255575E3,2.1345045E4,1.4562888E4,5.6106305E2,5.1120993E2,2.7998053E2,4.4937775E2,7.8061978E3,8.207705E1,2.1262967E4,2.3764478E3,1.2186439E4,2.1983297E1,5.390798E2,1.5140535E2,1.2857518E2,1.00362206E2,3.4901556E2,6.6041587E3,1.2020388E3,3.6168568E1,4.590848E1,5.6423896E3,1.5620577E4,2.717682E2,2.1046797E3,1.1795696E1,5.2728406E2],"tree_param":{"num_deleted":"0","num_feature":"19","num_nodes":"39","size_leaf_vector":"1"}},{"base_weights":[-1.7439044E-1,-6.492425E-1,-1.7273565E-1,-1.2538825E-2,-2.9368296E-2,-6.758358E-1,-1.7166713E-1,-1.0436525E0,-3.324959E-1,-3.6363587E-1,-1.6884935E-1,-2.496992E-3,-3.2224905E-2,1.7375285E-2,-1.1553857E-2,2.2562609E-4,-4.3824795E-1,-1.7922486E-1,-1.3727118E-1,-1.2312878E-2,5.560511E-4,-3.337635E-3,-4.9258755E-3,1.4685392E-2,-3.552564E-3],"categories":[],"categories_nodes":[],"categories_segments":[],"categories_sizes":[],"default_left":[0,0,0,0,0,0,0,0,0,0,0,0,0,0,0,0,1,0,0,0,0,0,0,0,0],"id":33,"left_children":[1,3,5,-1,-1,7,9,11,13,15,17,-1,-1,-1,-1,-1,19,21,23,-1,-1,-1,-1,-1,-1],"loss_changes":[3.5646362E1,1.0026802E1,2.3891235E1,0E0,0E0,1.0064953E1,2.4455688E1,7.4632797E0,6.392901E0,1.9118492E1,1.4610107E1,0E0,0E0,0E0,0E0,0E0,1.2550278E1,2.3765503E1,2.0247345E1,0E0,0E0,0E0,0E0,0E0,0E0],"parents":[2147483647,0,0,1,1,2,2,5,5,6,6,7,7,8,8,9,9,10,10,16,16,17,17,18,18],"right_children":[2,4,6,-1,-1,8,10,12,14,16,18,-1,-1,-1,-1,-1,20,22,24,-1,-1,-1,-1,-1,-1],"split_conditions":[4E-1,3.8490567E-1,4.0384614E-1,-1.2538825E-2,-2.9368296E-2,6.893635E-1,4.8669347E-1,9.995897E-1,4.0356085E-2,9.995252E-1,5.3566575E-1,-2.496992E-3,-3.2224905E-2,1.7375285E-2,-1.1553857E-2,2.2562609E-4,6.5509677E-1,3.812628E-1,9.990902E-1,-1.2312878E-2,5.560511E-4,-3.337635E-3,-4.9258755E-3,1.4685392E-2,-3.552564E-3],"split_indices":[2,13,1,0,0,17,17,6,13,6,7,0,0,0,0,0,12,3,6,0,0,0,0,0,0],"split_type":[0,0,0,0,0,0,0,0,0,0,0,0,0,0,0,0,0,0,0,0,0,0,0,0,0],"sum_hessian":[4.6866867E4,1.5910727E2,4.670776E4,1.2463698E2,3.4470284E1,9.5510605E1,4.661225E4,4.3622868E1,5.1887733E1,6.6623486E2,4.5946016E4,9.698098E0,3.392477E1,4.088227E0,4.7799507E1,1.0822809E2,5.580068E2,3.454876E4,1.1397254E4,5.0957834E2,4.8428413E1,8.118774E3,2.6429988E4,3.8135666E1,1.1359118E4],"tree_param":{"num_deleted":"0","num_feature":"19","num_nodes":"25","size_leaf_vector":"1"}},{"base_weights":[-1.6824491E-1,-1.227932E-1,-1.7628267E-1,-1.7481822E-1,-5.7722002E-2,-1.445972E-1,-1.9081515E-1,-1.6448157E-1,-3.8912532E-1,-6.9700904E-2,1.7785542E-1,-1.5194544E-1,-1.1970581E-3,-3.1567958E-1,-1.8601264E-1,-1.723745E-1,1.7658739E-1,-1.9198585E-2,-2.3549965E-1,-6.4086816E-3,-5.5854935E-2,2.7789652E-1,-1.0848079E-2,-1.529542E-1,1.0340895E-2,-5.319611E-3,-1.3113742E-2,-1.5058143E-1,-5.334513E-3,-9.803825E-3,-3.658557E-3,9.187776E-3,-1.4254697E-2,7.923224E-3,-8.3002085E-3,-1.7171416E-2,-1.3006222E-3,-2.7199485E-3,1.067671E-2,-3.5492387E-3,-6.197631E-3,-1.3868263E-2,-3.7015525E-3],"categories":[],"categories_nodes":[],"categories_segments":[],"categories_sizes":[],"default_left":[0,0,0,0,0,1,0,0,0,0,0,0,0,0,0,0,0,0,0,0,0,0,0,0,0,0,0,0,0,0,0,0,0,0,0,0,0,0,0,0,0,0,0],"id":34,"left_children":[1,3,5,7,9,11,13,15,17,19,21,23,-1,25,27,29,31,-1,33,-1,35,37,-1,39,-1,-1,-1,41,-1,-1,-1,-1,-1,-1,-1,-1,-1,-1,-1,-1,-1,-1,-1],"loss_changes":[1.6638306E1,2.352172E1,1.7784424E1,7.855179E0,8.726228E0,8.678284E0,1.556488E1,1.0052277E1,8.295334E0,7.144538E0,8.744672E0,6.2376404E0,0E0,2.0138718E1,2.1680481E1,2.1359627E1,1.087156E1,0E0,6.339609E0,0E0,7.068617E0,7.4728994E0,0E0,1.3444458E1,0E0,0E0,0E0,1.9472305E1,0E0,0E0,0E0,0E0,0E0,0E0,0E0,0E0,0E0,0E0,0E0,0E0,0E0,0E0,0E0],"parents":[2147483647,0,0,1,1,2,2,3,3,4,4,5,5,6,6,7,7,8,8,9,9,10,10,11,11,13,13,14,14,15,15,16,16,18,18,20,20,21,21,23,23,27,27],"right_children":[2,4,6,8,10,12,14,16,18,20,22,24,-1,26,28,30,32,-1,34,-1,36,38,-1,40,-1,-1,-1,42,-1,-1,-1,-1,-1,-1,-1,-1,-1,-1,-1,-1,-1,-1,-1],"split_conditions":[3.2200685E-1,8.2545453E-1,6.181818E-1,8.10056E-1,8.024582E-1,5.7603335E-1,6.363636E-1,9.6874154E-1,6.4442354E-1,2.4886878E-2,6.5384614E-1,9.807692E-1,-1.1970581E-3,2.8470615E-1,9.3686736E-1,7.2159344E-1,5.4820323E-1,-1.9198585E-2,9.9971163E-1,-6.4086816E-3,4.3333334E-1,4.6062925E-1,-1.0848079E-2,9.999926E-1,1.0340895E-2,-5.319611E-3,-1.3113742E-2,4.6666667E-1,-5.334513E-3,-9.803825E-3,-3.658557E-3,9.187776E-3,-1.4254697E-2,7.923224E-3,-8.3002085E-3,-1.7171416E-2,-1.3006222E-3,-2.7199485E-3,1.067671E-2,-3.5492387E-3,-6.197631E-3,-1.3868263E-2,-3.7015525E-3],"split_indices":[3,4,4,18,18,12,4,5,5,14,1,1,0,12,17,17,7,0,6,0,2,7,0,6,0,0,0,2,0,0,0,0,0,0,0,0,0,0,0,0,0,0,0],"split_type":[0,0,0,0,0,0,0,0,0,0,0,0,0,0,0,0,0,0,0,0,0,0,0,0,0,0,0,0,0,0,0,0,0,0,0,0,0,0,0,0,0,0,0],"sum_hessian":[4.6687594E4,7.042458E3,3.9645137E4,3.9014082E3,3.1410496E3,1.2497145E4,2.7147992E4,3.7289238E3,1.7248448E2,2.9949329E3,1.4611687E2,1.1607907E4,8.8923773E2,9.936113E2,2.615438E4,3.6487537E3,8.017016E1,4.765497E1,1.2482951E2,2.035398E2,2.791393E3,1.27576355E2,1.8540506E1,1.1589845E4,1.8061747E1,6.5447864E2,3.391327E2,1.057152E4,1.5582862E4,4.2167218E2,3.2270813E3,6.5803734E1,1.4366427E1,1.5497362E1,1.0933215E2,1.8041143E1,2.7733518E3,3.1902292E1,9.5674065E1,1.0129434E4,1.4604114E3,1.25154076E2,1.0446365E4],"tree_param":{"num_deleted":"0","num_feature":"19","num_nodes":"43","size_leaf_vector":"1"}},{"base_weights":[-1.6057718E-1,-1.952775E-2,-1.5945132E-1,-1.10032156E-1,-1.6817684E-1,-2.560965E-1,-9.2493914E-2,-1.4687595E-1,-2.0781112E-1,-3.5714063E-1,-4.8880666E-2,-5.403687E-2,-1.278607E-1,-1.4167307E-1,-3.0491313E-1,-5.3205113E-3,7.13024E-3,-1.8535104E-2,-6.9660656E-3,-5.438166E-3,4.51763E-3,1.7691296E-4,-2.5580132E-3,-7.839283E-3,-2.6697798E-3,-7.313011E-3,-3.4972304E-3,-1.881297E-2,-6.533365E-3],"categories":[],"categories_nodes":[],"categories_segments":[],"categories_sizes":[],"default_left":[0,0,0,1,0,0,0,0,0,0,0,0,0,0,1,0,0,0,0,0,0,0,0,0,0,0,0,0,0],"id":35,"left_children":[1,-1,3,5,7,9,11,13,15,17,19,21,23,25,27,-1,-1,-1,-1,-1,-1,-1,-1,-1,-1,-1,-1,-1,-1],"loss_changes":[3.068811E1,0E0,1.9746216E1,1.752739E1,3.2985107E1,1.5042339E1,8.3007965E0,2.0600525E1,1.0711365E1,1.385854E1,9.407107E0,8.752542E0,1.2825256E1,1.4125732E1,1.5474724E1,0E0,0E0,0E0,0E0,0E0,0E0,0E0,0E0,0E0,0E0,0E0,0E0,0E0,0E0],"parents":[2147483647,0,0,2,2,3,3,4,4,5,5,6,6,7,7,8,8,9,9,10,10,11,11,12,12,13,13,14,14],"right_children":[2,-1,4,6,8,10,12,14,16,18,20,22,24,26,28,-1,-1,-1,-1,-1,-1,-1,-1,-1,-1,-1,-1,-1,-1],"split_conditions":[3.3333334E-1,-1.952775E-2,3.2200685E-1,6.86945E-3,9.49237E-1,2.6332027E-1,7.921811E-1,9.563636E-1,6.411517E-1,5.9678066E-1,6.4825183E-1,9.177055E-1,7.6206213E-1,5.3194386E-1,5.447293E-2,-5.3205113E-3,7.13024E-3,-1.8535104E-2,-6.9660656E-3,-5.438166E-3,4.51763E-3,1.7691296E-4,-2.5580132E-3,-7.839283E-3,-2.6697798E-3,-7.313011E-3,-3.4972304E-3,-1.881297E-2,-6.533365E-3],"split_indices":[2,0,3,9,17,3,8,4,7,17,18,17,17,17,10,0,0,0,0,0,0,0,0,0,0,0,0,0,0],"split_type":[0,0,0,0,0,0,0,0,0,0,0,0,0,0,0,0,0,0,0,0,0,0,0,0,0,0,0,0,0],"sum_hessian":[4.677605E4,8.3486305E1,4.6692562E4,7.03148E3,3.9661082E4,7.446256E2,6.2868545E3,2.582096E4,1.3840123E4,4.9585895E2,2.4876665E2,3.0309297E3,3.2559248E3,2.5007375E4,8.135858E2,1.379822E4,4.190369E1,8.653726E1,4.093217E2,1.4739545E2,1.0137121E2,1.3009337E3,1.7299958E3,3.571014E2,2.8988235E3,6.6075104E2,2.4346623E4,7.67679E1,7.3681793E2],"tree_param":{"num_deleted":"0","num_feature":"19","num_nodes":"29","size_leaf_vector":"1"}},{"base_weights":[-1.5808459E-1,-8.487725E-3,-1.552997E-1,-1.2928921E-1,-1.7626797E-1,-1.1229287E-1,-1.594697E-1,-1.0691201E-1,-1.900036E-1,-8.737677E-2,-1.3606235E-1,-2.598127E-1,-1.4839627E-1,-2.4666095E-3,-3.2607943E-1,-1.5983881E-1,-2.1364726E-1,-2.7621433E-3,2.0334983E-4,-5.940928E-3,-3.0571271E-3,-4.0098056E-3,-1.0064997E-2,-5.0852313E-3,-3.2434906E-3,-2.751068E-2,-5.3779595E-3,-4.9035368E-3,-3.2288514E-3,1.0886004E-2,-5.4506124E-3],"categories":[],"categories_nodes":[],"categories_segments":[],"categories_sizes":[],"default_left":[0,0,0,0,0,0,0,0,0,0,0,0,0,0,0,0,0,0,0,0,0,0,0,0,0,0,0,0,0,0,0],"id":36,"left_children":[1,-1,3,5,7,9,11,13,15,17,19,21,23,-1,25,27,29,-1,-1,-1,-1,-1,-1,-1,-1,-1,-1,-1,-1,-1,-1],"loss_changes":[2.2243408E1,0E0,2.4706299E1,1.0187866E1,2.3863342E1,7.5130463E0,7.6365356E0,8.522736E0,1.4632385E1,1.3321045E1,9.860817E0,9.246082E0,6.699005E0,0E0,1.3298481E1,9.72464E0,6.4661255E0,0E0,0E0,0E0,0E0,0E0,0E0,0E0,0E0,0E0,0E0,0E0,0E0,0E0,0E0],"parents":[2147483647,0,0,2,2,3,3,4,4,5,5,6,6,7,7,8,8,9,9,10,10,11,11,12,12,14,14,15,15,16,16],"right_children":[2,-1,4,6,8,10,12,14,16,18,20,22,24,-1,26,28,30,-1,-1,-1,-1,-1,-1,-1,-1,-1,-1,-1,-1,-1,-1],"split_conditions":[4.8669347E-1,-8.487725E-3,9.255005E-1,1E0,3.4945157E-1,4.6671632E-1,1.4705882E-2,4.509804E-1,6.329708E-2,9.1368014E-1,7.734001E-1,2.9710218E-1,1E0,-2.4666095E-3,1.0752688E-1,1E0,1.0909091E-2,-2.7621433E-3,2.0334983E-4,-5.940928E-3,-3.0571271E-3,-4.0098056E-3,-1.0064997E-2,-5.0852313E-3,-3.2434906E-3,-2.751068E-2,-5.3779595E-3,-4.9035368E-3,-3.2288514E-3,1.0886004E-2,-5.4506124E-3],"split_indices":[17,0,17,16,3,3,14,14,9,17,17,10,15,0,13,15,4,0,0,0,0,0,0,0,0,0,0,0,0,0,0],"split_type":[0,0,0,0,0,0,0,0,0,0,0,0,0,0,0,0,0,0,0,0,0,0,0,0,0,0,0,0,0,0,0],"sum_hessian":[4.680416E4,7.2048E2,4.608368E4,2.059953E4,2.548415E4,1.3208692E4,7.390837E3,4.2298916E3,2.125426E4,6.4780093E3,6.7306836E3,7.210675E2,6.6697695E3,4.0550354E3,1.748563E2,9.366429E3,1.1887831E4,5.305381E3,1.172628E3,9.2030695E2,5.810377E3,4.188894E2,3.0217813E2,1.8880833E3,4.781686E3,2.0752722E1,1.5410358E2,4.632998E3,4.7334307E3,1.373045E1,1.1874101E4],"tree_param":{"num_deleted":"0","num_feature":"19","num_nodes":"31","size_leaf_vector":"1"}},{"base_weights":[-1.5471889E-1,-3.2140332E-1,-1.51376E-1,-4.7631782E-1,-4.7887783E-3,-5.0067E-1,-1.5054698E-1,-6.4522414E-3,-1.8661385E-2,-4.262506E-3,-9.838892E-1,-1.6518329E-1,-1.2746942E-1,-0E0,-3.0827148E-2,-4.7382805E-1,-1.6378061E-1,8.307108E-3,-1.2917791E-1,-6.3167945E-3,-1.9896356E-2,-2.160427E-2,-4.134938E-3,-3.3302146E-3,2.8453327E-3],"categories":[],"categories_nodes":[],"categories_segments":[],"categories_sizes":[],"default_left":[0,0,0,0,0,0,0,0,0,0,0,0,0,0,0,0,0,0,0,0,0,0,0,0,0],"id":37,"left_children":[1,3,5,7,-1,9,11,-1,-1,-1,13,15,17,-1,-1,19,21,-1,23,-1,-1,-1,-1,-1,-1],"loss_changes":[2.5430908E1,1.783487E1,1.237207E1,2.2446388E1,0E0,1.5171114E1,1.5069458E1,0E0,0E0,0E0,8.460117E0,1.1212891E1,1.3594147E1,0E0,0E0,6.9829903E0,1.8407898E1,0E0,8.140991E0,0E0,0E0,0E0,0E0,0E0,0E0],"parents":[2147483647,0,0,1,1,2,2,3,3,5,5,6,6,10,10,11,11,12,12,15,15,16,16,18,18],"right_children":[2,4,6,8,-1,10,12,-1,-1,-1,14,16,18,-1,-1,20,22,-1,24,-1,-1,-1,-1,-1,-1],"split_conditions":[5.3194386E-1,5.192308E-1,4.0384614E-1,5.672727E-1,-4.7887783E-3,4.589987E-1,6.375558E-1,-6.4522414E-3,-1.8661385E-2,-4.262506E-3,2.6666668E-1,3.184834E-1,2.2184381E-1,-0E0,-3.0827148E-2,7.3454547E-1,4E-1,8.307108E-3,6.6824645E-1,-6.3167945E-3,-1.9896356E-2,-2.160427E-2,-4.134938E-3,-3.3302146E-3,2.8453327E-3],"split_indices":[17,1,1,4,0,5,18,0,0,0,2,7,7,0,0,4,2,0,7,0,0,0,0,0,0],"split_type":[0,0,0,0,0,0,0,0,0,0,0,0,0,0,0,0,0,0,0,0,0,0,0,0,0],"sum_hessian":[4.6841426E4,9.1186346E2,4.5929562E4,4.1568716E2,4.961763E2,1.0403301E2,4.582553E4,2.2677434E2,1.8891284E2,6.3729805E1,4.0303207E1,2.8003012E4,1.782252E4,8.2552E0,3.2048008E1,1.2141213E2,2.78816E4,6.3362286E1,1.7759156E4,7.340583E1,4.8006306E1,3.937872E1,2.784222E4,1.7626713E4,1.3244368E2],"tree_param":{"num_deleted":"0","num_feature":"19","num_nodes":"25","size_leaf_vector":"1"}},{"base_weights":[-1.5221964E-1,-6.5687406E-1,-1.509383E-1,-7.721841E-1,-0E0,-2.7724147E-1,-1.4694174E-1,-2.2853455E-2,-2.813154E-3,-1.2035876E-2,-5.288122E-3,-1.6227624E-1,-1.3599364E-1,-1.574791E-1,-2.8389463E-1,-1.1844424E-1,-1.7242959E-1,-2.9683085E-3,-4.350265E-3,5.9814113E-3,-7.653078E-3,-6.1304215E-3,-2.8485714E-3,4.3431832E-3,-4.4609825E-3],"categories":[],"categories_nodes":[],"categories_segments":[],"categories_sizes":[],"default_left":[0,0,1,0,0,0,0,0,0,0,0,0,0,0,0,1,0,0,0,0,0,0,0,0,0],"id":38,"left_children":[1,3,5,7,-1,9,11,-1,-1,-1,-1,13,15,17,19,21,23,-1,-1,-1,-1,-1,-1,-1,-1],"loss_changes":[2.9207031E1,9.623318E0,2.3043213E1,7.000702E0,0E0,1.837307E1,7.206421E0,0E0,0E0,0E0,0E0,1.0379517E1,1.6571014E1,9.739166E0,6.4641953E0,1.3459885E1,9.318512E0,0E0,0E0,0E0,0E0,0E0,0E0,0E0,0E0],"parents":[2147483647,0,0,1,1,2,2,3,3,5,5,6,6,11,11,12,12,13,13,14,14,15,15,16,16],"right_children":[2,4,6,8,-1,10,12,-1,-1,-1,-1,14,16,18,20,22,24,-1,-1,-1,-1,-1,-1,-1,-1],"split_conditions":[3.6666667E-1,9.999649E-1,1.9354839E-2,1.5886548E-1,-0E0,5E-1,1.2413616E-1,-2.2853455E-2,-2.813154E-3,-1.2035876E-2,-5.288122E-3,9.5302296E-1,9.507127E-1,3.8329548E-1,4.117647E-1,4.0002316E-3,3.188406E-2,-2.9683085E-3,-4.350265E-3,5.9814113E-3,-7.653078E-3,-6.1304215E-3,-2.8485714E-3,4.3431832E-3,-4.4609825E-3],"split_indices":[2,6,13,9,0,1,10,0,0,0,0,5,17,3,0,12,13,0,0,0,0,0,0,0,0],"split_type":[0,0,0,0,0,0,0,0,0,0,0,0,0,0,0,0,0,0,0,0,0,0,0,0,0],"sum_hessian":[4.69524E4,1.15465324E2,4.6836934E4,9.953129E1,1.5934034E1,1.4249404E3,4.5411992E4,8.1571945E1,1.7959343E1,3.6480652E2,1.0601339E3,1.8861498E4,2.6550496E4,1.8157787E4,7.0371106E2,1.7946352E4,8.6041455E3,4.6128257E3,1.3544961E4,1.9939188E1,6.8377185E2,8.6793207E2,1.7078418E4,7.391139E1,8.530234E3],"tree_param":{"num_deleted":"0","num_feature":"19","num_nodes":"25","size_leaf_vector":"1"}},{"base_weights":[-1.4065932E-1,-1.2004326E-1,-1.5481816E-1,-1.4737801E-1,-1.01731986E-1,-1.5043728E-1,-2.8311476E-1,-1.3662349E-1,-2.5964782E-1,-1.2182495E-1,-5.9582535E-2,-1.2086192E-1,-1.6509005E-1,-4.7831753E-1,-2.1698943E-1,-1.12288535E-1,-2.0100158E-1,1.8775726E-2,-2.7196246E-1,-1.1246325E-1,-3.791794E-1,-1.095434E-1,-2.0581527E-2,-1.6541307E-1,-9.623131E-2,-2.8611773E-1,-1.5679853E-1,-3.3649823E-1,-1.1477047E0,-2.2012658E-2,-4.760205E-3,-1.7289199E-2,-2.7864524E-3,-1.1461079E-2,-4.6847127E-3,-3.426025E-3,-1.065135E-2,-5.611515E-3,-2.573062E-3,-1.2255938E-2,-9.617745E-4,-3.1359473E-3,9.811604E-3,2.5417474E-3,-1.4757277E-3,-3.8074073E-3,-1.0655471E-2,1.4727873E-3,-2.6448087E-3,-8.571915E-3,-2.286386E-3,-4.029434E-3,8.813178E-3,-5.0680926E-3,-1.6473293E-2,2.890192E-3,-3.382063E-2],"categories":[],"categories_nodes":[],"categories_segments":[],"categories_sizes":[],"default_left":[0,0,0,0,0,0,0,1,0,1,0,1,0,0,1,0,1,0,0,0,1,0,1,0,0,1,0,0,0,0,0,0,0,0,0,0,0,0,0,0,0,0,0,0,0,0,0,0,0,0,0,0,0,0,0,0,0],"id":39,"left_children":[1,3,5,7,9,11,13,15,17,19,21,23,25,27,29,31,33,-1,35,37,39,41,43,45,47,49,51,53,55,-1,-1,-1,-1,-1,-1,-1,-1,-1,-1,-1,-1,-1,-1,-1,-1,-1,-1,-1,-1,-1,-1,-1,-1,-1,-1,-1,-1],"loss_changes":[1.3331604E1,9.249847E0,1.5020203E1,8.690643E0,9.500107E0,1.1261169E1,1.0709869E1,1.0532715E1,7.5767555E0,1.8037811E1,7.108774E0,9.453934E0,1.7396729E1,1.90195E1,1.164233E1,6.4722214E0,7.006958E0,0E0,1.2374393E1,8.657707E0,8.706589E0,1.0846895E1,9.518154E0,1.169928E1,7.0776825E0,1.0866631E1,1.4959106E1,6.7781544E0,1.03554E1,0E0,0E0,0E0,0E0,0E0,0E0,0E0,0E0,0E0,0E0,0E0,0E0,0E0,0E0,0E0,0E0,0E0,0E0,0E0,0E0,0E0,0E0,0E0,0E0,0E0,0E0,0E0,0E0],"parents":[2147483647,0,0,1,1,2,2,3,3,4,4,5,5,6,6,7,7,8,8,9,9,10,10,11,11,12,12,13,13,14,14,15,15,16,16,18,18,19,19,20,20,21,21,22,22,23,23,24,24,25,25,26,26,27,27,28,28],"right_children":[2,4,6,8,10,12,14,16,18,20,22,24,26,28,30,32,34,-1,36,38,40,42,44,46,48,50,52,54,56,-1,-1,-1,-1,-1,-1,-1,-1,-1,-1,-1,-1,-1,-1,-1,-1,-1,-1,-1,-1,-1,-1,-1,-1,-1,-1,-1,-1],"split_conditions":[4.477137E-1,6.981818E-1,9.563636E-1,3.137255E-1,6.5907484E-1,6.1454546E-1,4.992385E-1,3.0666667E-1,1.1111111E-2,8.044944E-1,1.0305788E-1,1.5764706E-1,7.968249E-1,2.2260503E-1,1.9354839E-2,3.6666667E-1,4.2445876E-2,1.8775726E-2,9.999628E-1,5E-1,1.9692619E-1,6.0821486E-1,1.2753414E-1,8.666667E-1,4.117647E-1,1.5842246E-1,6.6824645E-1,1.681334E-1,4.061483E-1,-2.2012658E-2,-4.760205E-3,-1.7289199E-2,-2.7864524E-3,-1.1461079E-2,-4.6847127E-3,-3.426025E-3,-1.065135E-2,-5.611515E-3,-2.573062E-3,-1.2255938E-2,-9.617745E-4,-3.1359473E-3,9.811604E-3,2.5417474E-3,-1.4757277E-3,-3.8074073E-3,-1.0655471E-2,1.4727873E-3,-2.6448087E-3,-8.571915E-3,-2.286386E-3,-4.029434E-3,8.813178E-3,-5.0680926E-3,-1.6473293E-2,2.890192E-3,-3.382063E-2],"split_indices":[3,4,4,14,18,4,18,13,13,13,11,13,17,11,13,2,11,0,6,2,11,7,11,2,0,14,7,14,5,0,0,0,0,0,0,0,0,0,0,0,0,0,0,0,0,0,0,0,0,0,0,0,0,0,0,0,0],"split_type":[0,0,0,0,0,0,0,0,0,0,0,0,0,0,0,0,0,0,0,0,0,0,0,0,0,0,0,0,0,0,0,0,0,0,0,0,0,0,0,0,0,0,0,0,0,0,0,0,0,0,0,0,0,0,0,0,0],"sum_hessian":[4.6986094E4,1.9172002E4,2.781409E4,7.6596255E3,1.1512377E4,2.690716E4,9.0693054E2,7.002256E3,6.5736945E2,7.77343E3,3.7389468E3,8.94681E3,1.796035E4,2.233644E2,6.8356616E2,5.0979253E3,1.9043304E3,6.2415247E0,6.511279E2,7.506488E3,2.6694254E2,1.6234465E3,2.1155002E3,3.164504E3,5.7823057E3,1.139804E3,1.6820545E4,1.8671904E2,3.6645355E1,2.711034E1,6.564558E2,2.0316343E1,5.0776094E3,1.1262802E2,1.7917024E3,3.425191E2,3.0860883E2,6.90186E2,6.816302E3,2.0173611E2,6.520642E1,1.5823168E3,4.1129745E1,4.929078E2,1.6225925E3,2.9877178E3,1.7678609E2,2.7200314E2,5.5103027E3,8.978293E2,2.4197464E2,1.6764E4,5.6545853E1,1.3341481E2,5.330423E1,3.741528E0,3.2903824E1],"tree_param":{"num_deleted":"0","num_feature":"19","num_nodes":"57","size_leaf_vector":"1"}},{"base_weights":[-1.4243586E-1,-2.035683E-1,-1.3753483E-1,-1.5134933E-2,-5.008444E-3,-4.233827E-1,-1.3643478E-1,-1.7322443E-2,-2.3766622E-1,-1.13856256E-1,-1.7983049E-1,-8.910939E-2,-1.9456977E-2,-1.5908755E-1,-1.0731814E-1,2.8290392E-3,-4.6080817E-3,-7.4345255E-3,1.1016497E-2,-9.404147E-3,-3.4546196E-3,-2.6048818E-3,-5.8524064E-3],"categories":[],"categories_nodes":[],"categories_segments":[],"categories_sizes":[],"default_left":[1,0,0,0,0,1,0,0,0,0,0,0,0,0,0,0,0,0,0,0,0,0,0],"id":40,"left_children":[1,3,5,-1,-1,7,9,-1,11,13,15,17,-1,19,21,-1,-1,-1,-1,-1,-1,-1,-1],"loss_changes":[1.3571472E1,7.597885E0,1.2865601E1,0E0,0E0,6.408243E0,4.199286E1,0E0,6.4839063E0,8.053406E0,6.714386E0,8.298276E0,0E0,1.6705612E1,1.4234253E1,0E0,0E0,0E0,0E0,0E0,0E0,0E0,0E0],"parents":[2147483647,0,0,1,1,2,2,5,5,6,6,8,8,9,9,10,10,11,11,13,13,14,14],"right_children":[2,4,6,-1,-1,8,10,-1,12,14,16,18,-1,20,22,-1,-1,-1,-1,-1,-1,-1,-1],"split_conditions":[2.4886878E-2,4E-1,4.3333334E-1,-1.5134933E-2,-5.008444E-3,2.5750073E-2,9.4960827E-1,-1.7322443E-2,7.6038235E-1,7.968249E-1,2.929588E-1,2.8824607E-1,-1.9456977E-2,4.8076922E-1,9.563636E-1,2.8290392E-3,-4.6080817E-3,-7.4345255E-3,1.1016497E-2,-9.404147E-3,-3.4546196E-3,-2.6048818E-3,-5.8524064E-3],"split_indices":[14,2,2,0,0,9,17,0,5,17,5,10,0,1,4,0,0,0,0,0,0,0,0],"split_type":[0,0,0,0,0,0,0,0,0,0,0,0,0,0,0,0,0,0,0,0,0,0,0],"sum_hessian":[4.6895582E4,3.4583005E3,4.343728E4,5.1655422E1,3.406645E3,1.6092673E2,4.3276355E4,6.3582146E1,9.734458E1,2.8487752E4,1.4788602E4,7.851677E1,1.8827812E1,3.5698684E3,2.4917883E4,7.266745E1,1.4715935E4,5.856905E1,1.994772E1,3.4581445E2,3.224054E3,2.3994709E4,9.2317535E2],"tree_param":{"num_deleted":"0","num_feature":"19","num_nodes":"23","size_leaf_vector":"1"}},{"base_weights":[-1.382622E-1,-1.0859617E-1,-1.5023243E-1,-7.327159E-2,-1.36413E-1,-1.5360339E-1,-7.45319E-2,-1.8775629E-1,-6.17329E-2,-1.4759094E-1,-8.63899E-4,-4.7107917E-1,-1.5190792E-1,-2.009182E-2,-1.5636606E-3,-1.22506164E-1,-4.532092E-1,-1.6906087E-1,-4.539729E-2,-4.3829736E-1,-1.4287177E-1,-2.2295559E-2,-6.7623607E-3,-2.0925687E-1,-1.4650032E-1,2.3410638E-4,-6.2124236E-3,-2.2979122E-2,-5.546126E-3,9.4635447E-4,-5.308868E-3,-2.655185E-3,-2.6039017E-4,-7.2956053E-3,-2.413959E-2,-8.433488E-3,-3.3896766E-3,-7.876265E-3,-4.2599924E-3,-2.5787358E-3,-4.1595334E-3],"categories":[],"categories_nodes":[],"categories_segments":[],"categories_sizes":[],"default_left":[0,0,0,0,0,0,0,0,0,0,0,0,0,0,0,0,0,0,0,0,0,0,0,0,0,0,0,0,0,0,0,0,0,0,0,0,0,0,0,0,0],"id":41,"left_children":[1,3,5,7,9,11,13,15,17,19,-1,21,23,-1,-1,25,27,29,31,33,35,-1,-1,37,39,-1,-1,-1,-1,-1,-1,-1,-1,-1,-1,-1,-1,-1,-1,-1,-1],"loss_changes":[1.6312134E1,1.3007431E1,8.211731E0,7.56057E0,8.392349E0,1.6324768E1,1.2240302E1,8.486067E0,9.257051E0,8.4953E0,0E0,1.2081142E1,9.364868E0,0E0,0E0,7.325109E0,9.1319065E0,6.0677204E0,9.691917E0,6.179327E0,1.1310059E1,0E0,0E0,1.0710197E1,2.2166504E1,0E0,0E0,0E0,0E0,0E0,0E0,