{"learner":{"attributes":{"best_iteration":"44","best_score":"54.8"},"feature_names":["diffLowPrice_0_1","diffPriceClosePoc_0_3","bearish_repeatAskBid_ratio","perctBB","diffVolCandle_0_1Ratio","VolCandleMeanxRatio","diffPriceClose_VA16PvaH","diffPriceClosePoc_0_2","diffPriceClose_VA6PvaH","perct_VA16P","bearish_volume_quality","diffVolDelta_0_1Ratio","diffHighPrice_0_2","bullish_market_momentum","diffLowPrice_0_2","diffPriceClose_VA6PvaL","diffPriceClose_VA16PvaL","bearish_dsc_ask_bid_delta_imbalance","bearish_market_context_score","deltaTimestampOpeningSection1min","bearish_extrem_revIntensity_ratio_extrem","bullish_repeatAskBid_ratio","bearish_extrem_pressure_ratio_extrem","perct_VA21P","bearish_market_momentum","diffPriceClose_VA16PPoc","bullish_activity_volume_score","diffPriceClosePoc_0_1","bullish_asc_ask_bid_delta_imbalance","bullish_combined_pressure","ratio_delta_vol_VA21P","diffHighPrice_0_3","diffLowPrice_0_5","diffPriceClose_VA11PvaH","bullish_absorption_intensity_repeat_count","diffPriceClose_VA21PPoc","bullish_dsc_dynamics","VolAbv_vol_ratio","bearish_activity_volume_score","bearish_bid_score","bearish_asc_ask_bid_delta_imbalance","is_in_range_5_23","bear_imbalance_high_3","pocDeltaPocVolRatio","bearish_asc_dsc_ratio","extrem_asc_dsc_comparison_bearish_extrem","bullish_absorption_score","bullish_imnbScore_score","bull_imbalance_high_2","diffPriceClose_VA21PvaH","ratio_delta_vol_VA16P","bearish_absorption_intensity_repeat_count","bearish_extrem_abs_ratio_extrem","bullish_ask_score","bearish_extrem_dsc_ratio_extrem","bullish_dsc_ask_bid_imbalance","bearish_absorption_score","bearish_extreme_volume_score","absorption_intensity_repeat_bearish_vol","diffPriceClosePoc_0_5","perct_VA6P","bearish_absorption_ratio","diffHighPrice_0_1","bearish_ask_abs_ratio_abv","VolPocVolCandleRatio","bullish_ask_bid_ratio","bearish_reversal_force","bearish_extrem_zone_volume_ratio_extrem","bearish_asc_dynamics","ratio_delta_vol_VA6P","diffHighPrice_0_4","bearish_bid_ratio","diffPriceCloseVWAP","diffPriceClose_VA21PvaL","extrem_zone_significance_bearish_extrem","diffHighPrice_0_5","deltaTimestampOpeningSection5min","diffLowPrice_0_3","bearish_imnbScore_score","bear_imbalance_high_1","deltaCustomSectionMin","bearish_combined_pressure"],"feature_types":["float","float","float","float","float","float","float","float","float","float","float","float","float","float","float","float","float","float","float","int","float","float","float","float","float","float","float","float","float","float","float","float","float","float","float","float","float","float","float","float","float","int","float","float","float","float","float","float","float","float","float","float","float","float","float","float","float","float","float","float","float","float","float","float","float","float","float","float","float","float","float","float","float","float","float","float","int","float","float","float","int","float"],"gradient_booster":{"model":{"gbtree_model_param":{"num_parallel_tree":"1","num_trees":"95"},"iteration_indptr":[0,1,2,3,4,5,6,7,8,9,10,11,12,13,14,15,16,17,18,19,20,21,22,23,24,25,26,27,28,29,30,31,32,33,34,35,36,37,38,39,40,41,42,43,44,45,46,47,48,49,50,51,52,53,54,55,56,57,58,59,60,61,62,63,64,65,66,67,68,69,70,71,72,73,74,75,76,77,78,79,80,81,82,83,84,85,86,87,88,89,90,91,92,93,94,95],"tree_info":[0,0,0,0,0,0,0,0,0,0,0,0,0,0,0,0,0,0,0,0,0,0,0,0,0,0,0,0,0,0,0,0,0,0,0,0,0,0,0,0,0,0,0,0,0,0,0,0,0,0,0,0,0,0,0,0,0,0,0,0,0,0,0,0,0,0,0,0,0,0,0,0,0,0,0,0,0,0,0,0,0,0,0,0,0,0,0,0,0,0,0,0,0,0,0],"trees":[{"base_weights":[-3.6696592E-1,-1.0175534E0,-3.6468363E-1,-0E0,-1.185215E0,-5.3151727E-1,-3.5732406E-1,-9.182133E-2,-0E0,-6.261321E-2,-3.2056164E-2,-2.9305346E-2,-2.3413794E-2],"categories":[],"categories_nodes":[],"categories_segments":[],"categories_sizes":[],"default_left":[0,0,0,0,0,0,0,0,0,0,0,0,0],"id":0,"left_children":[1,3,5,-1,7,9,11,-1,-1,-1,-1,-1,-1],"loss_changes":[5.3665527E1,2.5476624E1,4.583008E1,0E0,1.5334915E1,4.1947723E1,5.9192383E1,0E0,0E0,0E0,0E0,0E0,0E0],"parents":[2147483647,0,0,1,1,2,2,4,4,5,5,6,6],"right_children":[2,4,6,-1,8,10,12,-1,-1,-1,-1,-1,-1],"split_conditions":[-5E-1,-5.302E-1,6.666667E-1,-0E0,2.5E0,-2.5E-1,-6.278355E-2,-9.182133E-2,-0E0,-6.261321E-2,-3.2056164E-2,-2.9305346E-2,-2.3413794E-2],"split_indices":[27,3,2,0,14,7,18,0,0,0,0,0,0],"split_type":[0,0,0,0,0,0,0,0,0,0,0,0,0],"sum_hessian":[4.198572E4,1.3655281E2,4.1849168E4,1.7903969E1,1.1864885E2,1.731291E3,4.0117875E4,1.1134501E2,7.3038383E0,3.3187323E2,1.3994178E3,1.52933955E4,2.482448E4],"tree_param":{"num_deleted":"0","num_feature":"82","num_nodes":"13","size_leaf_vector":"1"}},{"base_weights":[-3.4720805E-1,-9.6359956E-1,-3.4461004E-1,-5.4480845E-1,-1.530004E0,-3.04826E-1,-3.8299617E-1,-0E0,-5.5391554E-2,-1.4359686E-1,-1.4278211E-2,-2.926254E-2,-2.1119911E-2,-2.2883922E-2,-2.9393822E-2],"categories":[],"categories_nodes":[],"categories_segments":[],"categories_sizes":[],"default_left":[0,0,0,0,0,0,0,0,0,0,0,0,0,0,0],"id":1,"left_children":[1,3,5,7,9,11,13,-1,-1,-1,-1,-1,-1,-1,-1],"loss_changes":[5.906006E1,2.6224792E1,5.9608887E1,1.0254112E1,2.6295578E1,1.8571411E1,3.121997E1,0E0,0E0,0E0,0E0,0E0,0E0,0E0,0E0],"parents":[2147483647,0,0,1,1,2,2,3,3,4,4,5,5,6,6],"right_children":[2,4,6,8,10,12,14,-1,-1,-1,-1,-1,-1,-1,-1],"split_conditions":[-7.5E-1,4E-2,7.087421E-1,-2.75E0,1E0,1.1035406E-2,8.4E2,-0E0,-5.5391554E-2,-1.4359686E-1,-1.4278211E-2,-2.926254E-2,-2.1119911E-2,-2.2883922E-2,-2.9393822E-2],"split_indices":[12,9,46,31,14,26,19,0,0,0,0,0,0,0,0],"split_type":[0,0,0,0,0,0,0,0,0,0,0,0,0,0,0],"sum_hessian":[4.200169E4,1.6555592E2,4.1836137E4,1.020052E2,6.355072E1,2.0624816E4,2.121132E4,3.4089138E1,6.791607E1,4.3395855E1,2.0154863E1,1.9186003E3,1.8706215E4,6.1901646E3,1.5021155E4],"tree_param":{"num_deleted":"0","num_feature":"82","num_nodes":"15","size_leaf_vector":"1"}},{"base_weights":[-3.147831E-1,-7.710838E-1,-3.1027687E-1,-8.939939E-1,-1.475385E-4,-3.155627E-1,-2.5053445E-2,-4.8422463E-2,-9.697316E-2,-7.883516E-2,-2.2534415E-2,-7.612922E-3,2.197496E-2],"categories":[],"categories_nodes":[],"categories_segments":[],"categories_sizes":[],"default_left":[0,0,0,0,0,0,0,0,0,0,0,0,0],"id":2,"left_children":[1,3,5,7,-1,9,11,-1,-1,-1,-1,-1,-1],"loss_changes":[8.0395996E1,3.2388916E1,6.1208008E1,2.1065216E1,0E0,5.2320312E1,1.9827887E1,0E0,0E0,0E0,0E0,0E0,0E0],"parents":[2147483647,0,0,1,1,2,2,3,3,5,5,6,6],"right_children":[2,4,6,8,-1,10,12,-1,-1,-1,-1,-1,-1],"split_conditions":[2.5E-1,1.054756E-2,1.25E0,2.2107969E-1,-1.475385E-4,-7.5E-1,5.646688E-1,-4.8422463E-2,-9.697316E-2,-7.883516E-2,-2.2534415E-2,-7.612922E-3,2.197496E-2],"split_indices":[0,18,0,20,0,12,51,0,0,0,0,0,0],"split_type":[0,0,0,0,0,0,0,0,0,0,0,0,0],"sum_hessian":[4.2387168E4,4.003084E2,4.198686E4,3.3819238E2,6.2116043E1,4.1201727E4,7.851305E2,2.3806683E2,1.0012555E2,9.125821E1,4.111047E4,6.4606604E2,1.3906447E2],"tree_param":{"num_deleted":"0","num_feature":"82","num_nodes":"13","size_leaf_vector":"1"}},{"base_weights":[-2.9511955E-1,-2.560891E-1,-3.311176E-1,-6.15392E-1,-2.5097188E-1,-3.3668622E-1,1.01226084E-1,-5.539988E-2,-3.0908007E-3,-1.2142462E-2,-1.933011E-2,-5.355137E-2,-2.3793899E-2,-2.846959E-2,4.67794E-2],"categories":[],"categories_nodes":[],"categories_segments":[],"categories_sizes":[],"default_left":[0,0,0,0,0,0,0,0,0,0,0,0,0,0,0],"id":3,"left_children":[1,3,5,7,9,11,13,-1,-1,-1,-1,-1,-1,-1,-1],"loss_changes":[5.6172363E1,3.2315796E1,5.4584717E1,1.9128174E1,2.7298218E1,4.2184814E1,7.474048E1,0E0,0E0,0E0,0E0,0E0,0E0,0E0,0E0],"parents":[2147483647,0,0,1,1,2,2,3,3,4,4,5,5,6,6],"right_children":[2,4,6,8,10,12,14,-1,-1,-1,-1,-1,-1,-1,-1],"split_conditions":[6.76411E-1,2.5E-1,1.75E0,3.330235E-1,-1.94749E1,-3.236715E-1,-4.2424243E-2,-5.539988E-2,-3.0908007E-3,-1.2142462E-2,-1.933011E-2,-5.355137E-2,-2.3793899E-2,-2.846959E-2,4.67794E-2],"split_indices":[46,0,0,26,72,69,11,0,0,0,0,0,0,0,0],"split_type":[0,0,0,0,0,0,0,0,0,0,0,0,0,0,0],"sum_hessian":[4.25753E4,2.0511121E4,2.2064182E4,2.7029593E2,2.0240824E4,2.1797734E4,2.6644748E2,2.039101E2,6.638582E1,3.7222131E3,1.6518611E4,2.73213E2,2.1524521E4,1.3410927E2,1.323382E2],"tree_param":{"num_deleted":"0","num_feature":"82","num_nodes":"15","size_leaf_vector":"1"}},{"base_weights":[-2.6463494E-1,-5.832157E-1,-2.6072866E-1,-6.7297643E-1,-0E0,-6.4018404E-1,-2.5721005E-1,-6.1209194E-2,-3.1931493E-2,-6.1135117E-2,-2.5314296E-2,-1.5621482E-2,-2.0194376E-2],"categories":[],"categories_nodes":[],"categories_segments":[],"categories_sizes":[],"default_left":[0,0,0,0,0,0,0,0,0,0,0,0,0],"id":4,"left_children":[1,3,5,7,-1,9,11,-1,-1,-1,-1,-1,-1],"loss_changes":[4.8104736E1,3.025534E1,5.0991943E1,9.937637E0,0E0,1.5087082E1,3.6808105E1,0E0,0E0,0E0,0E0,0E0,0E0],"parents":[2147483647,0,0,1,1,2,2,3,3,5,5,6,6],"right_children":[2,4,6,8,-1,10,12,-1,-1,-1,-1,-1,-1],"split_conditions":[2.4601135E-3,1.5E0,2.5E-1,7.5E-1,-0E0,5E-1,9.1150445E-1,-6.1209194E-2,-3.1931493E-2,-6.1135117E-2,-2.5314296E-2,-1.5621482E-2,-2.0194376E-2],"split_indices":[38,0,0,14,0,62,21,0,0,0,0,0,0],"split_type":[0,0,0,0,0,0,0,0,0,0,0,0,0],"sum_hessian":[4.2879926E4,4.9942908E2,4.2380496E4,4.4175977E2,5.7669327E1,3.7247427E2,4.200802E4,2.3184204E2,2.0991772E2,2.0211357E2,1.703607E2,1.5859856E4,2.6148166E4],"tree_param":{"num_deleted":"0","num_feature":"82","num_nodes":"13","size_leaf_vector":"1"}},{"base_weights":[-2.4769934E-1,-2.3619904E-1,-3.5073572E-1,-6.0168535E-1,-2.324037E-1,-3.6610094E-1,-5.5833384E-3,-6.9637194E-2,-2.5825864E-2,-1.6958432E-2,5.9200637E-3,-2.7434928E-2,-1.5064336E-3],"categories":[],"categories_nodes":[],"categories_segments":[],"categories_sizes":[],"default_left":[0,0,0,0,0,0,0,0,0,0,0,0,0],"id":5,"left_children":[1,3,5,7,9,11,-1,-1,-1,-1,-1,-1,-1],"loss_changes":[4.7173584E1,4.84021E1,1.5096863E1,2.5509857E1,4.48667E1,1.9321045E1,0E0,0E0,0E0,0E0,0E0,0E0,0E0],"parents":[2147483647,0,0,1,1,2,2,3,3,4,4,5,5],"right_children":[2,4,6,8,10,12,-1,-1,-1,-1,-1,-1,-1],"split_conditions":[4.2446835E1,2.5E-1,5E0,1.0061696E0,1.75E0,2.6109216E-1,-5.5833384E-3,-6.9637194E-2,-2.5825864E-2,-1.6958432E-2,5.9200637E-3,-2.7434928E-2,-1.5064336E-3],"split_indices":[10,0,1,5,0,20,0,0,0,0,0,0,0],"split_type":[0,0,0,0,0,0,0,0,0,0,0,0,0],"sum_hessian":[4.288635E4,3.8635395E4,4.2509575E3,3.796084E2,3.825579E4,4.0030183E3,2.4793912E2,1.4007861E2,2.3952977E2,3.7837152E4,4.1863403E2,3.8109956E3,1.9202269E2],"tree_param":{"num_deleted":"0","num_feature":"82","num_nodes":"13","size_leaf_vector":"1"}},{"base_weights":[-2.3585756E-1,-2.2651696E-1,-3.2321823E-1,-4.037836E-1,-2.2112492E-1,-3.3303177E-1,9.942306E-3,-4.1511565E-2,-6.8992004E-3,-4.5002755E-2,-1.5625406E-2,-1.3986706E-3,-2.4791596E-2],"categories":[],"categories_nodes":[],"categories_segments":[],"categories_sizes":[],"default_left":[0,0,1,0,0,0,0,0,0,0,0,0,0],"id":6,"left_children":[1,3,5,7,9,11,-1,-1,-1,-1,-1,-1,-1],"loss_changes":[3.1695068E1,3.333191E1,1.975122E1,5.555652E1,5.0383545E1,1.29461975E1,0E0,0E0,0E0,0E0,0E0,0E0,0E0],"parents":[2147483647,0,0,1,1,2,2,3,3,4,4,5,5],"right_children":[2,4,6,8,10,12,-1,-1,-1,-1,-1,-1,-1],"split_conditions":[1.7398574E0,-5E-1,8.25E0,2.0880422E-1,2.5E-1,2.804878E-1,9.942306E-3,-4.1511565E-2,-6.8992004E-3,-4.5002755E-2,-1.5625406E-2,-1.3986706E-3,-2.4791596E-2],"split_indices":[56,7,35,56,0,71,0,0,0,0,0,0,0],"split_type":[0,0,0,0,0,0,0,0,0,0,0,0,0],"sum_hessian":[4.3022984E4,3.8932465E4,4.0905186E3,1.1145344E3,3.781793E4,4.018526E3,7.199246E1,6.989086E2,4.1562576E2,3.1988147E2,3.749805E4,1.6761647E2,3.8509094E3],"tree_param":{"num_deleted":"0","num_feature":"82","num_nodes":"13","size_leaf_vector":"1"}},{"base_weights":[-2.1219905E-1,-3.187241E-1,-2.0391648E-1,-5.815589E-1,-2.8417867E-1,-1.625659E-1,-2.3509829E-1,-2.4661237E-2,-6.259187E-2,-1.2762927E-2,-2.5962885E-2,-1.5873587E-2,-9.101605E-3,-1.711642E-2,1.6163094E-2],"categories":[],"categories_nodes":[],"categories_segments":[],"categories_sizes":[],"default_left":[1,0,0,0,0,0,0,0,0,0,0,0,0,0,0],"id":7,"left_children":[1,3,5,7,9,11,13,-1,-1,-1,-1,-1,-1,-1,-1],"loss_changes":[3.4792725E1,2.2344177E1,4.9183105E1,1.5432144E1,1.9048355E1,3.4100586E1,3.3085815E1,0E0,0E0,0E0,0E0,0E0,0E0,0E0,0E0],"parents":[2147483647,0,0,1,1,2,2,3,3,4,4,5,5,6,6],"right_children":[2,4,6,8,10,12,14,-1,-1,-1,-1,-1,-1,-1,-1],"split_conditions":[3.4883723E-2,-2.5E-1,9.089431E-1,2.0833333E-1,6.984E-1,4.3267778E-1,1E0,-2.4661237E-2,-6.259187E-2,-1.2762927E-2,-2.5962885E-2,-1.5873587E-2,-9.101605E-3,-1.711642E-2,1.6163094E-2],"split_indices":[22,7,2,60,3,58,43,0,0,0,0,0,0,0,0],"split_type":[0,0,0,0,0,0,0,0,0,0,0,0,0,0,0],"sum_hessian":[4.3107152E4,3.05501E3,4.005214E4,3.332823E2,2.7217278E3,1.7304502E4,2.2747639E4,1.9511578E2,1.381665E2,1.1778285E3,1.5438993E3,6.520284E3,1.0784218E4,2.2606412E4,1.4122728E2],"tree_param":{"num_deleted":"0","num_feature":"82","num_nodes":"15","size_leaf_vector":"1"}},{"base_weights":[-1.9575764E-1,-2.0157973E-1,-1.3419704E-2,-1.8345393E-1,-2.6226047E-1,-9.171193E-2,1.8235846E-1,-5.367223E-2,-1.2988087E-2,9.923707E-3,-1.9340927E-2,3.0030042E-3,-1.1519926E-2,-2.199014E-3,2.075038E-2],"categories":[],"categories_nodes":[],"categories_segments":[],"categories_sizes":[],"default_left":[0,0,0,0,0,0,0,0,0,0,0,0,0,0,0],"id":8,"left_children":[1,3,5,7,9,11,13,-1,-1,-1,-1,-1,-1,-1,-1],"loss_changes":[4.4690796E1,4.3400024E1,2.0517384E1,4.2958008E1,2.7473877E1,9.93548E0,9.987308E0,0E0,0E0,0E0,0E0,0E0,0E0,0E0,0E0],"parents":[2147483647,0,0,1,1,2,2,3,3,4,4,5,5,6,6],"right_children":[2,4,6,8,10,12,14,-1,-1,-1,-1,-1,-1,-1,-1],"split_conditions":[9.2980854E-2,6.194043E-1,7.0392907E-1,-2.5E-1,1.0782914E0,2.506964E-1,2.5517242E0,-5.367223E-2,-1.2988087E-2,9.923707E-3,-1.9340927E-2,3.0030042E-3,-1.1519926E-2,-2.199014E-3,2.075038E-2],"split_indices":[17,57,57,62,10,28,52,0,0,0,0,0,0,0,0],"split_type":[0,0,0,0,0,0,0,0,0,0,0,0,0,0,0],"sum_hessian":[4.3341445E4,4.1967703E4,1.3737434E3,3.2394469E4,9.573233E3,1.0039017E3,3.6984167E2,1.4111673E2,3.2253352E4,1.4815636E2,9.425076E3,3.1058197E2,6.933197E2,1.0419012E2,2.6565155E2],"tree_param":{"num_deleted":"0","num_feature":"82","num_nodes":"15","size_leaf_vector":"1"}},{"base_weights":[-1.8542916E-1,-2.1852066E-1,-1.4135332E-1,-8.598415E-1,-2.149047E-1,-1.0352369E-1,-1.7118889E-1,-2.6218731E-2,-8.81421E-2,-5.9402794E-2,-1.5285844E-2,-4.8136115E-3,-1.22366855E-2,-1.9307243E-2,-1.0802764E-2],"categories":[],"categories_nodes":[],"categories_segments":[],"categories_sizes":[],"default_left":[1,0,0,1,0,1,0,0,0,0,0,0,0,0,0],"id":9,"left_children":[1,3,5,7,9,11,13,-1,-1,-1,-1,-1,-1,-1,-1],"loss_changes":[6.1037598E1,5.0571655E1,1.9389587E1,1.3384499E1,2.5637207E1,1.885823E1,1.8435547E1,0E0,0E0,0E0,0E0,0E0,0E0,0E0,0E0],"parents":[2147483647,0,0,1,1,2,2,3,3,4,4,5,5,6,6],"right_children":[2,4,6,8,10,12,14,-1,-1,-1,-1,-1,-1,-1,-1],"split_conditions":[2.146154E0,-7.5E-1,2.5211409E-4,-3.7037036E-1,-2.5E-1,2.983061E-2,-1.2918745E-1,-2.6218731E-2,-8.81421E-2,-5.9402794E-2,-1.5285844E-2,-4.8136115E-3,-1.22366855E-2,-1.9307243E-2,-1.0802764E-2],"split_indices":[52,12,13,9,62,81,18,0,0,0,0,0,0,0,0],"split_type":[0,0,0,0,0,0,0,0,0,0,0,0,0,0,0],"sum_hessian":[4.3373254E4,2.4692887E4,1.8680367E4,1.2822969E2,2.4564656E4,8.328438E3,1.035193E4,6.217196E1,6.6057724E1,7.47422E1,2.4489914E4,5.4447007E3,2.883738E3,1.7678933E3,8.584036E3],"tree_param":{"num_deleted":"0","num_feature":"82","num_nodes":"15","size_leaf_vector":"1"}},{"base_weights":[-1.6929299E-1,-5.4554975E-1,-1.6552377E-1,-6.206974E-2,-6.9399875E-1,-1.2158326E-1,-1.8767297E-1,1.8235141E-2,-2.6786184E-2,-1.0798626E-1,-4.0601674E-2,-1.7411185E-2,-7.51248E-3,-1.3708187E-2,8.681144E-3],"categories":[],"categories_nodes":[],"categories_segments":[],"categories_sizes":[],"default_left":[0,1,0,0,0,0,0,0,0,0,0,0,0,0,0],"id":10,"left_children":[1,3,5,7,9,11,13,-1,-1,-1,-1,-1,-1,-1,-1],"loss_changes":[5.718506E1,2.5080696E1,3.9958374E1,1.1347438E1,1.88965E1,2.7676819E1,2.8020752E1,0E0,0E0,0E0,0E0,0E0,0E0,0E0,0E0],"parents":[2147483647,0,0,1,1,2,2,3,3,4,4,5,5,6,6],"right_children":[2,4,6,8,10,12,14,-1,-1,-1,-1,-1,-1,-1,-1],"split_conditions":[2.5E-1,-5E-1,-5.71E0,1E0,-5E-1,0E0,1.75E0,1.8235141E-2,-2.6786184E-2,-1.0798626E-1,-4.0601674E-2,-1.7411185E-2,-7.51248E-3,-1.3708187E-2,8.681144E-3],"split_indices":[0,25,72,41,62,70,0,0,0,0,0,0,0,0,0],"split_type":[0,0,0,0,0,0,0,0,0,0,0,0,0,0,0],"sum_hessian":[4.3432098E4,4.1387302E2,4.3018227E4,1.0711034E2,3.0676266E2,1.4511051E4,2.8507176E4,4.337506E1,6.3735275E1,3.482494E1,2.7193774E2,1.7465419E3,1.2764509E4,2.8240219E4,2.6695615E2],"tree_param":{"num_deleted":"0","num_feature":"82","num_nodes":"15","size_leaf_vector":"1"}},{"base_weights":[-1.5398009E-1,-2.8706586E-1,-1.4623755E-1,-4.021786E-1,-1.8143585E-1,-1.5272714E-1,9.658489E-3,-4.6670258E-2,-2.015496E-2,-2.711456E-3,-1.8378029E-2,-1.45863E-2,-9.7221425E-3,-6.6013206E-3,7.059129E-3],"categories":[],"categories_nodes":[],"categories_segments":[],"categories_sizes":[],"default_left":[1,0,0,0,1,0,0,0,0,0,0,0,0,0,0],"id":11,"left_children":[1,3,5,7,9,11,13,-1,-1,-1,-1,-1,-1,-1,-1],"loss_changes":[4.2260864E1,2.5000748E1,4.2622986E1,2.724614E1,1.1618866E1,3.2618164E1,1.4543983E1,0E0,0E0,0E0,0E0,0E0,0E0,0E0,0E0],"parents":[2147483647,0,0,1,1,2,2,3,3,4,4,5,5,6,6],"right_children":[2,4,6,8,10,12,14,-1,-1,-1,-1,-1,-1,-1,-1],"split_conditions":[7.302028E-5,6.7741936E-1,7.8228086E-2,7.5E-1,-1E0,-4.3579154E-2,7.892562E-2,-4.6670258E-2,-2.015496E-2,-2.711456E-3,-1.8378029E-2,-1.45863E-2,-9.7221425E-3,-6.6013206E-3,7.059129E-3],"split_indices":[10,2,17,77,49,81,54,0,0,0,0,0,0,0,0],"split_type":[0,0,0,0,0,0,0,0,0,0,0,0,0,0,0],"sum_hessian":[4.3614242E4,2.3532334E3,4.1261008E4,1.0975647E3,1.2556686E3,3.9649844E4,1.6111631E3,3.4433994E2,7.532248E2,4.566651E2,7.9900354E2,1.009854E4,2.9551305E4,7.1846136E2,8.9270166E2],"tree_param":{"num_deleted":"0","num_feature":"82","num_nodes":"15","size_leaf_vector":"1"}},{"base_weights":[-1.4408055E-1,-1.3115433E-1,-2.1090396E-1,-2.656489E-1,-1.2290447E-1,-1.478555E-1,-2.4594384E-1,-4.896973E-2,-1.7042695E-2,-9.118954E-3,8.42034E-3,-6.2129516E-3,-1.6777273E-2,-1.3423559E-2,-2.2679131E-2],"categories":[],"categories_nodes":[],"categories_segments":[],"categories_sizes":[],"default_left":[0,0,0,0,0,0,0,0,0,0,0,0,0,0,0],"id":12,"left_children":[1,3,5,7,9,11,13,-1,-1,-1,-1,-1,-1,-1,-1],"loss_changes":[3.563452E1,3.831537E1,1.3041138E1,1.8841064E1,3.3527283E1,1.1520695E1,1.51813965E1,0E0,0E0,0E0,0E0,0E0,0E0,0E0,0E0],"parents":[2147483647,0,0,1,1,2,2,3,3,4,4,5,5,6,6],"right_children":[2,4,6,8,10,12,14,-1,-1,-1,-1,-1,-1,-1,-1],"split_conditions":[9.484622E-1,6.7741936E-1,5.5045873E-2,2.5E-1,1.25E0,6.636971E-1,5.530075E-4,-4.896973E-2,-1.7042695E-2,-9.118954E-3,8.42034E-3,-6.2129516E-3,-1.6777273E-2,-1.3423559E-2,-2.2679131E-2],"split_indices":[2,2,55,0,0,37,24,0,0,0,0,0,0,0,0],"split_type":[0,0,0,0,0,0,0,0,0,0,0,0,0,0,0],"sum_hessian":[4.3700668E4,3.669569E4,7.004973E3,2.0768757E3,3.4618816E4,2.565911E3,4.4390625E3,1.18262054E2,1.9586138E3,3.4073406E4,5.4541003E2,1.5372897E3,1.0286212E3,2.4514773E3,1.9875851E3],"tree_param":{"num_deleted":"0","num_feature":"82","num_nodes":"15","size_leaf_vector":"1"}},{"base_weights":[-1.2984313E-1,-1.2501575E-1,-3.1136763E-1,-1.3029367E-1,5.0556012E-3,-2.519362E-2,-3.4263023E-4,-9.086564E-3,-2.1633474E-2,8.138026E-3,-5.2035055E-3],"categories":[],"categories_nodes":[],"categories_segments":[],"categories_sizes":[],"default_left":[0,0,0,0,0,0,0,0,0,0,0],"id":13,"left_children":[1,3,5,7,9,-1,-1,-1,-1,-1,-1],"loss_changes":[3.5582275E1,3.0005005E1,1.1056267E1,2.4056519E1,1.3804565E1,0E0,0E0,0E0,0E0,0E0,0E0],"parents":[2147483647,0,0,1,1,2,2,3,3,4,4],"right_children":[2,4,6,8,10,-1,-1,-1,-1,-1,-1],"split_conditions":[5.5298694E2,7.8228086E-2,1.7563291E-1,2.661827E-1,2.705176E-3,-2.519362E-2,-3.4263023E-4,-9.086564E-3,-2.1633474E-2,8.138026E-3,-5.2035055E-3],"split_indices":[10,17,20,50,13,0,0,0,0,0,0],"split_type":[0,0,0,0,0,0,0,0,0,0,0],"sum_hessian":[4.3684355E4,4.2586527E4,1.0978302E3,4.0971207E4,1.6153201E3,9.5526227E2,1.425679E2,4.0112305E4,8.5890265E2,7.069256E2,9.083945E2],"tree_param":{"num_deleted":"0","num_feature":"82","num_nodes":"11","size_leaf_vector":"1"}},{"base_weights":[-1.2537299E-1,-1.2859052E-1,1.7175663E-1,-6.224569E-1,-1.2655027E-1,4.9566048E-1,-3.1317794E-3,-1.1016373E-2,-7.1082875E-2,-3.1961452E-2,-8.880758E-3,5.150426E-2,-0E0],"categories":[],"categories_nodes":[],"categories_segments":[],"categories_sizes":[],"default_left":[0,0,0,1,0,0,0,0,0,0,0,0,0],"id":14,"left_children":[1,3,5,7,9,11,-1,-1,-1,-1,-1,-1,-1],"loss_changes":[4.159143E1,3.901367E1,3.4082108E1,2.1437698E1,3.6818115E1,2.0592422E1,0E0,0E0,0E0,0E0,0E0,0E0,0E0],"parents":[2147483647,0,0,1,1,2,2,3,3,4,4,5,5],"right_children":[2,4,6,8,10,12,-1,-1,-1,-1,-1,-1,-1],"split_conditions":[1.75E0,-7.5E-1,2.25E0,-1E0,2.5E-1,8.4289616E-1,-3.1317794E-3,-1.1016373E-2,-7.1082875E-2,-3.1961452E-2,-8.880758E-3,5.150426E-2,-0E0],"split_indices":[0,12,14,35,0,5,0,0,0,0,0,0,0],"split_type":[0,0,0,0,0,0,0,0,0,0,0,0,0],"sum_hessian":[4.3768758E4,4.33206E4,4.4815717E2,1.6519548E2,4.3155406E4,1.9007344E2,2.580837E2,8.01743E1,8.502118E1,3.7456973E2,4.2780836E4,1.3064954E2,5.94239E1],"tree_param":{"num_deleted":"0","num_feature":"82","num_nodes":"13","size_leaf_vector":"1"}},{"base_weights":[-1.15100645E-1,-2.4526994E-1,-1.0754954E-1,-3.5896033E-1,-1.3899437E-1,-8.579039E-2,-1.437338E-1,-1.3511225E-2,-3.942838E-2,1.1142007E-2,-1.3935066E-2,-6.3948315E-3,1.5509309E-2,-1.5003469E-2,-8.653545E-3],"categories":[],"categories_nodes":[],"categories_segments":[],"categories_sizes":[],"default_left":[0,0,1,0,1,0,0,0,0,0,0,0,0,0,0],"id":15,"left_children":[1,3,5,7,9,11,13,-1,-1,-1,-1,-1,-1,-1,-1],"loss_changes":[4.0928772E1,2.5428833E1,3.125769E1,3.1497498E1,2.0435968E1,2.4519073E1,2.1425323E1,0E0,0E0,0E0,0E0,0E0,0E0,0E0,0E0],"parents":[2147483647,0,0,1,1,2,2,3,3,4,4,5,5,6,6],"right_children":[2,4,6,8,10,12,14,-1,-1,-1,-1,-1,-1,-1,-1],"split_conditions":[7E-1,1.5E0,3.5578094E-4,8.4E2,-5.4054055E-2,1.75E0,9.2204845E-1,-1.3511225E-2,-3.942838E-2,1.1142007E-2,-1.3935066E-2,-6.3948315E-3,1.5509309E-2,-1.5003469E-2,-8.653545E-3],"split_indices":[2,59,24,19,23,0,5,0,0,0,0,0,0,0,0],"split_type":[0,0,0,0,0,0,0,0,0,0,0,0,0,0,0],"sum_hessian":[4.3855977E4,2.359125E3,4.149685E4,1.1112991E3,1.2478258E3,2.6020785E4,1.5476069E4,6.024202E2,5.088789E2,1.7878882E2,1.069037E3,2.576635E4,2.5443443E2,4.0060747E3,1.1469994E4],"tree_param":{"num_deleted":"0","num_feature":"82","num_nodes":"15","size_leaf_vector":"1"}},{"base_weights":[-1.1412785E-1,-1.8828164E-1,-1.0179248E-1,-4.571196E-1,-1.620888E-1,-7.526175E-2,-1.3600968E-1,-4.7051884E-2,-1.326045E-2,-1.0395916E-2,-2.1503534E-2,-5.058795E-3,-2.10844E-2,-1.0267246E-2,2.0340037E-2],"categories":[],"categories_nodes":[],"categories_segments":[],"categories_sizes":[],"default_left":[0,0,0,1,1,0,0,0,0,0,0,0,0,0,0],"id":16,"left_children":[1,3,5,7,9,11,13,-1,-1,-1,-1,-1,-1,-1,-1],"loss_changes":[3.8253357E1,3.9622726E1,3.283673E1,2.3189484E1,1.0721207E1,2.0267159E1,4.638797E1,0E0,0E0,0E0,0E0,0E0,0E0,0E0,0E0],"parents":[2147483647,0,0,1,1,2,2,3,3,4,4,5,5,6,6],"right_children":[2,4,6,8,10,12,14,-1,-1,-1,-1,-1,-1,-1,-1],"split_conditions":[5E-1,3.046875E-1,3.5009775E-1,1.2755574E-1,1.2058823E0,2.5748503E-1,1E0,-4.7051884E-2,-1.326045E-2,-1.0395916E-2,-2.1503534E-2,-5.058795E-3,-2.10844E-2,-1.0267246E-2,2.0340037E-2],"split_indices":[0,71,57,46,23,30,43,0,0,0,0,0,0,0,0],"split_type":[0,0,0,0,0,0,0,0,0,0,0,0,0,0,0],"sum_hessian":[4.3776348E4,6.171511E3,3.760484E4,5.2633746E2,5.645174E3,2.1283457E4,1.6321382E4,2.9150723E2,2.3483022E2,5.051073E3,5.9410065E2,2.0849207E4,4.3424985E2,1.6071652E4,2.4972939E2],"tree_param":{"num_deleted":"0","num_feature":"82","num_nodes":"15","size_leaf_vector":"1"}},{"base_weights":[-9.836125E-2,-1.3461465E-1,-7.843978E-2,-9.4686866E-2,-1.5968372E-1,-1.378075E-1,-5.7604194E-2,-1.602914E-2,-5.4228823E-3,-4.1956278E-3,-1.28018595E-2,-3.5962833E-3,-1.2460392E-2,4.6426637E-4,-6.0707782E-3],"categories":[],"categories_nodes":[],"categories_segments":[],"categories_sizes":[],"default_left":[0,1,0,0,0,0,1,0,0,0,0,0,0,0,0],"id":17,"left_children":[1,3,5,7,9,11,13,-1,-1,-1,-1,-1,-1,-1,-1],"loss_changes":[3.0367096E1,1.3891815E1,3.3950302E1,1.3087952E1,1.6152512E1,2.1468246E1,3.686225E1,0E0,0E0,0E0,0E0,0E0,0E0,0E0,0E0],"parents":[2147483647,0,0,1,1,2,2,3,3,4,4,5,5,6,6],"right_children":[2,4,6,8,10,12,14,-1,-1,-1,-1,-1,-1,-1,-1],"split_conditions":[-6.7007646E-2,9.259259E-3,1E0,1.1481482E-1,2.5684932E-1,8.4E2,2.5714287E-1,-1.602914E-2,-5.4228823E-3,-4.1956278E-3,-1.28018595E-2,-3.5962833E-3,-1.2460392E-2,4.6426637E-4,-6.0707782E-3],"split_indices":[18,36,31,68,68,19,23,0,0,0,0,0,0,0,0],"split_type":[0,0,0,0,0,0,0,0,0,0,0,0,0,0,0],"sum_hessian":[4.386405E4,1.5445335E4,2.8418717E4,6.0525884E3,9.392746E3,7.305473E3,2.1113244E4,7.4502924E2,5.307559E3,1.5028629E3,7.8898833E3,2.159915E3,5.145558E3,6.17564E3,1.49376045E4],"tree_param":{"num_deleted":"0","num_feature":"82","num_nodes":"15","size_leaf_vector":"1"}},{"base_weights":[-8.980857E-2,-2.7655917E-1,-8.526214E-2,-5.198103E-1,-1.7630275E-1,-4.65255E-2,-9.975148E-2,-2.6524736E-2,-8.424215E-2,-1.6307836E-2,2.0491488E-2,-7.5928285E-3,-1.6417862E-3,-5.0514224E-3,-9.438731E-3],"categories":[],"categories_nodes":[],"categories_segments":[],"categories_sizes":[],"default_left":[1,0,0,0,0,0,0,0,0,0,0,0,0,0,0],"id":18,"left_children":[1,3,5,7,9,11,13,-1,-1,-1,-1,-1,-1,-1,-1],"loss_changes":[3.5008545E1,2.0314949E1,2.3151886E1,1.7512268E1,1.684878E1,1.5710697E1,2.7689392E1,0E0,0E0,0E0,0E0,0E0,0E0,0E0,0E0],"parents":[2147483647,0,0,1,1,2,2,3,3,4,4,5,5,6,6],"right_children":[2,4,6,8,10,12,14,-1,-1,-1,-1,-1,-1,-1,-1],"split_conditions":[1.48354955E-2,7.5E-1,8.2E2,5.268E-1,1.75E0,2.4E2,2.973542E-1,-2.6524736E-2,-8.424215E-2,-1.6307836E-2,2.0491488E-2,-7.5928285E-3,-1.6417862E-3,-5.0514224E-3,-9.438731E-3],"split_indices":[56,77,76,3,0,19,57,0,0,0,0,0,0,0,0],"split_type":[0,0,0,0,0,0,0,0,0,0,0,0,0,0,0],"sum_hessian":[4.3861707E4,1.0096032E3,4.28521E4,2.7615567E2,7.334476E2,1.1781209E4,3.1070895E4,2.3269745E2,4.3458214E1,6.730837E2,6.0363888E1,3.2923066E3,8.488902E3,1.6193995E4,1.4876898E4],"tree_param":{"num_deleted":"0","num_feature":"82","num_nodes":"15","size_leaf_vector":"1"}},{"base_weights":[-8.66685E-2,-1.4894573E-1,-7.620282E-2,-1.2156516E-1,-3.5881528E-1,-1.0028881E-1,-4.4685576E-2,-0E0,-1.0128217E-2,-4.1627187E-2,-1.179989E-2,-4.3521593E-3,-8.942122E-3,-3.8081903E-3,5.941473E-3],"categories":[],"categories_nodes":[],"categories_segments":[],"categories_sizes":[],"default_left":[0,0,1,0,0,0,0,0,0,0,0,0,0,0,0],"id":19,"left_children":[1,3,5,7,9,11,13,-1,-1,-1,-1,-1,-1,-1,-1],"loss_changes":[2.7345764E1,3.2988068E1,2.7823837E1,1.2716232E1,2.5263458E1,1.9341568E1,1.7308868E1,0E0,0E0,0E0,0E0,0E0,0E0,0E0,0E0],"parents":[2147483647,0,0,1,1,2,2,3,3,4,4,5,5,6,6],"right_children":[2,4,6,8,10,12,14,-1,-1,-1,-1,-1,-1,-1,-1],"split_conditions":[5E-1,3.816794E-1,2.1875E0,-1.987469E-3,1.5411085E-1,-5E-1,8.5E-2,-0E0,-1.0128217E-2,-4.1627187E-2,-1.179989E-2,-4.3521593E-3,-8.942122E-3,-3.8081903E-3,5.941473E-3],"split_indices":[0,40,52,24,57,49,17,0,0,0,0,0,0,0,0],"split_type":[0,0,0,0,0,0,0,0,0,0,0,0,0,0,0],"sum_hessian":[4.4084074E4,6.257118E3,3.7826957E4,5.561597E3,6.9552124E2,2.133022E4,1.6496736E4,7.86538E2,4.775059E3,3.106812E2,3.8484003E2,8.169384E3,1.3160837E4,1.5530632E4,9.6610474E2],"tree_param":{"num_deleted":"0","num_feature":"82","num_nodes":"15","size_leaf_vector":"1"}},{"base_weights":[-7.791836E-2,-1.6351254E-1,-7.1534365E-2,-4.570162E-1,-1.3225082E-1,-5.0227914E-2,-7.035767E-2,-1.4819539E-2,-7.8510515E-2,-7.6187663E-3,-3.438999E-2,-2.4457695E-3,-6.313864E-3],"categories":[],"categories_nodes":[],"categories_segments":[],"categories_sizes":[],"default_left":[0,0,0,1,0,0,0,0,0,0,0,0,0],"id":20,"left_children":[1,3,5,7,9,-1,11,-1,-1,-1,-1,-1,-1],"loss_changes":[2.261261E1,2.3778702E1,2.5563705E1,3.4733036E1,2.1085373E1,0E0,2.5331955E1,0E0,0E0,0E0,0E0,0E0,0E0],"parents":[2147483647,0,0,1,1,2,2,3,3,4,4,6,6],"right_children":[2,4,6,8,10,-1,12,-1,-1,-1,-1,-1,-1],"split_conditions":[0E0,2.3943663E-1,-2.5E-1,-5.4054055E-2,4.01E-1,-5.0227914E-2,-5E-1,-1.4819539E-2,-7.8510515E-2,-7.6187663E-3,-3.438999E-2,-2.4457695E-3,-6.313864E-3],"split_indices":[31,51,62,23,3,0,49,0,0,0,0,0,0],"split_type":[0,0,0,0,0,0,0,0,0,0,0,0,0],"sum_hessian":[4.4032336E4,2.9885686E3,4.1043766E4,2.6809167E2,2.720477E3,6.646358E1,4.0977305E4,1.9969095E2,6.840072E1,2.5462896E3,1.7418741E2,1.3453909E4,2.7523395E4],"tree_param":{"num_deleted":"0","num_feature":"82","num_nodes":"13","size_leaf_vector":"1"}},{"base_weights":[-6.903288E-2,-3.8539812E-2,-9.134581E-2,-7.705068E-2,-0E0,-4.2714962E-1,-8.657659E-2,-3.525284E-2,-4.972109E-3,6.91504E-3,-1.2231861E-3,-1.5631964E-2,-5.9603132E-2,-4.950076E-3,-9.457977E-3],"categories":[],"categories_nodes":[],"categories_segments":[],"categories_sizes":[],"default_left":[0,0,0,0,0,1,0,0,0,0,0,0,0,0,0],"id":21,"left_children":[1,3,5,7,9,11,13,-1,-1,-1,-1,-1,-1,-1,-1],"loss_changes":[2.9193253E1,2.7730501E1,3.740779E1,2.691045E1,1.5287735E1,2.187601E1,1.8682251E1,0E0,0E0,0E0,0E0,0E0,0E0,0E0,0E0],"parents":[2147483647,0,0,1,1,2,2,3,3,4,4,5,5,6,6],"right_children":[2,4,6,8,10,12,14,-1,-1,-1,-1,-1,-1,-1,-1],"split_conditions":[0E0,7.5E-1,-2.5E-1,-2.835821E-1,-2.03213E1,4.375E-1,3.8978395E0,-3.525284E-2,-4.972109E-3,6.91504E-3,-1.2231861E-3,-1.5631964E-2,-5.9603132E-2,-4.950076E-3,-9.457977E-3],"split_indices":[6,14,7,50,72,60,38,0,0,0,0,0,0,0,0],"split_type":[0,0,0,0,0,0,0,0,0,0,0,0,0,0,0],"sum_hessian":[4.4080164E4,1.8742672E4,2.533749E4,9.359738E3,9.382934E3,3.3614252E2,2.5001348E4,1.5898515E2,9.200753E3,1.3997938E3,7.98314E3,2.3160942E2,1.0453307E2,1.8057604E4,6.9437446E3],"tree_param":{"num_deleted":"0","num_feature":"82","num_nodes":"15","size_leaf_vector":"1"}},{"base_weights":[-6.56207E-2,-1.8109384E-1,-6.034217E-2,-3.999444E-1,-8.573069E-3,-8.946654E-2,-3.1033231E-2,-9.609597E-3,-4.196118E-2,-8.3474945E-3,-3.8425988E-3,2.7888862E-4,-4.372433E-3],"categories":[],"categories_nodes":[],"categories_segments":[],"categories_sizes":[],"default_left":[0,0,0,1,0,0,0,0,0,0,0,0,0],"id":22,"left_children":[1,3,5,7,-1,9,11,-1,-1,-1,-1,-1,-1],"loss_changes":[2.5414215E1,2.2176136E1,3.5330017E1,1.4732826E1,0E0,1.9235107E1,2.239483E1,0E0,0E0,0E0,0E0,0E0,0E0],"parents":[2147483647,0,0,1,1,2,2,3,3,5,5,6,6],"right_children":[2,4,6,8,-1,10,12,-1,-1,-1,-1,-1,-1],"split_conditions":[6.666667E-1,-2.5E-1,-3.8331136E-2,-1.5E0,-8.573069E-3,1.8238558E0,-2.3196E0,-9.609597E-3,-4.196118E-2,-8.3474945E-3,-3.8425988E-3,2.7888862E-4,-4.372433E-3],"split_indices":[2,7,18,33,0,5,72,0,0,0,0,0,0],"split_type":[0,0,0,0,0,0,0,0,0,0,0,0,0],"sum_hessian":[4.413427E4,1.8776978E3,4.225657E4,3.9077524E2,1.4869225E3,2.1089473E4,2.1167098E4,1.7378201E2,2.1699323E2,1.2002593E4,9.086881E3,9.65741E3,1.15096875E4],"tree_param":{"num_deleted":"0","num_feature":"82","num_nodes":"13","size_leaf_vector":"1"}},{"base_weights":[-6.4106144E-2,-8.332773E-2,-2.6226686E-2,-8.630049E-2,1.8637596E-1,3.4340948E-2,-5.2823238E-2,-4.6447283E-3,-8.402923E-3,-2.4823917E-3,3.774982E-2,1.4113045E-2,5.400989E-4,-2.7337829E-3,-1.3491925E-2],"categories":[],"categories_nodes":[],"categories_segments":[],"categories_sizes":[],"default_left":[1,0,0,0,0,0,1,0,0,0,0,0,0,0,0],"id":23,"left_children":[1,3,5,7,9,11,13,-1,-1,-1,-1,-1,-1,-1,-1],"loss_changes":[3.1305176E1,2.2668076E1,2.410513E1,1.7955933E1,2.5055683E1,1.8202147E1,1.9383118E1,0E0,0E0,0E0,0E0,0E0,0E0,0E0,0E0],"parents":[2147483647,0,0,1,1,2,2,3,3,4,4,5,5,6,6],"right_children":[2,4,6,8,10,12,14,-1,-1,-1,-1,-1,-1,-1,-1],"split_conditions":[2.5128205E0,1.75E0,8.6E2,3.7813637E-1,4.6807088E-2,0E0,1.2451903E0,-4.6447283E-3,-8.402923E-3,-2.4823917E-3,3.774982E-2,1.4113045E-2,5.400989E-4,-2.7337829E-3,-1.3491925E-2],"split_indices":[52,0,76,57,11,25,46,0,0,0,0,0,0,0,0],"split_type":[0,0,0,0,0,0,0,0,0,0,0,0,0,0,0],"sum_hessian":[4.3919777E4,2.9027445E4,1.4892333E4,2.8733842E4,2.9360422E2,4.473682E3,1.0418651E4,1.696068E4,1.1773162E4,1.671047E2,1.2649951E2,6.022068E2,3.8714753E3,9.432551E3,9.860998E2],"tree_param":{"num_deleted":"0","num_feature":"82","num_nodes":"15","size_leaf_vector":"1"}},{"base_weights":[-5.5414863E-2,-4.4287068E-1,-5.327513E-2,-1.0133323E-2,-7.8894705E-1,-3.89511E-2,-9.2612855E-2,-3.5830468E-4,-7.375552E-2,-4.982037E-2,-2.6235327E-3,-2.4310069E-3,-8.468522E-3],"categories":[],"categories_nodes":[],"categories_segments":[],"categories_sizes":[],"default_left":[0,1,0,0,0,0,0,0,0,0,0,0,0],"id":24,"left_children":[1,3,5,-1,7,9,11,-1,-1,-1,-1,-1,-1],"loss_changes":[3.3550797E1,1.7913555E1,2.3944145E1,0E0,1.1558792E1,4.6979095E1,1.6308357E1,0E0,0E0,0E0,0E0,0E0,0E0],"parents":[2147483647,0,0,1,1,2,2,4,4,5,5,6,6],"right_children":[2,4,6,-1,8,10,12,-1,-1,-1,-1,-1,-1],"split_conditions":[0E0,-3.2258064E-2,9.391892E-1,-1.0133323E-2,7.591241E-1,-7.5E-1,3.1578946E-1,-3.5830468E-4,-7.375552E-2,-4.982037E-2,-2.6235327E-3,-2.4310069E-3,-8.468522E-3],"split_indices":[62,23,2,0,45,12,23,0,0,0,0,0,0],"split_type":[0,0,0,0,0,0,0,0,0,0,0,0,0],"sum_hessian":[4.4155367E4,2.2616206E2,4.3929207E4,1.3067293E2,9.548913E1,3.2318215E4,1.1610991E4,2.834656E1,6.714257E1,1.098079E2,3.2208406E4,3.563845E3,8.0471465E3],"tree_param":{"num_deleted":"0","num_feature":"82","num_nodes":"13","size_leaf_vector":"1"}},{"base_weights":[-5.8164548E-2,-6.080689E-2,1.843214E-1,-1.20149545E-1,-4.9250808E-2,-7.03594E-2,5.2130896E-1,-1.4826893E-2,-5.746287E-3,-1.6461926E-3,-5.7611633E-3,-1.6001564E-2,1.289813E-2,6.117746E-2,-0E0],"categories":[],"categories_nodes":[],"categories_segments":[],"categories_sizes":[],"default_left":[0,0,0,1,0,0,0,0,0,0,0,0,0,0,0],"id":25,"left_children":[1,3,5,7,9,11,13,-1,-1,-1,-1,-1,-1,-1,-1],"loss_changes":[2.7551071E1,2.894078E1,4.1515324E1,2.2615494E1,2.9258896E1,9.695409E0,3.9741558E1,0E0,0E0,0E0,0E0,0E0,0E0,0E0,0E0],"parents":[2147483647,0,0,1,1,2,2,3,3,4,4,5,5,6,6],"right_children":[2,4,6,8,10,12,14,-1,-1,-1,-1,-1,-1,-1,-1],"split_conditions":[1.75E0,-2.2416303E-1,2.4516873E-2,1.1652174E0,3.6158782E-1,2.7276785E0,1.5E0,-1.4826893E-2,-5.746287E-3,-1.6461926E-3,-5.7611633E-3,-1.6001564E-2,1.289813E-2,6.117746E-2,-0E0],"split_indices":[0,17,11,79,57,79,62,0,0,0,0,0,0,0,0],"split_type":[0,0,0,0,0,0,0,0,0,0,0,0,0,0,0],"sum_hessian":[4.41724E4,4.3721668E4,4.5073068E2,7.039025E3,3.6682645E4,2.4658392E2,2.0414674E2,2.187565E3,4.85146E3,1.9923166E4,1.6759477E4,1.6847038E2,7.811354E1,1.309841E2,7.316264E1],"tree_param":{"num_deleted":"0","num_feature":"82","num_nodes":"15","size_leaf_vector":"1"}},{"base_weights":[-5.3091403E-2,-4.4394922E-1,-5.1396146E-2,-9.250275E-3,-9.5154417E-1,-6.269404E-1,-4.998115E-2,-9.6200004E-2,-0E0,-5.7285402E-2,-0E0,-3.0671288E-3,-8.206088E-3],"categories":[],"categories_nodes":[],"categories_segments":[],"categories_sizes":[],"default_left":[0,0,0,0,0,0,0,0,0,0,0,0,0],"id":26,"left_children":[1,3,5,-1,7,9,11,-1,-1,-1,-1,-1,-1],"loss_changes":[2.6146042E1,2.1240208E1,3.1574135E1,0E0,1.9215534E1,1.0591587E1,1.9541054E1,0E0,0E0,0E0,0E0,0E0,0E0],"parents":[2147483647,0,0,1,1,2,2,4,4,5,5,6,6],"right_children":[2,4,6,-1,8,10,12,-1,-1,-1,-1,-1,-1],"split_conditions":[-7.5E-1,1.458E-1,-2.5E-1,-9.250275E-3,7.5E-1,1.75E0,4.2446835E1,-9.6200004E-2,-0E0,-5.7285402E-2,-0E0,-3.0671288E-3,-8.206088E-3],"split_indices":[12,3,62,0,14,7,10,0,0,0,0,0,0],"split_type":[0,0,0,0,0,0,0,0,0,0,0,0,0],"sum_hessian":[4.4064094E4,1.7406645E2,4.3890027E4,1.1525172E2,5.881474E1,9.643238E1,4.3793594E4,4.015504E1,1.8659698E1,7.607094E1,2.0361444E1,3.941773E4,4.375863E3],"tree_param":{"num_deleted":"0","num_feature":"82","num_nodes":"13","size_leaf_vector":"1"}},{"base_weights":[-4.428004E-2,-7.827818E-2,-2.6948826E-2,-7.136551E-2,-3.54412E-1,-3.0983292E-2,1.4482465E-1,-5.514065E-3,1.4629765E-2,-3.1162672E-2,-0E0,-7.959782E-4,-4.646996E-3,-8.650799E-3,2.2156345E-2],"categories":[],"categories_nodes":[],"categories_segments":[],"categories_sizes":[],"default_left":[1,0,0,0,0,0,0,0,0,0,0,0,0,0,0],"id":27,"left_children":[1,3,5,7,9,11,13,-1,-1,-1,-1,-1,-1,-1,-1],"loss_changes":[2.5387192E1,2.5621796E1,1.966818E1,2.0648743E1,1.1282703E1,1.8816336E1,2.8920109E1,0E0,0E0,0E0,0E0,0E0,0E0,0E0,0E0],"parents":[2147483647,0,0,1,1,2,2,3,3,4,4,5,5,6,6],"right_children":[2,4,6,8,10,12,14,-1,-1,-1,-1,-1,-1,-1,-1],"split_conditions":[1.4909091E0,2.8249338E-1,9.0751445E-1,1.5E0,4.25E0,2.601444E0,2.0433721E-1,-5.514065E-3,1.4629765E-2,-3.1162672E-2,-0E0,-7.959782E-4,-4.646996E-3,-8.650799E-3,2.2156345E-2],"split_indices":[52,50,43,0,15,38,38,0,0,0,0,0,0,0,0],"split_type":[0,0,0,0,0,0,0,0,0,0,0,0,0,0,0],"sum_hessian":[4.4182555E4,1.4797956E4,2.9384598E4,1.4458882E4,3.3907416E2,2.87456E4,6.3899805E2,1.4203367E4,2.555143E2,2.8615344E2,5.2920696E1,1.8186838E4,1.0558761E4,2.2949854E2,4.0949954E2],"tree_param":{"num_deleted":"0","num_feature":"82","num_nodes":"15","size_leaf_vector":"1"}},{"base_weights":[-4.3068837E-2,-3.6099986E-3,-5.7808053E-2,5.0420487E-5,-2.1008145E-2,-2.4665563E-1,-5.30692E-2,-1.0018462E-3,5.500886E-3,-9.78445E-3,-5.5902623E-2,-3.521316E-3,-1.5048285E-2],"categories":[],"categories_nodes":[],"categories_segments":[],"categories_sizes":[],"default_left":[0,0,0,1,0,0,0,0,0,0,0,0,0],"id":28,"left_children":[1,3,5,7,-1,9,11,-1,-1,-1,-1,-1,-1],"loss_changes":[2.5313713E1,1.4613769E1,2.6833466E1,1.3186902E1,0E0,3.8519936E1,1.8254128E1,0E0,0E0,0E0,0E0,0E0,0E0],"parents":[2147483647,0,0,1,1,2,2,3,3,5,5,6,6],"right_children":[2,4,6,8,-1,10,12,-1,-1,-1,-1,-1,-1],"split_conditions":[8.1E2,5.29634E1,-5E-1,1E0,-2.1008145E-2,4.147E-1,5.5298694E2,-1.0018462E-3,5.500886E-3,-9.78445E-3,-5.5902623E-2,-3.521316E-3,-1.5048285E-2],"split_indices":[80,72,7,65,0,3,10,0,0,0,0,0,0],"split_type":[0,0,0,0,0,0,0,0,0,0,0,0,0],"sum_hessian":[4.417247E4,1.2126136E4,3.2046334E4,1.1953913E4,1.7222209E2,7.5211475E2,3.1294219E4,1.0038147E4,1.9157659E3,6.328008E2,1.19313965E2,3.054227E4,7.519501E2],"tree_param":{"num_deleted":"0","num_feature":"82","num_nodes":"13","size_leaf_vector":"1"}},{"base_weights":[-4.4257794E-2,-8.869835E-2,-3.2450937E-2,-4.1543522E-1,-7.474347E-2,7.482742E-3,-5.2743733E-2,-3.3860955E-2,5.8308844E-3,-3.5379978E-3,-1.0743906E-2,1.7084176E-2,2.1695942E-4,-1.480148E-3,-5.4716747E-3],"categories":[],"categories_nodes":[],"categories_segments":[],"categories_sizes":[],"default_left":[0,0,0,1,0,0,0,0,0,0,0,0,0,0,0],"id":29,"left_children":[1,3,5,7,9,11,13,-1,-1,-1,-1,-1,-1,-1,-1],"loss_changes":[2.244059E1,3.8769142E1,2.8658749E1,1.2330856E1,1.5578072E1,1.0547021E1,1.696099E1,0E0,0E0,0E0,0E0,0E0,0E0,0E0,0E0],"parents":[2147483647,0,0,1,1,2,2,3,3,4,4,5,5,6,6],"right_children":[2,4,6,8,10,12,14,-1,-1,-1,-1,-1,-1,-1,-1],"split_conditions":[7.5E-1,9.6208425E-3,-5E-1,4.512195E0,1.2451903E0,-1.0091373E0,1.3643472E-1,-3.3860955E-2,5.8308844E-3,-3.5379978E-3,-1.0743906E-2,1.7084176E-2,2.1695942E-4,-1.480148E-3,-5.4716747E-3],"split_indices":[77,38,49,79,46,4,10,0,0,0,0,0,0,0,0],"split_type":[0,0,0,0,0,0,0,0,0,0,0,0,0,0,0],"sum_hessian":[4.418721E4,9.1655E3,3.502171E4,3.5678973E2,8.80871E3,1.1698501E4,2.3323209E4,3.3182855E2,2.4961187E1,6.6313374E3,2.1773726E3,1.9571085E2,1.1502791E4,9.941604E3,1.3381605E4],"tree_param":{"num_deleted":"0","num_feature":"82","num_nodes":"15","size_leaf_vector":"1"}},{"base_weights":[-3.550222E-2,-1.2074008E-3,-4.9046002E-2,7.456505E-2,-1.7747262E-2,-7.611481E-2,-2.0317242E-2,9.79842E-3,-1.9071935E-3,3.542611E-6,-5.8190925E-3,-4.2370465E-3,-1.1122302E-2,2.6688331E-3,-3.1930218E-3],"categories":[],"categories_nodes":[],"categories_segments":[],"categories_sizes":[],"default_left":[0,1,0,0,0,0,0,0,0,0,0,0,0,0,0],"id":30,"left_children":[1,3,5,7,9,11,13,-1,-1,-1,-1,-1,-1,-1,-1],"loss_changes":[2.0226624E1,1.5500178E1,2.3954659E1,1.4423984E1,1.2255851E1,2.0455399E1,2.1431017E1,0E0,0E0,0E0,0E0,0E0,0E0,0E0,0E0],"parents":[2147483647,0,0,1,1,2,2,3,3,4,4,5,5,6,6],"right_children":[2,4,6,8,10,12,14,-1,-1,-1,-1,-1,-1,-1,-1],"split_conditions":[8.4E2,-3.0769232E-1,6.3631725E-1,5.1421905E-4,3.5E0,2.309348E0,4.3233106E-1,9.79842E-3,-1.9071935E-3,3.542611E-6,-5.8190925E-3,-4.2370465E-3,-1.1122302E-2,2.6688331E-3,-3.1930218E-3],"split_indices":[19,60,4,24,15,38,56,0,0,0,0,0,0,0,0],"split_type":[0,0,0,0,0,0,0,0,0,0,0,0,0,0,0],"sum_hessian":[4.4210055E4,1.2644909E4,3.1565146E4,2.198825E3,1.0446084E4,1.6141683E4,1.5423463E4,1.402065E3,7.9676E2,8.0770093E3,2.3690747E3,1.3319978E4,2.8217058E3,4.4855107E3,1.0937952E4],"tree_param":{"num_deleted":"0","num_feature":"82","num_nodes":"15","size_leaf_vector":"1"}},{"base_weights":[-3.5542235E-2,-3.80422E-2,1.9672996E-1,-3.216509E-2,-1.15861446E-1,5.5707884E-1,-3.892578E-3,-2.5347369E-3,1.1342336E-2,-1.2490342E-2,-5.24731E-4,6.1700374E-2,-0E0],"categories":[],"categories_nodes":[],"categories_segments":[],"categories_sizes":[],"default_left":[0,0,0,0,1,0,0,0,0,0,0,0,0],"id":31,"left_children":[1,3,5,7,9,11,-1,-1,-1,-1,-1,-1,-1],"loss_changes":[2.4647312E1,1.906369E1,4.322097E1,2.3346283E1,1.773243E1,3.4108585E1,0E0,0E0,0E0,0E0,0E0,0E0,0E0],"parents":[2147483647,0,0,1,1,2,2,3,3,4,4,5,5],"right_children":[2,4,6,8,10,12,-1,-1,-1,-1,-1,-1,-1],"split_conditions":[1.75E0,2.3666666E1,2.25E0,9.0751445E-1,5.263158E-1,-3.846154E-1,-3.892578E-3,-2.5347369E-3,1.1342336E-2,-1.2490342E-2,-5.24731E-4,6.1700374E-2,-0E0],"split_indices":[0,52,14,43,61,4,0,0,0,0,0,0,0],"split_type":[0,0,0,0,0,0,0,0,0,0,0,0,0],"sum_hessian":[4.41156E4,4.367241E4,4.4319147E2,4.0679766E4,2.9926458E3,1.9169536E2,2.5149611E2,4.0055562E4,6.242036E2,1.9135256E3,1.0791201E3,1.26592445E2,6.5102905E1],"tree_param":{"num_deleted":"0","num_feature":"82","num_nodes":"13","size_leaf_vector":"1"}},{"base_weights":[-3.6794074E-2,-3.9206594E-2,1.8586454E-1,-1.19334586E-1,-3.2477587E-2,-1.0583616E-3,4.6383885E-1,-1.878641E-2,-6.4042583E-3,-2.5451276E-3,1.1854906E-2,5.4505643E-2,-1.3330887E-2],"categories":[],"categories_nodes":[],"categories_segments":[],"categories_sizes":[],"default_left":[0,1,0,1,0,0,0,0,0,0,0,0,0],"id":32,"left_children":[1,3,5,7,9,-1,11,-1,-1,-1,-1,-1,-1],"loss_changes":[2.2778477E1,2.2589912E1,2.7586239E1,1.2039101E1,2.2689026E1,0E0,4.1782375E1,0E0,0E0,0E0,0E0,0E0,0E0],"parents":[2147483647,0,0,1,1,2,2,3,3,4,4,6,6],"right_children":[2,4,6,8,10,-1,12,-1,-1,-1,-1,-1,-1],"split_conditions":[1.75E0,5.7777777E-2,2.4516873E-2,-1.5906042E-3,9.0751445E-1,-1.0583616E-3,-4.4929396E-2,-1.878641E-2,-6.4042583E-3,-2.5451276E-3,1.1854906E-2,5.4505643E-2,-1.3330887E-2],"split_indices":[0,22,11,24,43,0,4,0,0,0,0,0,0],"split_type":[0,0,0,0,0,0,0,0,0,0,0,0,0],"sum_hessian":[4.4072215E4,4.36275E4,4.4471414E2,3.3085938E3,4.0318906E4,2.4577904E2,1.9893512E2,5.432723E2,2.7653213E3,3.975677E4,5.6213855E2,1.4325354E2,5.5681587E1],"tree_param":{"num_deleted":"0","num_feature":"82","num_nodes":"13","size_leaf_vector":"1"}},{"base_weights":[-3.1519093E-2,-3.9199913E-1,-2.9972462E-2,-0E0,-8.475609E-1,-3.4093406E-2,5.6116036E-3,-0E0,-7.727522E-2,-3.9829027E-2,-2.3641514E-3],"categories":[],"categories_nodes":[],"categories_segments":[],"categories_sizes":[],"default_left":[0,1,0,0,0,0,0,0,0,0,0],"id":33,"left_children":[1,3,5,-1,7,9,-1,-1,-1,-1,-1],"loss_changes":[2.2042469E1,3.3739384E1,1.9337795E1,0E0,1.2568413E1,2.25868E1,0E0,0E0,0E0,0E0,0E0],"parents":[2147483647,0,0,1,1,2,2,4,4,5,5],"right_children":[2,4,6,-1,8,10,-1,-1,-1,-1,-1],"split_conditions":[-7.5E-1,-3.7037036E-1,8.5E-2,-0E0,8.25E2,-2.5E-1,5.6116036E-3,-0E0,-7.727522E-2,-3.9829027E-2,-2.3641514E-3],"split_indices":[12,9,17,0,19,62,0,0,0,0,0],"split_type":[0,0,0,0,0,0,0,0,0,0,0],"sum_hessian":[4.4190527E4,1.7126945E2,4.4019258E4,8.808193E1,8.318752E1,4.2457574E4,1.5616857E3,2.087319E1,6.231433E1,8.423344E1,4.237334E4],"tree_param":{"num_deleted":"0","num_feature":"82","num_nodes":"11","size_leaf_vector":"1"}},{"base_weights":[-3.056324E-2,-3.4613416E-2,7.749223E-2,-7.750248E-2,-2.2048093E-2,1.7159483E-1,4.0350663E-3,-1.6076113E-3,-7.504462E-3,-4.4805E-4,-3.8397608E-3,-8.870301E-3,1.753841E-2,8.66107E-3,-6.598122E-3],"categories":[],"categories_nodes":[],"categories_segments":[],"categories_sizes":[],"default_left":[0,0,0,0,0,0,1,0,0,0,0,0,0,0,0],"id":34,"left_children":[1,3,5,7,9,11,13,-1,-1,-1,-1,-1,-1,-1,-1],"loss_changes":[1.9017776E1,2.2301014E1,9.546418E0,1.3370472E1,1.6013973E1,1.4391987E1,1.0240308E1,0E0,0E0,0E0,0E0,0E0,0E0,0E0,0E0],"parents":[2147483647,0,0,1,1,2,2,3,3,4,4,5,5,6,6],"right_children":[2,4,6,8,10,12,14,-1,-1,-1,-1,-1,-1,-1,-1],"split_conditions":[8.5E-2,6.666667E-1,9.18198E-1,9.25E2,2.309348E0,-5.0836653E-2,1.1689008E0,-1.6076113E-3,-7.504462E-3,-4.4805E-4,-3.8397608E-3,-8.870301E-3,1.753841E-2,8.66107E-3,-6.598122E-3],"split_indices":[17,45,21,76,38,50,61,0,0,0,0,0,0,0,0],"split_type":[0,0,0,0,0,0,0,0,0,0,0,0,0,0,0],"sum_hessian":[4.405234E4,4.2515887E4,1.5364531E3,9.522343E3,3.2993547E4,6.3664355E2,8.998095E2,3.202145E3,6.3201978E3,2.207384E4,1.0919705E4,1.08848694E2,5.2779486E2,4.3500125E2,4.648083E2],"tree_param":{"num_deleted":"0","num_feature":"82","num_nodes":"15","size_leaf_vector":"1"}},{"base_weights":[-2.5818374E-2,-1.7965017E-2,-9.6195824E-2,-1.8536112E-1,-1.4824834E-2,-3.7729147E-1,-8.3886996E-2,1.7245533E-2,-1.6337002E-2,-7.798064E-4,-1.1383445E-2,-5.610761E-2,-3.8642786E-3,-6.761063E-3,1.5564068E-2],"categories":[],"categories_nodes":[],"categories_segments":[],"categories_sizes":[],"default_left":[0,0,0,0,0,1,0,0,0,0,0,0,0,0,0],"id":35,"left_children":[1,3,5,7,9,11,13,-1,-1,-1,-1,-1,-1,-1,-1],"loss_changes":[2.3667809E1,1.9661922E1,1.2196213E1,1.2394875E1,2.1228132E1,1.5924349E1,1.2121515E1,0E0,0E0,0E0,0E0,0E0,0E0,0E0,0E0],"parents":[2147483647,0,0,1,1,2,2,3,3,4,4,5,5,6,6],"right_children":[2,4,6,8,10,12,14,-1,-1,-1,-1,-1,-1,-1,-1],"split_conditions":[4.2446835E1,5.2272725E-1,0E0,-1.25362715E-2,6.1904764E-1,-1.8130384E-1,6.5816325E-1,1.7245533E-2,-1.6337002E-2,-7.798064E-4,-1.1383445E-2,-5.610761E-2,-3.8642786E-3,-6.761063E-3,1.5564068E-2],"split_indices":[10,2,12,81,64,81,58,0,0,0,0,0,0,0,0],"split_type":[0,0,0,0,0,0,0,0,0,0,0,0,0,0,0],"sum_hessian":[4.4090688E4,3.9743586E4,4.347104E3,6.952772E2,3.904831E4,1.6079839E2,4.1863057E3,4.9178482E1,6.4609875E2,3.804E4,1.00830914E3,6.276347E1,9.803491E1,4.0686887E3,1.1761663E2],"tree_param":{"num_deleted":"0","num_feature":"82","num_nodes":"15","size_leaf_vector":"1"}},{"base_weights":[-2.4291886E-2,-2.1737618E-2,-2.3040952E-1,3.8292059E-3,-3.703927E-2,5.170486E-3,-3.3359924E-1,-3.3169016E-2,5.406065E-4,-1.1147373E-2,-2.2462585E-3,-2.82685E-2,9.736528E-3],"categories":[],"categories_nodes":[],"categories_segments":[],"categories_sizes":[],"default_left":[1,0,0,0,0,0,0,0,0,0,0,0,0],"id":36,"left_children":[1,3,5,7,9,-1,11,-1,-1,-1,-1,-1,-1],"loss_changes":[2.1673923E1,1.7261314E1,1.7546497E1,2.5043169E1,1.7556236E1,0E0,1.2730072E1,0E0,0E0,0E0,0E0,0E0,0E0],"parents":[2147483647,0,0,1,1,2,2,3,3,4,4,6,6],"right_children":[2,4,6,8,10,-1,12,-1,-1,-1,-1,-1,-1],"split_conditions":[4.6264565E-1,-2.5E-1,1.3992027E-4,-3.1406552E-1,-1.1189225E-1,5.170486E-3,6.5E0,-3.3169016E-2,5.406065E-4,-1.1147373E-2,-2.2462585E-3,-2.82685E-2,9.736528E-3],"split_indices":[69,6,13,30,29,0,25,0,0,0,0,0,0],"split_type":[0,0,0,0,0,0,0,0,0,0,0,0,0],"sum_hessian":[4.4110746E4,4.3600785E4,5.099603E2,1.6174675E4,2.742611E4,1.1466225E2,3.9529807E2,1.1380351E2,1.6060871E4,1.2277258E3,2.6198383E4,3.6222757E2,3.3070484E1],"tree_param":{"num_deleted":"0","num_feature":"82","num_nodes":"13","size_leaf_vector":"1"}},{"base_weights":[-2.7149819E-2,-1.21465765E-1,-2.3303377E-2,-3.033809E-1,-6.1060615E-2,-1.8905256E-2,-9.9866696E-2,-1.4132575E-2,-6.0195327E-2,-1.1453782E-2,1.0607598E-3,4.3712082E-4,-2.7021777E-3,-3.12702E-2,-5.414303E-3],"categories":[],"categories_nodes":[],"categories_segments":[],"categories_sizes":[],"default_left":[0,0,1,0,0,0,0,0,0,0,0,0,0,0,0],"id":37,"left_children":[1,3,5,7,9,11,13,-1,-1,-1,-1,-1,-1,-1,-1],"loss_changes":[1.51059265E1,1.6051065E1,1.3556995E1,1.5777641E1,1.0406351E1,1.8986107E1,1.5167166E1,0E0,0E0,0E0,0E0,0E0,0E0,0E0,0E0],"parents":[2147483647,0,0,1,1,2,2,3,3,4,4,5,5,6,6],"right_children":[2,4,6,8,10,12,14,-1,-1,-1,-1,-1,-1,-1,-1],"split_conditions":[-1.8697102E-1,-2.5E-1,3.0415756E-1,5.824176E-1,-7.7637606E-3,9.09465E-1,5E-1,-1.4132575E-2,-6.0195327E-2,-1.1453782E-2,1.0607598E-3,4.3712082E-4,-2.7021777E-3,-3.12702E-2,-5.414303E-3],"split_indices":[69,7,69,43,18,2,31,0,0,0,0,0,0,0,0],"split_type":[0,0,0,0,0,0,0,0,0,0,0,0,0,0,0],"sum_hessian":[4.4091348E4,1.6645571E3,4.242679E4,3.8908658E2,1.2754706E3,4.019842E4,2.228368E3,3.3453036E2,5.4556213E1,5.901748E2,6.852957E2,1.7069225E4,2.3129197E4,1.3406401E2,2.0943037E3],"tree_param":{"num_deleted":"0","num_feature":"82","num_nodes":"15","size_leaf_vector":"1"}},{"base_weights":[-2.3480207E-2,-1.8366301E-2,-1.5430926E-1,-1.0132072E-1,-1.4576322E-2,-5.5733968E-2,-1.9267993E-2,-9.286223E-3,1.3119149E-2,3.8254916E-4,-2.464898E-3,4.233589E-3,-1.2680844E-2],"categories":[],"categories_nodes":[],"categories_segments":[],"categories_sizes":[],"default_left":[0,0,0,0,0,0,0,0,0,0,0,0,0],"id":38,"left_children":[1,3,5,7,9,11,-1,-1,-1,-1,-1,-1,-1],"loss_changes":[2.853581E1,1.2687276E1,1.6179356E1,1.3893785E1,1.6211857E1,1.3153677E1,0E0,0E0,0E0,0E0,0E0,0E0,0E0],"parents":[2147483647,0,0,1,1,2,2,3,3,4,4,5,5],"right_children":[2,4,6,8,10,12,-1,-1,-1,-1,-1,-1,-1],"split_conditions":[1.315E3,2.8688523E-1,9.694511E-3,1.245E3,2.941142E-1,7.058824E-1,-1.9267993E-2,-9.286223E-3,1.3119149E-2,3.8254916E-4,-2.464898E-3,4.233589E-3,-1.2680844E-2],"split_indices":[76,51,13,19,57,60,0,0,0,0,0,0,0],"split_type":[0,0,0,0,0,0,0,0,0,0,0,0,0],"sum_hessian":[4.4236695E4,4.2618316E4,1.6183822E3,1.790723E3,4.082759E4,8.9681366E2,7.215685E2,1.6502455E3,1.4047748E2,2.0172785E4,2.0654807E4,4.3412585E2,4.6268784E2],"tree_param":{"num_deleted":"0","num_feature":"82","num_nodes":"13","size_leaf_vector":"1"}},{"base_weights":[-1.3695544E-2,-3.6291194E-1,-1.22151375E-2,-0E0,-6.928243E-1,-3.6073744E-1,-1.0813237E-2,-6.3418426E-2,-0E0,-3.942394E-2,-0E0,9.2379237E-4,-1.7916204E-3],"categories":[],"categories_nodes":[],"categories_segments":[],"categories_sizes":[],"default_left":[0,0,0,0,0,0,0,0,0,0,0,0,0],"id":39,"left_children":[1,3,5,-1,7,9,11,-1,-1,-1,-1,-1,-1],"loss_changes":[2.0544111E1,1.7942963E1,1.922935E1,0E0,1.1118202E1,1.3632994E1,1.47422285E1,0E0,0E0,0E0,0E0,0E0,0E0],"parents":[2147483647,0,0,1,1,2,2,4,4,5,5,6,6],"right_children":[2,4,6,-1,8,10,12,-1,-1,-1,-1,-1,-1],"split_conditions":[-7.5E-1,7.5E-1,-3.1406552E-1,-0E0,1.75E0,1.75E0,-2.5E-1,-6.3418426E-2,-0E0,-3.942394E-2,-0E0,9.2379237E-4,-1.7916204E-3],"split_indices":[12,16,30,0,14,32,6,0,0,0,0,0,0],"split_type":[0,0,0,0,0,0,0,0,0,0,0,0,0],"sum_hessian":[4.419468E4,1.6851933E2,4.4026164E4,8.528362E1,8.32357E1,1.5830423E2,4.386786E4,6.533798E1,1.7897722E1,1.1338194E2,4.492229E1,1.6231429E4,2.763643E4],"tree_param":{"num_deleted":"0","num_feature":"82","num_nodes":"13","size_leaf_vector":"1"}},{"base_weights":[-1.8315779E-2,-2.0852948E-2,2.1612844E-1,-6.664585E-2,-8.900555E-3,6.1137104E-1,2.0972886E-3,-1.4262602E-2,-3.0199413E-3,-1.6193638E-2,-4.233808E-4,6.465246E-2,-2.874258E-4],"categories":[],"categories_nodes":[],"categories_segments":[],"categories_sizes":[],"default_left":[0,0,0,0,0,0,0,0,0,0,0,0,0],"id":40,"left_children":[1,3,5,7,9,11,-1,-1,-1,-1,-1,-1,-1],"loss_changes":[2.5044312E1,2.3437218E1,2.9046019E1,2.751025E1,2.1197266E1,2.9077309E1,0E0,0E0,0E0,0E0,0E0,0E0,0E0],"parents":[2147483647,0,0,1,1,2,2,3,3,4,4,5,5],"right_children":[2,4,6,8,10,12,-1,-1,-1,-1,-1,-1,-1],"split_conditions":[1.75E0,5.4799277E-1,1E0,5E-1,1.7188784E-2,-3.6661613E-1,2.0972886E-3,-1.4262602E-2,-3.0199413E-3,-1.6193638E-2,-4.233808E-4,6.465246E-2,-2.874258E-4],"split_indices":[0,5,7,14,38,4,0,0,0,0,0,0,0],"split_type":[0,0,0,0,0,0,0,0,0,0,0,0,0],"sum_hessian":[4.4113484E4,4.3667562E4,4.4591934E2,8.93176E3,3.4735805E4,1.3225842E2,3.1366092E2,1.3648484E3,7.5669116E3,4.4740408E2,3.42884E4,9.6660515E1,3.5597908E1],"tree_param":{"num_deleted":"0","num_feature":"82","num_nodes":"13","size_leaf_vector":"1"}},{"base_weights":[-1.8087432E-2,1.1684568E-2,-3.034522E-2,-3.239151E-2,1.5126081E-2,3.0426782E-2,-4.385811E-2,-0E0,6.645954E-3,-1.4442408E-2,3.890396E-3,-3.9039643E-3,1.5934332E-3],"categories":[],"categories_nodes":[],"categories_segments":[],"categories_sizes":[],"default_left":[0,0,0,0,1,0,0,0,0,0,0,0,0],"id":41,"left_children":[1,3,5,-1,7,9,11,-1,-1,-1,-1,-1,-1],"loss_changes":[1.6225147E1,1.7593494E1,2.5882862E1,0E0,1.4977588E1,3.0034931E1,1.804715E1,0E0,0E0,0E0,0E0,0E0,0E0],"parents":[2147483647,0,0,1,1,2,2,4,4,5,5,6,6],"right_children":[2,4,6,-1,8,10,12,-1,-1,-1,-1,-1,-1],"split_conditions":[8.4E2,-5.43469E1,-1.94749E1,-3.239151E-2,4.3103448E-1,9.3E2,2.25E0,-0E0,6.645954E-3,-1.4442408E-2,3.890396E-3,-3.9039643E-3,1.5934332E-3],"split_indices":[76,72,72,0,34,80,7,0,0,0,0,0,0],"split_type":[0,0,0,0,0,0,0,0,0,0,0,0,0],"sum_hessian":[4.4145125E4,1.2728738E4,3.1416389E4,8.033091E1,1.2648407E4,5.632122E3,2.5784266E4,1.0560539E4,2.0878682E3,4.9922403E2,5.132898E3,2.2332355E4,3.4519104E3],"tree_param":{"num_deleted":"0","num_feature":"82","num_nodes":"13","size_leaf_vector":"1"}},{"base_weights":[-1.7937219E-2,7.348978E-3,-3.6843557E-2,-3.0610908E-2,3.2338858E-2,-4.1794583E-2,1.2447574E-1,-8.111238E-4,-1.0256081E-2,1.7825521E-3,1.9688936E-2,-5.3076215E-2,-2.8726757E-3,1.82604E-3,2.9636532E-2],"categories":[],"categories_nodes":[],"categories_segments":[],"categories_sizes":[],"default_left":[0,0,1,0,1,0,1,0,0,0,0,0,0,0,0],"id":42,"left_children":[1,3,5,7,9,11,13,-1,-1,-1,-1,-1,-1,-1,-1],"loss_changes":[2.1321022E1,1.782551E1,1.9814621E1,1.4996586E1,1.894384E1,2.6372269E1,1.7873325E1,0E0,0E0,0E0,0E0,0E0,0E0,0E0,0E0],"parents":[2147483647,0,0,1,1,2,2,3,3,4,4,5,5,6,6],"right_children":[2,4,6,8,10,12,14,-1,-1,-1,-1,-1,-1,-1,-1],"split_conditions":[0E0,8.1707627E-1,1.8235294E0,9.484622E-1,4.4827586E-1,0E0,5.332226E-1,-8.111238E-4,-1.0256081E-2,1.7825521E-3,1.9688936E-2,-5.3076215E-2,-2.8726757E-3,1.82604E-3,2.9636532E-2],"split_indices":[6,5,9,2,9,62,53,0,0,0,0,0,0,0,0],"split_type":[0,0,0,0,0,0,0,0,0,0,0,0,0,0,0],"sum_hessian":[4.4218797E4,1.8778871E4,2.5439924E4,7.3573433E3,1.1421528E4,2.4719684E4,7.20241E2,6.3232676E3,1.0340756E3,1.1101793E4,3.19735E2,5.4649315E1,2.4665035E4,5.522124E2,1.6802863E2],"tree_param":{"num_deleted":"0","num_feature":"82","num_nodes":"15","size_leaf_vector":"1"}},{"base_weights":[-1.7744966E-2,-3.4659434E-2,-1.6814435E-2,-1.917294E-2,1.0946237E-2,7.834153E-4,-2.1482923E-3],"categories":[],"categories_nodes":[],"categories_segments":[],"categories_sizes":[],"default_left":[0,0,1,0,0,0,0],"id":43,"left_children":[1,-1,3,5,-1,-1,-1],"loss_changes":[1.6109783E1,0E0,1.6850468E1,1.4220755E1,0E0,0E0,0E0],"parents":[2147483647,0,0,2,2,3,3],"right_children":[2,-1,4,6,-1,-1,-1],"split_conditions":[-7.5E-1,-3.4659434E-2,1.9E0,-7.5E-1,1.0946237E-2,7.834153E-4,-2.1482923E-3],"split_indices":[62,0,9,49,0,0,0],"split_type":[0,0,0,0,0,0,0],"sum_hessian":[4.434942E4,7.4906555E1,4.4274516E4,4.3702004E4,5.725094E2,1.134059E4,3.2361414E4],"tree_param":{"num_deleted":"0","num_feature":"82","num_nodes":"7","size_leaf_vector":"1"}},{"base_weights":[-1.091335E-2,-1.7603187E-2,-8.685929E-3,4.0353775E-2,-1.7543644E-2,-6.3377956E-4,6.957064E-3,-2.133396E-3,1.1905738E-3],"categories":[],"categories_nodes":[],"categories_segments":[],"categories_sizes":[],"default_left":[1,0,0,0,1,0,0,0,0],"id":44,"left_children":[1,-1,3,5,7,-1,-1,-1,-1],"loss_changes":[2.147594E1,0E0,1.8878227E1,1.8851479E1,1.5498398E1,0E0,0E0,0E0,0E0],"parents":[2147483647,0,0,2,2,3,3,4,4],"right_children":[2,-1,4,6,8,-1,-1,-1,-1],"split_conditions":[-3.1406552E-1,-1.7603187E-2,-1.94749E1,1.115E3,3E0,-6.3377956E-4,6.957064E-3,-2.133396E-3,1.1905738E-3],"split_indices":[30,0,72,76,52,0,0,0,0],"split_type":[0,0,0,0,0,0,0,0,0],"sum_hessian":[4.4170785E4,3.8979156E2,4.3780996E4,6.591782E3,3.718921E4,3.4660312E3,3.125751E3,2.7554406E4,9.634808E3],"tree_param":{"num_deleted":"0","num_feature":"82","num_nodes":"9","size_leaf_vector":"1"}},{"base_weights":[-1.6438635E-2,5.412399E-3,-3.4506287E-2,-5.568318E-2,2.0595726E-2,-6.126788E-2,-1.6524322E-2,-5.797554E-3,1.0360609E-2,-1.8871267E-3,3.0325744E-3,-1.5469341E-3,-8.064288E-3,3.3904582E-3,-2.5645422E-3],"categories":[],"categories_nodes":[],"categories_segments":[],"categories_sizes":[],"default_left":[0,1,0,0,1,1,0,0,0,0,0,0,0,0,0],"id":45,"left_children":[1,3,5,7,9,11,13,-1,-1,-1,-1,-1,-1,-1,-1],"loss_changes":[1.7605532E1,1.817631E1,1.1223797E1,1.8947952E1,1.6265808E1,1.8696598E1,1.7865694E1,0E0,0E0,0E0,0E0,0E0,0E0,0E0,0E0],"parents":[2147483647,0,0,1,1,2,2,3,3,4,4,5,5,6,6],"right_children":[2,4,6,8,10,12,14,-1,-1,-1,-1,-1,-1,-1,-1],"split_conditions":[9.083558E-1,3.7588653E-1,2.9924434E-1,2.25E0,-2.5774991E-2,7.5146304E-3,-1.08354E1,-5.797554E-3,1.0360609E-2,-1.8871267E-3,3.0325744E-3,-1.5469341E-3,-8.064288E-3,3.3904582E-3,-2.5645422E-3],"split_indices":[2,51,64,7,50,81,72,0,0,0,0,0,0,0,0],"split_type":[0,0,0,0,0,0,0,0,0,0,0,0,0,0,0],"sum_hessian":[4.4140957E4,1.9825162E4,2.4315793E4,3.8654824E3,1.5959681E4,9.634618E3,1.4681174E4,3.4631194E3,4.023632E2,4.948107E3,1.1011573E4,5.482559E3,4.1520596E3,3.3215574E3,1.1359617E4],"tree_param":{"num_deleted":"0","num_feature":"82","num_nodes":"15","size_leaf_vector":"1"}},{"base_weights":[-1.3719629E-2,1.0513803E-2,-2.5411006E-2,1.8645972E-2,-9.650191E-2,-1.764978E-2,-1.2760486E-1,1.8958416E-3,-7.7550486E-3,-1.1357413E-2,7.009685E-3,1.6418622E-3,-2.2353427E-3,-3.300361E-2,-7.6434193E-3],"categories":[],"categories_nodes":[],"categories_segments":[],"categories_sizes":[],"default_left":[0,0,0,1,0,0,1,0,0,0,0,0,0,0,0],"id":46,"left_children":[1,3,5,7,9,11,13,-1,-1,-1,-1,-1,-1,-1,-1],"loss_changes":[1.2620292E1,1.1899197E1,2.2902489E1,1.250828E1,1.1747394E1,1.5288235E1,1.1013668E1,0E0,0E0,0E0,0E0,0E0,0E0,0E0,0E0],"parents":[2147483647,0,0,1,1,2,2,3,3,4,4,5,5,6,6],"right_children":[2,4,6,8,10,12,14,-1,-1,-1,-1,-1,-1,-1,-1],"split_conditions":[-6.4935066E-2,1.305E3,3.3E1,1.24E1,3.5E0,-1.11108E1,1.198314E-7,1.8958416E-3,-7.7550486E-3,-1.1357413E-2,7.009685E-3,1.6418622E-3,-2.2353427E-3,-3.300361E-2,-7.6434193E-3],"split_indices":[43,19,52,61,35,72,10,0,0,0,0,0,0,0,0],"split_type":[0,0,0,0,0,0,0,0,0,0,0,0,0,0,0],"sum_hessian":[4.4220305E4,1.4220288E4,3.0000018E4,1.326969E4,9.5059766E2,2.7938832E4,2.0611855E3,1.2550909E4,7.187818E2,7.4568146E2,2.0491626E2,6.8567764E3,2.1082057E4,1.0582992E2,1.9553555E3],"tree_param":{"num_deleted":"0","num_feature":"82","num_nodes":"15","size_leaf_vector":"1"}},{"base_weights":[-1.1356502E-2,-9.691822E-2,-5.7309116E-3,-6.774558E-2,-6.266127E-1,1.7546115E-2,-2.9790547E-2,1.1992791E-3,-8.358715E-3,-6.197546E-2,1.693329E-2,1.693008E-3,-9.986044E-3,1.315305E-3,-2.9167796E-3],"categories":[],"categories_nodes":[],"categories_segments":[],"categories_sizes":[],"default_left":[0,0,0,0,0,0,0,0,0,0,0,0,0,0,0],"id":47,"left_children":[1,3,5,7,9,11,13,-1,-1,-1,-1,-1,-1,-1,-1],"loss_changes":[2.0627558E1,3.6778908E1,2.3320986E1,1.0995923E1,2.9939953E1,1.9051336E1,1.0816126E1,0E0,0E0,0E0,0E0,0E0,0E0,0E0,0E0],"parents":[2147483647,0,0,1,1,2,2,3,3,4,4,5,5,6,6],"right_children":[2,4,6,8,10,12,14,-1,-1,-1,-1,-1,-1,-1,-1],"split_conditions":[0E0,5.796E-1,1.1882522E0,8.7E2,1.25E0,7.217676E-1,5E-1,1.1992791E-3,-8.358715E-3,-6.197546E-2,1.693329E-2,1.693008E-3,-9.986044E-3,1.315305E-3,-2.9167796E-3],"split_indices":[1,3,38,19,7,67,25,0,0,0,0,0,0,0,0],"split_type":[0,0,0,0,0,0,0,0,0,0,0,0,0,0,0],"sum_hessian":[4.4163457E4,2.6567458E3,4.150671E4,2.5296091E3,1.2713674E2,2.0966922E4,2.053979E4,8.7811774E2,1.6514915E3,1.0540034E2,2.1736404E1,2.0228736E4,7.381849E2,3.6646487E3,1.687514E4],"tree_param":{"num_deleted":"0","num_feature":"82","num_nodes":"15","size_leaf_vector":"1"}},{"base_weights":[-5.039758E-3,2.5663266E-2,-1.7235145E-2,3.9120585E-2,-1.24276415E-1,-1.20234E-1,-1.0814104E-2,1.1456821E-3,7.962978E-3,-1.841161E-2,-1.5232078E-3,-5.3216806E-3,-3.135489E-2,1.5669202E-3,-1.8792019E-3],"categories":[],"categories_nodes":[],"categories_segments":[],"categories_sizes":[],"default_left":[0,0,0,0,0,1,1,0,0,0,0,0,0,0,0],"id":48,"left_children":[1,3,5,7,9,11,13,-1,-1,-1,-1,-1,-1,-1,-1],"loss_changes":[1.64707E1,2.450353E1,2.0176662E1,1.8197546E1,1.1682169E1,2.3204369E1,1.5003649E1,0E0,0E0,0E0,0E0,0E0,0E0,0E0,0E0],"parents":[2147483647,0,0,1,1,2,2,3,3,4,4,5,5,6,6],"right_children":[2,4,6,8,10,12,14,-1,-1,-1,-1,-1,-1,-1,-1],"split_conditions":[8.25E2,1.0689E0,0E0,5.4988396E-1,8.8E-1,2.2727273E-1,2.9032257E-1,1.1456821E-3,7.962978E-3,-1.841161E-2,-1.5232078E-3,-5.3216806E-3,-3.135489E-2,1.5669202E-3,-1.8792019E-3],"split_indices":[19,3,1,51,60,60,23,0,0,0,0,0,0,0,0],"split_type":[0,0,0,0,0,0,0,0,0,0,0,0,0,0,0],"sum_hessian":[4.4125062E4,1.2400911E4,3.1724154E4,1.1417486E4,9.8342474E2,1.8050294E3,2.9919125E4,8.694391E3,2.7230955E3,4.0476028E2,5.786644E2,1.5925983E3,2.1243114E2,9.442056E3,2.0477068E4],"tree_param":{"num_deleted":"0","num_feature":"82","num_nodes":"15","size_leaf_vector":"1"}},{"base_weights":[-5.635977E-3,1.4069703E-2,-1.956968E-2,-8.621125E-2,2.2110146E-2,-4.50705E-2,2.1664841E-2,2.072497E-3,-1.3393151E-2,4.4909967E-3,-2.4574314E-4,-1.7822913E-3,-7.141662E-3,1.1722305E-3,2.3128135E-2],"categories":[],"categories_nodes":[],"categories_segments":[],"categories_sizes":[],"default_left":[0,0,0,0,1,0,0,0,0,0,0,0,0,0,0],"id":49,"left_children":[1,3,5,7,9,11,13,-1,-1,-1,-1,-1,-1,-1,-1],"loss_changes":[1.2139608E1,1.418568E1,2.7493732E1,1.5791967E1,1.7686443E1,1.7031727E1,1.3735115E1,0E0,0E0,0E0,0E0,0E0,0E0,0E0,0E0],"parents":[2147483647,0,0,1,1,2,2,3,3,4,4,5,5,6,6],"right_children":[2,4,6,8,10,12,14,-1,-1,-1,-1,-1,-1,-1,-1],"split_conditions":[-2.3196E0,0E0,2.6858515E-1,1.5108471E-2,3.75E-1,1.7230769E0,1.25E0,2.072497E-3,-1.3393151E-2,4.4909967E-3,-2.4574314E-4,-1.7822913E-3,-7.141662E-3,1.1722305E-3,2.3128135E-2],"split_indices":[72,1,11,74,60,44,0,0,0,0,0,0,0,0,0],"split_type":[0,0,0,0,0,0,0,0,0,0,0,0,0,0,0],"sum_hessian":[4.40887E4,1.8079494E4,2.6009207E4,1.2849728E3,1.6794521E4,1.6162514E4,9.846692E3,5.698492E2,7.151236E2,6.5960513E3,1.019847E4,1.1855337E4,4.307177E3,9.695001E3,1.5169156E2],"tree_param":{"num_deleted":"0","num_feature":"82","num_nodes":"15","size_leaf_vector":"1"}},{"base_weights":[-8.972488E-3,-1.3470348E-2,6.852067E-2,-2.1931265E-1,-1.1449653E-2,2.4382502E-2,3.5084812E-3,1.1214043E-4,-2.5508966E-2,-5.3262175E-4,-8.2049845E-3],"categories":[],"categories_nodes":[],"categories_segments":[],"categories_sizes":[],"default_left":[1,0,0,0,0,0,0,0,0,0,0],"id":50,"left_children":[1,3,5,7,9,-1,-1,-1,-1,-1,-1],"loss_changes":[1.5079565E1,1.6002457E1,1.0148348E1,1.3490892E1,1.6465488E1,0E0,0E0,0E0,0E0,0E0,0E0],"parents":[2147483647,0,0,1,1,2,2,3,3,4,4],"right_children":[2,4,6,8,10,-1,-1,-1,-1,-1,-1],"split_conditions":[8.5E0,2.5E-1,-4.7200877E-2,-9.375E-2,1.315E3,2.4382502E-2,3.5084812E-3,1.1214043E-4,-2.5508966E-2,-5.3262175E-4,-8.2049845E-3],"split_indices":[73,0,69,9,76,0,0,0,0,0,0],"split_type":[0,0,0,0,0,0,0,0,0,0,0],"sum_hessian":[4.4230438E4,4.1879293E4,2.3511438E3,3.7704938E2,4.1502246E4,1.3759084E2,2.213553E3,1.26522644E2,2.5052673E2,3.9991812E4,1.5104338E3],"tree_param":{"num_deleted":"0","num_feature":"82","num_nodes":"11","size_leaf_vector":"1"}},{"base_weights":[-7.5188424E-3,-3.1891083E-3,-1.17403775E-1,-9.4158854E-4,-1.5817016E-1,-2.5295732E-3,-2.0284681E-1,-2.658346E-4,1.0851627E-2,1.4838019E-2,-1.4986703E-2,-2.4185931E-2,-0E0],"categories":[],"categories_nodes":[],"categories_segments":[],"categories_sizes":[],"default_left":[0,0,0,0,0,0,0,0,0,0,0,0,0],"id":51,"left_children":[1,3,5,7,9,-1,11,-1,-1,-1,-1,-1,-1],"loss_changes":[2.0343405E1,1.3893099E1,9.955931E0,1.6755642E1,1.0541849E1,0E0,2.0815815E1,0E0,0E0,0E0,0E0,0E0,0E0],"parents":[2147483647,0,0,1,1,2,2,3,3,4,4,6,6],"right_children":[2,4,6,8,10,-1,12,-1,-1,-1,-1,-1,-1],"split_conditions":[1.315E3,1.6857466E3,7.1428573E-1,1.25E0,-1.4298894E-1,-2.5295732E-3,3E0,-2.658346E-4,1.0851627E-2,1.4838019E-2,-1.4986703E-2,-2.4185931E-2,-0E0],"split_indices":[76,10,60,0,11,0,15,0,0,0,0,0,0],"split_type":[0,0,0,0,0,0,0,0,0,0,0,0,0],"sum_hessian":[4.4313777E4,4.268814E4,1.6256346E3,4.211748E4,5.7066113E2,8.655538E2,7.600809E2,4.140682E4,7.10662E2,5.4349895E1,5.163113E2,4.5928226E2,3.007986E2],"tree_param":{"num_deleted":"0","num_feature":"82","num_nodes":"13","size_leaf_vector":"1"}},{"base_weights":[-1.140838E-2,-3.4661472E-1,-1.0007604E-2,2.2838382E-2,-4.467518E-1,-8.378261E-3,-2.2170703E-1,-0E0,-4.0643238E-2,6.041695E-4,-1.8967112E-3,-2.8484335E-2,5.4130745E-3],"categories":[],"categories_nodes":[],"categories_segments":[],"categories_sizes":[],"default_left":[0,0,1,0,0,0,0,0,0,0,0,0,0],"id":52,"left_children":[1,3,5,-1,7,9,11,-1,-1,-1,-1,-1,-1],"loss_changes":[1.8581238E1,1.1901382E1,1.3788794E1,0E0,1.0069958E1,1.3351845E1,1.7967545E1,0E0,0E0,0E0,0E0,0E0,0E0],"parents":[2147483647,0,0,1,1,2,2,4,4,5,5,6,6],"right_children":[2,4,6,-1,8,10,12,-1,-1,-1,-1,-1,-1],"split_conditions":[-3.1406552E-1,-1.25E0,3.3E1,2.2838382E-2,-8.643885E-3,4.2511313E-3,1E0,-0E0,-4.0643238E-2,6.041695E-4,-1.8967112E-3,-2.8484335E-2,5.4130745E-3],"split_indices":[30,73,52,0,81,13,0,0,0,0,0,0,0],"split_type":[0,0,0,0,0,0,0,0,0,0,0,0,0],"sum_hessian":[4.4235977E4,1.6531555E2,4.407066E4,1.3474596E1,1.5184096E2,4.376337E4,3.0729135E2,2.5885056E1,1.25955894E2,2.2481752E4,2.1281617E4,2.0635661E2,1.0093473E2],"tree_param":{"num_deleted":"0","num_feature":"82","num_nodes":"13","size_leaf_vector":"1"}},{"base_weights":[-5.283065E-3,1.8495867E-2,-1.7528713E-2,-5.5564288E-2,3.15254E-2,2.8649885E-2,-2.906996E-2,6.499452E-4,-1.35005545E-2,3.5971736E-3,-2.504842E-3,6.5407297E-3,-0E0,-3.2554243E-2,-1.9315885E-3],"categories":[],"categories_nodes":[],"categories_segments":[],"categories_sizes":[],"default_left":[0,0,0,0,1,0,0,0,0,0,0,0,0,0,0],"id":53,"left_children":[1,3,5,7,9,11,13,-1,-1,-1,-1,-1,-1,-1,-1],"loss_changes":[1.2894559E1,1.4221232E1,1.5679169E1,1.95471E1,1.5770726E1,1.05354E1,1.8936777E1,0E0,0E0,0E0,0E0,0E0,0E0,0E0,0E0],"parents":[2147483647,0,0,1,1,2,2,3,3,4,4,5,5,6,6],"right_children":[2,4,6,8,10,12,14,-1,-1,-1,-1,-1,-1,-1,-1],"split_conditions":[3.8709676E-1,0E0,2.2070312E-1,-5E-1,9.306931E-1,7.5E-1,-7.5E-1,6.499452E-4,-1.35005545E-2,3.5971736E-3,-2.504842E-3,6.5407297E-3,-0E0,-3.2554243E-2,-1.9315885E-3],"split_indices":[9,1,64,32,21,32,7,0,0,0,0,0,0,0,0],"split_type":[0,0,0,0,0,0,0,0,0,0,0,0,0,0,0],"sum_hessian":[4.4301785E4,1.4888862E4,2.9412922E4,2.1568186E3,1.2732044E4,5.7747383E3,2.3638184E4,1.4184917E3,7.383269E2,1.002448E4,2.707563E3,1.8424307E3,3.9323076E3,1.0613733E2,2.3532047E4],"tree_param":{"num_deleted":"0","num_feature":"82","num_nodes":"15","size_leaf_vector":"1"}},{"base_weights":[-9.279919E-3,-1.4284451E-1,-6.212347E-3,-4.453403E-3,-2.3241606E-2,3.682079E-2,-1.25851855E-2,-2.0176768E-2,3.1077503E-3,-2.8221173E-2,-7.821007E-4],"categories":[],"categories_nodes":[],"categories_segments":[],"categories_sizes":[],"default_left":[0,0,1,0,0,0,0,0,0,0,0],"id":54,"left_children":[1,3,5,-1,-1,7,9,-1,-1,-1,-1],"loss_changes":[1.7275608E1,1.1528584E1,1.1766463E1,0E0,0E0,9.75448E0,2.2046177E1,0E0,0E0,0E0,0E0],"parents":[2147483647,0,0,1,1,2,2,5,5,6,6],"right_children":[2,4,6,-1,-1,8,10,-1,-1,-1,-1],"split_conditions":[6E1,1.25E0,-1E0,-4.453403E-3,-2.3241606E-2,-4.25E0,-7.5E-1,-2.0176768E-2,3.1077503E-3,-2.8221173E-2,-7.821007E-4],"split_indices":[19,12,33,0,0,8,7,0,0,0,0],"split_type":[0,0,0,0,0,0,0,0,0,0,0],"sum_hessian":[4.439734E4,9.513307E2,4.3446008E4,6.811523E2,2.701784E2,5.479551E3,3.7966457E4,8.944959E1,5.390101E3,1.52271E2,3.7814188E4],"tree_param":{"num_deleted":"0","num_feature":"82","num_nodes":"11","size_leaf_vector":"1"}},{"base_weights":[1.1428735E-3,-2.8591685E-3,6.7090048E-3,-7.707399E-2,2.363943E-3,3.906781E-3,-8.149446E-3,1.4534734E-2,6.47322E-5],"categories":[],"categories_nodes":[],"categories_segments":[],"categories_sizes":[],"default_left":[0,0,0,1,0,0,0,0,0],"id":55,"left_children":[1,3,-1,5,7,-1,-1,-1,-1],"loss_changes":[1.6877302E1,1.6859934E1,0E0,1.4032375E1,1.0293426E1,0E0,0E0,0E0,0E0],"parents":[2147483647,0,0,1,1,3,3,4,4],"right_children":[2,4,-1,6,8,-1,-1,-1,-1],"split_conditions":[7.213115E-2,7.3394495E-1,6.7090048E-3,-4.1666666E-1,7.377049E-2,3.906781E-3,-8.149446E-3,1.4534734E-2,6.47322E-5],"split_indices":[17,2,0,23,67,0,0,0,0],"split_type":[0,0,0,0,0,0,0,0,0],"sum_hessian":[4.421305E4,4.2311312E4,1.9017383E3,2.8587654E3,3.9452547E4,5.827969E2,2.2759685E3,2.5556334E2,3.919698E4],"tree_param":{"num_deleted":"0","num_feature":"82","num_nodes":"9","size_leaf_vector":"1"}},{"base_weights":[-4.4749053E-3,-6.74355E-3,2.0632434E-1,-1.0561951E-1,-3.0151347E-3,4.785943E-1,-0E0,-1.0591342E-2,6.821444E-3,-9.762643E-5,-1.6727204E-2,5.4978788E-2,-5.747508E-3],"categories":[],"categories_nodes":[],"categories_segments":[],"categories_sizes":[],"default_left":[0,0,0,0,1,0,0,0,0,0,0,0,0],"id":56,"left_children":[1,3,5,7,9,11,-1,-1,-1,-1,-1,-1,-1],"loss_changes":[1.997333E1,1.5510301E1,2.1982025E1,1.3197903E1,1.4681674E1,3.2794144E1,0E0,0E0,0E0,0E0,0E0,0E0,0E0],"parents":[2147483647,0,0,1,1,2,2,3,3,4,4,5,5],"right_children":[2,4,6,8,10,12,-1,-1,-1,-1,-1,-1,-1],"split_conditions":[1.75E0,7.371704E-3,1.75E0,1.4920636E-1,3.3E1,-3.6661613E-1,-0E0,-1.0591342E-2,6.821444E-3,-9.762643E-5,-1.6727204E-2,5.4978788E-2,-5.747508E-3],"split_indices":[0,26,7,54,52,4,0,0,0,0,0,0,0],"split_type":[0,0,0,0,0,0,0,0,0,0,0,0,0],"sum_hessian":[4.432382E4,4.3881188E4,4.4263507E2,1.5342196E3,4.234697E4,1.7780312E2,2.6483194E2,1.2950275E3,2.3919205E2,4.2071E4,2.7596677E2,1.2463068E2,5.3172436E1],"tree_param":{"num_deleted":"0","num_feature":"82","num_nodes":"13","size_leaf_vector":"1"}},{"base_weights":[-2.2176353E-3,-1.3866783E-2,2.443713E-2,-1.194067E-2,-1.5844557E-2,-7.456663E-2,3.61745E-2,-1.0063889E-3,1.2654557E-2,-2.194273E-2,-2.2412918E-3,-1.0817723E-3,4.506481E-3],"categories":[],"categories_nodes":[],"categories_segments":[],"categories_sizes":[],"default_left":[1,0,0,0,0,0,0,0,0,0,0,0,0],"id":57,"left_children":[1,3,5,7,-1,9,11,-1,-1,-1,-1,-1,-1],"loss_changes":[1.3612874E1,1.0838536E1,1.51472225E1,1.0890211E1,0E0,1.142301E1,1.6466602E1,0E0,0E0,0E0,0E0,0E0,0E0],"parents":[2147483647,0,0,1,1,2,2,3,3,5,5,6,6],"right_children":[2,4,6,8,-1,10,12,-1,-1,-1,-1,-1,-1],"split_conditions":[2.7E0,3.7037036E-1,-2.3211747E-1,1.75E0,-1.5844557E-2,7.9064876E-2,3.8582677E-1,-1.0063889E-3,1.2654557E-2,-2.194273E-2,-2.2412918E-3,-1.0817723E-3,4.506481E-3],"split_indices":[52,30,4,0,0,46,47,0,0,0,0,0,0],"split_type":[0,0,0,0,0,0,0,0,0,0,0,0,0],"sum_hessian":[4.4048805E4,3.081286E4,1.3235946E4,3.0558322E4,2.5453703E2,1.3471616E3,1.1888785E4,3.02588E4,2.9952103E2,1.9017256E2,1.156989E3,3.9795679E3,7.909217E3],"tree_param":{"num_deleted":"0","num_feature":"82","num_nodes":"13","size_leaf_vector":"1"}},{"base_weights":[-1.8442323E-3,-5.128849E-2,4.987381E-3,-1.3269536E-2,-1.399654E-1,3.0247949E-3,2.4560106E-1,-2.2002931E-3,1.1082274E-2,1.5449472E-2,-1.2213046E-2,-9.918473E-3,3.9252522E-4,2.5770282E-3,3.6615834E-2],"categories":[],"categories_nodes":[],"categories_segments":[],"categories_sizes":[],"default_left":[0,0,0,0,0,1,0,0,0,0,0,0,0,0,0],"id":58,"left_children":[1,3,5,7,9,11,13,-1,-1,-1,-1,-1,-1,-1,-1],"loss_changes":[1.5242041E1,1.754999E1,1.6795488E1,1.0549026E1,1.6773653E1,1.2437599E1,1.2626446E1,0E0,0E0,0E0,0E0,0E0,0E0,0E0,0E0],"parents":[2147483647,0,0,1,1,2,2,3,3,4,4,5,5,6,6],"right_children":[2,4,6,8,10,12,14,-1,-1,-1,-1,-1,-1,-1,-1],"split_conditions":[8.015873E-1,3.6842105E-1,1.5E0,1.8235294E0,-2.9568624E-4,4.4247787E-2,8.0094226E-2,-2.2002931E-3,1.1082274E-2,1.5449472E-2,-1.2213046E-2,-9.918473E-3,3.9252522E-4,2.5770282E-3,3.6615834E-2],"split_indices":[2,40,0,9,13,42,11,0,0,0,0,0,0,0,0],"split_type":[0,0,0,0,0,0,0,0,0,0,0,0,0,0,0],"sum_hessian":[4.4281645E4,5.4841855E3,3.879746E4,3.887343E3,1.5968424E3,3.850939E4,2.8806924E2,3.5559753E3,3.313678E2,1.0835863E2,1.4884838E3,6.111448E2,3.7898246E4,1.7383783E2,1.1423141E2],"tree_param":{"num_deleted":"0","num_feature":"82","num_nodes":"15","size_leaf_vector":"1"}},{"base_weights":[-7.773231E-3,1.2943676E-2,-2.4491506E-2,-5.957163E-3,2.1118179E-2,-2.6491031E-2,2.4447454E-2,-3.780732E-3,2.211306E-3,-1.5163098E-3,-1.2104326E-2],"categories":[],"categories_nodes":[],"categories_segments":[],"categories_sizes":[],"default_left":[1,0,0,0,0,0,0,0,0,0,0],"id":59,"left_children":[1,3,5,-1,7,9,-1,-1,-1,-1,-1],"loss_changes":[1.5374451E1,1.4956714E1,1.6034315E1,0E0,1.2756332E1,1.7567835E1,0E0,0E0,0E0,0E0,0E0],"parents":[2147483647,0,0,1,1,2,2,4,4,5,5],"right_children":[2,4,6,-1,8,10,-1,-1,-1,-1,-1],"split_conditions":[-1.6646142E-6,5.9788555E-2,7.75E0,-5.957163E-3,-5.19652E-2,1.315E3,2.4447454E-2,-3.780732E-3,2.211306E-3,-1.5163098E-3,-1.2104326E-2],"split_indices":[24,46,32,0,24,76,0,0,0,0,0],"split_type":[0,0,0,0,0,0,0,0,0,0,0],"sum_hessian":[4.418422E4,1.9568496E4,2.4615723E4,1.4781869E3,1.8090309E4,2.4498746E4,1.169767E2,2.0217579E3,1.6068551E4,2.364581E4,8.5293585E2],"tree_param":{"num_deleted":"0","num_feature":"82","num_nodes":"11","size_leaf_vector":"1"}},{"base_weights":[-4.5329686E-3,-2.792313E-3,-2.3979458E-1,-9.799447E-3,4.0827524E-2,-2.8040178E-2,3.400781E-4,-5.16295E-4,-1.475501E-2,-2.8083692E-3,5.2466905E-3],"categories":[],"categories_nodes":[],"categories_segments":[],"categories_sizes":[],"default_left":[1,0,0,0,0,0,0,0,0,0,0],"id":60,"left_children":[1,3,5,7,9,-1,-1,-1,-1,-1,-1],"loss_changes":[1.664796E1,1.3255422E1,1.3384926E1,1.812654E1,1.5567578E1,0E0,0E0,0E0,0E0,0E0,0E0],"parents":[2147483647,0,0,1,1,2,2,3,3,4,4],"right_children":[2,4,6,8,10,-1,-1,-1,-1,-1,-1],"split_conditions":[3.3E1,2.25E0,1E0,3.7738233E0,2.360406E-1,-2.8040178E-2,3.400781E-4,-5.16295E-4,-1.475501E-2,-2.8083692E-3,5.2466905E-3],"split_indices":[52,7,0,56,67,0,0,0,0,0,0],"split_type":[0,0,0,0,0,0,0,0,0,0,0],"sum_hessian":[4.4288477E4,4.398962E4,2.988551E2,3.802269E4,5.966929E3,2.003299E2,9.8525215E1,3.7552902E4,4.6978867E2,1.6590375E3,4.3078916E3],"tree_param":{"num_deleted":"0","num_feature":"82","num_nodes":"11","size_leaf_vector":"1"}},{"base_weights":[-3.1317326E-3,-2.2171466E-2,1.4371723E-2,-2.3969013E-2,2.3414776E-2,2.2044735E-2,-1.2255035E-1,-1.0030897E-3,-6.210831E-3,-1.9677607E-2,1.7747987E-3,-1.4815193E-2,4.5184555E-4],"categories":[],"categories_nodes":[],"categories_segments":[],"categories_sizes":[],"default_left":[0,0,1,0,0,1,0,0,0,0,0,0,0],"id":61,"left_children":[1,3,5,7,-1,9,11,-1,-1,-1,-1,-1,-1],"loss_changes":[1.4825177E1,1.154572E1,2.3480366E1,1.2709873E1,0E0,1.5600267E1,1.3890303E1,0E0,0E0,0E0,0E0,0E0,0E0],"parents":[2147483647,0,0,1,1,2,2,3,3,5,5,6,6],"right_children":[2,4,6,8,-1,10,12,-1,-1,-1,-1,-1,-1],"split_conditions":[-3.8331136E-2,7E0,6.7573223E0,2.5E0,2.3414776E-2,-3.5146442E-1,4.031008E-1,-1.0030897E-3,-6.210831E-3,-1.9677607E-2,1.7747987E-3,-1.4815193E-2,4.5184555E-4],"split_indices":[18,70,26,49,0,50,34,0,0,0,0,0,0],"split_type":[0,0,0,0,0,0,0,0,0,0,0,0,0],"sum_hessian":[4.434053E4,2.1406062E4,2.2934469E4,2.1314115E4,9.194758E1,2.1760293E4,1.1741749E3,1.8457E4,2.8571143E3,1.7276248E2,2.1587531E4,7.40565E2,4.336099E2],"tree_param":{"num_deleted":"0","num_feature":"82","num_nodes":"13","size_leaf_vector":"1"}},{"base_weights":[-9.132288E-3,-3.206535E-2,6.3820737E-3,-1.550704E-1,-2.4798064E-2,2.6882313E-2,4.7960915E-3,-2.0612776E-2,-2.3596126E-3,-4.0816306E-3,3.3293643E-5,-6.267515E-4,2.9636873E-3],"categories":[],"categories_nodes":[],"categories_segments":[],"categories_sizes":[],"default_left":[0,0,1,0,0,0,1,0,0,0,0,0,0],"id":62,"left_children":[1,3,5,7,9,-1,11,-1,-1,-1,-1,-1,-1],"loss_changes":[1.5884754E1,1.498167E1,1.2960977E1,1.3450947E1,1.412728E1,0E0,1.3070013E1,0E0,0E0,0E0,0E0,0E0,0E0],"parents":[2147483647,0,0,1,1,2,2,3,3,4,4,6,6],"right_children":[2,4,6,8,10,-1,12,-1,-1,-1,-1,-1,-1],"split_conditions":[7.5E-1,2.1428572E-1,-1.75E0,1.1244019E0,9.130204E-1,2.6882313E-2,3E0,-2.0612776E-2,-2.3596126E-3,-4.0816306E-3,3.3293643E-5,-6.267515E-4,2.9636873E-3],"split_indices":[0,34,77,5,5,0,52,0,0,0,0,0,0],"split_type":[0,0,0,0,0,0,0,0,0,0,0,0,0],"sum_hessian":[4.4202465E4,1.7996006E4,2.6206459E4,9.562137E2,1.7039791E4,9.537453E1,2.6111084E4,4.355126E2,5.2070105E2,7.622076E3,9.417716E3,1.8924822E4,7.1862627E3],"tree_param":{"num_deleted":"0","num_feature":"82","num_nodes":"13","size_leaf_vector":"1"}},{"base_weights":[8.701983E-4,-1.6317317E-1,3.5350677E-3,-4.800654E-2,-1.12868994E-1,-0E0,7.53528E-3,1.3816751E-2,-1.2087999E-2,2.258766E-3,-7.632247E-4],"categories":[],"categories_nodes":[],"categories_segments":[],"categories_sizes":[],"default_left":[0,0,0,0,1,0,0,0,0,0,0],"id":63,"left_children":[1,3,5,-1,7,9,-1,-1,-1,-1,-1],"loss_changes":[1.8362844E1,1.220166E1,1.6238647E1,0E0,1.0373977E1,1.3921129E1,0E0,0E0,0E0,0E0,0E0],"parents":[2147483647,0,0,1,1,2,2,4,4,5,5],"right_children":[2,4,6,-1,8,10,-1,-1,-1,-1,-1],"split_conditions":[3.5E1,7.8461535E-2,8.5E-2,-4.800654E-2,-1E0,-1.11108E1,7.53528E-3,1.3816751E-2,-1.2087999E-2,2.258766E-3,-7.632247E-4],"split_indices":[76,39,17,0,8,72,0,0,0,0,0],"split_type":[0,0,0,0,0,0,0,0,0,0,0],"sum_hessian":[4.424482E4,6.6994904E2,4.357487E4,4.904778E1,6.209013E2,4.2049805E4,1.5250658E3,7.815874E1,5.4274255E2,1.0477743E4,3.1572062E4],"tree_param":{"num_deleted":"0","num_feature":"82","num_nodes":"11","size_leaf_vector":"1"}},{"base_weights":[-1.03652915E-2,-2.4654282E-2,2.3787599E-2,-3.0417882E-2,5.219905E-2,1.1229866E-2,9.651273E-2,-1.757448E-3,-7.6192534E-3,7.6791956E-3,-1.9245174E-3,-4.63409E-3,2.2190856E-3,-6.174609E-2,7.6427106E-3],"categories":[],"categories_nodes":[],"categories_segments":[],"categories_sizes":[],"default_left":[1,0,1,0,0,0,0,0,0,0,0,0,0,0,0],"id":64,"left_children":[1,3,5,7,9,11,13,-1,-1,-1,-1,-1,-1,-1,-1],"loss_changes":[2.1582087E1,1.3730883E1,1.1133346E1,1.2346163E1,9.605206E0,1.6299566E1,1.2689718E1,0E0,0E0,0E0,0E0,0E0,0E0,0E0,0E0],"parents":[2147483647,0,0,1,1,2,2,3,3,4,4,5,5,6,6],"right_children":[2,4,6,8,10,12,14,-1,-1,-1,-1,-1,-1,-1,-1],"split_conditions":[2.7E0,1.9E0,2.5063025E-2,3.21714E1,1.9068038E-4,8.369099E-1,-3.75E-1,-1.757448E-3,-7.6192534E-3,7.6791956E-3,-1.9245174E-3,-4.63409E-3,2.2190856E-3,-6.174609E-2,7.6427106E-3],"split_indices":[45,9,29,72,24,21,17,0,0,0,0,0,0,0,0],"split_type":[0,0,0,0,0,0,0,0,0,0,0,0,0,0,0],"sum_hessian":[4.4212586E4,3.1297885E4,1.2914702E4,2.9189018E4,2.1088677E3,1.1085505E4,1.829198E3,2.7134377E4,2.0546409E3,1.2918743E3,8.1699347E2,2.2199326E3,8.865572E3,1.1872174E1,1.8173258E3],"tree_param":{"num_deleted":"0","num_feature":"82","num_nodes":"15","size_leaf_vector":"1"}},{"base_weights":[-3.2543356E-4,6.829584E-4,-2.7876619E-1,-9.093226E-4,1.8440926E-1,-0E0,-3.3691987E-2,-1.2615268E-3,9.748172E-4,3.4355063E-2,-0E0],"categories":[],"categories_nodes":[],"categories_segments":[],"categories_sizes":[],"default_left":[1,0,1,0,0,0,0,0,0,0,0],"id":65,"left_children":[1,3,5,7,9,-1,-1,-1,-1,-1,-1],"loss_changes":[1.4104625E1,1.3990964E1,9.671375E0,1.052679E1,2.4552475E1,0E0,0E0,0E0,0E0,0E0,0E0],"parents":[2147483647,0,0,1,1,2,2,3,3,4,4],"right_children":[2,4,6,8,10,-1,-1,-1,-1,-1,-1],"split_conditions":[6E-1,1.75E0,1.3168187E-1,1.1563405E0,2.25E0,-0E0,-3.3691987E-2,-1.2615268E-3,9.748172E-4,3.4355063E-2,-0E0],"split_indices":[69,0,30,5,14,0,0,0,0,0,0],"split_type":[0,0,0,0,0,0,0,0,0,0,0],"sum_hessian":[4.4156438E4,4.3975668E4,1.807693E2,4.3565234E4,4.1043192E2,7.326445E1,1.07504845E2,2.045967E4,2.3105564E4,1.6795462E2,2.4247731E2],"tree_param":{"num_deleted":"0","num_feature":"82","num_nodes":"11","size_leaf_vector":"1"}},{"base_weights":[-3.7755835E-4,3.8733482E-3,-7.9525806E-2,-2.9407192E-3,3.4321249E-3,-1.6724409E-1,-0E0,-2.5186703E-2,-1.1759347E-4,-1.4270001E-2,8.846197E-3,1.4499782E-2,-4.625676E-3],"categories":[],"categories_nodes":[],"categories_segments":[],"categories_sizes":[],"default_left":[0,0,0,0,0,1,0,0,0,0,0,0,0],"id":66,"left_children":[1,3,5,7,-1,9,11,-1,-1,-1,-1,-1,-1],"loss_changes":[1.5362136E1,1.2823576E1,1.6895512E1,1.4244075E1,0E0,1.07834015E1,1.6125933E1,0E0,0E0,0E0,0E0,0E0,0E0],"parents":[2147483647,0,0,1,1,2,2,3,3,5,5,6,6],"right_children":[2,4,6,8,-1,10,12,-1,-1,-1,-1,-1,-1],"split_conditions":[1.31E3,1.6E0,2E0,-3.1406552E-1,3.4321249E-3,9.575185E-1,1.010101E-2,-2.5186703E-2,-1.1759347E-4,-1.4270001E-2,8.846197E-3,1.4499782E-2,-4.625676E-3],"split_indices":[76,60,15,30,0,21,36,0,0,0,0,0,0],"split_type":[0,0,0,0,0,0,0,0,0,0,0,0,0],"sum_hessian":[4.427859E4,4.194859E4,2.3300005E3,3.619166E4,5.7569287E3,1.1304667E3,1.1995338E3,1.1712359E2,3.607454E4,1.0394205E3,9.104611E1,3.0417667E2,8.953572E2],"tree_param":{"num_deleted":"0","num_feature":"82","num_nodes":"13","size_leaf_vector":"1"}},{"base_weights":[-3.8905614E-3,-6.456011E-3,1.2944525E-1,-1.3556266E-2,3.98036E-2,7.5375894E-4,2.8141797E-1,5.490637E-3,-1.2915214E-3,-0E0,7.906473E-3,3.7662614E-2,-0E0],"categories":[],"categories_nodes":[],"categories_segments":[],"categories_sizes":[],"default_left":[0,0,0,0,0,0,0,0,0,0,0,0,0],"id":67,"left_children":[1,3,5,7,9,-1,11,-1,-1,-1,-1,-1,-1],"loss_changes":[1.4380467E1,1.411233E1,1.2490513E1,1.4674207E1,1.52827835E1,0E0,2.3952147E1,0E0,0E0,0E0,0E0,0E0,0E0],"parents":[2147483647,0,0,1,1,2,2,3,3,4,4,6,6],"right_children":[2,4,6,8,10,-1,12,-1,-1,-1,-1,-1,-1],"split_conditions":[1.25E0,2.25E0,2.0198657E-1,-7.5E-1,3.8E-1,7.5375894E-4,1.5E0,5.490637E-3,-1.2915214E-3,-0E0,7.906473E-3,3.7662614E-2,-0E0],"split_indices":[0,7,11,14,34,0,62,0,0,0,0,0,0],"split_type":[0,0,0,0,0,0,0,0,0,0,0,0,0],"sum_hessian":[4.4244273E4,4.3454703E4,7.895703E2,3.7787777E4,5.666927E3,4.6586426E2,3.2370605E2,1.7041831E3,3.6083594E4,3.664265E3,2.0026616E3,1.800592E2,1.4364684E2],"tree_param":{"num_deleted":"0","num_feature":"82","num_nodes":"13","size_leaf_vector":"1"}},{"base_weights":[-3.6237256E-3,-1.4999239E-1,-1.8594392E-3,-2.8164744E-1,3.9474484E-2,3.1101549E-2,-1.1188079E-2,-2.832275E-2,-0E0,1.4410219E-2,-2.248185E-2,3.5851176E-3,-4.2374595E-3,5.830404E-4,-2.4507882E-3],"categories":[],"categories_nodes":[],"categories_segments":[],"categories_sizes":[],"default_left":[1,0,0,0,1,1,0,0,0,0,0,0,0,0,0],"id":68,"left_children":[1,3,5,7,9,11,13,-1,-1,-1,-1,-1,-1,-1,-1],"loss_changes":[1.0475417E1,1.3582036E1,1.3311756E1,1.0706547E1,9.567418E0,1.6022976E1,1.529351E1,0E0,0E0,0E0,0E0,0E0,0E0,0E0,0E0],"parents":[2147483647,0,0,1,1,2,2,3,3,4,4,5,5,6,6],"right_children":[2,4,6,8,10,12,14,-1,-1,-1,-1,-1,-1,-1,-1],"split_conditions":[-2.835821E-1,2E0,1.25E0,1.25E0,3.5E0,2.797619E-1,1.24726474E-1,-2.832275E-2,-0E0,1.4410219E-2,-2.248185E-2,3.5851176E-3,-4.2374595E-3,5.830404E-4,-2.4507882E-3],"split_indices":[50,15,15,59,75,36,36,0,0,0,0,0,0,0,0],"split_type":[0,0,0,0,0,0,0,0,0,0,0,0,0,0,0],"sum_hessian":[4.417332E4,4.8416135E2,4.3689156E4,3.04618E2,1.7954333E2,9.492E3,3.4197156E4,2.2410341E2,8.05146E1,1.3531953E2,4.4223797E1,7.9095874E3,1.5824125E3,1.8419879E4,1.5777279E4],"tree_param":{"num_deleted":"0","num_feature":"82","num_nodes":"15","size_leaf_vector":"1"}},{"base_weights":[-2.707354E-3,8.656408E-4,-1.357421E-1,7.085455E-3,-4.4846954E-3,-7.864349E-4,-2.6135746E-1,2.957788E-4,9.844782E-3,-0E0,-2.5389306E-2],"categories":[],"categories_nodes":[],"categories_segments":[],"categories_sizes":[],"default_left":[0,1,0,1,0,0,0,0,0,0,0],"id":69,"left_children":[1,3,5,7,-1,-1,9,-1,-1,-1,-1],"loss_changes":[2.1867918E1,1.6612122E1,1.7180857E1,1.42922325E1,0E0,0E0,1.4521069E1,0E0,0E0,0E0,0E0],"parents":[2147483647,0,0,1,1,2,2,3,3,6,6],"right_children":[2,4,6,8,-1,-1,10,-1,-1,-1,-1],"split_conditions":[6.1904764E-1,6.5152544E-1,9.468085E-1,6.250304E-1,-4.4846954E-3,-7.864349E-4,-6.4844444E-2,2.957788E-4,9.844782E-3,-0E0,-2.5389306E-2],"split_indices":[64,47,48,47,0,0,18,0,0,0,0],"split_type":[0,0,0,0,0,0,0,0,0,0,0],"sum_hessian":[4.426384E4,4.3061707E4,1.2021304E3,3.9297176E4,3.7645315E3,6.278244E2,5.7430597E2,3.8466246E4,8.309294E2,1.4417264E2,4.3013336E2],"tree_param":{"num_deleted":"0","num_feature":"82","num_nodes":"11","size_leaf_vector":"1"}},{"base_weights":[1.7703238E-3,-1.6031486E-1,3.7868829E-3,-1.9218171E-2,-0E0,2.5884021E-2,-9.942864E-3,2.836173E-3,-2.1590602E-3,-4.9390513E-3,-8.208761E-5],"categories":[],"categories_nodes":[],"categories_segments":[],"categories_sizes":[],"default_left":[0,1,0,0,0,1,0,0,0,0,0],"id":70,"left_children":[1,3,5,-1,-1,7,9,-1,-1,-1,-1],"loss_changes":[1.3482007E1,9.600521E0,1.3349959E1,0E0,0E0,1.2917032E1,1.3424634E1,0E0,0E0,0E0,0E0],"parents":[2147483647,0,0,1,1,2,2,5,5,6,6],"right_children":[2,4,6,-1,-1,8,10,-1,-1,-1,-1],"split_conditions":[-3.236715E-1,3.3333334E-1,-3.3074E0,-1.9218171E-2,-0E0,2.358209E0,-1.9607843E-1,2.836173E-3,-2.1590602E-3,-4.9390513E-3,-8.208761E-5],"split_indices":[69,21,72,0,0,48,4,0,0,0,0],"split_type":[0,0,0,0,0,0,0,0,0,0,0],"sum_hessian":[4.4184598E4,5.050609E2,4.3679535E4,3.1522165E2,1.8983928E2,1.6910158E4,2.6769377E4,1.3692487E4,3.2176711E3,3.3933542E3,2.3376023E4],"tree_param":{"num_deleted":"0","num_feature":"82","num_nodes":"11","size_leaf_vector":"1"}},{"base_weights":[3.4598664E-3,6.865486E-3,-7.7285305E-2,3.6087792E-2,-4.851474E-3,-1.4287628E-2,-0E0,-2.9428573E-3,4.198855E-3,-8.05317E-3,4.8704245E-5,-1.6318182E-2,3.5148675E-3],"categories":[],"categories_nodes":[],"categories_segments":[],"categories_sizes":[],"default_left":[1,1,1,0,0,0,0,0,0,0,0,0,0],"id":71,"left_children":[1,3,5,7,9,-1,11,-1,-1,-1,-1,-1,-1],"loss_changes":[1.1759338E1,1.4782175E1,1.5225551E1,2.137607E1,1.8631943E1,0E0,1.2824604E1,0E0,0E0,0E0,0E0,0E0,0E0],"parents":[2147483647,0,0,1,1,2,2,3,3,4,4,6,6],"right_children":[2,4,6,8,10,-1,12,-1,-1,-1,-1,-1,-1],"split_conditions":[1.9341786E-1,2.4007965E-2,3.948718E-1,-7.4268565E-2,4.1570735E-1,-1.4287628E-2,-1.0688968E-1,-2.9428573E-3,4.198855E-3,-8.05317E-3,4.8704245E-5,-1.6318182E-2,3.5148675E-3],"split_indices":[30,10,61,50,5,0,11,0,0,0,0,0,0],"split_type":[0,0,0,0,0,0,0,0,0,0,0,0,0],"sum_hessian":[4.433291E4,4.2612113E4,1.7207944E3,1.2345294E4,3.026682E4,6.4438715E2,1.0764073E3,2.7147124E3,9.630581E3,1.5379336E3,2.8728887E4,2.0772221E2,8.686851E2],"tree_param":{"num_deleted":"0","num_feature":"82","num_nodes":"13","size_leaf_vector":"1"}},{"base_weights":[3.4591907E-3,-1.751057E-1,5.254109E-3,6.1772545E-3,-2.7798095E-1,1.6186002E-3,8.567613E-2,1.2085837E-2,-2.5824726E-2,2.3954635E-4,-1.0502689E-2,3.4375645E-2,4.317146E-3],"categories":[],"categories_nodes":[],"categories_segments":[],"categories_sizes":[],"default_left":[0,0,1,0,0,1,0,0,0,0,0,0,0],"id":72,"left_children":[1,3,5,-1,7,9,11,-1,-1,-1,-1,-1,-1],"loss_changes":[1.3161736E1,1.2122935E1,1.2302097E1,0E0,1.2438267E1,9.795988E0,1.5031678E1,0E0,0E0,0E0,0E0,0E0,0E0],"parents":[2147483647,0,0,1,1,2,2,4,4,5,5,6,6],"right_children":[2,4,6,-1,8,10,12,-1,-1,-1,-1,-1,-1],"split_conditions":[2.5E-1,5.442404E-1,8E0,6.1772545E-3,-1.5E0,3.057769E-1,-2.5E-1,1.2085837E-2,-2.5824726E-2,2.3954635E-4,-1.0502689E-2,3.4375645E-2,4.317146E-3],"split_indices":[0,66,16,0,77,50,6,0,0,0,0,0,0],"split_type":[0,0,0,0,0,0,0,0,0,0,0,0,0],"sum_hessian":[4.43146E4,4.0648563E2,4.3908117E4,9.8060486E1,3.0842514E2,4.208259E4,1.8255259E3,3.591022E1,2.7251492E2,4.1641258E4,4.413316E2,9.639145E1,1.7291344E3],"tree_param":{"num_deleted":"0","num_feature":"82","num_nodes":"13","size_leaf_vector":"1"}},{"base_weights":[-8.62028E-3,-3.1425886E-2,7.3429565E-3,1.19552305E-2,-5.165297E-2,1.833799E-2,-5.161155E-2,-1.539227E-3,5.526216E-3,-3.9128284E-3,2.4800735E-2,-1.5428896E-2,1.593899E-3,-5.089377E-3,5.5112108E-3],"categories":[],"categories_nodes":[],"categories_segments":[],"categories_sizes":[],"default_left":[1,0,0,0,0,0,1,0,0,0,0,0,0,0,0],"id":73,"left_children":[1,3,5,7,9,11,13,-1,-1,-1,-1,-1,-1,-1,-1],"loss_changes":[1.6253773E1,1.6367184E1,1.6563229E1,1.2804255E1,1.2313644E1,1.8454447E1,9.7834635E0,0E0,0E0,0E0,0E0,0E0,0E0,0E0,0E0],"parents":[2147483647,0,0,1,1,2,2,3,3,4,4,5,5,6,6],"right_children":[2,4,6,8,10,12,14,-1,-1,-1,-1,-1,-1,-1,-1],"split_conditions":[1.6898735E0,-7.5E-1,9.488304E-1,2E0,7E0,1.2886597E-1,5.855263E-1,-1.539227E-3,5.526216E-3,-3.9128284E-3,2.4800735E-2,-1.5428896E-2,1.593899E-3,-5.089377E-3,5.5112108E-3],"split_indices":[52,49,2,73,1,64,47,0,0,0,0,0,0,0,0],"split_type":[0,0,0,0,0,0,0,0,0,0,0,0,0,0,0],"sum_hessian":[4.4240176E4,1.8374135E4,2.5866041E4,5.7464897E3,1.26276455E4,2.1888307E4,3.9777356E3,3.733887E3,2.0126029E3,1.2554639E4,7.30076E1,3.291016E2,2.1559205E4,3.501145E3,4.765906E2],"tree_param":{"num_deleted":"0","num_feature":"82","num_nodes":"15","size_leaf_vector":"1"}},{"base_weights":[-7.662561E-3,-5.492889E-2,-7.774533E-4,1.4428118E-3,-9.2901245E-2,3.616642E-2,-1.7952213E-2,-2.0147087E-2,-4.6878406E-3,4.395104E-3,-1.1769987E-3,-1.6261798E-3,6.2521934E-3],"categories":[],"categories_nodes":[],"categories_segments":[],"categories_sizes":[],"default_left":[0,0,0,0,0,0,1,0,0,0,0,0,0],"id":74,"left_children":[1,3,5,-1,7,9,11,-1,-1,-1,-1,-1,-1],"loss_changes":[1.40329685E1,1.6121971E1,2.4424057E1,0E0,1.7095127E1,1.6255154E1,1.26394205E1,0E0,0E0,0E0,0E0,0E0,0E0],"parents":[2147483647,0,0,1,1,2,2,4,4,5,5,6,6],"right_children":[2,4,6,-1,8,10,12,-1,-1,-1,-1,-1,-1],"split_conditions":[5E-1,8.7E2,-5E-1,1.4428118E-3,7.6510066E-1,5E-1,7.5E0,-2.0147087E-2,-4.6878406E-3,4.395104E-3,-1.1769987E-3,-1.6261798E-3,6.2521934E-3],"split_indices":[1,19,49,0,2,8,35,0,0,0,0,0,0],"split_type":[0,0,0,0,0,0,0,0,0,0,0,0,0],"sum_hessian":[4.417065E4,5.5023193E3,3.866833E4,1.7950273E3,3.7072922E3,1.2157984E4,2.6510344E4,4.4722943E2,3.2600627E3,8.316492E3,3.841493E3,2.5434562E4,1.0757799E3],"tree_param":{"num_deleted":"0","num_feature":"82","num_nodes":"13","size_leaf_vector":"1"}},{"base_weights":[1.943961E-3,3.2596327E-2,-1.0409847E-2,2.318184E-2,1.1149371E-2,-7.742279E-2,-2.6220127E-4,3.961163E-3,-2.8994188E-4,5.4809055E-3,-7.011934E-3,3.5202997E-3,-7.9690764E-4],"categories":[],"categories_nodes":[],"categories_segments":[],"categories_sizes":[],"default_left":[0,0,0,0,0,1,0,0,0,0,0,0,0],"id":75,"left_children":[1,3,5,7,-1,9,11,-1,-1,-1,-1,-1,-1],"loss_changes":[1.6881298E1,1.3729371E1,2.08593E1,1.0729925E1,0E0,1.2686615E1,1.4348397E1,0E0,0E0,0E0,0E0,0E0,0E0],"parents":[2147483647,0,0,1,1,2,2,3,3,5,5,6,6],"right_children":[2,4,6,8,-1,10,12,-1,-1,-1,-1,-1,-1],"split_conditions":[1.2817904E-1,1.1368421E1,-2.3047619E-1,3.400923E0,1.1149371E-2,-1.25E0,-6.4935066E-2,3.961163E-3,-2.8994188E-4,5.4809055E-3,-7.011934E-3,3.5202997E-3,-7.9690764E-4],"split_indices":[40,45,17,46,0,35,43,0,0,0,0,0,0],"split_type":[0,0,0,0,0,0,0,0,0,0,0,0,0],"sum_hessian":[4.4219598E4,1.2844795E4,3.1374805E4,1.19758125E4,8.6898224E2,4.0462244E3,2.732858E4,5.6119663E3,6.3638457E3,4.3407346E2,3.6121511E3,4.822864E3,2.2505715E4],"tree_param":{"num_deleted":"0","num_feature":"82","num_nodes":"13","size_leaf_vector":"1"}},{"base_weights":[-2.9931977E-4,-1.04156785E-1,2.2451999E-3,-2.0889793E-1,4.4179228E-4,2.779309E-2,-9.647848E-3,5.020591E-3,-1.9047827E-2,2.5339946E-3,-8.4161535E-3,-3.5152328E-3,2.514515E-4],"categories":[],"categories_nodes":[],"categories_segments":[],"categories_sizes":[],"default_left":[0,1,1,0,0,1,0,0,0,0,0,0,0],"id":76,"left_children":[1,3,5,7,-1,9,11,-1,-1,-1,-1,-1,-1],"loss_changes":[1.233675E1,1.4155418E1,1.323724E1,1.064142E1,0E0,1.4551388E1,1.5418524E1,0E0,0E0,0E0,0E0,0E0,0E0],"parents":[2147483647,0,0,1,1,2,2,3,3,5,5,6,6],"right_children":[2,4,6,8,-1,10,12,-1,-1,-1,-1,-1,-1],"split_conditions":[-3.25E0,-4.1225556E-2,2.5714287E-1,-3.652968E-1,4.4179228E-4,1.1875E0,3E0,5.020591E-3,-1.9047827E-2,2.5339946E-3,-8.4161535E-3,-3.5152328E-3,2.514515E-4],"split_indices":[33,50,23,17,0,60,16,0,0,0,0,0,0],"split_type":[0,0,0,0,0,0,0,0,0,0,0,0,0],"sum_hessian":[4.4315668E4,1.1169348E3,4.3198734E4,6.012092E2,5.157256E2,1.3885654E4,2.9313078E4,8.2581314E1,5.186279E2,1.3244991E4,6.406626E2,7.4675537E3,2.1845525E4],"tree_param":{"num_deleted":"0","num_feature":"82","num_nodes":"13","size_leaf_vector":"1"}},{"base_weights":[3.6835012E-3,7.385423E-3,-7.114491E-2,3.937645E-3,8.764069E-2,-1.049707E-1,1.6729018E-1,6.444934E-4,-3.8877309E-3,9.869862E-3,-5.6968057E-3,-9.4833E-4,-1.2553004E-2,-0E0,3.166594E-2],"categories":[],"categories_nodes":[],"categories_segments":[],"categories_sizes":[],"default_left":[1,0,1,0,1,0,1,0,0,0,0,0,0,0,0],"id":77,"left_children":[1,3,5,7,9,11,13,-1,-1,-1,-1,-1,-1,-1,-1],"loss_changes":[1.1869298E1,1.1129021E1,1.5824393E1,1.1581923E1,1.420461E1,1.0251472E1,1.1361092E1,0E0,0E0,0E0,0E0,0E0,0E0,0E0,0E0],"parents":[2147483647,0,0,1,1,2,2,3,3,4,4,5,5,6,6],"right_children":[2,4,6,8,10,12,14,-1,-1,-1,-1,-1,-1,-1,-1],"split_conditions":[6.259259E-1,7.8228086E-2,7E0,5.555556E-1,9.1935486E-1,6.456802E-2,2.5588236E0,6.444934E-4,-3.8877309E-3,9.869862E-3,-5.6968057E-3,-9.4833E-4,-1.2553004E-2,-0E0,3.166594E-2],"split_indices":[36,17,73,43,21,10,79,0,0,0,0,0,0,0,0],"split_type":[0,0,0,0,0,0,0,0,0,0,0,0,0,0,0],"sum_hessian":[4.425881E4,4.225103E4,2.0077748E3,4.0584523E4,1.6665093E3,1.7811237E3,2.2665114E2,3.7444164E4,3.1403591E3,1.3123296E3,3.5417966E2,8.074604E2,9.736633E2,1.3597548E2,9.0675674E1],"tree_param":{"num_deleted":"0","num_feature":"82","num_nodes":"15","size_leaf_vector":"1"}},{"base_weights":[1.3466582E-3,-1.4289152E-3,7.6289345E-3,3.8893889E-3,-3.8216352E-3,8.8703644E-4,-2.0843712E-3],"categories":[],"categories_nodes":[],"categories_segments":[],"categories_sizes":[],"default_left":[0,1,0,0,0,0,0],"id":78,"left_children":[1,3,-1,5,-1,-1,-1],"loss_changes":[1.3523299E1,1.2158583E1,0E0,1.0735474E1,0E0,0E0,0E0],"parents":[2147483647,0,0,1,1,3,3],"right_children":[2,4,-1,6,-1,-1,-1],"split_conditions":[1.0212766E-1,4.2446835E1,7.6289345E-3,1.5369458E-1,-3.8216352E-3,8.8703644E-4,-2.0843712E-3],"split_indices":[17,10,0,54,0,0,0],"split_type":[0,0,0,0,0,0,0],"sum_hessian":[4.4262215E4,4.306415E4,1.1980652E3,3.894498E4,4.11917E3,3.112987E4,7.815112E3],"tree_param":{"num_deleted":"0","num_feature":"82","num_nodes":"7","size_leaf_vector":"1"}},{"base_weights":[-6.605152E-3,1.7883115E-2,-1.8174667E-2,5.9567025E-4,1.2640718E-1,-6.113731E-3,-6.3791215E-2,1.4223552E-2,-0E0,-1.0015737E-3,4.544178E-3,-0E0,-6.975615E-3],"categories":[],"categories_nodes":[],"categories_segments":[],"categories_sizes":[],"default_left":[0,0,0,0,0,1,0,0,0,0,0,0,0],"id":79,"left_children":[1,3,5,-1,7,9,11,-1,-1,-1,-1,-1,-1],"loss_changes":[1.25170765E1,1.3749896E1,1.6169968E1,0E0,1.001791E1,1.2711803E1,1.3371347E1,0E0,0E0,0E0,0E0,0E0,0E0],"parents":[2147483647,0,0,1,1,2,2,4,4,5,5,6,6],"right_children":[2,4,6,-1,8,10,12,-1,-1,-1,-1,-1,-1],"split_conditions":[-6.7567565E-2,4.8212084E-1,2.75E0,5.9567025E-4,3.653846E-1,1.037037E0,1.5243903E-1,1.4223552E-2,-0E0,-1.0015737E-3,4.544178E-3,-0E0,-6.975615E-3],"split_indices":[43,68,70,0,40,60,78,0,0,0,0,0,0],"split_type":[0,0,0,0,0,0,0,0,0,0,0,0,0],"sum_hessian":[4.4172957E4,1.4003097E4,3.016986E4,1.2918423E4,1.0846736E3,2.3967896E4,6.2019634E3,6.9743567E2,3.8723795E2,2.1617379E4,2.3505164E3,2.1069414E3,4.095022E3],"tree_param":{"num_deleted":"0","num_feature":"82","num_nodes":"13","size_leaf_vector":"1"}},{"base_weights":[1.3583371E-3,-8.132398E-3,3.111064E-2,-8.816992E-2,-3.268986E-3,-4.3926455E-2,4.9034856E-2,-7.918552E-3,1.9757042E-2,-1.0374241E-3,2.4392896E-3,2.3317498E-3,-8.56644E-3,2.2938345E-3,1.0225669E-2],"categories":[],"categories_nodes":[],"categories_segments":[],"categories_sizes":[],"default_left":[0,1,0,0,0,1,0,0,0,0,0,0,0,0,0],"id":80,"left_children":[1,3,5,7,9,11,13,-1,-1,-1,-1,-1,-1,-1,-1],"loss_changes":[1.2617259E1,1.2417345E1,1.4614784E1,1.3721557E1,1.298087E1,1.2182173E1,1.3001566E1,0E0,0E0,0E0,0E0,0E0,0E0,0E0,0E0],"parents":[2147483647,0,0,1,1,2,2,3,3,4,4,5,5,6,6],"right_children":[2,4,6,8,10,12,14,-1,-1,-1,-1,-1,-1,-1,-1],"split_conditions":[1.037037E0,4.761905E-2,8.3898306E-1,6E0,2.7388534E-1,-5.5758613E-3,8.041667E0,-7.918552E-3,1.9757042E-2,-1.0374241E-3,2.4392896E-3,2.3317498E-3,-8.56644E-3,2.2938345E-3,1.0225669E-2],"split_indices":[60,79,21,75,43,81,45,0,0,0,0,0,0,0,0],"split_type":[0,0,0,0,0,0,0,0,0,0,0,0,0,0,0],"sum_hessian":[4.4182926E4,3.334144E4,1.0841483E4,1.8371221E3,3.150432E4,2.0242356E3,8.817247E3,1.7482368E3,8.8885254E1,2.4358834E4,7.1454854E3,9.646791E2,1.0595565E3,7.5072827E3,1.3099648E3],"tree_param":{"num_deleted":"0","num_feature":"82","num_nodes":"15","size_leaf_vector":"1"}},{"base_weights":[-6.396246E-4,-2.571428E-2,1.0152791E-2,-1.10242724E-1,-9.257421E-3,4.2187832E-2,-3.3303322E-3,9.646662E-4,-1.3847985E-2,1.1503696E-2,-1.2483225E-3,3.8609449E-3,-9.79033E-3,-5.2145333E-4,1.3068595E-2],"categories":[],"categories_nodes":[],"categories_segments":[],"categories_sizes":[],"default_left":[0,0,0,0,0,0,0,0,0,0,0,0,0,0,0],"id":81,"left_children":[1,3,5,7,9,11,13,-1,-1,-1,-1,-1,-1,-1,-1],"loss_changes":[1.2075597E1,1.8034397E1,1.3532485E1,2.2917044E1,1.4739245E1,1.8573977E1,1.4591968E1,0E0,0E0,0E0,0E0,0E0,0E0,0E0,0E0],"parents":[2147483647,0,0,1,1,2,2,3,3,4,4,5,5,6,6],"right_children":[2,4,6,8,10,12,14,-1,-1,-1,-1,-1,-1,-1,-1],"split_conditions":[5E-1,1.4051753E-1,1.3742258E-1,7.5E-1,9.3506806E-4,8.623482E-1,9.0751445E-1,9.646662E-4,-1.3847985E-2,1.1503696E-2,-1.2483225E-3,3.8609449E-3,-9.79033E-3,-5.2145333E-4,1.3068595E-2],"split_indices":[14,56,57,15,74,43,43,0,0,0,0,0,0,0,0],"split_type":[0,0,0,0,0,0,0,0,0,0,0,0,0,0,0],"sum_hessian":[4.4268742E4,1.349133E4,3.0777412E4,2.1373364E3,1.1353994E4,9.251168E3,2.1526244E4,8.257582E2,1.3115784E3,4.842831E2,1.0869711E4,8.721289E3,5.298784E2,2.111219E4,4.1405325E2],"tree_param":{"num_deleted":"0","num_feature":"82","num_nodes":"15","size_leaf_vector":"1"}},{"base_weights":[-3.1061948E-3,-5.4880608E-2,2.0028384E-4,-1.5343183E-1,-5.747777E-3,-3.1730734E-2,-7.7991723E-3,1.5472253E-2,-2.1229836E-3],"categories":[],"categories_nodes":[],"categories_segments":[],"categories_sizes":[],"default_left":[0,0,0,0,0,0,0,0,0],"id":82,"left_children":[1,3,-1,5,7,-1,-1,-1,-1],"loss_changes":[1.3782451E1,2.1371193E1,0E0,1.5921116E1,1.529461E1,0E0,0E0,0E0,0E0],"parents":[2147483647,0,0,1,1,3,3,4,4],"right_children":[2,4,-1,6,8,-1,-1,-1,-1],"split_conditions":[7.830189E-1,5E-1,2.0028384E-4,-1.7197898E-1,1.294698E-1,-3.1730734E-2,-7.7991723E-3,1.5472253E-2,-2.1229836E-3],"split_indices":[2,14,0,30,5,0,0,0,0],"split_type":[0,0,0,0,0,0,0,0,0],"sum_hessian":[4.4116605E4,4.6148936E3,3.9501715E4,1.4934034E3,3.12149E3,1.8212308E2,1.3112803E3,2.7790555E2,2.8435845E3],"tree_param":{"num_deleted":"0","num_feature":"82","num_nodes":"9","size_leaf_vector":"1"}},{"base_weights":[-3.470631E-3,-1.4712173E-1,-1.317288E-3,-5.1437365E-3,-3.4356687E-2,3.1043818E-2,-1.3860316E-2,1.1519605E-3,6.8757823E-3,5.8182626E-4,-2.624464E-3],"categories":[],"categories_nodes":[],"categories_segments":[],"categories_sizes":[],"default_left":[0,1,0,0,0,0,0,0,0,0,0],"id":83,"left_children":[1,3,5,-1,-1,7,9,-1,-1,-1,-1],"loss_changes":[1.2733228E1,1.1845588E1,1.755163E1,0E0,0E0,1.097389E1,1.5848974E1,0E0,0E0,0E0,0E0],"parents":[2147483647,0,0,1,1,2,2,5,5,6,6],"right_children":[2,4,6,-1,-1,8,10,-1,-1,-1,-1],"split_conditions":[3E1,8.5714287E-1,8.4E2,-5.1437365E-3,-3.4356687E-2,3.963798E-3,3.931184E-6,1.1519605E-3,6.8757823E-3,5.8182626E-4,-2.624464E-3],"split_indices":[19,60,19,0,0,18,24,0,0,0,0],"split_type":[0,0,0,0,0,0,0,0,0,0,0],"sum_hessian":[4.4108066E4,6.088112E2,4.3499254E4,5.1134702E2,9.746418E1,1.2013745E4,3.1485508E4,9.828033E3,2.1857114E3,1.5856428E4,1.562908E4],"tree_param":{"num_deleted":"0","num_feature":"82","num_nodes":"11","size_leaf_vector":"1"}},{"base_weights":[2.0166978E-3,-9.416457E-5,1.2426898E-1,3.208289E-2,-1.3018639E-2,3.3793382E-2,5.9384048E-2,1.4234572E-3,7.655472E-3,1.2945628E-3,-2.3663468E-3,6.8450407E-3,-3.3100236E-2],"categories":[],"categories_nodes":[],"categories_segments":[],"categories_sizes":[],"default_left":[0,1,0,0,0,0,1,0,0,0,0,0,0],"id":84,"left_children":[1,3,5,7,9,-1,11,-1,-1,-1,-1,-1,-1],"loss_changes":[1.2162901E1,1.7924294E1,1.4683213E1,1.0458892E1,1.931113E1,0E0,1.0636177E1,0E0,0E0,0E0,0E0,0E0,0E0],"parents":[2147483647,0,0,1,1,2,2,3,3,4,4,6,6],"right_children":[2,4,6,8,10,-1,12,-1,-1,-1,-1,-1,-1],"split_conditions":[1.25E0,7.1428575E-2,1.8619663E-1,6.5E0,9.1150445E-1,3.3793382E-2,3.3929867E-1,1.4234572E-3,7.655472E-3,1.2945628E-3,-2.3663468E-3,6.8450407E-3,-3.3100236E-2],"split_indices":[0,60,5,73,21,0,50,0,0,0,0,0,0],"split_type":[0,0,0,0,0,0,0,0,0,0,0,0,0],"sum_hessian":[4.4179465E4,4.3380773E4,7.986923E2,1.2295101E4,3.1085672E4,1.1064039E2,6.8805194E2,1.0627384E4,1.6677168E3,1.2031043E4,1.9054629E4,6.5507294E2,3.2979046E1],"tree_param":{"num_deleted":"0","num_feature":"82","num_nodes":"13","size_leaf_vector":"1"}},{"base_weights":[7.7132176E-4,-2.6355453E-3,8.398578E-2,1.961641E-3,-5.5375777E-2,1.444352E-1,-3.7656703E-3,3.4835303E-4,-1.1460163E-2,-2.8339692E-3,-2.1259394E-2,2.2308154E-3,1.678062E-2],"categories":[],"categories_nodes":[],