{"learner":{"attributes":{"best_iteration":"38","best_score":"19.8"},"feature_names":["bearish_dsc_ask_bid_delta_imbalance","bearish_absorption_intensity_repeat_count","perct_VA11P","diffHighPrice_0_4","diffPriceCloseVWAP","perct_VA21P","bearish_market_context_score","naked_poc_dist_above","bullish_asc_ask_bid_delta_imbalance","range_strength_5_23","diffVolCandle_0_1Ratio","bull_imbalance_high_0","bearish_repeatAskBid_ratio","bullish_dsc_ask_bid_delta_imbalance","deltaTimestampOpeningSection5min","perct_VA6P","bearish_asc_dynamics","bullish_imnbScore_score","bullish_repeatAskBid_ratio","diffPriceClose_VA11PvaH","finished_auction_high","vol_volatility_score","VolPocVolCandleRatio","bearish_combined_pressure","bear_imbalance_high_3","diffPriceClose_VA16PvaH","bandWidthBB","bearish_bid_score","bearish_imnbScore_score","bullish_ask_score","cumDiffVolDeltaRatio","bullish_ask_ratio","bearish_ask_abs_ratio_abv","price_volume_dynamic","poc_diff_ratio_6P_16P","perctBB","bear_imbalance_high_2","imbalance_score_low","bearish_dsc_ask_bid_imbalance"],"feature_types":["float","float","float","float","float","float","float","float","float","float","float","float","float","float","int","float","float","float","float","float","int","float","float","float","float","float","float","float","float","float","float","float","float","float","float","float","float","float","float"],"gradient_booster":{"model":{"gbtree_model_param":{"num_parallel_tree":"1","num_trees":"89"},"iteration_indptr":[0,1,2,3,4,5,6,7,8,9,10,11,12,13,14,15,16,17,18,19,20,21,22,23,24,25,26,27,28,29,30,31,32,33,34,35,36,37,38,39,40,41,42,43,44,45,46,47,48,49,50,51,52,53,54,55,56,57,58,59,60,61,62,63,64,65,66,67,68,69,70,71,72,73,74,75,76,77,78,79,80,81,82,83,84,85,86,87,88,89],"tree_info":[0,0,0,0,0,0,0,0,0,0,0,0,0,0,0,0,0,0,0,0,0,0,0,0,0,0,0,0,0,0,0,0,0,0,0,0,0,0,0,0,0,0,0,0,0,0,0,0,0,0,0,0,0,0,0,0,0,0,0,0,0,0,0,0,0,0,0,0,0,0,0,0,0,0,0,0,0,0,0,0,0,0,0,0,0,0,0,0,0],"trees":[{"base_weights":[-1.9555044E-1,-7.475049E-2,-2.1804279E-1,4.2865385E-4,-1.0993934E-2,-1.6955066E-2,-9.1696475E-3],"categories":[],"categories_nodes":[],"categories_segments":[],"categories_sizes":[],"default_left":[1,0,1,0,0,0,0],"id":0,"left_children":[1,3,5,-1,-1,-1,-1],"loss_changes":[2.1034607E1,1.097908E1,2.6292725E1,0E0,0E0,0E0,0E0],"parents":[2147483647,0,0,1,1,2,2],"right_children":[2,4,6,-1,-1,-1,-1],"split_conditions":[-1.5789473E-1,2.596154E-1,3.278302E-1,4.2865385E-4,-1.0993934E-2,-1.6955066E-2,-9.1696475E-3],"split_indices":[2,27,17,0,0,0,0],"split_type":[0,0,0,0,0,0,0],"sum_hessian":[7.887318E3,1.2476416E3,6.6396763E3,6.9542267E2,5.5221893E2,3.5221533E3,3.1175227E3],"tree_param":{"num_deleted":"0","num_feature":"39","num_nodes":"7","size_leaf_vector":"1"}},{"base_weights":[-1.9459909E-1,-1.8641718E-1,-5.8462274E-1,-1.0665876E-2,-2.4152258E-2,-4.4723347E-2,4.3655736E-3],"categories":[],"categories_nodes":[],"categories_segments":[],"categories_sizes":[],"default_left":[0,0,0,0,0,0,0],"id":1,"left_children":[1,3,5,-1,-1,-1,-1],"loss_changes":[2.408722E1,1.8159332E1,1.6277985E1,0E0,0E0,0E0,0E0],"parents":[2147483647,0,0,1,1,2,2],"right_children":[2,4,6,-1,-1,-1,-1],"split_conditions":[4.98513E1,9.4931775E-1,7.2705E0,-1.0665876E-2,-2.4152258E-2,-4.4723347E-2,4.3655736E-3],"split_indices":[4,12,26,0,0,0,0],"split_type":[0,0,0,0,0,0,0],"sum_hessian":[7.883976E3,7.725936E3,1.5804004E2,7.322601E3,4.033349E2,1.3058875E2,2.7451294E1],"tree_param":{"num_deleted":"0","num_feature":"39","num_nodes":"7","size_leaf_vector":"1"}},{"base_weights":[-1.7984535E-1,-4.5869175E-1,-1.7058967E-1,-1.9004915E-2,-5.590951E-2,-1.3073184E-2,-7.477058E-3],"categories":[],"categories_nodes":[],"categories_segments":[],"categories_sizes":[],"default_left":[0,0,0,0,0,0,0],"id":2,"left_children":[1,3,5,-1,-1,-1,-1],"loss_changes":[1.952324E1,1.5021343E1,1.5574295E1,0E0,0E0,0E0,0E0],"parents":[2147483647,0,0,1,1,2,2],"right_children":[2,4,6,-1,-1,-1,-1],"split_conditions":[4.903047E-1,5.50967E-4,-9.627611E-2,-1.9004915E-2,-5.590951E-2,-1.3073184E-2,-7.477058E-3],"split_indices":[12,33,0,0,0,0,0],"split_type":[0,0,0,0,0,0,0],"sum_hessian":[7.901609E3,2.4857278E2,7.653036E3,1.90685E2,5.788779E1,4.0030405E3,3.6499958E3],"tree_param":{"num_deleted":"0","num_feature":"39","num_nodes":"7","size_leaf_vector":"1"}},{"base_weights":[-1.4634223E-1,-1.6421025E-1,-2.2147396E-3,-3.562575E-3,-1.0949682E-2,-1.1875606E-1,3.1067265E-4],"categories":[],"categories_nodes":[],"categories_segments":[],"categories_sizes":[],"default_left":[1,0,0,0,0,0,0],"id":3,"left_children":[1,3,5,-1,-1,-1,-1],"loss_changes":[2.0222977E1,1.0979065E1,1.5136457E1,0E0,0E0,0E0,0E0],"parents":[2147483647,0,0,1,1,2,2],"right_children":[2,4,6,-1,-1,-1,-1],"split_conditions":[2.12E0,1.9988517E0,1.25E-1,-3.562575E-3,-1.0949682E-2,-1.1875606E-1,3.1067265E-4],"split_indices":[11,9,1,0,0,0,0],"split_type":[0,0,0,0,0,0,0],"sum_hessian":[7.938508E3,7.0546177E3,8.838901E2,8.9348236E2,6.1611353E3,3.5777218E0,8.803124E2],"tree_param":{"num_deleted":"0","num_feature":"39","num_nodes":"7","size_leaf_vector":"1"}},{"base_weights":[-1.5078063E-1,-0E0,-1.6410252E-1,2.6775267E-2,-4.21821E-3,-1.0840002E-2,4.4904794E-3],"categories":[],"categories_nodes":[],"categories_segments":[],"categories_sizes":[],"default_left":[0,0,0,0,0,0,0],"id":4,"left_children":[1,3,5,-1,-1,-1,-1],"loss_changes":[1.56796875E1,1.9238857E1,2.3244827E1,0E0,0E0,0E0,0E0],"parents":[2147483647,0,0,1,1,2,2],"right_children":[2,4,6,-1,-1,-1,-1],"split_conditions":[-4.816514E-2,-1.193634E-1,6.716418E-2,2.6775267E-2,-4.21821E-3,-1.0840002E-2,4.4904794E-3],"split_indices":[8,37,0,0,0,0,0],"split_type":[0,0,0,0,0,0,0],"sum_hessian":[7.875743E3,6.4462585E2,7.231117E3,8.5736206E1,5.5888965E2,6.8494185E3,3.8169882E2],"tree_param":{"num_deleted":"0","num_feature":"39","num_nodes":"7","size_leaf_vector":"1"}},{"base_weights":[-1.5520248E-1,-4.4258028E-1,-1.4730787E-1,-8.1704326E-2,-2.32104E-2,-9.729843E-3,-1.4984228E-3],"categories":[],"categories_nodes":[],"categories_segments":[],"categories_sizes":[],"default_left":[0,0,0,0,0,0,0],"id":5,"left_children":[1,3,5,-1,-1,-1,-1],"loss_changes":[1.7038223E1,8.995747E0,1.1093109E1,0E0,0E0,0E0,0E0],"parents":[2147483647,0,0,1,1,2,2],"right_children":[2,4,6,-1,-1,-1,-1],"split_conditions":[1.7073171E-1,-1.2197915E-3,7.04E-1,-8.1704326E-2,-2.32104E-2,-9.729843E-3,-1.4984228E-3],"split_indices":[1,33,32,0,0,0,0],"split_type":[0,0,0,0,0,0,0],"sum_hessian":[7.8680605E3,2.052375E2,7.6628228E3,1.1425276E1,1.9381223E2,6.9677285E3,6.9509436E2],"tree_param":{"num_deleted":"0","num_feature":"39","num_nodes":"7","size_leaf_vector":"1"}},{"base_weights":[-1.5480219E-1,-5.725166E-1,-1.483268E-1,-3.708982E-3,-4.830535E-2,-7.7885846E-3,-1.682702E-2],"categories":[],"categories_nodes":[],"categories_segments":[],"categories_sizes":[],"default_left":[0,0,0,0,0,0,0],"id":6,"left_children":[1,3,5,-1,-1,-1,-1],"loss_changes":[2.0365158E1,1.1967262E1,2.0006622E1,0E0,0E0,0E0,0E0],"parents":[2147483647,0,0,1,1,2,2],"right_children":[2,4,6,-1,-1,-1,-1],"split_conditions":[3.625E-1,-2E0,2.7552145E0,-3.708982E-3,-4.830535E-2,-7.7885846E-3,-1.682702E-2],"split_indices":[12,25,21,0,0,0,0],"split_type":[0,0,0,0,0,0,0],"sum_hessian":[7.896897E3,1.1684924E2,7.780048E3,3.696393E1,7.9885315E1,6.6987075E3,1.0813401E3],"tree_param":{"num_deleted":"0","num_feature":"39","num_nodes":"7","size_leaf_vector":"1"}},{"base_weights":[-1.2851757E-1,-3.025996E-1,-1.1279065E-1,-4.4058293E-2,-1.5655998E-2,-8.49942E-3,-2.0522808E-3],"categories":[],"categories_nodes":[],"categories_segments":[],"categories_sizes":[],"default_left":[0,0,0,0,0,0,0],"id":7,"left_children":[1,3,5,-1,-1,-1,-1],"loss_changes":[2.1322525E1,1.129689E1,1.5122719E1,0E0,0E0,0E0,0E0],"parents":[2147483647,0,0,1,1,2,2],"right_children":[2,4,6,-1,-1,-1,-1],"split_conditions":[6.695652E-1,4.8780486E-2,-3.8297873E-2,-4.4058293E-2,-1.5655998E-2,-8.49942E-3,-2.0522808E-3],"split_indices":[12,28,0,0,0,0,0],"split_type":[0,0,0,0,0,0,0],"sum_hessian":[7.9952383E3,6.548055E2,7.3404326E3,6.152579E1,5.9327966E2,5.4911235E3,1.8493094E3],"tree_param":{"num_deleted":"0","num_feature":"39","num_nodes":"7","size_leaf_vector":"1"}},{"base_weights":[-1.13359116E-1,-9.872749E-2,-2.1663767E-1,-6.9374824E-3,3.7891062E-3,-1.4938807E-2,1.4889802E-2],"categories":[],"categories_nodes":[],"categories_segments":[],"categories_sizes":[],"default_left":[0,0,0,0,0,0,0],"id":8,"left_children":[1,3,5,-1,-1,-1,-1],"loss_changes":[1.1654366E1,1.6879265E1,1.2688347E1,0E0,0E0,0E0,0E0],"parents":[2147483647,0,0,1,1,2,2],"right_children":[2,4,6,-1,-1,-1,-1],"split_conditions":[8.648019E-1,1.7777778E0,3.25E0,-6.9374824E-3,3.7891062E-3,-1.4938807E-2,1.4889802E-2],"split_indices":[10,2,25,0,0,0,0],"split_type":[0,0,0,0,0,0,0],"sum_hessian":[7.9959126E3,7.0157065E3,9.8020593E2,6.4284434E3,5.872631E2,9.268612E2,5.3344746E1],"tree_param":{"num_deleted":"0","num_feature":"39","num_nodes":"7","size_leaf_vector":"1"}},{"base_weights":[-1.1773626E-1,-1.0232768E-1,-2.5671008E-1,-2.15512E-2,-5.7684453E-3,4.1313875E-3,-1.883582E-2],"categories":[],"categories_nodes":[],"categories_segments":[],"categories_sizes":[],"default_left":[0,1,0,0,0,0,0],"id":9,"left_children":[1,3,5,-1,-1,-1,-1],"loss_changes":[1.6569511E1,1.3515549E1,1.3538418E1,0E0,0E0,0E0,0E0],"parents":[2147483647,0,0,1,1,2,2],"right_children":[2,4,6,-1,-1,-1,-1],"split_conditions":[5.131579E-1,1.980198E-2,2.9411766E-1,-2.15512E-2,-5.7684453E-3,4.1313875E-3,-1.883582E-2],"split_indices":[38,24,8,0,0,0,0],"split_type":[0,0,0,0,0,0,0],"sum_hessian":[7.96587E3,7.1800986E3,7.857713E2,2.1228632E2,6.9678125E3,1.0463237E2,6.811389E2],"tree_param":{"num_deleted":"0","num_feature":"39","num_nodes":"7","size_leaf_vector":"1"}},{"base_weights":[-1.1732727E-1,-0E0,-1.3009757E-1,-1.0123122E-2,6.4020623E-3,-3.3551868E-2,-7.517863E-3],"categories":[],"categories_nodes":[],"categories_segments":[],"categories_sizes":[],"default_left":[0,1,0,0,0,0,0],"id":10,"left_children":[1,3,5,-1,-1,-1,-1],"loss_changes":[1.1815598E1,1.3893503E1,2.0106262E1,0E0,0E0,0E0,0E0],"parents":[2147483647,0,0,1,1,2,2],"right_children":[2,4,6,-1,-1,-1,-1],"split_conditions":[-1.25E-2,2E-1,3.625E-1,-1.0123122E-2,6.4020623E-3,-3.3551868E-2,-7.517863E-3],"split_indices":[8,15,12,0,0,0,0],"split_type":[0,0,0,0,0,0,0],"sum_hessian":[7.992236E3,7.939964E2,7.1982393E3,3.1204868E2,4.8194775E2,1.1392678E2,7.0843125E3],"tree_param":{"num_deleted":"0","num_feature":"39","num_nodes":"7","size_leaf_vector":"1"}},{"base_weights":[-8.4545866E-2,-7.191579E-2,-2.221336E-1,-4.0948885E-3,-3.42752E-2,-1.111257E-3,-1.9974303E-2],"categories":[],"categories_nodes":[],"categories_segments":[],"categories_sizes":[],"default_left":[0,0,0,0,0,0,0],"id":11,"left_children":[1,3,5,-1,-1,-1,-1],"loss_changes":[1.35582695E1,1.6622139E1,1.3805275E1,0E0,0E0,0E0,0E0],"parents":[2147483647,0,0,1,1,2,2],"right_children":[2,4,6,-1,-1,-1,-1],"split_conditions":[1.1648746E0,6.04773E1,1.5E0,-4.0948885E-3,-3.42752E-2,-1.111257E-3,-1.9974303E-2],"split_indices":[30,4,3,0,0,0,0],"split_type":[0,0,0,0,0,0,0],"sum_hessian":[8.0311255E3,7.3653345E3,6.6579083E2,7.296278E3,6.905666E1,2.3079424E2,4.3499658E2],"tree_param":{"num_deleted":"0","num_feature":"39","num_nodes":"7","size_leaf_vector":"1"}},{"base_weights":[-1.0433055E-1,-1.0808305E-1,4.0372723E-1,-8.424374E-3,-2.8870169E-3,3.8282752E-2,-1.8598191E-2],"categories":[],"categories_nodes":[],"categories_segments":[],"categories_sizes":[],"default_left":[0,1,0,0,0,0,0],"id":12,"left_children":[1,3,5,-1,-1,-1,-1],"loss_changes":[1.4771782E1,1.4091454E1,9.325339E0,0E0,0E0,0E0,0E0],"parents":[2147483647,0,0,1,1,2,2],"right_children":[2,4,6,-1,-1,-1,-1],"split_conditions":[6.25E0,1.1006712E0,1.574074E0,-8.424374E-3,-2.8870169E-3,3.8282752E-2,-1.8598191E-2],"split_indices":[3,24,24,0,0,0,0],"split_type":[0,0,0,0,0,0,0],"sum_hessian":[7.944808E3,7.889489E3,5.531948E1,5.2737354E3,2.6157532E3,4.3527405E1,1.1792075E1],"tree_param":{"num_deleted":"0","num_feature":"39","num_nodes":"7","size_leaf_vector":"1"}},{"base_weights":[-7.8440145E-2,-9.564846E-2,3.665696E-2,-3.712737E-3,-9.128116E-3,2.0782935E-2,-4.803701E-6],"categories":[],"categories_nodes":[],"categories_segments":[],"categories_sizes":[],"default_left":[0,0,0,0,0,0,0],"id":13,"left_children":[1,3,5,-1,-1,-1,-1],"loss_changes":[1.615371E1,1.2981819E1,1.2122169E1,0E0,0E0,0E0,0E0],"parents":[2147483647,0,0,1,1,2,2],"right_children":[2,4,6,-1,-1,-1,-1],"split_conditions":[6.7873304E-3,7.958E-1,1.5E2,-3.712737E-3,-9.128116E-3,2.0782935E-2,-4.803701E-6],"split_indices":[0,35,14,0,0,0,0],"split_type":[0,0,0,0,0,0,0],"sum_hessian":[8.1150083E3,7.069662E3,1.0453466E3,4.308345E3,2.761317E3,1.1632862E2,9.290179E2],"tree_param":{"num_deleted":"0","num_feature":"39","num_nodes":"7","size_leaf_vector":"1"}},{"base_weights":[-8.749043E-2,-1.8439819E-1,-6.229941E-2,3.0904314E-3,-1.3467213E-2,-4.360893E-3,7.262495E-3],"categories":[],"categories_nodes":[],"categories_segments":[],"categories_sizes":[],"default_left":[1,1,0,0,0,0,0],"id":14,"left_children":[1,3,5,-1,-1,-1,-1],"loss_changes":[1.925462E1,1.4211365E1,1.0493328E1,0E0,0E0,0E0,0E0],"parents":[2147483647,0,0,1,1,2,2],"right_children":[2,4,6,-1,-1,-1,-1],"split_conditions":[1.682243E-1,-4E-1,1.4500926E-3,3.0904314E-3,-1.3467213E-2,-4.360893E-3,7.262495E-3],"split_indices":[11,2,34,0,0,0,0],"split_type":[0,0,0,0,0,0,0],"sum_hessian":[8.0235483E3,1.6439337E3,6.3796143E3,2.1436075E2,1.429573E3,6.081035E3,2.985791E2],"tree_param":{"num_deleted":"0","num_feature":"39","num_nodes":"7","size_leaf_vector":"1"}},{"base_weights":[-8.702041E-2,-9.899188E-2,1.2788285E-1,-1.38307335E-2,-5.0417185E-3,2.725336E-3,2.9889895E-2],"categories":[],"categories_nodes":[],"categories_segments":[],"categories_sizes":[],"default_left":[0,0,0,0,0,0,0],"id":15,"left_children":[1,3,5,-1,-1,-1,-1],"loss_changes":[2.054068E1,1.5451889E1,1.1812405E1,0E0,0E0,0E0,0E0],"parents":[2147483647,0,0,1,1,2,2],"right_children":[2,4,6,-1,-1,-1,-1],"split_conditions":[6.716418E-2,2.2217E0,5.2848225E-3,-1.38307335E-2,-5.0417185E-3,2.725336E-3,2.9889895E-2],"split_indices":[0,26,33,0,0,0,0],"split_type":[0,0,0,0,0,0,0],"sum_hessian":[7.9965615E3,7.5806953E3,4.158664E2,8.5459204E2,6.726103E3,3.4143335E2,7.443303E1],"tree_param":{"num_deleted":"0","num_feature":"39","num_nodes":"7","size_leaf_vector":"1"}},{"base_weights":[-7.5668864E-2,-6.325099E-2,-2.5271308E-1,-2.1622332E-2,-3.4124001E-3,-1.9160317E-2,1.6114968E-3],"categories":[],"categories_nodes":[],"categories_segments":[],"categories_sizes":[],"default_left":[1,0,0,0,0,0,0],"id":16,"left_children":[1,3,5,-1,-1,-1,-1],"loss_changes":[1.7209213E1,1.551244E1,9.2317505E0,0E0,0E0,0E0,0E0],"parents":[2147483647,0,0,1,1,2,2],"right_children":[2,4,6,-1,-1,-1,-1],"split_conditions":[9.4054055E-1,4.347826E-1,7.5688076E-1,-2.1622332E-2,-3.4124001E-3,-1.9160317E-2,1.6114968E-3],"split_indices":[18,12,31,0,0,0,0],"split_type":[0,0,0,0,0,0,0],"sum_hessian":[8.021783E3,7.5035767E3,5.182068E2,1.8022589E2,7.3233506E3,4.2900443E2,8.920234E1],"tree_param":{"num_deleted":"0","num_feature":"39","num_nodes":"7","size_leaf_vector":"1"}},{"base_weights":[-8.466668E-2,-2.4571851E-1,-7.156339E-2,-2.7127473E-2,-8.3364E-3,-5.204705E-3,4.2497977E-3],"categories":[],"categories_nodes":[],"categories_segments":[],"categories_sizes":[],"default_left":[0,0,0,0,0,0,0],"id":17,"left_children":[1,3,5,-1,-1,-1,-1],"loss_changes":[1.660025E1,1.2196209E1,1.4454227E1,0E0,0E0,0E0,0E0],"parents":[2147483647,0,0,1,1,2,2],"right_children":[2,4,6,-1,-1,-1,-1],"split_conditions":[6.544118E-1,7.327189E-1,7.04E-1,-2.7127473E-2,-8.3364E-3,-5.204705E-3,4.2497977E-3],"split_indices":[12,31,32,0,0,0,0],"split_type":[0,0,0,0,0,0,0],"sum_hessian":[8.0696777E3,5.9894574E2,7.470732E3,2.0768648E2,3.9125928E2,6.819383E3,6.513492E2],"tree_param":{"num_deleted":"0","num_feature":"39","num_nodes":"7","size_leaf_vector":"1"}},{"base_weights":[-6.056099E-2,-5.011501E-2,-3.843878E-1,5.246938E-3,-4.090395E-3,-1.5381819E-2,-5.9907265E-2],"categories":[],"categories_nodes":[],"categories_segments":[],"categories_sizes":[],"default_left":[0,0,0,0,0,0,0],"id":18,"left_children":[1,3,5,-1,-1,-1,-1],"loss_changes":[2.6802414E1,1.8001549E1,1.7935398E1,0E0,0E0,0E0,0E0],"parents":[2147483647,0,0,1,1,2,2],"right_children":[2,4,6,-1,-1,-1,-1],"split_conditions":[8.5E2,-1.1111111E-1,2.1818182E0,5.246938E-3,-4.090395E-3,-1.5381819E-2,-5.9907265E-2],"split_indices":[14,2,11,0,0,0,0],"split_type":[0,0,0,0,0,0,0],"sum_hessian":[8.0965264E3,7.847965E3,2.485612E2,8.5732153E2,6.9906436E3,2.0572961E2,4.2831577E1],"tree_param":{"num_deleted":"0","num_feature":"39","num_nodes":"7","size_leaf_vector":"1"}},{"base_weights":[-6.311229E-2,-1.9419014E-1,-5.2961454E-2,-1.592382E-2,6.2390766E-3,-8.224375E-3,-1.9528206E-3],"categories":[],"categories_nodes":[],"categories_segments":[],"categories_sizes":[],"default_left":[1,0,0,0,0,0,0],"id":19,"left_children":[1,3,5,-1,-1,-1,-1],"loss_changes":[1.0396179E1,1.1477461E1,1.2627115E1,0E0,0E0,0E0,0E0],"parents":[2147483647,0,0,1,1,2,2],"right_children":[2,4,6,-1,-1,-1,-1],"split_conditions":[1.5E-1,9.066808E-1,-1.4692314E-1,-1.592382E-2,6.2390766E-3,-8.224375E-3,-1.9528206E-3],"split_indices":[24,12,6,0,0,0,0],"split_type":[0,0,0,0,0,0,0],"sum_hessian":[8.0637773E3,5.69605E2,7.4941724E3,4.6877847E2,1.0082652E2,1.5169938E3,5.9771787E3],"tree_param":{"num_deleted":"0","num_feature":"39","num_nodes":"7","size_leaf_vector":"1"}},{"base_weights":[-4.2394858E-2,1.9532868E-3,-1.389331E-1,-1.3277996E-2,1.1993835E-3,-1.1169188E-2,-8.724943E-4],"categories":[],"categories_nodes":[],"categories_segments":[],"categories_sizes":[],"default_left":[1,0,0,0,0,0,0],"id":20,"left_children":[1,3,5,-1,-1,-1,-1],"loss_changes":[3.489381E1,2.126906E1,1.3785458E1,0E0,0E0,0E0,0E0],"parents":[2147483647,0,0,1,1,2,2],"right_children":[2,4,6,-1,-1,-1,-1],"split_conditions":[8.064516E-1,2.867647E-1,5.610561E-1,-1.3277996E-2,1.1993835E-3,-1.1169188E-2,-8.724943E-4],"split_indices":[5,1,1,0,0,0,0],"split_type":[0,0,0,0,0,0,0],"sum_hessian":[8.10722E3,5.5460566E3,2.5611636E3,4.0780707E2,5.1382495E3,1.8848622E3,6.7630133E2],"tree_param":{"num_deleted":"0","num_feature":"39","num_nodes":"7","size_leaf_vector":"1"}},{"base_weights":[-6.1105892E-2,3.3693973E-2,-7.9408355E-2,-1.3884134E-2,4.508578E-3,-4.4187126E-3,-3.0984387E-2],"categories":[],"categories_nodes":[],"categories_segments":[],"categories_sizes":[],"default_left":[1,0,0,0,0,0,0],"id":21,"left_children":[1,3,5,-1,-1,-1,-1],"loss_changes":[1.4184156E1,1.3489384E1,1.97953E1,0E0,0E0,0E0,0E0],"parents":[2147483647,0,0,1,1,2,2],"right_children":[2,4,6,-1,-1,-1,-1],"split_conditions":[-1.5789473E-1,-1.1705006E0,4.98513E1,-1.3884134E-2,4.508578E-3,-4.4187126E-3,-3.0984387E-2],"split_indices":[2,30,4,0,0,0,0],"split_type":[0,0,0,0,0,0,0],"sum_hessian":[8.1388037E3,1.3052004E3,6.8336035E3,1.6927429E2,1.1359261E3,6.7266445E3,1.06958984E2],"tree_param":{"num_deleted":"0","num_feature":"39","num_nodes":"7","size_leaf_vector":"1"}},{"base_weights":[-4.7787335E-2,-1.3250107E-1,-3.0870242E-2,-2.0699669E-2,-5.8280253E-3,-1.1512423E-2,-1.0960969E-3],"categories":[],"categories_nodes":[],"categories_segments":[],"categories_sizes":[],"default_left":[1,0,0,0,0,0,0],"id":22,"left_children":[1,3,5,-1,-1,-1,-1],"loss_changes":[1.1334684E1,9.574165E0,1.3440048E1,0E0,0E0,0E0,0E0],"parents":[2147483647,0,0,1,1,2,2],"right_children":[2,4,6,-1,-1,-1,-1],"split_conditions":[3.272727E-1,-1.65717E-3,1.6428152E-1,-2.0699669E-2,-5.8280253E-3,-1.1512423E-2,-1.0960969E-3],"split_indices":[24,33,21,0,0,0,0],"split_type":[0,0,0,0,0,0,0],"sum_hessian":[8.061827E3,1.3283555E3,6.7334717E3,1.9604257E2,1.1323129E3,5.0159634E2,6.2318755E3],"tree_param":{"num_deleted":"0","num_feature":"39","num_nodes":"7","size_leaf_vector":"1"}},{"base_weights":[-4.5970514E-2,-8.493226E-3,-1.1155348E-1,2.9382136E-4,-1.3805317E-2,-2.173642E-3,-1.0775496E-2],"categories":[],"categories_nodes":[],"categories_segments":[],"categories_sizes":[],"default_left":[0,1,0,0,0,0,0],"id":23,"left_children":[1,3,5,-1,-1,-1,-1],"loss_changes":[1.9674152E1,1.5203493E1,1.4123684E1,0E0,0E0,0E0,0E0],"parents":[2147483647,0,0,1,1,2,2],"right_children":[2,4,6,-1,-1,-1,-1],"split_conditions":[2E0,4.996103E0,2.7385893E-1,2.9382136E-4,-1.3805317E-2,-2.173642E-3,-1.0775496E-2],"split_indices":[3,9,38,0,0,0,0],"split_type":[0,0,0,0,0,0,0],"sum_hessian":[8.069374E3,5.1482207E3,2.921153E3,4.846201E3,3.020196E2,1.35611E3,1.5650432E3],"tree_param":{"num_deleted":"0","num_feature":"39","num_nodes":"7","size_leaf_vector":"1"}},{"base_weights":[-4.9829315E-2,-4.2879164E-1,-4.1685756E-2,-1.0370948E-2,-4.89163E-2,-3.213471E-3,4.254379E-3],"categories":[],"categories_nodes":[],"categories_segments":[],"categories_sizes":[],"default_left":[1,0,1,0,0,0,0],"id":24,"left_children":[1,3,5,-1,-1,-1,-1],"loss_changes":[2.444597E1,1.4797878E1,9.682398E0,0E0,0E0,0E0,0E0],"parents":[2147483647,0,0,1,1,2,2],"right_children":[2,4,6,-1,-1,-1,-1],"split_conditions":[-1.4109247E0,4.640523E-1,2.4285715E0,-1.0370948E-2,-4.89163E-2,-3.213471E-3,4.254379E-3],"split_indices":[23,22,11,0,0,0,0],"split_type":[0,0,0,0,0,0,0],"sum_hessian":[8.126449E3,1.6705971E2,7.9593896E3,1.0101169E2,6.604802E1,7.258155E3,7.01235E2],"tree_param":{"num_deleted":"0","num_feature":"39","num_nodes":"7","size_leaf_vector":"1"}},{"base_weights":[-2.5497122E-2,1.5716154E-2,-8.024908E-2,5.1058544E-4,2.6798887E-2,-3.1588115E-3,-1.8518068E-2],"categories":[],"categories_nodes":[],"categories_segments":[],"categories_sizes":[],"default_left":[0,1,0,0,0,0,0],"id":25,"left_children":[1,3,5,-1,-1,-1,-1],"loss_changes":[1.8467215E1,1.3823448E1,2.1856663E1,0E0,0E0,0E0,0E0],"parents":[2147483647,0,0,1,1,2,2],"right_children":[2,4,6,-1,-1,-1,-1],"split_conditions":[3.1944445E-1,3.25E0,1.75E0,5.1058544E-4,2.6798887E-2,-3.1588115E-3,-1.8518068E-2],"split_indices":[38,19,19,0,0,0,0],"split_type":[0,0,0,0,0,0,0],"sum_hessian":[8.145222E3,4.633456E3,3.5117664E3,4.557837E3,7.561892E1,3.1194983E3,3.9226816E2],"tree_param":{"num_deleted":"0","num_feature":"39","num_nodes":"7","size_leaf_vector":"1"}},{"base_weights":[-2.7288487E-2,-3.3352032E-2,2.7063876E-1,-2.4849221E-2,-1.6775765E-3,3.7918054E-2,3.7888465E-3],"categories":[],"categories_nodes":[],"categories_segments":[],"categories_sizes":[],"default_left":[0,0,1,0,0,0,0],"id":26,"left_children":[1,3,5,-1,-1,-1,-1],"loss_changes":[1.4285785E1,1.681385E1,1.0537557E1,0E0,0E0,0E0,0E0],"parents":[2147483647,0,0,1,1,2,2],"right_children":[2,4,6,-1,-1,-1,-1],"split_conditions":[1.3793103E-1,3.6686487E-2,-1.764706E-1,-2.4849221E-2,-1.6775765E-3,3.7918054E-2,3.7888465E-3],"split_indices":[0,21,15,0,0,0,0],"split_type":[0,0,0,0,0,0,0],"sum_hessian":[8.080531E3,7.9241E3,1.564307E2,1.18726006E2,7.805374E3,5.5678524E1,1.0075217E2],"tree_param":{"num_deleted":"0","num_feature":"39","num_nodes":"7","size_leaf_vector":"1"}},{"base_weights":[-2.6139429E-2,-3.892895E-2,1.5146938E-1,-4.254275E-2,-2.1615296E-3,-2.219333E-2,1.481502E-2],"categories":[],"categories_nodes":[],"categories_segments":[],"categories_sizes":[],"default_left":[0,0,0,0,0,0,0],"id":27,"left_children":[1,3,5,-1,-1,-1,-1],"loss_changes":[1.8395578E1,1.6695068E1,2.5298653E1,0E0,0E0,0E0,0E0],"parents":[2147483647,0,0,1,1,2,2],"right_children":[2,4,6,-1,-1,-1,-1],"split_conditions":[8.230159E-3,-6.23147E1,8.3618E0,-4.254275E-2,-2.1615296E-3,-2.219333E-2,1.481502E-2],"split_indices":[33,4,4,0,0,0,0],"split_type":[0,0,0,0,0,0,0],"sum_hessian":[8.162829E3,7.621815E3,5.410139E2,3.8181046E1,7.583634E3,7.89965E1,4.6201743E2],"tree_param":{"num_deleted":"0","num_feature":"39","num_nodes":"7","size_leaf_vector":"1"}},{"base_weights":[-3.7559077E-2,-3.244591E-2,-4.128894E-1,2.706314E-3,-3.3388922E-3,-0E0,-4.4024367E-2],"categories":[],"categories_nodes":[],"categories_segments":[],"categories_sizes":[],"default_left":[1,1,0,0,0,0,0],"id":28,"left_children":[1,3,5,-1,-1,-1,-1],"loss_changes":[1.4919619E1,1.36429E1,1.3770933E1,0E0,0E0,0E0,0E0],"parents":[2147483647,0,0,1,1,2,2],"right_children":[2,4,6,-1,-1,-1,-1],"split_conditions":[7.9914565E0,-4.761905E-2,4.5454547E-1,2.706314E-3,-3.3388922E-3,-0E0,-4.4024367E-2],"split_indices":[9,5,17,0,0,0,0],"split_type":[0,0,0,0,0,0,0],"sum_hessian":[8.085877E3,7.9811533E3,1.04723526E2,1.779211E3,6.201942E3,4.418066E1,6.0542866E1],"tree_param":{"num_deleted":"0","num_feature":"39","num_nodes":"7","size_leaf_vector":"1"}},{"base_weights":[-2.4583582E-2,-1.5463977E-2,-2.4550427E-1,-1.2121988E-4,-9.066529E-3,-4.8429642E-2,-7.9716025E-3],"categories":[],"categories_nodes":[],"categories_segments":[],"categories_sizes":[],"default_left":[0,0,1,0,0,0,0],"id":29,"left_children":[1,3,5,-1,-1,-1,-1],"loss_changes":[1.60521E1,1.3829179E1,1.867645E1,0E0,0E0,0E0,0E0],"parents":[2147483647,0,0,1,1,2,2],"right_children":[2,4,6,-1,-1,-1,-1],"split_conditions":[3.40334E1,1.054E0,1.2612613E-1,-1.2121988E-4,-9.066529E-3,-4.8429642E-2,-7.9716025E-3],"split_indices":[4,35,24,0,0,0,0],"split_type":[0,0,0,0,0,0,0],"sum_hessian":[8.140422E3,7.823929E3,3.164926E2,7.113636E3,7.102931E2,5.2458664E1,2.6403394E2],"tree_param":{"num_deleted":"0","num_feature":"39","num_nodes":"7","size_leaf_vector":"1"}},{"base_weights":[-3.2640237E-2,-3.511016E-2,4.4518717E-2,-7.411412E-4,-8.4668035E-3],"categories":[],"categories_nodes":[],"categories_segments":[],"categories_sizes":[],"default_left":[0,0,0,0,0],"id":30,"left_children":[1,3,-1,-1,-1],"loss_changes":[1.4365094E1,1.9059536E1,0E0,0E0,0E0],"parents":[2147483647,0,0,1,1],"right_children":[2,4,-1,-1,-1],"split_conditions":[7E0,2.329693E0,4.4518717E-2,-7.411412E-4,-8.4668035E-3],"split_indices":[3,21,0,0,0],"split_type":[0,0,0,0,0],"sum_hessian":[8.119994E3,8.0958936E3,2.4100677E1,6.6370786E3,1.4588151E3],"tree_param":{"num_deleted":"0","num_feature":"39","num_nodes":"5","size_leaf_vector":"1"}},{"base_weights":[-2.6060231E-2,1.4093428E-2,-9.108337E-2,-1.2555236E-3,4.953362E-3,-3.8876613E-3,-1.6184226E-2],"categories":[],"categories_nodes":[],"categories_segments":[],"categories_sizes":[],"default_left":[0,1,0,0,0,0,0],"id":31,"left_children":[1,3,5,-1,-1,-1,-1],"loss_changes":[2.1407799E1,1.1772874E1,1.4471731E1,0E0,0E0,0E0,0E0],"parents":[2147483647,0,0,1,1,2,2],"right_children":[2,4,6,-1,-1,-1,-1],"split_conditions":[-1.25E0,8.5915494E-1,8.648019E-1,-1.2555236E-3,4.953362E-3,-3.8876613E-3,-1.6184226E-2],"split_indices":[7,11,10,0,0,0,0],"split_type":[0,0,0,0,0,0,0],"sum_hessian":[8.1594243E3,5.03191E3,3.127514E3,3.3041133E3,1.7277969E3,2.7089973E3,4.185166E2],"tree_param":{"num_deleted":"0","num_feature":"39","num_nodes":"7","size_leaf_vector":"1"}},{"base_weights":[-3.757226E-2,-1.7354526E-2,-1.1503744E-1,1.1068546E-2,-1.8433386E-3,-1.0237643E-2,6.136554E-3],"categories":[],"categories_nodes":[],"categories_segments":[],"categories_sizes":[],"default_left":[0,0,0,0,0,0,0],"id":32,"left_children":[1,3,5,-1,-1,-1,-1],"loss_changes":[1.2498274E1,1.6203035E1,1.894755E1,0E0,0E0,0E0,0E0],"parents":[2147483647,0,0,1,1,2,2],"right_children":[2,4,6,-1,-1,-1,-1],"split_conditions":[2.0903375E0,-4.4650286E-3,9.3345E0,1.1068546E-2,-1.8433386E-3,-1.0237643E-2,6.136554E-3],"split_indices":[21,33,4,0,0,0,0],"split_type":[0,0,0,0,0,0,0],"sum_hessian":[8.0929043E3,6.431938E3,1.6609663E3,3.8378625E2,6.0481514E3,1.3399866E3,3.209797E2],"tree_param":{"num_deleted":"0","num_feature":"39","num_nodes":"7","size_leaf_vector":"1"}},{"base_weights":[-1.622015E-2,6.666654E-2,-4.0893666E-2,5.4564024E-3,-2.1829935E-2,-1.9294459E-3,-1.870536E-2],"categories":[],"categories_nodes":[],"categories_segments":[],"categories_sizes":[],"default_left":[0,1,0,0,0,0,0],"id":33,"left_children":[1,3,5,-1,-1,-1,-1],"loss_changes":[1.6682934E1,1.75951E1,1.5114438E1,0E0,0E0,0E0,0E0],"parents":[2147483647,0,0,1,1,2,2],"right_children":[2,4,6,-1,-1,-1,-1],"split_conditions":[-3.180212E-2,1.3763271E-3,3.89268E1,5.4564024E-3,-2.1829935E-2,-1.9294459E-3,-1.870536E-2],"split_indices":[13,34,4,0,0,0,0],"split_type":[0,0,0,0,0,0,0],"sum_hessian":[8.173307E3,1.8623445E3,6.3109624E3,1.771038E3,9.1306564E1,6.1028413E3,2.0812102E2],"tree_param":{"num_deleted":"0","num_feature":"39","num_nodes":"7","size_leaf_vector":"1"}},{"base_weights":[-1.1888264E-2,-3.6619045E-2,7.462154E-2,-3.195112E-3,9.892568E-3,1.5799499E-3,1.8167628E-2],"categories":[],"categories_nodes":[],"categories_segments":[],"categories_sizes":[],"default_left":[0,0,0,0,0,0,0],"id":34,"left_children":[1,3,5,-1,-1,-1,-1],"loss_changes":[1.7321945E1,1.960439E1,1.905338E1,0E0,0E0,0E0,0E0],"parents":[2147483647,0,0,1,1,2,2],"right_children":[2,4,6,-1,-1,-1,-1],"split_conditions":[5.588235E-1,1.8E0,4.593289E-3,-3.195112E-3,9.892568E-3,1.5799499E-3,1.8167628E-2],"split_indices":[1,5,33,0,0,0,0],"split_type":[0,0,0,0,0,0,0],"sum_hessian":[8.1191445E3,6.326279E3,1.7928657E3,5.869063E3,4.572157E2,1.476486E3,3.163798E2],"tree_param":{"num_deleted":"0","num_feature":"39","num_nodes":"7","size_leaf_vector":"1"}},{"base_weights":[-3.530463E-2,-5.8370795E-2,5.648824E-2,-3.0240646E-4,-5.5556996E-3,1.2869222E-2,5.1513925E-4],"categories":[],"categories_nodes":[],"categories_segments":[],"categories_sizes":[],"default_left":[1,1,0,0,0,0,0],"id":35,"left_children":[1,3,5,-1,-1,-1,-1],"loss_changes":[1.7182255E1,1.1192148E1,1.1702333E1,0E0,0E0,0E0,0E0],"parents":[2147483647,0,0,1,1,2,2],"right_children":[2,4,6,-1,-1,-1,-1],"split_conditions":[1.5384616E0,-2.3861172E-2,4.878049E-1,-3.0240646E-4,-5.5556996E-3,1.2869222E-2,5.1513925E-4],"split_indices":[24,8,31,0,0,0,0],"split_type":[0,0,0,0,0,0,0],"sum_hessian":[8.1128823E3,6.495364E3,1.6175184E3,2.4784773E3,4.0168865E3,3.771952E2,1.2403232E3],"tree_param":{"num_deleted":"0","num_feature":"39","num_nodes":"7","size_leaf_vector":"1"}},{"base_weights":[-2.4259841E-2,-4.7896057E-2,3.927578E-2,-2.1738913E-3,-1.1558674E-2,1.2359611E-2,1.7681539E-4],"categories":[],"categories_nodes":[],"categories_segments":[],"categories_sizes":[],"default_left":[0,1,0,0,0,0,0],"id":36,"left_children":[1,3,5,-1,-1,-1,-1],"loss_changes":[1.2194277E1,1.0000975E1,1.2692267E1,0E0,0E0,0E0,0E0],"parents":[2147483647,0,0,1,1,2,2],"right_children":[2,4,6,-1,-1,-1,-1],"split_conditions":[5.4320985E-1,6.530612E-1,8.141593E-1,-2.1738913E-3,-1.1558674E-2,1.2359611E-2,1.7681539E-4],"split_indices":[1,17,18,0,0,0,0],"split_type":[0,0,0,0,0,0,0],"sum_hessian":[8.111497E3,5.9274653E3,2.184032E3,5.462653E3,4.6481226E2,3.9116806E2,1.7928639E3],"tree_param":{"num_deleted":"0","num_feature":"39","num_nodes":"7","size_leaf_vector":"1"}},{"base_weights":[-2.2562938E-2,3.2217376E-2,-5.7972226E-2,-3.9728023E-3,5.06427E-3,-4.958325E-3,3.7551292E-3],"categories":[],"categories_nodes":[],"categories_segments":[],"categories_sizes":[],"default_left":[0,0,1,0,0,0,0],"id":37,"left_children":[1,3,5,-1,-1,-1,-1],"loss_changes":[1.58361225E1,1.5738146E1,1.3806957E1,0E0,0E0,0E0,0E0],"parents":[2147483647,0,0,1,1,2,2],"right_children":[2,4,6,-1,-1,-1,-1],"split_conditions":[-2.5E-1,1E0,5.974843E-1,-3.9728023E-3,5.06427E-3,-4.958325E-3,3.7551292E-3],"split_indices":[25,20,17,0,0,0,0],"split_type":[0,0,0,0,0,0,0],"sum_hessian":[8.1455645E3,3.1832659E3,4.962299E3,1.0819424E3,2.1013235E3,4.163732E3,7.9856696E2],"tree_param":{"num_deleted":"0","num_feature":"39","num_nodes":"7","size_leaf_vector":"1"}},{"base_weights":[-2.8365625E-2,-9.428302E-2,1.3181804E-3,-9.379611E-3,3.261581E-3,-1.8738933E-2,5.8380514E-4],"categories":[],"categories_nodes":[],"categories_segments":[],"categories_sizes":[],"default_left":[0,0,0,0,0,0,0],"id":38,"left_children":[1,3,5,-1,-1,-1,-1],"loss_changes":[1.6106882E1,2.2489536E1,1.3882038E1,0E0,0E0,0E0,0E0],"parents":[2147483647,0,0,1,1,2,2],"right_children":[2,4,6,-1,-1,-1,-1],"split_conditions":[1E0,6.9E2,1.5894E0,-9.379611E-3,3.261581E-3,-1.8738933E-2,5.8380514E-4],"split_indices":[20,14,26,0,0,0,0],"split_type":[0,0,0,0,0,0,0],"sum_hessian":[8.167989E3,2.5497844E3,5.6182046E3,1.8254042E3,7.243803E2,1.4173926E2,5.4764653E3],"tree_param":{"num_deleted":"0","num_feature":"39","num_nodes":"7","size_leaf_vector":"1"}},{"base_weights":[-1.2083856E-2,2.7565774E-2,-5.1683817E-2,-1.2787487E-3,4.783134E-3,-3.1208538E-2,-2.8223172E-3],"categories":[],"categories_nodes":[],"categories_segments":[],"categories_sizes":[],"default_left":[0,0,0,0,0,0,0],"id":39,"left_children":[1,3,5,-1,-1,-1,-1],"loss_changes":[1.274521E1,1.0001436E1,9.448683E0,0E0,0E0,0E0,0E0],"parents":[2147483647,0,0,1,1,2,2],"right_children":[2,4,6,-1,-1,-1,-1],"split_conditions":[9.079284E-1,9.9392444E-1,7.633588E-3,-1.2787487E-3,4.783134E-3,-3.1208538E-2,-2.8223172E-3],"split_indices":[18,21,32,0,0,0,0],"split_type":[0,0,0,0,0,0,0],"sum_hessian":[8.0960635E3,4.0287441E3,4.067319E3,2.0470404E3,1.9817039E3,4.442842E1,4.0228906E3],"tree_param":{"num_deleted":"0","num_feature":"39","num_nodes":"7","size_leaf_vector":"1"}},{"base_weights":[-1.9590411E-2,-4.564031E-2,6.404624E-2,1.0359609E-2,-3.2764114E-3,-8.610763E-3,6.0583036E-3],"categories":[],"categories_nodes":[],"categories_segments":[],"categories_sizes":[],"default_left":[1,0,1,0,0,0,0],"id":40,"left_children":[1,3,5,-1,-1,-1,-1],"loss_changes":[1.7583523E1,1.0515121E1,1.3710669E1,0E0,0E0,0E0,0E0],"parents":[2147483647,0,0,1,1,2,2],"right_children":[2,4,6,-1,-1,-1,-1],"split_conditions":[2.4844721E-2,5.940594E-2,1.1764706E-1,1.0359609E-2,-3.2764114E-3,-8.610763E-3,6.0583036E-3],"split_indices":[13,11,11,0,0,0,0],"split_type":[0,0,0,0,0,0,0],"sum_hessian":[8.080829E3,6.1739736E3,1.9068553E3,2.1551277E2,5.958461E3,2.734849E2,1.6333705E3],"tree_param":{"num_deleted":"0","num_feature":"39","num_nodes":"7","size_leaf_vector":"1"}},{"base_weights":[-1.6875813E-2,1.1939622E-2,-8.530983E-2,3.6928372E-4,2.0090578E-2,-1.2267313E-2,-2.9332335E-3],"categories":[],"categories_nodes":[],"categories_segments":[],"categories_sizes":[],"default_left":[0,1,0,0,0,0,0],"id":41,"left_children":[1,3,5,-1,-1,-1,-1],"loss_changes":[1.6003635E1,1.0131507E1,1.0020681E1,0E0,0E0,0E0,0E0],"parents":[2147483647,0,0,1,1,2,2],"right_children":[2,4,6,-1,-1,-1,-1],"split_conditions":[3.778802E-1,4.047619E0,2.85E2,3.6928372E-4,2.0090578E-2,-1.2267313E-2,-2.9332335E-3],"split_indices":[38,24,14,0,0,0,0],"split_type":[0,0,0,0,0,0,0],"sum_hessian":[8.0654014E3,5.6621294E3,2.4032722E3,5.563403E3,9.872652E1,5.766834E2,1.8265887E3],"tree_param":{"num_deleted":"0","num_feature":"39","num_nodes":"7","size_leaf_vector":"1"}},{"base_weights":[-1.2721473E-2,-3.9645582E-1,-7.881011E-3,-1.0273136E-2,-6.1946828E-2,1.3334344E-3,-3.7212085E-3],"categories":[],"categories_nodes":[],"categories_segments":[],"categories_sizes":[],"default_left":[0,1,0,0,0,0,0],"id":42,"left_children":[1,3,5,-1,-1,-1,-1],"loss_changes":[1.449819E1,1.2093859E1,1.266901E1,0E0,0E0,0E0,0E0],"parents":[2147483647,0,0,1,1,2,2],"right_children":[2,4,6,-1,-1,-1,-1],"split_conditions":[6.6225166E-3,-1.25E0,2E0,-1.0273136E-2,-6.1946828E-2,1.3334344E-3,-3.7212085E-3],"split_indices":[27,7,3,0,0,0,0],"split_type":[0,0,0,0,0,0,0],"sum_hessian":[8.095764E3,9.699792E1,7.998766E3,7.280788E1,2.4190039E1,5.1112812E3,2.8874854E3],"tree_param":{"num_deleted":"0","num_feature":"39","num_nodes":"7","size_leaf_vector":"1"}},{"base_weights":[-1.1658551E-2,-3.6776975E-2,5.356661E-2,-6.407661E-3,-1.4115652E-4,4.836853E-3,-1.0702351E-2],"categories":[],"categories_nodes":[],"categories_segments":[],"categories_sizes":[],"default_left":[0,0,1,0,0,0,0],"id":43,"left_children":[1,3,5,-1,-1,-1,-1],"loss_changes":[1.3416382E1,1.3805356E1,1.3181096E1,0E0,0E0,0E0,0E0],"parents":[2147483647,0,0,1,1,2,2],"right_children":[2,4,6,-1,-1,-1,-1],"split_conditions":[5.4320985E-1,1.9235511E-1,-1E0,-6.407661E-3,-1.4115652E-4,4.836853E-3,-1.0702351E-2],"split_indices":[1,27,7,0,0,0,0],"split_type":[0,0,0,0,0,0,0],"sum_hessian":[8.201678E3,5.936228E3,2.2654495E3,1.9800933E3,3.9561348E3,2.0425762E3,2.2287328E2],"tree_param":{"num_deleted":"0","num_feature":"39","num_nodes":"7","size_leaf_vector":"1"}},{"base_weights":[-4.384149E-3,4.7775686E-2,-3.566033E-2,5.990934E-3,-3.3015513E-3,-3.6098072E-3,5.934635E-3],"categories":[],"categories_nodes":[],"categories_segments":[],"categories_sizes":[],"default_left":[0,1,0,0,0,0,0],"id":44,"left_children":[1,3,5,-1,-1,-1,-1],"loss_changes":[1.3216961E1,1.5571531E1,1.5809589E1,0E0,0E0,0E0,0E0],"parents":[2147483647,0,0,1,1,2,2],"right_children":[2,4,6,-1,-1,-1,-1],"split_conditions":[3.291E0,8.819444E-1,7.3501E0,5.990934E-3,-3.3015513E-3,-3.6098072E-3,5.934635E-3],"split_indices":[26,18,26,0,0,0,0],"split_type":[0,0,0,0,0,0,0],"sum_hessian":[8.1108438E3,3.0243154E3,5.0865283E3,2.0326285E3,9.916869E2,4.3317944E3,7.54734E2],"tree_param":{"num_deleted":"0","num_feature":"39","num_nodes":"7","size_leaf_vector":"1"}},{"base_weights":[-0E0,1.2998258E-2,-1.7859353E-1,2.3258333E-3,-2.9311758E-3,-1.5276608E-2,2.0826014E-2],"categories":[],"categories_nodes":[],"categories_segments":[],"categories_sizes":[],"default_left":[1,1,1,0,0,0,0],"id":45,"left_children":[1,3,5,-1,-1,-1,-1],"loss_changes":[1.8827436E1,1.1645316E1,2.0382896E1,0E0,0E0,0E0,0E0],"parents":[2147483647,0,0,1,1,2,2],"right_children":[2,4,6,-1,-1,-1,-1],"split_conditions":[3.9956334E0,8.684211E-1,2.12E0,2.3258333E-3,-2.9311758E-3,-1.5276608E-2,2.0826014E-2],"split_indices":[9,5,11,0,0,0,0],"split_type":[0,0,0,0,0,0,0],"sum_hessian":[8.1635366E3,7.6140073E3,5.4952954E2,5.4103945E3,2.2036125E3,4.8541766E2,6.411184E1],"tree_param":{"num_deleted":"0","num_feature":"39","num_nodes":"7","size_leaf_vector":"1"}},{"base_weights":[-7.7895373E-3,-3.3261813E-3,-2.2994043E-1,-6.8828417E-4,1.2306015E-2,-4.9377013E-2,-6.6374885E-3],"categories":[],"categories_nodes":[],"categories_segments":[],"categories_sizes":[],"default_left":[0,0,0,0,0,0,0],"id":46,"left_children":[1,3,5,-1,-1,-1,-1],"loss_changes":[7.8226304E0,1.285094E1,9.66419E0,0E0,0E0,0E0,0E0],"parents":[2147483647,0,0,1,1,2,2],"right_children":[2,4,6,-1,-1,-1,-1],"split_conditions":[4.98513E1,9.447415E-2,1.38E-1,-6.8828417E-4,1.2306015E-2,-4.9377013E-2,-6.6374885E-3],"split_indices":[4,0,38,0,0,0,0],"split_type":[0,0,0,0,0,0,0],"sum_hessian":[8.202769E3,8.047505E3,1.5526416E2,7.753655E3,2.9385025E2,2.4574081E1,1.3069008E2],"tree_param":{"num_deleted":"0","num_feature":"39","num_nodes":"7","size_leaf_vector":"1"}},{"base_weights":[4.764299E-3,1.6129621E-3,5.322119E-1,-8.3164545E-4,6.589928E-3,4.5470968E-2,-1.9365204E-2],"categories":[],"categories_nodes":[],"categories_segments":[],"categories_sizes":[],"default_left":[1,0,0,0,0,0,0],"id":47,"left_children":[1,3,5,-1,-1,-1,-1],"loss_changes":[1.2904555E1,1.3320694E1,8.998264E0,0E0,0E0,0E0,0E0],"parents":[2147483647,0,0,1,1,2,2],"right_children":[2,4,6,-1,-1,-1,-1],"split_conditions":[2.2E0,4.850911E-3,4.20765E-1,-8.3164545E-4,6.589928E-3,4.5470968E-2,-1.9365204E-2],"split_indices":[2,33,38,0,0,0,0],"split_type":[0,0,0,0,0,0,0],"sum_hessian":[8.1914463E3,8.145724E3,4.572232E1,7.1142E3,1.0315239E3,3.78672E1,7.8551207E0],"tree_param":{"num_deleted":"0","num_feature":"39","num_nodes":"7","size_leaf_vector":"1"}},{"base_weights":[-4.215806E-2,-2.1139713E-1,-3.1505216E-2,1.295817E-2,-1.5963152E-2,-5.648642E-3,-7.034182E-4],"categories":[],"categories_nodes":[],"categories_segments":[],"categories_sizes":[],"default_left":[0,0,0,0,0,0,0],"id":48,"left_children":[1,3,5,-1,-1,-1,-1],"loss_changes":[1.4250068E1,1.0083303E1,9.144762E0,0E0,0E0,0E0,0E0],"parents":[2147483647,0,0,1,1,2,2],"right_children":[2,4,6,-1,-1,-1,-1],"split_conditions":[4.8780486E-2,1.6901408E-1,-5.069915E-2,1.295817E-2,-1.5963152E-2,-5.648642E-3,-7.034182E-4],"split_indices":[28,16,23,0,0,0,0],"split_type":[0,0,0,0,0,0,0],"sum_hessian":[8.0847217E3,4.7088742E2,7.6138345E3,4.680483E1,4.2408258E2,1.861741E3,5.7520933E3],"tree_param":{"num_deleted":"0","num_feature":"39","num_nodes":"7","size_leaf_vector":"1"}},{"base_weights":[-1.2785868E-2,-2.7652588E-1,-4.9931426E-3,-2.3930786E-2,5.0815972E-3,-3.8581517E-2,-1.5859911E-4],"categories":[],"categories_nodes":[],"categories_segments":[],"categories_sizes":[],"default_left":[0,0,0,0,0,0,0],"id":49,"left_children":[1,3,5,-1,-1,-1,-1],"loss_changes":[1.6326996E1,9.906038E0,1.1016366E1,0E0,0E0,0E0,0E0],"parents":[2147483647,0,0,1,1,2,2],"right_children":[2,4,6,-1,-1,-1,-1],"split_conditions":[1.6304348E-2,9.2505354E-1,1.1025E0,-2.3930786E-2,5.0815972E-3,-3.8581517E-2,-1.5859911E-4],"split_indices":[28,12,26,0,0,0,0],"split_type":[0,0,0,0,0,0,0],"sum_hessian":[8.126411E3,2.2789882E2,7.8985127E3,1.7531535E2,5.258347E1,2.753016E1,7.8709824E3],"tree_param":{"num_deleted":"0","num_feature":"39","num_nodes":"7","size_leaf_vector":"1"}},{"base_weights":[8.09963E-3,-2.0791437E-1,1.7066702E-2,-2.727135E-2,-5.809874E-3,3.1351105E-3,-1.6912977E-3],"categories":[],"categories_nodes":[],"categories_segments":[],"categories_sizes":[],"default_left":[0,0,0,0,0,0,0],"id":50,"left_children":[1,3,5,-1,-1,-1,-1],"loss_changes":[1.5568396E1,7.865657E0,1.2077629E1,0E0,0E0,0E0,0E0],"parents":[2147483647,0,0,1,1,2,2],"right_children":[2,4,6,-1,-1,-1,-1],"split_conditions":[5.344828E-1,2.2802198E-1,4.1631E0,-2.727135E-2,-5.809874E-3,3.1351105E-3,-1.6912977E-3],"split_indices":[12,38,26,0,0,0,0],"split_type":[0,0,0,0,0,0,0],"sum_hessian":[8.16742E3,3.192364E2,7.8481836E3,9.8216E1,2.210204E2,4.4614326E3,3.386751E3],"tree_param":{"num_deleted":"0","num_feature":"39","num_nodes":"7","size_leaf_vector":"1"}},{"base_weights":[-1.255122E-2,5.646016E-3,-9.0659365E-2,6.703434E-4,-1.5224851E-2,-6.9003636E-3,1.4380861E-2],"categories":[],"categories_nodes":[],"categories_segments":[],"categories_sizes":[],"default_left":[0,0,0,0,0,0,0],"id":51,"left_children":[1,3,5,-1,-1,-1,-1],"loss_changes":[1.170023E1,8.657177E0,1.1183377E1,0E0,0E0,0E0,0E0],"parents":[2147483647,0,0,1,1,2,2],"right_children":[2,4,6,-1,-1,-1,-1],"split_conditions":[2.75E0,4.98513E1,9.475375E-1,6.703434E-4,-1.5224851E-2,-6.9003636E-3,1.4380861E-2],"split_indices":[3,4,12,0,0,0,0],"split_type":[0,0,0,0,0,0,0],"sum_hessian":[8.1514927E3,6.5977183E3,1.5537742E3,6.4680693E3,1.2964883E2,1.458182E3,9.559218E1],"tree_param":{"num_deleted":"0","num_feature":"39","num_nodes":"7","size_leaf_vector":"1"}},{"base_weights":[-7.6879067E-3,7.084728E-2,-2.7494946E-2,-7.6981273E-4,1.49846E-2,-4.1638394E-3,1.6454612E-3],"categories":[],"categories_nodes":[],"categories_segments":[],"categories_sizes":[],"default_left":[1,0,0,0,0,0,0],"id":52,"left_children":[1,3,5,-1,-1,-1,-1],"loss_changes":[1.2627848E1,2.4045103E1,1.4517923E1,0E0,0E0,0E0,0E0],"parents":[2147483647,0,0,1,1,2,2],"right_children":[2,4,6,-1,-1,-1,-1],"split_conditions":[-1E0,5.046E-1,-3.919149E-2,-7.6981273E-4,1.49846E-2,-4.1638394E-3,1.6454612E-3],"split_indices":[25,35,6,0,0,0,0],"split_type":[0,0,0,0,0,0,0],"sum_hessian":[8.154128E3,1.6285507E3,6.5255776E3,1.0969315E3,5.316191E2,3.7479785E3,2.7775989E3],"tree_param":{"num_deleted":"0","num_feature":"39","num_nodes":"7","size_leaf_vector":"1"}},{"base_weights":[-7.1650012E-3,1.2858374E-1,-2.3610855E-2,-2.0691E-3,1.3293602E-2,4.5783113E-4,-4.8877024E-3],"categories":[],"categories_nodes":[],"categories_segments":[],"categories_sizes":[],"default_left":[0,0,0,0,0,0,0],"id":53,"left_children":[1,3,5,-1,-1,-1,-1],"loss_changes":[1.8026318E1,1.2856822E1,1.28561945E1,0E0,0E0,0E0,0E0],"parents":[2147483647,0,0,1,1,2,2],"right_children":[2,4,6,-1,-1,-1,-1],"split_conditions":[-1.1111111E-1,-3.064E-1,4.5136537E-4,-2.0691E-3,1.3293602E-2,4.5783113E-4,-4.8877024E-3],"split_indices":[2,35,34,0,0,0,0],"split_type":[0,0,0,0,0,0,0],"sum_hessian":[8.1361514E3,8.701134E2,7.266038E3,3.0307126E2,5.670421E2,4.6692554E3,2.596783E3],"tree_param":{"num_deleted":"0","num_feature":"39","num_nodes":"7","size_leaf_vector":"1"}},{"base_weights":[6.01826E-4,4.8170965E-2,-3.667337E-2,5.201016E-3,-1.2592293E-3,-3.5974327E-3,8.890566E-3],"categories":[],"categories_nodes":[],"categories_segments":[],"categories_sizes":[],"default_left":[0,0,0,0,0,0,0],"id":54,"left_children":[1,3,5,-1,-1,-1,-1],"loss_changes":[1.4532875E1,9.286357E0,1.844072E1,0E0,0E0,0E0,0E0],"parents":[2147483647,0,0,1,1,2,2],"right_children":[2,4,6,-1,-1,-1,-1],"split_conditions":[4.6825397E-1,1.3428571E0,1.5263158E0,5.201016E-3,-1.2592293E-3,-3.5974327E-3,8.890566E-3],"split_indices":[10,24,2,0,0,0,0],"split_type":[0,0,0,0,0,0,0],"sum_hessian":[8.186607E3,3.612325E3,4.574282E3,2.3611865E3,1.2511383E3,4.0834993E3,4.9078268E2],"tree_param":{"num_deleted":"0","num_feature":"39","num_nodes":"7","size_leaf_vector":"1"}},{"base_weights":[-8.602886E-3,-1.5970076E-2,1.8134268E-1,-3.6628247E-4,-8.525071E-3,-1.0968654E-2,1.714496E-2],"categories":[],"categories_nodes":[],"categories_segments":[],"categories_sizes":[],"default_left":[1,1,1,0,0,0,0],"id":55,"left_children":[1,3,5,-1,-1,-1,-1],"loss_changes":[1.1257292E1,9.548785E0,1.09099245E1,0E0,0E0,0E0,0E0],"parents":[2147483647,0,0,1,1,2,2],"right_children":[2,4,6,-1,-1,-1,-1],"split_conditions":[1.5263158E0,9.379562E-1,4.5454547E-1,-3.6628247E-4,-8.525071E-3,-1.0968654E-2,1.714496E-2],"split_indices":[2,18,18,0,0,0,0],"split_type":[0,0,0,0,0,0,0],"sum_hessian":[8.200757E3,7.9016826E3,2.990748E2,7.32247E3,5.79212E2,6.163891E1,2.3743588E2],"tree_param":{"num_deleted":"0","num_feature":"39","num_nodes":"7","size_leaf_vector":"1"}},{"base_weights":[2.705529E-3,-2.4178525E-2,8.570603E-2,-4.950386E-4,-1.1198563E-2,2.9415945E-3,1.781932E-2],"categories":[],"categories_nodes":[],"categories_segments":[],"categories_sizes":[],"default_left":[0,0,0,0,0,0,0],"id":56,"left_children":[1,3,5,-1,-1,-1,-1],"loss_changes":[1.8410967E1,1.5590784E1,1.5181761E1,0E0,0E0,0E0,0E0],"parents":[2147483647,0,0,1,1,2,2],"right_children":[2,4,6,-1,-1,-1,-1],"split_conditions":[9.0054E0,1.054E0,6.1272043E-3,-4.950386E-4,-1.1198563E-2,2.9415945E-3,1.781932E-2],"split_indices":[4,35,6,0,0,0,0],"split_type":[0,0,0,0,0,0,0],"sum_hessian":[8.213347E3,6.1919897E3,2.0213572E3,5.6323735E3,5.5961597E2,1.7159684E3,3.0538876E2],"tree_param":{"num_deleted":"0","num_feature":"39","num_nodes":"7","size_leaf_vector":"1"}},{"base_weights":[-7.0719616E-3,-3.2391625E-3,-3.473679E-1,-8.225206E-4,7.400414E-3,-3.5856772E-2,7.835977E-3],"categories":[],"categories_nodes":[],"categories_segments":[],"categories_sizes":[],"default_left":[0,0,1,0,0,0,0],"id":57,"left_children":[1,3,5,-1,-1,-1,-1],"loss_changes":[1.0121052E1,1.0085598E1,1.0520419E1,0E0,0E0,0E0,0E0],"parents":[2147483647,0,0,1,1,2,2],"right_children":[2,4,6,-1,-1,-1,-1],"split_conditions":[8.6E2,7.3404275E-3,1.4712644E0,-8.225206E-4,7.400414E-3,-3.5856772E-2,7.835977E-3],"split_indices":[14,33,36,0,0,0,0],"split_type":[0,0,0,0,0,0,0],"sum_hessian":[8.1179707E3,8.031845E3,8.61258E1,7.431849E3,5.9999615E2,5.904857E1,2.707723E1],"tree_param":{"num_deleted":"0","num_feature":"39","num_nodes":"7","size_leaf_vector":"1"}},{"base_weights":[-8.139379E-3,4.1614166E-3,-1.1428134E-1,-3.7632228E-4,1.0248004E-2,-2.373622E-3,-1.8620469E-2],"categories":[],"categories_nodes":[],"categories_segments":[],"categories_sizes":[],"default_left":[1,0,0,0,0,0,0],"id":58,"left_children":[1,3,5,-1,-1,-1,-1],"loss_changes":[1.0752182E1,1.2499817E1,1.1828977E1,0E0,0E0,0E0,0E0],"parents":[2147483647,0,0,1,1,2,2],"right_children":[2,4,6,-1,-1,-1,-1],"split_conditions":[-1E0,2E0,1.1923077E0,-3.7632228E-4,1.0248004E-2,-2.373622E-3,-1.8620469E-2],"split_indices":[7,5,11,0,0,0,0],"split_type":[0,0,0,0,0,0,0],"sum_hessian":[8.1222847E3,7.2678604E3,8.544245E2,6.8293403E3,4.3852E2,6.176757E2,2.367488E2],"tree_param":{"num_deleted":"0","num_feature":"39","num_nodes":"7","size_leaf_vector":"1"}},{"base_weights":[-6.9041513E-3,-2.2490428E-1,3.4646827E-4,-5.9018556E-2,-1.0199153E-2,2.3468342E-3,-2.2671078E-3],"categories":[],"categories_nodes":[],"categories_segments":[],"categories_sizes":[],"default_left":[0,0,0,0,0,0,0],"id":59,"left_children":[1,3,5,-1,-1,-1,-1],"loss_changes":[1.3242476E1,9.987209E0,1.130837E1,0E0,0E0,0E0,0E0],"parents":[2147483647,0,0,1,1,2,2],"right_children":[2,4,6,-1,-1,-1,-1],"split_conditions":[3.5135135E-1,9.9934053E-1,2.5E-1,-5.9018556E-2,-1.0199153E-2,2.3468342E-3,-2.2671078E-3],"split_indices":[18,9,25,0,0,0,0],"split_type":[0,0,0,0,0,0,0],"sum_hessian":[8.188198E3,2.6908215E2,7.919116E3,1.7328072E1,2.5175409E2,3.9450732E3,3.9740432E3],"tree_param":{"num_deleted":"0","num_feature":"39","num_nodes":"7","size_leaf_vector":"1"}},{"base_weights":[1.0508776E-2,-3.1750253E-1,1.561244E-2,-2.750047E-2,3.338707E-2,1.9324194E-3,-9.3301395E-3],"categories":[],"categories_nodes":[],"categories_segments":[],"categories_sizes":[],"default_left":[0,1,0,0,0,0,0],"id":60,"left_children":[1,3,5,-1,-1,-1,-1],"loss_changes":[1.3268542E1,1.388902E1,2.1570103E1,0E0,0E0,0E0,0E0],"parents":[2147483647,0,0,1,1,2,2],"right_children":[2,4,6,-1,-1,-1,-1],"split_conditions":[-3.95654E1,2.6666667E0,3.746178E0,-2.750047E-2,3.338707E-2,1.9324194E-3,-9.3301395E-3],"split_indices":[4,11,21,0,0,0,0],"split_type":[0,0,0,0,0,0,0],"sum_hessian":[8.164603E3,1.2069778E2,8.0439053E3,1.06120544E2,1.4577228E1,7.352079E3,6.918263E2],"tree_param":{"num_deleted":"0","num_feature":"39","num_nodes":"7","size_leaf_vector":"1"}},{"base_weights":[-9.2951255E-3,-3.0384136E-2,5.3393267E-2,-5.0716422E-2,-1.6626926E-3,1.1647202E-2,6.082294E-4],"categories":[],"categories_nodes":[],"categories_segments":[],"categories_sizes":[],"default_left":[0,0,0,0,0,0,0],"id":61,"left_children":[1,3,5,-1,-1,-1,-1],"loss_changes":[1.07474165E1,1.4273031E1,1.1881111E1,0E0,0E0,0E0,0E0],"parents":[2147483647,0,0,1,1,2,2],"right_children":[2,4,6,-1,-1,-1,-1],"split_conditions":[5.508475E-1,-1.4444444E0,-1.23943664E-1,-5.0716422E-2,-1.6626926E-3,1.1647202E-2,6.082294E-4],"split_indices":[1,5,0,0,0,0,0],"split_type":[0,0,0,0,0,0,0],"sum_hessian":[8.1517017E3,6.1157666E3,2.0359347E3,2.1900177E1,6.0938667E3,4.813476E2,1.5545872E3],"tree_param":{"num_deleted":"0","num_feature":"39","num_nodes":"7","size_leaf_vector":"1"}},{"base_weights":[2.8000206E-3,1.5458456E-1,-1.07905E-2,7.707302E-3,3.1542283E-2,-2.0597761E-2,-4.3092054E-4],"categories":[],"categories_nodes":[],"categories_segments":[],"categories_sizes":[],"default_left":[0,0,0,0,0,0,0],"id":62,"left_children":[1,3,5,-1,-1,-1,-1],"loss_changes":[1.6979609E1,6.063143E0,8.635465E0,0E0,0E0,0E0,0E0],"parents":[2147483647,0,0,1,1,2,2],"right_children":[2,4,6,-1,-1,-1,-1],"split_conditions":[-4.653847E-3,6.567828E0,-6.25E0,7.707302E-3,3.1542283E-2,-2.0597761E-2,-4.3092054E-4],"split_indices":[33,21,25,0,0,0,0],"split_type":[0,0,0,0,0,0,0],"sum_hessian":[8.1375767E3,6.764467E2,7.46113E3,6.312599E2,4.5186848E1,7.98579E1,7.381272E3],"tree_param":{"num_deleted":"0","num_feature":"39","num_nodes":"7","size_leaf_vector":"1"}},{"base_weights":[-2.1950345E-2,-3.9214715E-1,-1.7024685E-2,-3.2839403E-2,2.0657385E-2,-3.2702282E-3,1.3485254E-3],"categories":[],"categories_nodes":[],"categories_segments":[],"categories_sizes":[],"default_left":[0,1,0,0,0,0,0],"id":63,"left_children":[1,3,5,-1,-1,-1,-1],"loss_changes":[1.429469E1,1.1338922E1,1.1527465E1,0E0,0E0,0E0,0E0],"parents":[2147483647,0,0,1,1,2,2],"right_children":[2,4,6,-1,-1,-1,-1],"split_conditions":[-1.8461539E0,8.2645804E-1,2.2937626E-1,-3.2839403E-2,2.0657385E-2,-3.2702282E-3,1.3485254E-3],"split_indices":[30,18,27,0,0,0,0],"split_type":[0,0,0,0,0,0,0],"sum_hessian":[8.1394194E3,1.028932E2,8.0365264E3,8.739426E1,1.5498947E1,4.1725493E3,3.8639773E3],"tree_param":{"num_deleted":"0","num_feature":"39","num_nodes":"7","size_leaf_vector":"1"}},{"base_weights":[-1.65876E-2,-4.696382E-3,-1.272402E-1,-4.1306093E-2,4.707967E-5,5.507319E-2,-9.193556E-3],"categories":[],"categories_nodes":[],"categories_segments":[],"categories_sizes":[],"default_left":[0,0,0,0,0,0,0],"id":64,"left_children":[1,3,5,-1,-1,-1,-1],"loss_changes":[1.0529964E1,2.792978E1,1.7759178E1,0E0,0E0,0E0,0E0],"parents":[2147483647,0,0,1,1,2,2],"right_children":[2,4,6,-1,-1,-1,-1],"split_conditions":[1.0479E0,-2.0754716E0,-4.280702E-1,-4.1306093E-2,4.707967E-5,5.507319E-2,-9.193556E-3],"split_indices":[35,30,0,0,0,0,0],"split_type":[0,0,0,0,0,0,0],"sum_hessian":[8.136126E3,7.3578926E3,7.782337E2,6.0948524E1,7.296944E3,1.5639436E1,7.6259424E2],"tree_param":{"num_deleted":"0","num_feature":"39","num_nodes":"7","size_leaf_vector":"1"}},{"base_weights":[1.1740093E-3,-1.2464935E-2,9.2657246E-2,-3.463101E-2,-6.0379907E-4,1.5460872E-2,-0E0],"categories":[],"categories_nodes":[],"categories_segments":[],"categories_sizes":[],"default_left":[1,0,0,0,0,0,0],"id":65,"left_children":[1,3,5,-1,-1,-1,-1],"loss_changes":[1.0287903E1,9.356199E0,1.5721226E1,0E0,0E0,0E0,0E0],"parents":[2147483647,0,0,1,1,2,2],"right_children":[2,4,6,-1,-1,-1,-1],"split_conditions":[1.9523809E0,-6.23147E1,4.2857143E-1,-3.463101E-2,-6.0379907E-4,1.5460872E-2,-0E0],"split_indices":[11,4,2,0,0,0,0],"split_type":[0,0,0,0,0,0,0],"sum_hessian":[8.1588184E3,7.087902E3,1.0709167E3,2.9940628E1,7.0579614E3,3.881866E2,6.8273016E2],"tree_param":{"num_deleted":"0","num_feature":"39","num_nodes":"7","size_leaf_vector":"1"}},{"base_weights":[1.2638808E-2,2.0651272E-2,-2.2711398E-1,3.063546E-3,-1.8211482E-3,-7.2788284E-4,-3.2453332E-2],"categories":[],"categories_nodes":[],"categories_segments":[],"categories_sizes":[],"default_left":[1,0,0,0,0,0,0],"id":66,"left_children":[1,3,5,-1,-1,-1,-1],"loss_changes":[1.5457787E1,1.1846498E1,1.6271591E1,0E0,0E0,0E0,0E0],"parents":[2147483647,0,0,1,1,2,2],"right_children":[2,4,6,-1,-1,-1,-1],"split_conditions":[3.846154E-1,7.696477E-1,7.8205127E-1,3.063546E-3,-1.8211482E-3,-7.2788284E-4,-3.2453332E-2],"split_indices":[13,31,24,0,0,0,0],"split_type":[0,0,0,0,0,0,0],"sum_hessian":[8.188468E3,7.9294097E3,2.5905832E2,5.019746E3,2.9096633E3,1.5459235E2,1.0446598E2],"tree_param":{"num_deleted":"0","num_feature":"39","num_nodes":"7","size_leaf_vector":"1"}},{"base_weights":[2.4907198E-3,5.404052E-2,-3.623758E-2,-4.0962957E-3,5.6228605E-3,-2.5726384E-3,1.6645629E-2],"categories":[],"categories_nodes":[],"categories_segments":[],"categories_sizes":[],"default_left":[0,1,1,0,0,0,0],"id":67,"left_children":[1,3,5,-1,-1,-1,-1],"loss_changes":[1.627984E1,1.6205523E1,8.141878E0,0E0,0E0,0E0,0E0],"parents":[2147483647,0,0,1,1,2,2],"right_children":[2,4,6,-1,-1,-1,-1],"split_conditions":[3.5264E0,-5.7723533E-2,9.0909094E-1,-4.0962957E-3,5.6228605E-3,-2.5726384E-3,1.6645629E-2],"split_indices":[26,23,31,0,0,0,0],"split_type":[0,0,0,0,0,0,0],"sum_hessian":[8.1417407E3,3.5074045E3,4.634336E3,8.3001324E2,2.6773914E3,4.552077E3,8.2258766E1],"tree_param":{"num_deleted":"0","num_feature":"39","num_nodes":"7","size_leaf_vector":"1"}},{"base_weights":[-1.6908268E-2,-1.04775615E-2,-2.0207924E-1,-1.04384E-3,9.007674E-3,-5.7530705E-2,-5.113426E-3],"categories":[],"categories_nodes":[],"categories_segments":[],"categories_sizes":[],"default_left":[0,0,0,0,0,0,0],"id":68,"left_children":[1,3,5,-1,-1,-1,-1],"loss_changes":[9.423723E0,8.075429E0,2.1954124E1,0E0,0E0,0E0,0E0],"parents":[2147483647,0,0,1,1,2,2],"right_children":[2,4,6,-1,-1,-1,-1],"split_conditions":[8.5E2,8.84058E-1,1.5625E-1,-1.04384E-3,9.007674E-3,-5.7530705E-2,-5.113426E-3],"split_indices":[14,37,17,0,0,0,0],"split_type":[0,0,0,0,0,0,0],"sum_hessian":[8.1520854E3,7.8858594E3,2.6622592E2,7.577253E3,3.0860645E2,3.4739815E1,2.314861E2],"tree_param":{"num_deleted":"0","num_feature":"39","num_nodes":"7","size_leaf_vector":"1"}},{"base_weights":[1.4820601E-2,1.595134E-2,-1.1050367E-1,-1.6844853E-4,5.887555E-3],"categories":[],"categories_nodes":[],"categories_segments":[],"categories_sizes":[],"default_left":[0,0,0,0,0],"id":69,"left_children":[1,3,-1,-1,-1],"loss_changes":[1.44670515E1,1.2412797E1,0E0,0E0,0E0],"parents":[2147483647,0,0,1,1],"right_children":[2,4,-1,-1,-1],"split_conditions":[1E0,1.2307693E0,-1.1050367E-1,-1.6844853E-4,5.887555E-3],"split_indices":[16,15,0,0,0],"split_type":[0,0,0,0,0],"sum_hessian":[8.16396E3,8.1600483E3,3.9117167E0,6.60769E3,1.5523583E3],"tree_param":{"num_deleted":"0","num_feature":"39","num_nodes":"5","size_leaf_vector":"1"}},{"base_weights":[-1.9304155E-4,-4.2423308E-2,4.211005E-2,1.5334227E-2,-3.1720526E-3,-3.7956458E-2,2.8733432E-3],"categories":[],"categories_nodes":[],"categories_segments":[],"categories_sizes":[],"default_left":[0,0,0,0,0,0,0],"id":70,"left_children":[1,3,5,-1,-1,-1,-1],"loss_changes":[1.4589644E1,1.1218702E1,1.2603382E1,0E0,0E0,0E0,0E0],"parents":[2147483647,0,0,1,1,2,2],"right_children":[2,4,6,-1,-1,-1,-1],"split_conditions":[-3.919149E-2,-3.3329928E-1,-1.2380953E0,1.5334227E-2,-3.1720526E-3,-3.7956458E-2,2.8733432E-3],"split_indices":[6,23,2,0,0,0,0],"split_type":[0,0,0,0,0,0,0],"sum_hessian":[8.165671E3,4.1021147E3,4.063556E3,1.24252464E2,3.9778623E3,2.77085E1,4.0358474E3],"tree_param":{"num_deleted":"0","num_feature":"39","num_nodes":"7","size_leaf_vector":"1"}},{"base_weights":[-2.556781E-3,-4.9126953E-2,5.0589263E-2,7.0783272E-3,-4.2416463E-3,9.598918E-3,1.5788756E-3],"categories":[],"categories_nodes":[],"categories_segments":[],"categories_sizes":[],"default_left":[0,1,1,0,0,0,0],"id":71,"left_children":[1,3,5,-1,-1,-1,-1],"loss_changes":[2.037903E1,1.4725013E1,9.859969E0,0E0,0E0,0E0,0E0],"parents":[2147483647,0,0,1,1,2,2],"right_children":[2,4,6,-1,-1,-1,-1],"split_conditions":[-9.7297296E-2,-1.5E0,-2E-1,7.0783272E-3,-4.2416463E-3,9.598918E-3,1.5788756E-3],"split_indices":[0,19,15,0,0,0,0],"split_type":[0,0,0,0,0,0,0],"sum_hessian":[8.233834E3,4.40179E3,3.8320437E3,4.7562546E2,3.9261646E3,7.1085846E2,3.1211853E3],"tree_param":{"num_deleted":"0","num_feature":"39","num_nodes":"7","size_leaf_vector":"1"}},{"base_weights":[3.0726136E-3,4.7823745E-3,-9.04813E-1,-0E0,1.7804323E-2,-9.6518E-3,-1.0219404E-1],"categories":[],"categories_nodes":[],"categories_segments":[],"categories_sizes":[],"default_left":[1,0,0,0,0,0,0],"id":72,"left_children":[1,3,5,-1,-1,-1,-1],"loss_changes":[1.1612693E1,1.1377304E1,5.5159388E0,0E0,0E0,0E0,0E0],"parents":[2147483647,0,0,1,1,2,2],"right_children":[2,4,6,-1,-1,-1,-1],"split_conditions":[4.5E0,1.7087895E-2,6.5E-1,-0E0,1.7804323E-2,-9.6518E-3,-1.0219404E-1],"split_indices":[19,33,10,0,0,0,0],"split_type":[0,0,0,0,0,0,0],"sum_hessian":[8.252132E3,8.2385E3,1.3631245E1,8.1029097E3,1.3559068E2,8.050658E0,5.5805864E0],"tree_param":{"num_deleted":"0","num_feature":"39","num_nodes":"7","size_leaf_vector":"1"}},{"base_weights":[-2.0735282E-3,-7.31182E-1,1.3281949E-3,-8.1769295E-2,2.076987E-2,6.7179194E-3,-8.3606795E-4],"categories":[],"categories_nodes":[],"categories_segments":[],"categories_sizes":[],"default_left":[0,1,1,0,0,0,0],"id":73,"left_children":[1,3,5,-1,-1,-1,-1],"loss_changes":[2.1234337E1,2.7422758E1,1.340426E1,0E0,0E0,0E0,0E0],"parents":[2147483647,0,0,1,1,2,2],"right_children":[2,4,6,-1,-1,-1,-1],"split_conditions":[-6.23147E1,7.5206614E-1,3.3333334E-1,-8.1769295E-2,2.076987E-2,6.7179194E-3,-8.3606795E-4],"split_indices":[4,11,36,0,0,0,0],"split_type":[0,0,0,0,0,0,0],"sum_hessian":[8.1687646E3,3.933861E1,8.129426E3,2.5821775E1,1.3516837E1,9.974762E2,7.1319497E3],"tree_param":{"num_deleted":"0","num_feature":"39","num_nodes":"7","size_leaf_vector":"1"}},{"base_weights":[-2.8437953E-3,-1.4246781E-1,1.2130719E-2,-1.1138624E-2,1.1171036E-2,1.607452E-2,3.1380623E-4],"categories":[],"categories_nodes":[],"categories_segments":[],"categories_sizes":[],"default_left":[0,1,0,0,0,0,0],"id":74,"left_children":[1,3,5,-1,-1,-1,-1],"loss_changes":[1.722848E1,1.0402004E1,1.2561505E1,0E0,0E0,0E0,0E0],"parents":[2147483647,0,0,1,1,2,2],"right_children":[2,4,6,-1,-1,-1,-1],"split_conditions":[-7.053942E-1,8.91358E-1,-5.75E0,-1.1138624E-2,1.1171036E-2,1.607452E-2,3.1380623E-4],"split_indices":[10,18,7,0,0,0,0],"split_type":[0,0,0,0,0,0,0],"sum_hessian":[8.1563027E3,7.982989E2,7.358004E3,7.147915E2,8.350738E1,1.936948E2,7.164309E3],"tree_param":{"num_deleted":"0","num_feature":"39","num_nodes":"7","size_leaf_vector":"1"}},{"base_weights":[-3.7328263E-3,3.1083408E-3,-1.0723813E-1,6.174703E-5,5.243239E-2,-2.9861823E-2,-1.9226321E-3],"categories":[],"categories_nodes":[],"categories_segments":[],"categories_sizes":[],"default_left":[1,1,1,0,0,0,0],"id":75,"left_children":[1,3,5,-1,-1,-1,-1],"loss_changes":[5.916113E0,1.2565025E1,1.4280399E1,0E0,0E0,0E0,0E0],"parents":[2147483647,0,0,1,1,2,2],"right_children":[2,4,6,-1,-1,-1,-1],"split_conditions":[3.996391E0,3.9961252E0,-6.25E0,6.174703E-5,5.243239E-2,-2.9861823E-2,-1.9226321E-3],"split_indices":[9,9,7,0,0,0,0],"split_type":[0,0,0,0,0,0,0],"sum_hessian":[8.158381E3,7.640889E3,5.174913E2,7.6241807E3,1.6708864E1,8.2371315E1,4.3512E2],"tree_param":{"num_deleted":"0","num_feature":"39","num_nodes":"7","size_leaf_vector":"1"}},{"base_weights":[-8.220514E-3,-2.8087804E-2,5.7950675E-2,-6.628771E-4,-9.4764E-3,1.4213345E-2,1.7647443E-3],"categories":[],"categories_nodes":[],"categories_segments":[],"categories_sizes":[],"default_left":[0,0,0,0,0,0,0],"id":76,"left_children":[1,3,5,-1,-1,-1,-1],"loss_changes":[1.073375E1,1.3617273E1,9.180356E0,0E0,0E0,0E0,0E0],"parents":[2147483647,0,0,1,1,2,2],"right_children":[2,4,6,-1,-1,-1,-1],"split_conditions":[5.555556E-1,2.8665707E0,5.642857E-1,-6.628771E-4,-9.4764E-3,1.4213345E-2,1.7647443E-3],"split_indices":[1,21,1,0,0,0,0],"split_type":[0,0,0,0,0,0,0],"sum_hessian":[8.194101E3,6.317659E3,1.8764413E3,5.57318E3,7.444788E2,2.6036716E2,1.6160741E3],"tree_param":{"num_deleted":"0","num_feature":"39","num_nodes":"7","size_leaf_vector":"1"}},{"base_weights":[2.661131E-4,6.186401E-3,-2.1822049E-1,-1.5383236E-3,2.8550192E-3,-7.1146847E-3,-4.116851E-2],"categories":[],"categories_nodes":[],"categories_segments":[],"categories_sizes":[],"default_left":[0,0,0,0,0,0,0],"id":77,"left_children":[1,3,5,-1,-1,-1,-1],"loss_changes":[1.0282568E1,1.0162648E1,8.631631E0,0E0,0E0,0E0,0E0],"parents":[2147483647,0,0,1,1,2,2],"right_children":[2,4,6,-1,-1,-1,-1],"split_conditions":[7.108434E-1,-3.0671906E-2,1.0063E0,-1.5383236E-3,2.8550192E-3,-7.1146847E-3,-4.116851E-2],"split_indices":[16,6,35,0,0,0,0],"split_type":[0,0,0,0,0,0,0],"sum_hessian":[8.166961E3,7.957834E3,2.0912668E2,4.4688154E3,3.4890186E3,1.7381644E2,3.5310234E1],"tree_param":{"num_deleted":"0","num_feature":"39","num_nodes":"7","size_leaf_vector":"1"}},{"base_weights":[5.8762456E-4,-4.102124E-2,3.327959E-2,-5.5897566E-3,5.7384354E-4,8.1128057E-4,9.703735E-3],"categories":[],"categories_nodes":[],"categories_segments":[],"categories_sizes":[],"default_left":[0,0,1,0,0,0,0],"id":78,"left_children":[1,3,5,-1,-1,-1,-1],"loss_changes":[1.1138117E1,9.251648E0,1.1344186E1,0E0,0E0,0E0,0E0],"parents":[2147483647,0,0,1,1,2,2],"right_children":[2,4,6,-1,-1,-1,-1],"split_conditions":[4.7586206E-1,-3.782542E-2,5.276074E-1,-5.5897566E-3,5.7384354E-4,8.1128057E-4,9.703735E-3],"split_indices":[1,6,29,0,0,0,0],"split_type":[0,0,0,0,0,0,0],"sum_hessian":[8.194877E3,3.5877214E3,4.607156E3,1.8049122E3,1.7828092E3,3.9843086E3,6.2284735E2],"tree_param":{"num_deleted":"0","num_feature":"39","num_nodes":"7","size_leaf_vector":"1"}},{"base_weights":[-1.0738458E-3,-2.1683371E-1,4.0261415E-3,-2.865277E-3,-3.486246E-2,1.659105E-3,-2.5879997E-3],"categories":[],"categories_nodes":[],"categories_segments":[],"categories_sizes":[],"default_left":[0,0,0,0,0,0,0],"id":79,"left_children":[1,3,5,-1,-1,-1,-1],"loss_changes":[9.234631E0,1.0831569E1,8.511626E0,0E0,0E0,0E0,0E0],"parents":[2147483647,0,0,1,1,2,2],"right_children":[2,4,6,-1,-1,-1,-1],"split_conditions":[8.810572E-3,6.8926E0,8.611111E-1,-2.865277E-3,-3.486246E-2,1.659105E-3,-2.5879997E-3],"split_indices":[28,4,5,0,0,0,0],"split_type":[0,0,0,0,0,0,0],"sum_hessian":[8.1338286E3,1.9345456E2,7.940374E3,1.3359895E2,5.9855602E1,5.317366E3,2.623008E3],"tree_param":{"num_deleted":"0","num_feature":"39","num_nodes":"7","size_leaf_vector":"1"}},{"base_weights":[-2.1255843E-2,-6.961116E-3,-1.6841407E-1,-1.2265095E-3,5.8414363E-3,-8.585637E-3,-4.1993897E-2],"categories":[],"categories_nodes":[],"categories_segments":[],"categories_sizes":[],"default_left":[0,0,1,0,0,0,0],"id":80,"left_children":[1,3,5,-1,-1,-1,-1],"loss_changes":[1.6964039E1,9.951934E0,9.185467E0,0E0,0E0,0E0,0E0],"parents":[2147483647,0,0,1,1,2,2],"right_children":[2,4,6,-1,-1,-1,-1],"split_conditions":[1.0603E0,5.9839356E-1,6.5789473E-1,-1.2265095E-3,5.8414363E-3,-8.585637E-3,-4.1993897E-2],"split_indices":[35,1,8,0,0,0,0],"split_type":[0,0,0,0,0,0,0],"sum_hessian":[8.175243E3,7.4600757E3,7.151676E2,6.62592E3,8.341555E2,6.817816E2,3.338597E1],"tree_param":{"num_deleted":"0","num_feature":"39","num_nodes":"7","size_leaf_vector":"1"}},{"base_weights":[6.5188897E-3,-4.33353E-2,3.823075E-2,-3.629305E-3,1.0796408E-2,1.9757575E-3,2.2370923E-2],"categories":[],"categories_nodes":[],"categories_segments":[],"categories_sizes":[],"default_left":[1,0,1,0,0,0,0],"id":81,"left_children":[1,3,5,-1,-1,-1,-1],"loss_changes":[1.2903867E1,1.1049696E1,9.111228E0,0E0,0E0,0E0,0E0],"parents":[2147483647,0,0,1,1,2,2],"right_children":[2,4,6,-1,-1,-1,-1],"split_conditions":[6.2E-1,6.690141E-1,2.5934613E-1,-3.629305E-3,1.0796408E-2,1.9757575E-3,2.2370923E-2],"split_indices":[24,1,23,0,0,0,0],"split_type":[0,0,0,0,0,0,0],"sum_hessian":[8.165445E3,3.1582268E3,5.007218E3,2.9488418E3,2.0938516E2,4.9236606E3,8.355723E1],"tree_param":{"num_deleted":"0","num_feature":"39","num_nodes":"7","size_leaf_vector":"1"}},{"base_weights":[-1.1856135E-3,-7.483998E-3,1.7358947E-1,1.305565E-6,-1.1901562E-2,7.9948135E-4,2.261562E-2],"categories":[],"categories_nodes":[],"categories_segments":[],"categories_sizes":[],"default_left":[0,0,0,0,0,0,0],"id":82,"left_children":[1,3,5,-1,-1,-1,-1],"loss_changes":[8.656715E0,1.1221759E1,8.116284E0,0E0,0E0,0E0,0E0],"parents":[2147483647,0,0,1,1,2,2],"right_children":[2,4,6,-1,-1,-1,-1],"split_conditions":[1.2292768E-2,8.45E2,-7.008453E-2,1.305565E-6,-1.1901562E-2,7.9948135E-4,2.261562E-2],"split_indices":[33,14,23,0,0,0,0],"split_type":[0,0,0,0,0,0,0],"sum_hessian":[8.064171E3,7.7914155E3,2.727555E2,7.485025E3,3.0639053E2,1.5421802E2,1.1853747E2],"tree_param":{"num_deleted":"0","num_feature":"39","num_nodes":"7","size_leaf_vector":"1"}},{"base_weights":[8.500923E-3,4.3097343E-3,2.5886673E-1,1.3593851E-3,-8.332156E-3,4.750075E-2,4.868874E-3],"categories":[],"categories_nodes":[],"categories_segments":[],"categories_sizes":[],"default_left":[1,0,0,0,0,0,0],"id":83,"left_children":[1,3,5,-1,-1,-1,-1],"loss_changes":[8.163991E0,2.0037567E1,1.076753E1,0E0,0E0,0E0,0E0],"parents":[2147483647,0,0,1,1,2,2],"right_children":[2,4,6,-1,-1,-1,-1],"split_conditions":[2.5934613E-1,9.372937E-1,2.8955E0,1.3593851E-3,-8.332156E-3,4.750075E-2,4.868874E-3],"split_indices":[23,12,26,0,0,0,0],"split_type":[0,0,0,0,0,0,0],"sum_hessian":[8.1144106E3,7.986463E3,1.2794782E2,7.091785E3,8.9467773E2,3.0555151E1,9.739267E1],"tree_param":{"num_deleted":"0","num_feature":"39","num_nodes":"7","size_leaf_vector":"1"}},{"base_weights":[-7.956864E-3,-6.718044E-2,1.8960532E-2,-0E0,-8.105056E-3,9.038558E-3,2.3955114E-4],"categories":[],"categories_nodes":[],"categories_segments":[],"categories_sizes":[],"default_left":[0,0,0,0,0,0,0],"id":84,"left_children":[1,3,5,-1,-1,-1,-1],"loss_changes":[1.3050454E1,1.11747465E1,1.0638074E1,0E0,0E0,0E0,0E0],"parents":[2147483647,0,0,1,1,2,2],"right_children":[2,4,6,-1,-1,-1,-1],"split_conditions":[1E0,9.492445E-2,-1.1111111E-1,-0E0,-8.105056E-3,9.038558E-3,2.3955114E-4],"split_indices":[20,30,2,0,0,0,0],"split_type":[0,0,0,0,0,0,0],"sum_hessian":[8.145436E3,2.5605652E3,5.584871E3,1.2709827E3,1.2895824E3,5.73093E2,5.011778E3],"tree_param":{"num_deleted":"0","num_feature":"39","num_nodes":"7","size_leaf_vector":"1"}},{"base_weights":[-3.1473006E-3,-4.3898717E-2,3.307772E-2,-3.382886E-3,8.354839E-3,2.3624389E-2,1.2254257E-3],"categories":[],"categories_nodes":[],"categories_segments":[],"categories_sizes":[],"default_left":[0,1,0,0,0,0,0],"id":85,"left_children":[1,3,5,-1,-1,-1,-1],"loss_changes":[1.2048361E1,7.910067E0,1.923782E1,0E0,0E0,0E0,0E0],"parents":[2147483647,0,0,1,1,2,2],"right_children":[2,4,6,-1,-1,-1,-1],"split_conditions":[-4.601637E-2,1.5E0,-2.1596244E-1,-3.382886E-3,8.354839E-3,2.3624389E-2,1.2254257E-3],"split_indices":[6,5,8,0,0,0,0],"split_type":[0,0,0,0,0,0,0],"sum_hessian":[8.151027E3,3.8531326E3,4.2978945E3,3.6296807E3,2.2345177E2,1.4832059E2,4.1495737E3],"tree_param":{"num_deleted":"0","num_feature":"39","num_nodes":"7","size_leaf_vector":"1"}},{"base_weights":[-9.084383E-3,-6.0695354E-2,9.060185E-3,-3.1707853E-2,-2.7980297E-3,5.1547564E-3,-8.134735E-4],"categories":[],"categories_nodes":[],"categories_segments":[],"categories_sizes":[],"default_left":[1,0,0,0,0,0,0],"id":86,"left_children":[1,3,5,-1,-1,-1,-1],"loss_changes":[7.68499E0,1.379237E1,1.0214796E1,0E0,0E0,0E0,0E0],"parents":[2147483647,0,0,1,1,2,2],"right_children":[2,4,6,-1,-1,-1,-1],"split_conditions":[2.3835126E-1,1.6704E0,4.5217392E-1,-3.1707853E-2,-2.7980297E-3,5.1547564E-3,-8.134735E-4],"split_indices":[11,26,11,0,0,0,0],"split_type":[0,0,0,0,0,0,0],"sum_hessian":[8.132301E3,2.1341929E3,5.998108E3,6.3751553E1,2.0704414E3,1.3868524E3,4.6112554E3],"tree_param":{"num_deleted":"0","num_feature":"39","num_nodes":"7","size_leaf_vector":"1"}},{"base_weights":[-4.8075467E-3,-1.1751852E-2,1.7736937E-1,-5.119379E-5,-1.2374651E-2,1.2496578E-2,-6.973391E-2],"categories":[],"categories_nodes":[],"categories_segments":[],"categories_sizes":[],"default_left":[0,0,1,0,0,0,0],"id":87,"left_children":[1,3,5,-1,-1,-1,-1],"loss_changes":[1.0104733E1,1.6124851E1,9.393395E0,0E0,0E0,0E0,0E0],"parents":[2147483647,0,0,1,1,2,2],"right_children":[2,4,6,-1,-1,-1,-1],"split_conditions":[1.1534353E-2,8.4E2,2.2222222E-1,-5.119379E-5,-1.2374651E-2,1.2496578E-2,-6.973391E-2],"split_indices":[33,14,13,0,0,0,0],"split_type":[0,0,0,0,0,0,0],"sum_hessian":[8.160683E3,7.8684556E3,2.922279E2,7.4500146E3,4.1844092E2,2.876385E2,4.589438E0],"tree_param":{"num_deleted":"0","num_feature":"39","num_nodes":"7","size_leaf_vector":"1"}},{"base_weights":[4.083434E-3,-2.2400698E-1,9.387387E-3,3.5537053E-3,-2.496501E-2,4.692083E-4,4.4142373E-2],"categories":[],"categories_nodes":[],"categories_segments":[],"categories_sizes":[],"default_left":[0,1,0,0,0,0,0],"id":88,"left_children":[1,3,5,-1,-1,-1,-1],"loss_changes":[9.563863E0,9.833431E0,8.696871E0,0E0,0E0,0E0,0E0],"parents":[2147483647,0,0,1,1,2,2],"right_children":[2,4,6,-1,-1,-1,-1],"split_conditions":[1.2612613E-1,6.754703E-5,8.0582523E-1,3.5537053E-3,-2.496501E-2,4.692083E-4,4.4142373E-2],"split_indices":[24,34,1,0,0,0,0],"split_type":[0,0,0,0,0,0,0],"sum_hessian":[8.1406953E3,1.7889844E2,7.961797E3,6.8071976E1,1.1082646E2,7.9451323E3,1.6664131E1],"tree_param":{"num_deleted":"0","num_feature":"39","num_nodes":"7","size_leaf_vector":"1"}}]},"name":"gbtree"},"learner_model_param":{"base_score":"5E-1","boost_from_average":"1","num_class":"0","num_feature":"39","num_target":"1"},"objective":{"name":"reg:squarederror","reg_loss_param":{"scale_pos_weight":"1"}}},"version":[2,1,1]}