{"learner":{"attributes":{"best_iteration":"26","best_score":"9.8"},"feature_names":["deltaTimestampOpeningSection1min","deltaTimestampOpeningSection5min","deltaTimestampOpeningSection30min","candleSizeTicks","diffPriceClosePoc_0_0","diffPriceClosePoc_0_1","diffPriceClosePoc_0_2","diffPriceClosePoc_0_3","diffPriceClosePoc_0_4","diffPriceClosePoc_0_5","diffHighPrice_0_1","diffHighPrice_0_2","diffHighPrice_0_3","diffHighPrice_0_4","diffHighPrice_0_5","diffLowPrice_0_1","diffLowPrice_0_2","diffLowPrice_0_3","diffLowPrice_0_4","diffLowPrice_0_5","diffPriceCloseVWAP","diffPriceCloseVWAPbyIndex","atr","bandWidthBB","perctBB","perct_VA6P","ratio_delta_vol_VA6P","diffPriceClose_VA6PPoc","diffPriceClose_VA6PvaH","diffPriceClose_VA6PvaL","perct_VA11P","ratio_delta_vol_VA11P","diffPriceClose_VA11PPoc","diffPriceClose_VA11PvaH","diffPriceClose_VA11PvaL","perct_VA16P","ratio_delta_vol_VA16P","diffPriceClose_VA16PPoc","diffPriceClose_VA16PvaH","diffPriceClose_VA16PvaL","perct_VA21P","ratio_delta_vol_VA21P","diffPriceClose_VA21PPoc","diffPriceClose_VA21PvaH","diffPriceClose_VA21PvaL","overlap_ratio_VA_6P_11P","overlap_ratio_VA_6P_16P","overlap_ratio_VA_6P_21P","overlap_ratio_VA_11P_21P","poc_diff_6P_11P","poc_diff_ratio_6P_11P","poc_diff_6P_16P","poc_diff_ratio_6P_16P","poc_diff_6P_21P","poc_diff_ratio_6P_21P","poc_diff_11P_21P","poc_diff_ratio_11P_21P","market_regimeADX","range_strength_10_32","range_strength_5_23","is_in_range_10_32","is_in_range_5_23","bearish_reversal_force","bullish_reversal_force","bearish_ask_bid_ratio","bullish_ask_bid_ratio","ratioDeltaBlw","ratioDeltaAbv","diffVolCandle_0_1Ratio","diffVolDelta_0_1Ratio","cumDiffVolDeltaRatio","VolPocVolCandleRatio","pocDeltaPocVolRatio","VolAbv_vol_ratio","VolBlw_vol_ratio","asymetrie_volume","VolCandleMeanxRatio","bearish_ask_ratio","bearish_bid_ratio","bullish_ask_ratio","bullish_bid_ratio","bearish_ask_score","bearish_bid_score","bearish_imnbScore_score","bullish_ask_score","bullish_bid_score","bullish_imnbScore_score","bull_imbalance_low_1","bull_imbalance_low_2","bull_imbalance_low_3","bull_imbalance_high_0","bull_imbalance_high_1","bull_imbalance_high_2","bear_imbalance_low_0","bear_imbalance_low_1","bear_imbalance_low_2","bear_imbalance_high_1","bear_imbalance_high_2","bear_imbalance_high_3","imbalance_score_low","imbalance_score_high","finished_auction_high","finished_auction_low","bearish_ask_abs_ratio_abv","bearish_bid_abs_ratio_abv","bearish_abs_diff_abv","bullish_ask_abs_ratio_blw","bullish_bid_abs_ratio_blw","bullish_abs_diff_blw","bearish_asc_dsc_ratio","bearish_asc_dynamics","bearish_dsc_dynamics","bullish_asc_dsc_ratio","bullish_asc_dynamics","bullish_dsc_dynamics","bearish_asc_ask_bid_imbalance","bearish_dsc_ask_bid_imbalance","bearish_imbalance_evolution","bearish_asc_ask_bid_delta_imbalance","bearish_dsc_ask_bid_delta_imbalance","bullish_asc_ask_bid_imbalance","bullish_dsc_ask_bid_imbalance","bullish_imbalance_evolution","bullish_asc_ask_bid_delta_imbalance","bullish_dsc_ask_bid_delta_imbalance","bearish_absorption_ratio","bullish_absorption_ratio","absorption_intensity_repeat_bearish_vol","bearish_absorption_intensity_repeat_count","bearish_repeatAskBid_ratio","absorption_intensity_repeat_bullish_vol","bullish_absorption_intensity_repeat_count","bullish_repeatAskBid_ratio","count_AbvBlw_asym_ratio","count_blw_tot_ratio","count_abv_tot_ratio","vol_volatility_score","price_volume_dynamic","bearish_absorption_score","bullish_absorption_score","bearish_market_context_score","bullish_market_context_score","bearish_combined_pressure","bullish_combined_pressure","naked_poc_dist_above","naked_poc_dist_below"],"feature_types":["int","int","int","float","float","float","float","float","float","float","float","float","float","float","float","float","float","float","float","float","float","int","float","float","float","float","float","float","float","float","float","float","float","float","float","float","float","float","float","float","float","float","float","float","float","float","float","float","float","float","float","float","float","float","float","float","float","float","float","float","int","int","float","float","float","float","float","float","float","float","float","float","float","float","float","float","float","float","float","float","float","float","float","float","float","float","float","float","float","float","float","float","float","float","float","float","float","float","float","float","float","int","int","float","float","float","float","float","float","float","float","float","float","float","float","float","float","float","float","float","float","float","float","float","float","float","float","float","float","float","float","float","float","float","float","float","float","float","float","float","float","float","float","float","float","float"],"gradient_booster":{"model":{"gbtree_model_param":{"num_parallel_tree":"1","num_trees":"62"},"iteration_indptr":[0,1,2,3,4,5,6,7,8,9,10,11,12,13,14,15,16,17,18,19,20,21,22,23,24,25,26,27,28,29,30,31,32,33,34,35,36,37,38,39,40,41,42,43,44,45,46,47,48,49,50,51,52,53,54,55,56,57,58,59,60,61,62],"tree_info":[0,0,0,0,0,0,0,0,0,0,0,0,0,0,0,0,0,0,0,0,0,0,0,0,0,0,0,0,0,0,0,0,0,0,0,0,0,0,0,0,0,0,0,0,0,0,0,0,0,0,0,0,0,0,0,0,0,0,0,0,0,0],"trees":[{"base_weights":[-1.9918345E-1,-2.2515753E-1,-1.013616E-1,-4.9012747E-1,-2.1276928E-1,8.593586E-2,-1.4311686E-1,-2.5854748E-2,-8.595084E-2,-1.646454E-2,-9.55022E-3,-1.0191773E-2,1.50613375E-2,-2.0988141E-3,-1.4670405E-2],"categories":[],"categories_nodes":[],"categories_segments":[],"categories_sizes":[],"default_left":[1,0,0,0,0,0,0,0,0,0,0,0,0,0,0],"id":0,"left_children":[1,3,5,7,9,11,13,-1,-1,-1,-1,-1,-1,-1,-1],"loss_changes":[2.3283417E1,2.3373688E1,1.53549E1,1.7889214E1,2.2055084E1,1.4433168E1,1.6690258E1,0E0,0E0,0E0,0E0,0E0,0E0,0E0,0E0],"parents":[2147483647,0,0,1,1,2,2,3,3,4,4,5,5,6,6],"right_children":[2,4,6,8,10,12,14,-1,-1,-1,-1,-1,-1,-1,-1],"split_conditions":[8.684211E-1,1.789061E-2,-5.982906E-2,3.5E0,-4.2990703E-2,2.4422443E-1,1.7333333E-1,-2.5854748E-2,-8.595084E-2,-1.646454E-2,-9.55022E-3,-1.0191773E-2,1.50613375E-2,-2.0988141E-3,-1.4670405E-2],"split_indices":[65,138,99,8,140,86,82,0,0,0,0,0,0,0,0],"split_type":[0,0,0,0,0,0,0,0,0,0,0,0,0,0,0],"sum_hessian":[9.283866E3,7.328211E3,1.9556554E3,3.2331735E2,7.0048936E3,3.5245752E2,1.6031979E3,3.0291382E2,2.0403519E1,3.476702E3,3.5281917E3,1.3477687E2,2.1768063E2,7.6121136E2,8.4198645E2],"tree_param":{"num_deleted":"0","num_feature":"146","num_nodes":"15","size_leaf_vector":"1"}},{"base_weights":[-1.9597328E-1,-4.1082275E-1,-1.8575598E-1,-1.1430573E0,-3.379625E-1,-2.0985046E-1,-9.037355E-2,-7.6221814E-3,-1.0247219E-1,-9.039926E-2,-1.8159097E-2,-5.076687E-3,-1.3626594E-2,-3.8976322E-3,-3.0197565E-2],"categories":[],"categories_nodes":[],"categories_segments":[],"categories_sizes":[],"default_left":[0,0,0,0,0,0,0,0,0,0,0,0,0,0,0],"id":1,"left_children":[1,3,5,7,9,11,13,-1,-1,-1,-1,-1,-1,-1,-1],"loss_changes":[1.9822052E1,2.0761497E1,2.0114258E1,1.8151512E1,1.5866009E1,1.1670013E1,1.8765171E1,0E0,0E0,0E0,0E0,0E0,0E0,0E0,0E0],"parents":[2147483647,0,0,1,1,2,2,3,3,4,4,5,5,6,6],"right_children":[2,4,6,8,10,12,14,-1,-1,-1,-1,-1,-1,-1,-1],"split_conditions":[8.396296E-2,-1.6763425E0,8.871672E-4,-4.1304347E-1,-1.2992739E-3,-4.274809E-1,2.75E0,-7.6221814E-3,-1.0247219E-1,-9.039926E-2,-1.8159097E-2,-5.076687E-3,-1.3626594E-2,-3.8976322E-3,-3.0197565E-2],"split_indices":[136,70,140,67,137,72,16,0,0,0,0,0,0,0,0],"split_type":[0,0,0,0,0,0,0,0,0,0,0,0,0,0,0],"sum_hessian":[9.291005E3,4.169974E2,8.874007E3,3.605264E1,3.8094476E2,7.076409E3,1.7975978E3,1.31856365E1,2.2867002E1,1.1775414E1,3.6916937E2,6.8060675E2,6.3958027E3,1.6894261E3,1.081716E2],"tree_param":{"num_deleted":"0","num_feature":"146","num_nodes":"15","size_leaf_vector":"1"}},{"base_weights":[-1.7167456E-1,-3.3851227E-1,-1.563598E-1,3.2982755E-1,-3.6478445E-1,-1.7853267E-1,-7.7219985E-2,-2.779058E-2,5.6911033E-2,-2.7968768E-2,-5.1449877E-3,-2.7471013E-2,-1.03361225E-2,1.2287551E-2,-6.358995E-3],"categories":[],"categories_nodes":[],"categories_segments":[],"categories_sizes":[],"default_left":[0,0,0,1,0,0,1,0,0,0,0,0,0,0,0],"id":2,"left_children":[1,3,5,7,9,11,13,-1,-1,-1,-1,-1,-1,-1,-1],"loss_changes":[2.3364471E1,1.376046E1,1.4765747E1,1.4026884E1,1.914859E1,1.6133972E1,1.4027715E1,0E0,0E0,0E0,0E0,0E0,0E0,0E0,0E0],"parents":[2147483647,0,0,1,1,2,2,3,3,4,4,5,5,6,6],"right_children":[2,4,6,8,10,12,14,-1,-1,-1,-1,-1,-1,-1,-1],"split_conditions":[6.695652E-1,-4.121814E-3,-1.91967E-4,1.0434019E-1,8.871672E-4,-9.375E-1,-1.2432432E0,-2.779058E-2,5.6911033E-2,-2.7968768E-2,-5.1449877E-3,-2.7471013E-2,-1.03361225E-2,1.2287551E-2,-6.358995E-3],"split_indices":[129,137,140,139,140,70,40,0,0,0,0,0,0,0,0],"split_type":[0,0,0,0,0,0,0,0,0,0,0,0,0,0,0],"sum_hessian":[9.328645E3,7.7858777E2,8.550057E3,2.7956812E1,7.506309E2,6.6694443E3,1.8806123E3,1.1526572E1,1.6430239E1,5.606439E2,1.8998705E2,2.157178E2,6.4537266E3,1.6262326E2,1.717989E3],"tree_param":{"num_deleted":"0","num_feature":"146","num_nodes":"15","size_leaf_vector":"1"}},{"base_weights":[-1.5060358E-1,-1.16782375E-1,-1.952028E-1,-1.23837866E-1,4.8721096E-1,-1.8845241E-1,-9.145253E-1,-1.7027397E-2,-6.48239E-3,-5.9807044E-2,3.6404345E-2,-1.2894432E-2,1.1798817E-3,-2.4556162E-2,-9.799839E-2],"categories":[],"categories_nodes":[],"categories_segments":[],"categories_sizes":[],"default_left":[0,1,0,0,0,0,0,0,0,0,0,0,0,0,0],"id":3,"left_children":[1,3,5,7,9,11,13,-1,-1,-1,-1,-1,-1,-1,-1],"loss_changes":[1.3791824E1,2.2379395E1,1.8420654E1,1.4054092E1,9.501999E0,1.8978806E1,1.0629955E1,0E0,0E0,0E0,0E0,0E0,0E0,0E0,0E0],"parents":[2147483647,0,0,1,1,2,2,3,3,4,4,5,5,6,6],"right_children":[2,4,6,8,10,12,14,-1,-1,-1,-1,-1,-1,-1,-1],"split_conditions":[5E-1,7.1428573E-1,6.04773E1,2.9136595E-1,0E0,2.562674E0,3.3014103E1,-1.7027397E-2,-6.48239E-3,-5.9807044E-2,3.6404345E-2,-1.2894432E-2,1.1798817E-3,-2.4556162E-2,-9.799839E-2],"split_indices":[43,40,20,76,5,64,57,0,0,0,0,0,0,0,0],"split_type":[0,0,0,0,0,0,0,0,0,0,0,0,0,0,0],"sum_hessian":[9.337285E3,5.322748E3,4.0145369E3,5.2631055E3,5.964278E1,3.9789883E3,3.55486E1,5.3241956E2,4.730686E3,3.3191595E0,5.632362E1,3.5903972E3,3.8859088E2,2.1543566E1,1.40050335E1],"tree_param":{"num_deleted":"0","num_feature":"146","num_nodes":"15","size_leaf_vector":"1"}},{"base_weights":[-1.5377721E-1,-2.909687E-1,-1.4126077E-1,-1.3506682E0,-2.6626867E-1,-6.918015E-2,-1.876955E-1,-0E0,-1.23002686E-1,-2.9360496E-2,-9.827228E-3,-5.159745E-3,1.5300888E-2,-6.59016E-3,-1.4752413E-2],"categories":[],"categories_nodes":[],"categories_segments":[],"categories_sizes":[],"default_left":[0,0,0,0,0,0,1,0,0,0,0,0,0,0,0],"id":4,"left_children":[1,3,5,7,9,11,13,-1,-1,-1,-1,-1,-1,-1,-1],"loss_changes":[1.5541519E1,1.8539246E1,2.8277252E1,1.4918066E1,1.6426098E1,1.6262543E1,2.1925064E1,0E0,0E0,0E0,0E0,0E0,0E0,0E0,0E0],"parents":[2147483647,0,0,1,1,2,2,3,3,4,4,5,5,6,6],"right_children":[2,4,6,8,10,12,14,-1,-1,-1,-1,-1,-1,-1,-1],"split_conditions":[6.695652E-1,-5.5E0,6.809E-1,2.868217E-1,2.3958904E1,4.6666665E0,5.294118E-1,-0E0,-1.23002686E-1,-2.9360496E-2,-9.827228E-3,-5.159745E-3,1.5300888E-2,-6.59016E-3,-1.4752413E-2],"split_indices":[129,53,24,77,58,91,95,0,0,0,0,0,0,0,0],"split_type":[0,0,0,0,0,0,0,0,0,0,0,0,0,0,0],"sum_hessian":[9.28918E3,7.697788E2,8.5194E3,1.6183908E1,7.535949E2,3.3460105E3,5.17339E3,5.464194E0,1.0719715E1,2.4473174E2,5.0886313E2,3.1959592E3,1.5005135E2,2.0942368E3,3.0791533E3],"tree_param":{"num_deleted":"0","num_feature":"146","num_nodes":"15","size_leaf_vector":"1"}},{"base_weights":[-1.5493436E-1,-1.593362E-1,3.5476276E-1,-1.1758351E-1,-2.0793417E-1,-2.7457187E-1,5.713449E-1,-6.490813E-3,-2.685403E-2,-7.046742E-2,-1.216091E-2,2.5154103E-2,-6.03815E-2,-6.6604756E-2,4.06391E-2],"categories":[],"categories_nodes":[],"categories_segments":[],"categories_sizes":[],"default_left":[0,1,0,0,1,0,0,0,0,0,0,0,0,0,0],"id":5,"left_children":[1,3,5,7,9,11,13,-1,-1,-1,-1,-1,-1,-1,-1],"loss_changes":[2.0702011E1,1.839856E1,1.0960726E1,1.7536018E1,3.3876404E1,1.0095685E1,9.194365E0,0E0,0E0,0E0,0E0,0E0,0E0,0E0,0E0],"parents":[2147483647,0,0,1,1,2,2,3,3,4,4,5,5,6,6],"right_children":[2,4,6,8,10,12,14,-1,-1,-1,-1,-1,-1,-1,-1],"split_conditions":[4.5E0,-2E0,-2.25E0,3.62739E1,-3.0835736E-1,2.25E0,3.6101082E-1,-6.490813E-3,-2.685403E-2,-7.046742E-2,-1.216091E-2,2.5154103E-2,-6.03815E-2,-6.6604756E-2,4.06391E-2],"split_indices":[6,144,144,20,36,33,77,0,0,0,0,0,0,0,0],"split_type":[0,0,0,0,0,0,0,0,0,0,0,0,0,0,0],"sum_hessian":[9.295359E3,9.217824E3,7.753556E1,4.9689307E3,4.2488936E3,1.874828E1,5.878728E1,4.8042456E3,1.6468504E2,3.749985E1,4.2113936E3,9.00177E0,9.7465105E0,2.4000914E0,5.6387188E1],"tree_param":{"num_deleted":"0","num_feature":"146","num_nodes":"15","size_leaf_vector":"1"}},{"base_weights":[-1.5854153E-1,-1.5177844E-1,-5.0716823E-1,-3.610334E-1,-1.4288516E-1,-9.4095206E-1,-3.1110612E-1,-2.0299666E-2,-1.1397032E-1,7.529757E-5,-9.452621E-3,-8.880041E-2,-1.4735347E-2,-0E0,-3.4024324E-2],"categories":[],"categories_nodes":[],"categories_segments":[],"categories_sizes":[],"default_left":[0,0,1,1,0,0,0,0,0,0,0,0,0,0,0],"id":6,"left_children":[1,3,5,7,9,11,13,-1,-1,-1,-1,-1,-1,-1,-1],"loss_changes":[2.1331055E1,1.6530762E1,1.358234E1,1.3570145E1,1.5230499E1,1.723479E1,9.181744E0,0E0,0E0,0E0,0E0,0E0,0E0,0E0,0E0],"parents":[2147483647,0,0,1,1,2,2,3,3,4,4,5,5,6,6],"right_children":[2,4,6,8,10,12,14,-1,-1,-1,-1,-1,-1,-1,-1],"split_conditions":[4.98513E1,2.4050634E-1,3.1730768E-1,2.0082645E0,-1.8181819E-1,7.428058E-1,7.483731E-1,-2.0299666E-2,-1.1397032E-1,7.529757E-5,-9.452621E-3,-8.880041E-2,-1.4735347E-2,-0E0,-3.4024324E-2],"split_indices":[20,128,125,92,30,77,75,0,0,0,0,0,0,0,0],"split_type":[0,0,0,0,0,0,0,0,0,0,0,0,0,0,0],"sum_hessian":[9.314353E3,9.140247E3,1.7410556E2,3.677795E2,8.772468E3,5.225856E1,1.21847E2,3.620285E2,5.7510114E0,6.651637E2,8.107304E3,2.9128784E1,2.3129776E1,5.459399E1,6.7253006E1],"tree_param":{"num_deleted":"0","num_feature":"146","num_nodes":"15","size_leaf_vector":"1"}},{"base_weights":[-1.2184591E-1,-2.5549608E-1,-1.105335E-1,-2.1866727E-1,-1.0022732E0,-1.1730729E-1,2.796378E-1,4.4745967E-2,-1.5611809E-2,-8.068595E-3,-9.6807964E-2,1.3817536E-3,-7.996508E-3,2.3825161E-2,-7.103972E-2],"categories":[],"categories_nodes":[],"categories_segments":[],"categories_sizes":[],"default_left":[0,0,0,0,0,0,1,0,0,0,0,0,0,0,0],"id":7,"left_children":[1,3,5,7,9,11,13,-1,-1,-1,-1,-1,-1,-1,-1],"loss_changes":[1.3882385E1,1.8813118E1,2.281379E1,2.4143059E1,1.5062283E1,1.642418E1,2.2787743E1,0E0,0E0,0E0,0E0,0E0,0E0,0E0,0E0],"parents":[2147483647,0,0,1,1,2,2,3,3,4,4,5,5,6,6],"right_children":[2,4,6,8,10,12,14,-1,-1,-1,-1,-1,-1,-1,-1],"split_conditions":[6.666667E-1,1.0422E0,1.8049634E-1,-9.5946796E-2,1.1282052E0,-4.4650286E-3,4.1825093E-2,4.4745967E-2,-1.5611809E-2,-8.068595E-3,-9.6807964E-2,1.3817536E-3,-7.996508E-3,2.3825161E-2,-7.103972E-2],"split_indices":[129,24,140,140,109,137,85,0,0,0,0,0,0,0,0],"split_type":[0,0,0,0,0,0,0,0,0,0,0,0,0,0,0],"sum_hessian":[9.409515E3,7.2731244E2,8.682202E3,6.948049E2,3.250759E1,8.536619E3,1.4558241E2,2.4813797E1,6.699911E2,1.387773E1,1.8629862E1,7.534741E2,7.7831455E3,1.3608942E2,9.49299E0],"tree_param":{"num_deleted":"0","num_feature":"146","num_nodes":"15","size_leaf_vector":"1"}},{"base_weights":[-1.1806226E-1,-1.02784134E-1,-2.2514519E-1,-9.7557254E-2,-5.984871E-1,-1.8671915E-1,-5.0104475E-1,-5.1391944E-3,-1.3756169E-2,-4.9913917E-2,8.134183E-3,-1.2332922E-2,5.6304675E-2,-5.5051286E-2,-1.6841328E-2],"categories":[],"categories_nodes":[],"categories_segments":[],"categories_sizes":[],"default_left":[0,0,0,0,0,0,0,0,0,0,0,0,0,0,0],"id":8,"left_children":[1,3,5,7,9,11,13,-1,-1,-1,-1,-1,-1,-1,-1],"loss_changes":[1.5064575E1,2.066954E1,1.1691242E1,1.3641823E1,1.4128813E1,1.6813477E1,1.1396435E1,0E0,0E0,0E0,0E0,0E0,0E0,0E0,0E0],"parents":[2147483647,0,0,1,1,2,2,3,3,4,4,5,5,6,6],"right_children":[2,4,6,8,10,12,14,-1,-1,-1,-1,-1,-1,-1,-1],"split_conditions":[8.648019E-1,3.2967034E-1,2.3759701E0,3.1733773E0,-2.1621622E-2,6.5E0,1.2741935E0,-5.1391944E-3,-1.3756169E-2,-4.9913917E-2,8.134183E-3,-1.2332922E-2,5.6304675E-2,-5.5051286E-2,-1.6841328E-2],"split_indices":[68,36,138,136,119,7,88,0,0,0,0,0,0,0,0],"split_type":[0,0,0,0,0,0,0,0,0,0,0,0,0,0,0],"sum_hessian":[9.395746E3,8.230731E3,1.165015E3,8.147159E3,8.357217E1,1.0261007E3,1.389143E2,7.381601E3,7.655583E2,6.5237144E1,1.8335016E1,1.0133026E3,1.2798067E1,4.80843E1,9.083E1],"tree_param":{"num_deleted":"0","num_feature":"146","num_nodes":"15","size_leaf_vector":"1"}},{"base_weights":[-1.0962636E-1,-3.416793E-1,-9.7112425E-2,-2.9381827E-1,-8.013977E-1,6.5205805E-2,-1.09340824E-1,-1.4148977E-3,-2.454104E-2,-8.792035E-3,-9.0272464E-2,-6.013516E-3,1.2191978E-2,-4.227118E-3,-1.0239913E-2],"categories":[],"categories_nodes":[],"categories_segments":[],"categories_sizes":[],"default_left":[1,0,0,0,0,0,0,0,0,0,0,0,0,0,0],"id":9,"left_children":[1,3,5,7,9,11,13,-1,-1,-1,-1,-1,-1,-1,-1],"loss_changes":[2.6882515E1,9.40266E0,1.7754082E1,1.2326298E1,1.7555613E1,1.3753094E1,1.9219109E1,0E0,0E0,0E0,0E0,0E0,0E0,0E0,0E0],"parents":[2147483647,0,0,1,1,2,2,3,3,4,4,5,5,6,6],"right_children":[2,4,6,8,10,12,14,-1,-1,-1,-1,-1,-1,-1,-1],"split_conditions":[6.9767445E-2,5E-1,-2.1052632E-1,-2.381343E-4,3.3587787E-1,9.798658E-1,3.198198E-1,-1.4148977E-3,-2.454104E-2,-8.792035E-3,-9.0272464E-2,-6.013516E-3,1.2191978E-2,-4.227118E-3,-1.0239913E-2],"split_indices":[92,11,30,137,93,92,111,0,0,0,0,0,0,0,0],"split_type":[0,0,0,0,0,0,0,0,0,0,0,0,0,0,0],"sum_hessian":[9.399128E3,4.7665198E2,8.922476E3,4.3411917E2,4.2532806E1,6.197563E2,8.302719E3,1.2647479E2,3.0764438E2,2.2519617E1,2.0013187E1,2.7651685E2,3.432394E2,4.931216E3,3.3715034E3],"tree_param":{"num_deleted":"0","num_feature":"146","num_nodes":"15","size_leaf_vector":"1"}},{"base_weights":[-1.1141992E-1,-1.252145E-1,1.386262E-1,-2.1337964E-1,-9.805102E-2,-6.9387504E-3,2.9881832E-1,-8.927998E-3,-2.1730052E-2,-4.745976E-4,-7.602007E-3,-9.705302E-2,1.1003923E-3,1.2345249E-2,5.223057E-2],"categories":[],"categories_nodes":[],"categories_segments":[],"categories_sizes":[],"default_left":[0,1,1,0,0,0,0,0,0,0,0,0,0,0,0],"id":10,"left_children":[1,3,5,7,9,11,13,-1,-1,-1,-1,-1,-1,-1,-1],"loss_changes":[3.2521637E1,2.1119705E1,1.168722E1,1.9597366E1,1.622628E1,1.1476865E1,1.16676235E1,0E0,0E0,0E0,0E0,0E0,0E0,0E0,0E0],"parents":[2147483647,0,0,1,1,2,2,3,3,4,4,5,5,6,6],"right_children":[2,4,6,8,10,12,14,-1,-1,-1,-1,-1,-1,-1,-1],"split_conditions":[6.716418E-2,-5.7723533E-2,-1.7937219E-1,9.379562E-1,2.5E-1,-4.969E-1,1.5235008E-1,-8.927998E-3,-2.1730052E-2,-4.745976E-4,-7.602007E-3,-9.705302E-2,1.1003923E-3,1.2345249E-2,5.223057E-2],"split_indices":[119,142,85,132,32,24,41,0,0,0,0,0,0,0,0],"split_type":[0,0,0,0,0,0,0,0,0,0,0,0,0,0,0],"sum_hessian":[9.429541E3,8.940173E3,4.8936795E2,2.0971309E3,6.8430425E3,2.5362592E2,2.3574203E2,1.4304235E3,6.667074E2,1.5589396E3,5.2841025E3,4.0964446E0,2.4952946E2,2.0275255E2,3.2989475E1],"tree_param":{"num_deleted":"0","num_feature":"146","num_nodes":"15","size_leaf_vector":"1"}},{"base_weights":[-8.436529E-2,-5.740258E-1,-8.0323495E-2,-1.0386299E0,-0E0,-9.2879996E-2,4.5051426E-2,-1.3229005E-4,-7.778708E-2,-9.346958E-2,5.7751234E-3,-3.7367211E-3,-9.432758E-3,2.3112776E-2,5.199091E-4],"categories":[],"categories_nodes":[],"categories_segments":[],"categories_sizes":[],"default_left":[0,0,1,0,0,0,0,0,0,0,0,0,0,0,0],"id":11,"left_children":[1,3,5,7,9,11,13,-1,-1,-1,-1,-1,-1,-1,-1],"loss_changes":[1.8040962E1,1.9913467E1,1.4766502E1,8.951851E0,5.2351747E0,1.6403488E1,9.942644E0,0E0,0E0,0E0,0E0,0E0,0E0,0E0,0E0],"parents":[2147483647,0,0,1,1,2,2,3,3,4,4,5,5,6,6],"right_children":[2,4,6,8,10,12,14,-1,-1,-1,-1,-1,-1,-1,-1],"split_conditions":[-3.0835736E-1,5.103E-1,6.4658636E-1,7.589641E-1,5E-1,2E0,-1.9555555E-1,-1.3229005E-4,-7.778708E-2,-9.346958E-2,5.7751234E-3,-3.7367211E-3,-9.432758E-3,2.3112776E-2,5.199091E-4],"split_indices":[36,24,120,73,17,13,117,0,0,0,0,0,0,0,0],"split_type":[0,0,0,0,0,0,0,0,0,0,0,0,0,0,0],"sum_hessian":[9.425589E3,7.484036E1,9.350748E3,4.102924E1,3.3811123E1,8.506198E3,8.445502E2,8.387098E0,3.264214E1,1.691242E0,3.211988E1,5.628221E3,2.8779768E3,8.054362E1,7.6400653E2],"tree_param":{"num_deleted":"0","num_feature":"146","num_nodes":"15","size_leaf_vector":"1"}},{"base_weights":[-1.0252637E-1,-1.01056844E-1,-1.7270598E0,-5.1914036E-1,-9.747899E-2,-1.3293597E-1,-0E0,-6.1769746E-2,-7.3991804E-3,-6.5012807E-3,6.9944845E-3],"categories":[],"categories_nodes":[],"categories_segments":[],"categories_sizes":[],"default_left":[0,0,1,0,0,0,0,0,0,0,0],"id":12,"left_children":[1,3,5,7,9,-1,-1,-1,-1,-1,-1],"loss_changes":[2.060147E1,1.3402817E1,7.0218544E0,1.4026686E1,1.7698532E1,0E0,0E0,0E0,0E0,0E0,0E0],"parents":[2147483647,0,0,1,1,2,2,3,3,4,4],"right_children":[2,4,6,8,10,-1,-1,-1,-1,-1,-1],"split_conditions":[1E0,-3.0835736E-1,1.2545455E1,3.2658003E-2,8.609272E-2,-1.3293597E-1,-0E0,-6.1769746E-2,-7.3991804E-3,-6.5012807E-3,6.9944845E-3],"split_indices":[118,36,126,138,119,0,0,0,0,0,0],"split_type":[0,0,0,0,0,0,0,0,0,0,0],"sum_hessian":[9.355983E3,9.34853E3,7.452575E0,7.665613E1,9.271874E3,6.015091E0,1.4374841E0,3.2946827E1,4.37093E1,8.898543E3,3.733311E2],"tree_param":{"num_deleted":"0","num_feature":"146","num_nodes":"11","size_leaf_vector":"1"}},{"base_weights":[-8.4358E-2,-1.322863E-1,-3.518466E-2,-1.5550153E-1,-1.3569392E-2,-2.6619527E-1,-1.8234743E-2,-2.7586257E-3,-1.1613831E-2,-3.832866E-3,1.8452244E-2,-1.4521736E-2,-1.2258392E-1,1.3094578E-3,-4.5760935E-3],"categories":[],"categories_nodes":[],"categories_segments":[],"categories_sizes":[],"default_left":[0,1,0,1,0,1,1,0,0,0,0,0,0,0,0],"id":13,"left_children":[1,3,5,7,9,11,13,-1,-1,-1,-1,-1,-1,-1,-1],"loss_changes":[2.2306328E1,1.312027E1,1.8197159E1,1.5187859E1,1.2139419E1,1.3485336E1,9.942323E0,0E0,0E0,0E0,0E0,0E0,0E0,0E0,0E0],"parents":[2147483647,0,0,1,1,2,2,3,3,4,4,5,5,6,6],"right_children":[2,4,6,8,10,12,14,-1,-1,-1,-1,-1,-1,-1,-1],"split_conditions":[-3.919149E-2,6.11148E-1,5.0980395E-1,2.6086956E-1,4.4536424E-1,6.071429E0,2.4135642E-4,-2.7586257E-3,-1.1613831E-2,-3.832866E-3,1.8452244E-2,-1.4521736E-2,-1.2258392E-1,1.3094578E-3,-4.5760935E-3],"split_indices":[140,120,129,35,116,88,56,0,0,0,0,0,0,0,0],"split_type":[0,0,0,0,0,0,0,0,0,0,0,0,0,0,0],"sum_hessian":[9.529694E3,4.816222E3,4.713472E3,4.0219397E3,7.942823E2,3.1811365E2,4.3953584E3,9.6922363E2,3.052716E3,6.899811E2,1.043012E2,3.1399976E2,4.1138864E0,2.5767346E3,1.818624E3],"tree_param":{"num_deleted":"0","num_feature":"146","num_nodes":"15","size_leaf_vector":"1"}},{"base_weights":[-8.8505924E-2,4.8175443E-2,-1.0406068E-1,2.3799446E-1,-3.6222614E-2,-1.6062935E-1,-6.53026E-2,-1.0149173E-1,1.5717413E-2,-5.0781313E-3,2.3571065E-2,-4.757233E-2,-9.466428E-3,-1.3746423E-2,-2.2529638E-3],"categories":[],"categories_nodes":[],"categories_segments":[],"categories_sizes":[],"default_left":[0,0,0,1,0,0,0,0,0,0,0,0,0,0,0],"id":14,"left_children":[1,3,5,7,9,11,13,-1,-1,-1,-1,-1,-1,-1,-1],"loss_changes":[2.0119736E1,1.5545782E1,1.8383186E1,9.923908E0,1.2836983E1,1.0971481E1,2.2651407E1,0E0,0E0,0E0,0E0,0E0,0E0,0E0,0E0],"parents":[2147483647,0,0,1,1,2,2,3,3,4,4,5,5,6,6],"right_children":[2,4,6,8,10,12,14,-1,-1,-1,-1,-1,-1,-1,-1],"split_conditions":[-6.024096E-3,-1.5037594E-2,1.11788616E-1,2.4193548E-1,3.0384614E0,-4.4329897E-1,1.9607843E-1,-1.0149173E-1,1.5717413E-2,-5.0781313E-3,2.3571065E-2,-4.757233E-2,-9.466428E-3,-1.3746423E-2,-2.2529638E-3],"split_indices":[123,69,105,98,91,100,71,0,0,0,0,0,0,0,0],"split_type":[0,0,0,0,0,0,0,0,0,0,0,0,0,0,0],"sum_hessian":[9.438149E3,9.582837E2,8.479866E3,2.9801978E2,6.602639E2,3.4376836E3,5.042182E3,2.1856143E0,2.9583414E2,5.964396E2,6.3824368E1,2.8772318E1,3.4089114E3,7.554831E2,4.286699E3],"tree_param":{"num_deleted":"0","num_feature":"146","num_nodes":"15","size_leaf_vector":"1"}},{"base_weights":[-8.631703E-2,-8.001104E-2,-4.007882E-1,-9.5524915E-2,2.3287186E-2,8.204192E-2,-5.909151E-1,-5.167573E-3,-1.5925972E-2,4.9178596E-3,-1.088654E-2,-1.8414056E-2,3.7596006E-2,-4.3191902E-2,5.5427076E-3],"categories":[],"categories_nodes":[],"categories_segments":[],"categories_sizes":[],"default_left":[0,0,1,1,0,0,0,0,0,0,0,0,0,0,0],"id":15,"left_children":[1,3,5,7,9,11,13,-1,-1,-1,-1,-1,-1,-1,-1],"loss_changes":[1.8317139E1,1.4940422E1,1.7292177E1,1.4214516E1,1.382219E1,1.0754708E1,1.1133221E1,0E0,0E0,0E0,0E0,0E0,0E0,0E0,0E0],"parents":[2147483647,0,0,1,1,2,2,3,3,4,4,5,5,6,6],"right_children":[2,4,6,8,10,12,14,-1,-1,-1,-1,-1,-1,-1,-1],"split_conditions":[4.98513E1,1.3846154E0,-2.1052632E-1,9.4131184E-1,4.1691843E-1,7.125506E-1,7.2705E0,-5.167573E-3,-1.5925972E-2,4.9178596E-3,-1.088654E-2,-1.8414056E-2,3.7596006E-2,-4.3191902E-2,5.5427076E-3],"split_indices":[20,30,30,132,111,68,23,0,0,0,0,0,0,0,0],"split_type":[0,0,0,0,0,0,0,0,0,0,0,0,0,0,0],"sum_hessian":[9.463585E3,9.280894E3,1.8269151E2,8.0767207E3,1.204173E3,5.0331154E1,1.3236037E2,7.5834453E3,4.932754E2,9.4150806E2,2.6266492E2,2.8397793E1,2.1933363E1,1.14166E2,1.8194365E1],"tree_param":{"num_deleted":"0","num_feature":"146","num_nodes":"15","size_leaf_vector":"1"}},{"base_weights":[-7.6416425E-2,-1.0657122E-1,-1.7558834E-2,-6.397866E-2,-1.5489362E-1,-4.7790247E-1,-7.7048694E-3,2.4437191E-2,-4.3600644E-3,-1.7616061E-2,-6.9708563E-3,-9.5738895E-2,-1.4562852E-2,1.4973194E-3,-9.096979E-3],"categories":[],"categories_nodes":[],"categories_segments":[],"categories_sizes":[],"default_left":[0,0,0,0,0,0,0,0,0,0,0,0,0,0,0],"id":16,"left_children":[1,3,5,7,9,11,13,-1,-1,-1,-1,-1,-1,-1,-1],"loss_changes":[1.6642548E1,1.2624138E1,1.4113864E1,1.1180598E1,1.5452454E1,1.5245492E1,1.4432032E1,0E0,0E0,0E0,0E0,0E0,0E0,0E0,0E0],"parents":[2147483647,0,0,1,1,2,2,3,3,4,4,5,5,6,6],"right_children":[2,4,6,8,10,12,14,-1,-1,-1,-1,-1,-1,-1,-1],"split_conditions":[2.238806E-2,1.5E0,-1.4541832E0,-8.7759227E-1,-2.1076234E-1,4.7586206E-1,9.218E-1,2.4437191E-2,-4.3600644E-3,-1.7616061E-2,-6.9708563E-3,-9.5738895E-2,-1.4562852E-2,1.4973194E-3,-9.096979E-3],"split_indices":[81,18,70,140,119,106,24,0,0,0,0,0,0,0,0],"split_type":[0,0,0,0,0,0,0,0,0,0,0,0,0,0,0],"sum_hessian":[9.440542E3,6.231925E3,3.2086174E3,3.3228591E3,2.9090657E3,6.489344E1,3.1437239E3,5.009138E1,3.2727676E3,6.7360803E2,2.2354578E3,1.0582151E1,5.4311287E1,2.554864E3,5.888599E2],"tree_param":{"num_deleted":"0","num_feature":"146","num_nodes":"15","size_leaf_vector":"1"}},{"base_weights":[-8.167726E-2,-7.727369E-2,-4.2385423E-1,-8.42384E-2,1.6766323E-1,2.7977184E-3,-7.506033E-1,-1.9372597E-2,-4.55664E-3,-6.8042153E-3,2.5102047E-2,-5.583337E-2,2.1291148E-2,-6.2417228E-2,1.07222805E-2],"categories":[],"categories_nodes":[],"categories_segments":[],"categories_sizes":[],"default_left":[0,0,0,0,0,1,0,0,0,0,0,0,0,0,0],"id":17,"left_children":[1,3,5,7,9,11,13,-1,-1,-1,-1,-1,-1,-1,-1],"loss_changes":[1.3833237E1,1.5922165E1,1.7115015E1,2.0051376E1,1.7669264E1,1.5591331E1,1.7949387E1,0E0,0E0,0E0,0E0,0E0,0E0,0E0,0E0],"parents":[2147483647,0,0,1,1,2,2,3,3,4,4,5,5,6,6],"right_children":[2,4,6,8,10,12,14,-1,-1,-1,-1,-1,-1,-1,-1],"split_conditions":[6.04773E1,1.3218134E-2,2E0,-1.2850596E-1,-6.0941827E-2,1.3675214E-1,2.05E0,-1.9372597E-2,-4.55664E-3,-6.8042153E-3,2.5102047E-2,-5.583337E-2,2.1291148E-2,-6.2417228E-2,1.07222805E-2],"split_indices":[20,137,39,143,119,125,22,0,0,0,0,0,0,0,0],"split_type":[0,0,0,0,0,0,0,0,0,0,0,0,0,0,0],"sum_hessian":[9.491548E3,9.374079E3,1.17468124E2,9.118775E3,2.5530386E2,4.991901E1,6.754911E1,3.5672815E2,8.762047E3,1.1731384E2,1.3799002E2,1.2762243E1,3.715677E1,5.2953407E1,1.4595704E1],"tree_param":{"num_deleted":"0","num_feature":"146","num_nodes":"15","size_leaf_vector":"1"}},{"base_weights":[-6.0649578E-2,-4.943354E-2,-4.0704986E-1,-7.2060823E-1,-4.679187E-2,-9.809902E-2,-5.933023E-1,3.568529E-3,-7.972696E-2,6.8026343E-3,-3.6251463E-3,2.9134168E-3,-8.551169E-2,7.8958105E-3,-4.1932747E-2],"categories":[],"categories_nodes":[],"categories_segments":[],"categories_sizes":[],"default_left":[0,0,0,0,0,0,0,0,0,0,0,0,0,0,0],"id":18,"left_children":[1,3,5,7,9,11,13,-1,-1,-1,-1,-1,-1,-1,-1],"loss_changes":[3.652455E1,1.562595E1,1.636023E1,1.7007542E1,1.8231134E1,2.282117E1,1.2877106E1,0E0,0E0,0E0,0E0,0E0,0E0,0E0,0E0],"parents":[2147483647,0,0,1,1,2,2,3,3,4,4,5,5,6,6],"right_children":[2,4,6,8,10,12,14,-1,-1,-1,-1,-1,-1,-1,-1],"split_conditions":[8.5E2,-4.228675E-1,1.8291416E-2,-1.8032786E-1,-2.3076923E-1,2.8636363E0,-2.5E-1,3.568529E-3,-7.972696E-2,6.8026343E-3,-3.6251463E-3,2.9134168E-3,-8.551169E-2,7.8958105E-3,-4.1932747E-2],"split_indices":[1,31,31,72,30,90,18,0,0,0,0,0,0,0,0],"split_type":[0,0,0,0,0,0,0,0,0,0,0,0,0,0,0],"sum_hessian":[9.509408E3,9.214167E3,2.9524164E2,3.4328957E1,9.179838E3,1.131202E2,1.8212143E2,1.4220771E1,2.0108187E1,6.707538E2,8.509084E3,1.01465675E2,1.165453E1,1.9732311E1,1.6238911E2],"tree_param":{"num_deleted":"0","num_feature":"146","num_nodes":"15","size_leaf_vector":"1"}},{"base_weights":[-6.473789E-2,-1.0741484E-1,-1.6343482E-2,-8.0669634E-2,-2.3470044E-1,1.3687453E-1,-4.626328E-2,5.0257063E-3,-6.300537E-3,-2.2154253E-2,-4.252527E-3,-2.3781294E-2,1.09148985E-2,-1.1425193E-2,-1.1239307E-3],"categories":[],"categories_nodes":[],"categories_segments":[],"categories_sizes":[],"default_left":[0,0,1,0,0,1,0,0,0,0,0,0,0,0,0],"id":19,"left_children":[1,3,5,7,9,11,13,-1,-1,-1,-1,-1,-1,-1,-1],"loss_changes":[1.9468014E1,1.6822197E1,2.0335527E1,1.5300018E1,1.793348E1,1.577555E1,1.4451625E1,0E0,0E0,0E0,0E0,0E0,0E0,0E0,0E0],"parents":[2147483647,0,0,1,1,2,2,3,3,4,4,5,5,6,6],"right_children":[2,4,6,8,10,12,14,-1,-1,-1,-1,-1,-1,-1,-1],"split_conditions":[-9.627611E-2,9.2505354E-1,-3.0769232E-1,6.7241377E-1,1.0625E0,-2E0,1.25E0,5.0257063E-3,-6.300537E-3,-2.2154253E-2,-4.252527E-3,-2.3781294E-2,1.09148985E-2,-1.1425193E-2,-1.1239307E-3],"split_indices":[119,129,25,126,98,53,12,0,0,0,0,0,0,0,0],"split_type":[0,0,0,0,0,0,0,0,0,0,0,0,0,0,0],"sum_hessian":[9.480532E3,5.027607E3,4.4529253E3,4.1611025E3,8.6650433E2,7.222802E2,3.7306448E3,5.0020776E2,3.660895E3,4.843857E2,3.8211862E2,5.1394974E1,6.7088525E2,6.1012634E2,3.1205186E3],"tree_param":{"num_deleted":"0","num_feature":"146","num_nodes":"15","size_leaf_vector":"1"}},{"base_weights":[-4.4597574E-2,-5.342317E-2,2.2170639E-1,1.6416445E-3,-8.262427E-2,3.2939833E-1,-9.90465E-2,-3.20605E-3,4.5004E-3,-4.248622E-2,-4.7477796E-3,-1.0394227E-1,2.1878893E-2,9.21002E-3,-5.759679E-2],"categories":[],"categories_nodes":[],"categories_segments":[],"categories_sizes":[],"default_left":[0,0,0,0,0,0,0,0,0,0,0,0,0,0,0],"id":20,"left_children":[1,3,5,7,9,11,13,-1,-1,-1,-1,-1,-1,-1,-1],"loss_changes":[2.2329948E1,1.4964546E1,1.0709046E1,1.2504818E1,1.735019E1,1.253083E1,1.6499252E1,0E0,0E0,0E0,0E0,0E0,0E0,0E0,0E0],"parents":[2147483647,0,0,1,1,2,2,3,3,4,4,5,5,6,6],"right_children":[2,4,6,8,10,12,14,-1,-1,-1,-1,-1,-1,-1,-1],"split_conditions":[1.02564104E-1,3.809524E-1,1.1014493E0,5.9E2,3.0769232E-1,-4E0,1.25E0,-3.20605E-3,4.5004E-3,-4.248622E-2,-4.7477796E-3,-1.0394227E-1,2.1878893E-2,9.21002E-3,-5.759679E-2],"split_indices":[119,35,96,1,129,42,49,0,0,0,0,0,0,0,0],"split_type":[0,0,0,0,0,0,0,0,0,0,0,0,0,0,0],"sum_hessian":[9.563491E3,9.260342E3,3.0314954E2,3.1983826E3,6.061959E3,2.290646E2,7.408492E1,1.8190503E3,1.3793324E3,4.5746643E1,6.0162124E3,2.436864E0,2.2662775E2,5.6599716E1,1.7485207E1],"tree_param":{"num_deleted":"0","num_feature":"146","num_nodes":"15","size_leaf_vector":"1"}},{"base_weights":[-5.629588E-2,-6.149618E-2,2.6991788E-1,-5.55656E-2,-3.767068E-1,-2.765184E-1,4.0618172E-1,-2.9926363E-3,-1.4418478E-2,-1.7211378E-2,-8.781168E-2,-3.831268E-2,3.1688485E-2,1.5960059E-3,3.6053613E-2],"categories":[],"categories_nodes":[],"categories_segments":[],"categories_sizes":[],"default_left":[0,0,0,0,0,1,0,0,0,0,0,0,0,0,0],"id":21,"left_children":[1,3,5,7,9,11,13,-1,-1,-1,-1,-1,-1,-1,-1],"loss_changes":[1.6013464E1,1.7171394E1,1.1121004E1,1.065452E1,1.5445934E1,8.133068E0,7.788357E0,0E0,0E0,0E0,0E0,0E0,0E0,0E0,0E0],"parents":[2147483647,0,0,1,1,2,2,3,3,4,4,5,5,6,6],"right_children":[2,4,6,8,10,12,14,-1,-1,-1,-1,-1,-1,-1,-1],"split_conditions":[1.5730338E-1,4.98513E1,1.9930984E-1,5.5E0,5.083799E-1,2.997023E0,5.3614455E-1,-2.9926363E-3,-1.4418478E-2,-1.7211378E-2,-8.781168E-2,-3.831268E-2,3.1688485E-2,1.5960059E-3,3.6053613E-2],"split_indices":[119,20,136,19,134,59,128,0,0,0,0,0,0,0,0],"split_type":[0,0,0,0,0,0,0,0,0,0,0,0,0,0,0],"sum_hessian":[9.546803E3,9.400079E3,1.4672406E2,9.2298E3,1.7027943E2,2.7867935E1,1.1885613E2,8.912105E3,3.17694E2,1.5759035E2,1.268908E1,2.0190788E1,7.6771464E0,4.058608E1,7.827006E1],"tree_param":{"num_deleted":"0","num_feature":"146","num_nodes":"15","size_leaf_vector":"1"}},{"base_weights":[-4.8734073E-2,-1.5286338E-1,-3.602763E-2,8.904273E-3,-2.4033917E-1,-3.8953036E-2,4.4670984E-1,-1.3940968E-2,1.3461172E-2,-6.252987E-2,-1.2583835E-2,2.1701502E-3,-3.2657732E-3,3.8037207E-2,-4.2859E-2],"categories":[],"categories_nodes":[],"categories_segments":[],"categories_sizes":[],"default_left":[0,1,0,0,0,0,0,0,0,0,0,0,0,0,0],"id":22,"left_children":[1,3,5,7,9,11,13,-1,-1,-1,-1,-1,-1,-1,-1],"loss_changes":[1.2355711E1,1.4673155E1,1.1567348E1,1.78543E1,1.668969E1,9.112941E0,1.0043759E1,0E0,0E0,0E0,0E0,0E0,0E0,0E0,0E0],"parents":[2147483647,0,0,1,1,2,2,3,3,4,4,5,5,6,6],"right_children":[2,4,6,8,10,12,14,-1,-1,-1,-1,-1,-1,-1,-1],"split_conditions":[1.6959456E-1,-6.25E-2,6.75E0,-5.671642E-2,1.3921226E-3,4.3657818E-1,1.6981132E-1,-1.3940968E-2,1.3461172E-2,-6.252987E-2,-1.2583835E-2,2.1701502E-3,-3.2657732E-3,3.8037207E-2,-4.2859E-2],"split_indices":[136,40,7,36,143,79,124,0,0,0,0,0,0,0,0],"split_type":[0,0,0,0,0,0,0,0,0,0,0,0,0,0,0],"sum_hessian":[9.469467E3,1.02156714E3,8.447899E3,3.550191E2,6.6654803E2,8.399268E3,4.8632175E1,1.6531682E2,1.897023E2,2.6275932E1,6.402721E2,1.3609852E3,7.038282E3,4.3013725E1,5.6184473E0],"tree_param":{"num_deleted":"0","num_feature":"146","num_nodes":"15","size_leaf_vector":"1"}},{"base_weights":[-4.6753854E-2,-1.0715262E-1,-1.7122298E-2,1.1333116E-2,-1.3945198E-1,-2.022312E-2,7.044298E-1,2.673527E-3,-4.7325075E-2,-2.0514641E-2,-6.647813E-3,2.6583804E-3,-3.3589425E-3,5.7988446E-2,-4.239532E-2],"categories":[],"categories_nodes":[],"categories_segments":[],"categories_sizes":[],"default_left":[0,1,0,0,0,1,0,0,0,0,0,0,0,0,0],"id":23,"left_children":[1,3,5,7,9,11,13,-1,-1,-1,-1,-1,-1,-1,-1],"loss_changes":[1.6956848E1,1.2092297E1,1.37246E1,1.631413E1,1.439061E1,1.4173427E1,9.493891E0,0E0,0E0,0E0,0E0,0E0,0E0,0E0,0E0],"parents":[2147483647,0,0,1,1,2,2,3,3,4,4,5,5,6,6],"right_children":[2,4,6,8,10,12,14,-1,-1,-1,-1,-1,-1,-1,-1],"split_conditions":[-2.5E-1,-8.3333336E-2,7.692308E-1,6.369863E0,2.0689656E-1,2.580645E-1,2.5E0,2.673527E-3,-4.7325075E-2,-2.0514641E-2,-6.647813E-3,2.6583804E-3,-3.3589425E-3,5.7988446E-2,-4.239532E-2],"split_indices":[4,30,71,76,30,40,8,0,0,0,0,0,0,0,0],"split_type":[0,0,0,0,0,0,0,0,0,0,0,0,0,0,0],"sum_hessian":[9.537774E3,3.128697E3,6.409077E3,6.642209E2,2.4644763E3,6.3833115E3,2.5765392E1,6.3938544E2,2.483543E1,3.271495E2,2.1373267E3,2.244155E3,4.1391567E3,2.2587818E1,3.1775753E0],"tree_param":{"num_deleted":"0","num_feature":"146","num_nodes":"15","size_leaf_vector":"1"}},{"base_weights":[-4.971598E-2,-2.5253734E-1,-4.2006917E-2,-3.228852E-1,4.3554658E-1,2.4847064E-2,-6.9670685E-2,-1.34460125E-2,-3.740244E-2,7.846216E-2,8.327033E-3,1.6188908E-2,-2.8171568E-4,-4.9000564E-3,1.044168E-2],"categories":[],"categories_nodes":[],"categories_segments":[],"categories_sizes":[],"default_left":[0,0,0,0,0,0,0,0,0,0,0,0,0,0,0],"id":24,"left_children":[1,3,5,7,9,11,13,-1,-1,-1,-1,-1,-1,-1,-1],"loss_changes":[1.4707693E1,1.6724714E1,1.7120283E1,8.576553E0,6.54143E0,1.9306515E1,1.6589977E1,0E0,0E0,0E0,0E0,0E0,0E0,0E0,0E0],"parents":[2147483647,0,0,1,1,2,2,3,3,4,4,5,5,6,6],"right_children":[2,4,6,8,10,12,14,-1,-1,-1,-1,-1,-1,-1,-1],"split_conditions":[1.789061E-2,4E0,-1.1111111E-1,4.827586E-1,1.5124945E-1,0E0,5.724138E-1,-1.34460125E-2,-3.740244E-2,7.846216E-2,8.327033E-3,1.6188908E-2,-2.8171568E-4,-4.9000564E-3,1.044168E-2],"split_indices":[138,51,100,47,70,6,100,0,0,0,0,0,0,0,0],"split_type":[0,0,0,0,0,0,0,0,0,0,0,0,0,0,0],"sum_hessian":[9.580198E3,3.4599695E2,9.234201E3,3.1530426E2,3.0692682E1,2.693091E3,6.541111E3,2.3567062E2,7.9633644E1,6.8429103E0,2.3849771E1,2.97117E2,2.3959739E3,6.269439E3,2.7167194E2],"tree_param":{"num_deleted":"0","num_feature":"146","num_nodes":"15","size_leaf_vector":"1"}},{"base_weights":[-2.0250041E-2,-1.0179373E-2,-2.01286E-1,-3.2304153E-2,6.3185975E-2,-5.915729E-1,-1.1466162E-1,3.4417387E-4,-5.524736E-3,-6.530826E-3,7.5962474E-3,-5.988511E-4,-5.3932752E-2,-3.7778537E-3,-4.5827266E-2],"categories":[],"categories_nodes":[],"categories_segments":[],"categories_sizes":[],"default_left":[0,0,1,0,0,0,1,0,0,0,0,0,0,0,0],"id":25,"left_children":[1,3,5,7,9,11,13,-1,-1,-1,-1,-1,-1,-1,-1],"loss_changes":[1.729636E1,1.47319E1,1.625873E1,1.55207405E1,2.1872633E1,1.4282219E1,1.3078951E1,0E0,0E0,0E0,0E0,0E0,0E0,0E0,0E0],"parents":[2147483647,0,0,1,1,2,2,3,3,4,4,5,5,6,6],"right_children":[2,4,6,8,10,12,14,-1,-1,-1,-1,-1,-1,-1,-1],"split_conditions":[8.4E2,5.555556E-1,4.722222E-1,1.5393258E0,2.0707602E1,2.3103449E-1,4.007782E-1,3.4417387E-4,-5.524736E-3,-6.530826E-3,7.5962474E-3,-5.988511E-4,-5.3932752E-2,-3.7778537E-3,-4.5827266E-2],"split_indices":[2,128,97,89,57,104,114,0,0,0,0,0,0,0,0],"split_type":[0,0,0,0,0,0,0,0,0,0,0,0,0,0,0],"sum_hessian":[9.592555E3,9.092235E3,5.0031946E2,6.995291E3,2.0969438E3,8.8527084E1,4.1179236E2,4.22496E3,2.770331E3,5.50898E2,1.5460459E3,3.0754196E1,5.777289E1,3.8197476E2,2.9817604E1],"tree_param":{"num_deleted":"0","num_feature":"146","num_nodes":"15","size_leaf_vector":"1"}},{"base_weights":[-2.749317E-2,-3.8825944E-2,1.03636794E-1,-5.2637078E-2,5.3412594E-2,5.3830575E-2,4.4352138E-1,-2.187563E-3,-9.43749E-3,8.42123E-3,-5.223987E-3,4.9704686E-4,2.8482303E-2,-9.6441105E-2,3.074165E-2],"categories":[],"categories_nodes":[],"categories_segments":[],"categories_sizes":[],"default_left":[1,1,0,0,0,1,0,0,0,0,0,0,0,0,0],"id":26,"left_children":[1,3,5,7,9,11,13,-1,-1,-1,-1,-1,-1,-1,-1],"loss_changes":[1.4115389E1,1.1191888E1,1.2274657E1,1.2931013E1,1.3392294E1,1.1992938E1,1.073414E1,0E0,0E0,0E0,0E0,0E0,0E0,0E0,0E0],"parents":[2147483647,0,0,1,1,2,2,3,3,4,4,5,5,6,6],"right_children":[2,4,6,8,10,12,14,-1,-1,-1,-1,-1,-1,-1,-1],"split_conditions":[7E0,1.9523809E0,1.6E0,7.3758066E-2,2.75E0,2.2222223E0,1.5E0,-2.187563E-3,-9.43749E-3,8.42123E-3,-5.223987E-3,4.9704686E-4,2.8482303E-2,-9.6441105E-2,3.074165E-2],"split_indices":[39,90,25,142,14,98,14,0,0,0,0,0,0,0,0],"split_type":[0,0,0,0,0,0,0,0,0,0,0,0,0,0,0],"sum_hessian":[9.536587E3,8.784612E3,7.5197424E2,7.649297E3,1.1353153E3,6.586202E2,9.335407E1,6.5747046E3,1.074592E3,7.1005084E2,4.252645E2,5.953359E2,6.328434E1,1.9466782E0,9.1407394E1],"tree_param":{"num_deleted":"0","num_feature":"146","num_nodes":"15","size_leaf_vector":"1"}},{"base_weights":[-2.9712982E-2,-2.4171637E-2,-2.534281E-1,-3.0280078E-2,2.542998E-1,-1.9245805E-1,-1.2431542E-1,-3.9847646E-2,-1.6673342E-3,-4.309578E-2,2.0527914E-2,-9.655942E-4,-3.1781904E-2],"categories":[],"categories_nodes":[],"categories_segments":[],"categories_sizes":[],"default_left":[1,0,0,0,0,0,0,0,0,0,0,0,0],"id":27,"left_children":[1,3,5,7,9,11,-1,-1,-1,-1,-1,-1,-1],"loss_changes":[1.1686803E1,1.5796838E1,2.2681427E1,1.6399704E1,1.5393121E1,1.2387182E1,0E0,0E0,0E0,0E0,0E0,0E0,0E0],"parents":[2147483647,0,0,1,1,2,2,3,3,4,4,5,5],"right_children":[2,4,6,8,10,12,-1,-1,-1,-1,-1,-1,-1],"split_conditions":[5.996279E0,1.5567553E-2,6.003185E-1,-6.23147E1,2.6E2,8.158E-1,-1.2431542E-1,-3.9847646E-2,-1.6673342E-3,-4.309578E-2,2.0527914E-2,-9.655942E-4,-3.1781904E-2],"split_indices":[59,137,116,20,1,24,0,0,0,0,0,0,0],"split_type":[0,0,0,0,0,0,0,0,0,0,0,0,0],"sum_hessian":[9.63247E3,9.404062E3,2.2840831E2,9.205765E3,1.9829674E2,2.2179602E2,6.612285E0,4.1854797E1,9.163909E3,1.4465698E1,1.8383104E2,1.4625888E2,7.553715E1],"tree_param":{"num_deleted":"0","num_feature":"146","num_nodes":"13","size_leaf_vector":"1"}},{"base_weights":[-3.783698E-2,-6.1873753E-2,3.2289814E-2,-4.973425E-1,-5.4256227E-2,-4.4308282E-2,1.3289508E-1,-4.082079E-2,8.8598635E-3,-1.0093417E-3,-7.311652E-3,3.4578843E-4,-1.7161554E-2,1.0825468E-2,-6.0140393E-3],"categories":[],"categories_nodes":[],"categories_segments":[],"categories_sizes":[],"default_left":[0,0,0,0,0,0,0,0,0,0,0,0,0,0,0],"id":28,"left_children":[1,3,5,7,9,11,13,-1,-1,-1,-1,-1,-1,-1,-1],"loss_changes":[1.6019447E1,2.2957037E1,1.8673092E1,1.3667271E1,1.7063086E1,1.6399149E1,1.08488865E1,0E0,0E0,0E0,0E0,0E0,0E0,0E0,0E0],"parents":[2147483647,0,0,1,1,2,2,3,3,4,4,5,5,6,6],"right_children":[2,4,6,8,10,12,14,-1,-1,-1,-1,-1,-1,-1,-1],"split_conditions":[5.4959786E-1,1.6304348E-2,2.7907077E-2,7E2,4.25E0,3.4558823E0,3.3116883E-1,-4.082079E-2,8.8598635E-3,-1.0093417E-3,-7.311652E-3,3.4578843E-4,-1.7161554E-2,1.0825468E-2,-6.0140393E-3],"split_indices":[128,83,143,1,44,76,111,0,0,0,0,0,0,0,0],"split_type":[0,0,0,0,0,0,0,0,0,0,0,0,0,0,0],"sum_hessian":[9.486714E3,7.074767E3,2.411946E3,1.1911519E2,6.9556523E3,1.3643588E3,1.0475874E3,9.5150795E1,2.3964394E1,4.422735E3,2.5329175E3,1.1237561E3,2.4060265E2,8.822807E2,1.653067E2],"tree_param":{"num_deleted":"0","num_feature":"146","num_nodes":"15","size_leaf_vector":"1"}},{"base_weights":[-2.029798E-2,-8.041157E-3,-1.7160992E-1,-2.8940067E-3,-3.400021E-1,-4.4085436E-2,-3.4171382E-1,1.5043923E-2,-5.9486995E-4,-6.1409045E-2,-4.823066E-3,-7.3880204E-3,1.9803666E-2,-2.6350774E-2,2.1074614E-2],"categories":[],"categories_nodes":[],"categories_segments":[],"categories_sizes":[],"default_left":[0,0,0,0,0,0,0,0,0,0,0,0,0,0,0],"id":29,"left_children":[1,3,5,7,9,11,13,-1,-1,-1,-1,-1,-1,-1,-1],"loss_changes":[1.760087E1,1.4838437E1,1.5092152E1,1.469986E1,2.2038246E1,1.1467515E1,1.8786892E1,0E0,0E0,0E0,0E0,0E0,0E0,0E0,0E0],"parents":[2147483647,0,0,1,1,2,2,3,3,4,4,5,5,6,6],"right_children":[2,4,6,8,10,12,14,-1,-1,-1,-1,-1,-1,-1,-1],"split_conditions":[1.0777E0,2.9722074E-1,3.75E0,-5.75E0,2.9813665E-1,2.5E0,7.463768E-1,1.5043923E-2,-5.9486995E-4,-6.1409045E-2,-4.823066E-3,-7.3880204E-3,1.9803666E-2,-2.6350774E-2,2.1074614E-2],"split_indices":[24,41,34,144,130,11,134,0,0,0,0,0,0,0,0],"split_type":[0,0,0,0,0,0,0,0,0,0,0,0,0,0,0],"sum_hessian":[9.578321E3,8.866547E3,7.1177435E2,8.73428E3,1.322671E2,4.1015665E2,3.016177E2,2.2961128E2,8.504669E3,3.5932228E1,9.633488E1,3.4159058E2,6.856606E1,2.6802673E2,3.359098E1],"tree_param":{"num_deleted":"0","num_feature":"146","num_nodes":"15","size_leaf_vector":"1"}},{"base_weights":[-3.0314764E-2,-2.3410049E-1,-1.945043E-2,-1.1307653E-1,-4.7050798E-1,-2.1024559E-2,1.0592029E0,2.3019794E-2,-1.3080567E-2,-4.2058855E-2,-1.2323889E-3,-6.491016E-3,-1.1475632E-5,-0E0,8.1438236E-2],"categories":[],"categories_nodes":[],"categories_segments":[],"categories_sizes":[],"default_left":[0,1,0,1,1,0,1,0,0,0,0,0,0,0,0],"id":30,"left_children":[1,3,5,7,9,11,13,-1,-1,-1,-1,-1,-1,-1,-1],"loss_changes":[2.0846226E1,1.3111982E1,1.4420734E1,1.5701723E1,1.4988132E1,1.5953437E1,4.728757E0,0E0,0E0,0E0,0E0,0E0,0E0,0E0,0E0],"parents":[2147483647,0,0,1,1,2,2,3,3,4,4,5,5,6,6],"right_children":[2,4,6,8,10,12,14,-1,-1,-1,-1,-1,-1,-1,-1],"split_conditions":[4.2471044E-2,6.5217394E-1,6.25E0,-8.75E0,6.666667E-2,2.3E2,2.8E-1,2.3019794E-2,-1.3080567E-2,-4.2058855E-2,-1.2323889E-3,-6.491016E-3,-1.1475632E-5,-0E0,8.1438236E-2],"split_indices":[83,45,6,144,121,1,45,0,0,0,0,0,0,0,0],"split_type":[0,0,0,0,0,0,0,0,0,0,0,0,0,0,0],"sum_hessian":[9.520206E3,4.7718713E2,9.04302E3,3.1856705E2,1.5862012E2,9.031093E3,1.1926554E1,5.2773174E1,2.6579385E2,1.0531391E2,5.3306202E1,1.7642476E3,7.266845E3,1.902438E0,1.0024116E1],"tree_param":{"num_deleted":"0","num_feature":"146","num_nodes":"15","size_leaf_vector":"1"}},{"base_weights":[-2.1102803E-2,-1.5300076E-2,-3.1756538E-1,-1.1380737E-2,-3.4477076E-1,-1.6974507E-1,-7.441688E-1,-1.4058981E-3,5.4410435E-3,-2.9358821E-2,4.8608642E-2,-5.2115927E-3,-9.044738E-2,-0E0,-6.405661E-2],"categories":[],"categories_nodes":[],"categories_segments":[],"categories_sizes":[],"default_left":[0,0,0,1,0,0,0,0,0,0,0,0,0,0,0],"id":31,"left_children":[1,3,5,7,9,11,13,-1,-1,-1,-1,-1,-1,-1,-1],"loss_changes":[1.614032E1,1.1786193E1,1.0498003E1,1.0792886E1,1.6567768E1,1.3594474E1,1.0658976E1,0E0,0E0,0E0,0E0,0E0,0E0,0E0,0E0],"parents":[2147483647,0,0,1,1,2,2,3,3,4,4,5,5,6,6],"right_children":[2,4,6,8,10,12,14,-1,-1,-1,-1,-1,-1,-1,-1],"split_conditions":[4.98513E1,1.0694444E0,1.5878378E-1,2.1818182E0,3E0,4E0,6.614786E-2,-1.4058981E-3,5.4410435E-3,-2.9358821E-2,4.8608642E-2,-5.2115927E-3,-9.044738E-2,-0E0,-6.405661E-2],"split_indices":[20,69,41,90,55,7,118,0,0,0,0,0,0,0,0],"split_type":[0,0,0,0,0,0,0,0,0,0,0,0,0,0,0],"sum_hessian":[9.558982E3,9.378913E3,1.800692E2,9.271809E3,1.0710428E2,1.3574763E2,4.4321564E1,8.31734E3,9.544689E2,9.661856E1,1.0485712E1,1.2861191E2,7.1357303E0,1.2547427E1,3.1774136E1],"tree_param":{"num_deleted":"0","num_feature":"146","num_nodes":"15","size_leaf_vector":"1"}},{"base_weights":[-3.94256E-2,-2.913375E-2,-1.846634E-1,-2.0993214E-2,-1.9935961E-1,-1.3777752E-1,-6.7934114E-1,-2.4424873E-3,3.4884373E-3,5.5076713E-3,-2.0448977E-2,-1.2316811E-2,2.768672E-2,-9.249989E-3,-6.770492E-2],"categories":[],"categories_nodes":[],"categories_segments":[],"categories_sizes":[],"default_left":[1,1,0,1,0,1,1,0,0,0,0,0,0,0,0],"id":32,"left_children":[1,3,5,7,9,11,13,-1,-1,-1,-1,-1,-1,-1,-1],"loss_changes":[1.405705E1,1.2146234E1,1.3715815E1,1.2625498E1,1.5998184E1,2.1482788E1,1.0649822E1,0E0,0E0,0E0,0E0,0E0,0E0,0E0,0E0],"parents":[2147483647,0,0,1,1,2,2,3,3,4,4,5,5,6,6],"right_children":[2,4,6,8,10,12,14,-1,-1,-1,-1,-1,-1,-1,-1],"split_conditions":[1.4731781E0,1.2606758E-1,3.75E0,8.684211E-1,2.5E0,6.75E0,2.608582E-4,-2.4424873E-3,3.4884373E-3,5.5076713E-3,-2.0448977E-2,-1.2316811E-2,2.768672E-2,-9.249989E-3,-6.770492E-2],"split_indices":[139,142,5,65,44,39,54,0,0,0,0,0,0,0,0],"split_type":[0,0,0,0,0,0,0,0,0,0,0,0,0,0,0],"sum_hessian":[9.535293E3,8.910629E3,6.2466425E2,8.509498E3,4.0113065E2,5.7275104E2,5.1913204E1,6.853625E3,1.6558734E3,1.2581859E2,2.7531207E2,5.1848047E2,5.427056E1,2.4495863E1,2.7417343E1],"tree_param":{"num_deleted":"0","num_feature":"146","num_nodes":"15","size_leaf_vector":"1"}},{"base_weights":[-1.714713E-2,-8.7601125E-2,6.929462E-3,-3.8611207E-2,-2.2923139E-1,2.5255129E-2,-1.5021025E-1,-3.214627E-3,3.2008477E-2,2.2820123E-3,-2.1784462E-2,7.171616E-3,-7.7657634E-5,-2.7595548E-2,-2.9928593E-3],"categories":[],"categories_nodes":[],"categories_segments":[],"categories_sizes":[],"default_left":[0,0,1,0,0,1,0,0,0,0,0,0,0,0,0],"id":33,"left_children":[1,3,5,7,9,11,13,-1,-1,-1,-1,-1,-1,-1,-1],"loss_changes":[1.6369648E1,1.6796991E1,2.0480099E1,1.4048023E1,2.1602562E1,1.57830715E1,2.218435E1,0E0,0E0,0E0,0E0,0E0,0E0,0E0,0E0],"parents":[2147483647,0,0,1,1,2,2,3,3,4,4,5,5,6,6],"right_children":[2,4,6,8,10,12,14,-1,-1,-1,-1,-1,-1,-1,-1],"split_conditions":[2.8301887E-2,1.2269938E-2,-1E0,8.346056E-1,-4.812834E-2,-6.25E-2,3.1182796E-1,-3.214627E-3,3.2008477E-2,2.2820123E-3,-2.1784462E-2,7.171616E-3,-7.7657634E-5,-2.7595548E-2,-2.9928593E-3],"split_indices":[114,114,144,122,72,40,104,0,0,0,0,0,0,0,0],"split_type":[0,0,0,0,0,0,0,0,0,0,0,0,0,0,0],"sum_hessian":[9.606452E3,2.4560635E3,7.150388E3,1.830013E3,6.260506E2,6.4090947E3,7.412938E2,1.7874222E3,4.2590687E1,2.0039984E2,4.2565073E2,1.4392397E3,4.969855E3,1.835344E2,5.577594E2],"tree_param":{"num_deleted":"0","num_feature":"146","num_nodes":"15","size_leaf_vector":"1"}},{"base_weights":[-1.2420494E-2,-2.6453841E-2,1.3800198E-1,6.1003983E-2,-4.8284147E-2,9.763901E-2,5.369692E-1,5.8767716E-3,-1.9288605E-2,-4.4613453E-3,1.907238E-3,2.0989452E-3,1.85758E-2,6.528046E-2,1.2933131E-2],"categories":[],"categories_nodes":[],"categories_segments":[],"categories_sizes":[],"default_left":[0,0,1,0,0,0,0,0,0,0,0,0,0,0,0],"id":34,"left_children":[1,3,5,7,9,11,13,-1,-1,-1,-1,-1,-1,-1,-1],"loss_changes":[2.0022411E1,1.6647484E1,1.2412154E1,2.2860428E1,1.3818075E1,9.31152E0,1.1212275E1,0E0,0E0,0E0,0E0,0E0,0E0,0E0,0E0],"parents":[2147483647,0,0,1,1,2,2,3,3,4,4,5,5,6,6],"right_children":[2,4,6,8,10,12,14,-1,-1,-1,-1,-1,-1,-1,-1],"split_conditions":[6.2924284E-1,6.9907284E0,1.4074074E0,1.0153E0,9.1714E0,4.457114E-3,1.1764706E-1,5.8767716E-3,-1.9288605E-2,-4.4613453E-3,1.907238E-3,2.0989452E-3,1.85758E-2,6.528046E-2,1.2933131E-2],"split_indices":[127,58,30,24,20,137,82,0,0,0,0,0,0,0,0],"split_type":[0,0,0,0,0,0,0,0,0,0,0,0,0,0,0],"sum_hessian":[9.532006E3,8.724464E3,8.0754224E2,1.7342435E3,6.99022E3,7.358922E2,7.164998E1,1.5884202E3,1.4582343E2,5.337896E3,1.6523241E3,5.671301E2,1.6876208E2,2.5748434E1,4.590155E1],"tree_param":{"num_deleted":"0","num_feature":"146","num_nodes":"15","size_leaf_vector":"1"}},{"base_weights":[-3.1198343E-2,-1.4467262E-2,-1.053016E-1,-5.5276364E-2,3.3232134E-2,-6.1678195E-1,-8.28678E-2,-5.191931E-3,7.2241696E-3,6.1485876E-4,1.3318382E-2,-1.2622106E-1,-2.6956107E-2,-1.0130407E-2,1.8029278E-3],"categories":[],"categories_nodes":[],"categories_segments":[],"categories_sizes":[],"default_left":[1,1,0,1,0,0,1,0,0,0,0,0,0,0,0],"id":35,"left_children":[1,3,5,7,9,11,13,-1,-1,-1,-1,-1,-1,-1,-1],"loss_changes":[1.1680942E1,1.5142956E1,1.932602E1,2.1657738E1,1.5088987E1,1.5493029E1,1.5720937E1,0E0,0E0,0E0,0E0,0E0,0E0,0E0,0E0],"parents":[2147483647,0,0,1,1,2,2,3,3,4,4,5,5,6,6],"right_children":[2,4,6,8,10,12,14,-1,-1,-1,-1,-1,-1,-1,-1],"split_conditions":[4.347826E0,4.7692308E-1,-1.3710563E-1,1.5384616E0,1.4140028E-1,6.355353E-1,9.137931E-1,-5.191931E-3,7.2241696E-3,6.1485876E-4,1.3318382E-2,-1.2622106E-1,-2.6956107E-2,-1.0130407E-2,1.8029278E-3],"split_indices":[96,93,143,98,41,73,98,0,0,0,0,0,0,0,0],"split_type":[0,0,0,0,0,0,0,0,0,0,0,0,0,0,0],"sum_hessian":[9.509338E3,7.768197E3,1.7411409E3,4.1967065E3,3.5714902E3,7.0990295E1,1.6701506E3,3.587196E3,6.095105E2,3.178679E3,3.9281125E2,6.607432E0,6.438286E1,9.649809E2,7.0516974E2],"tree_param":{"num_deleted":"0","num_feature":"146","num_nodes":"15","size_leaf_vector":"1"}},{"base_weights":[-1.7531188E-2,-2.2366751E-2,2.942867E-1,-1.3874424E-2,-1.868064E-1,1.9031768E-1,9.861418E-1,-1.1398658E-3,1.5570712E-2,1.7117092E-2,-1.4289548E-2,1.4573178E-2,-9.737995E-2,-6.972198E-2,7.528044E-2],"categories":[],"categories_nodes":[],"categories_segments":[],"categories_sizes":[],"default_left":[0,0,1,1,1,0,0,0,0,0,0,0,0,0,0],"id":36,"left_children":[1,3,5,7,9,11,13,-1,-1,-1,-1,-1,-1,-1,-1],"loss_changes":[1.4172653E1,1.2969646E1,9.150581E0,1.1342593E1,1.0075527E1,9.8181095E0,9.844862E0,0E0,0E0,0E0,0E0,0E0,0E0,0E0,0E0],"parents":[2147483647,0,0,1,1,2,2,3,3,4,4,5,5,6,6],"right_children":[2,4,6,8,10,12,14,-1,-1,-1,-1,-1,-1,-1,-1],"split_conditions":[2.96E1,5.327869E-1,1.1723788E-3,2.5934613E-1,-1.375E0,2.75E0,1.04761906E-1,-1.1398658E-3,1.5570712E-2,1.7117092E-2,-1.4289548E-2,1.4573178E-2,-9.737995E-2,-6.972198E-2,7.528044E-2],"split_indices":[96,82,52,142,35,38,116,0,0,0,0,0,0,0,0],"split_type":[0,0,0,0,0,0,0,0,0,0,0,0,0,0,0],"sum_hessian":[9.561167E3,9.418413E3,1.4275372E2,8.961583E3,4.568304E2,1.2570991E2,1.7043814E1,8.808285E3,1.532982E2,3.9993572E1,4.1683685E2,1.232423E2,2.4676068E0,1.23108E0,1.5812734E1],"tree_param":{"num_deleted":"0","num_feature":"146","num_nodes":"15","size_leaf_vector":"1"}},{"base_weights":[-2.3749528E-2,-8.194622E-2,2.6355793E-3,-1.5294738E-1,-0E0,-5.404456E-1,7.3840157E-3,9.100829E-3,-1.1643645E-2,1.3706165E-3,-3.1346902E-2,4.9446072E-2,-4.7229704E-2,4.4963593E-3,-1.9251319E-3],"categories":[],"categories_nodes":[],"categories_segments":[],"categories_sizes":[],"default_left":[0,0,0,0,1,0,0,0,0,0,0,0,0,0,0],"id":37,"left_children":[1,3,5,7,9,11,13,-1,-1,-1,-1,-1,-1,-1,-1],"loss_changes":[1.4717506E1,1.726099E1,1.6413445E1,1.8238976E1,1.6402464E1,1.7584858E1,1.6792759E1,0E0,0E0,0E0,0E0,0E0,0E0,0E0,0E0],"parents":[2147483647,0,0,1,1,2,2,3,3,4,4,5,5,6,6],"right_children":[2,4,6,8,10,12,14,-1,-1,-1,-1,-1,-1,-1,-1],"split_conditions":[1E0,6.25E-1,-6.875E-1,-3E0,7.824581E-2,-2.9411766E-1,-2.5E-1,9.100829E-3,-1.1643645E-2,1.3706165E-3,-3.1346902E-2,4.9446072E-2,-4.7229704E-2,4.4963593E-3,-1.9251319E-3],"split_indices":[101,25,119,38,143,25,38,0,0,0,0,0,0,0,0],"split_type":[0,0,0,0,0,0,0,0,0,0,0,0,0,0,0],"sum_hessian":[9.537236E3,2.9855933E3,6.551643E3,1.5946215E3,1.3909718E3,5.4719387E1,6.496924E3,1.7440387E2,1.4202175E3,1.3317118E3,5.9259945E1,7.329353E0,4.7390034E1,2.41238E3,4.084544E3],"tree_param":{"num_deleted":"0","num_feature":"146","num_nodes":"15","size_leaf_vector":"1"}},{"base_weights":[-3.6107045E-2,-9.941687E-2,-7.2097117E-3,-6.0987018E-2,-2.6455218E-1,-3.776914E-1,2.105867E-3,-6.032296E-3,4.814586E-3,2.4591049E-3,-2.0739652E-2,-5.804478E-3,-4.6479043E-2,8.218786E-4,-1.7112954E-2],"categories":[],"categories_nodes":[],"categories_segments":[],"categories_sizes":[],"default_left":[0,0,0,0,0,0,0,0,0,0,0,0,0,0,0],"id":38,"left_children":[1,3,5,7,9,11,13,-1,-1,-1,-1,-1,-1,-1,-1],"loss_changes":[1.7400673E1,1.8656658E1,2.304154E1,1.286357E1,1.3090229E1,1.6939585E1,2.0326468E1,0E0,0E0,0E0,0E0,0E0,0E0,0E0,0E0],"parents":[2147483647,0,0,1,1,2,2,3,3,4,4,5,5,6,6],"right_children":[2,4,6,8,10,12,14,-1,-1,-1,-1,-1,-1,-1,-1],"split_conditions":[1E0,8.77551E-2,1.5894E0,8.3618E0,2.5E-1,0E0,9.524218E-1,-6.032296E-3,4.814586E-3,2.4591049E-3,-2.0739652E-2,-5.804478E-3,-4.6479043E-2,8.218786E-4,-1.7112954E-2],"split_indices":[101,41,23,20,42,33,129,0,0,0,0,0,0,0,0],"split_type":[0,0,0,0,0,0,0,0,0,0,0,0,0,0,0],"sum_hessian":[9.563969E3,2.9871284E3,6.5768403E3,2.4281367E3,5.5899176E2,1.6330307E2,6.413537E3,1.9165297E3,5.11607E2,1.0818203E2,4.5080972E2,9.5689445E1,6.761363E1,6.169088E3,2.4444957E2],"tree_param":{"num_deleted":"0","num_feature":"146","num_nodes":"15","size_leaf_vector":"1"}},{"base_weights":[-1.4391536E-2,-2.9703965E-3,-1.5062273E-1,-3.7743586E-1,5.593207E-4,-8.458896E-1,-1.1322707E-1,-1.3278232E-2,-9.475031E-2,-1.308645E-2,4.5101283E-4,-7.32183E-2,-5.2642655E-3,-5.371606E-3,-6.283066E-2],"categories":[],"categories_nodes":[],"categories_segments":[],"categories_sizes":[],"default_left":[0,0,0,1,0,0,1,0,0,0,0,0,0,0,0],"id":39,"left_children":[1,3,5,7,9,11,13,-1,-1,-1,-1,-1,-1,-1,-1],"loss_changes":[1.471477E1,1.1994334E1,1.8128397E1,1.4166322E1,1.2622974E1,8.470524E0,1.5055726E1,0E0,0E0,0E0,0E0,0E0,0E0,0E0,0E0],"parents":[2147483647,0,0,1,1,2,2,3,3,4,4,5,5,6,6],"right_children":[2,4,6,8,10,12,14,-1,-1,-1,-1,-1,-1,-1,-1],"split_conditions":[1.1904762E-1,-4.299383E-1,5E-2,1.9990511E0,-5.5932206E-1,5.005258E-1,9.512712E-1,-1.3278232E-2,-9.475031E-2,-1.308645E-2,4.5101283E-4,-7.32183E-2,-5.2642655E-3,-5.371606E-3,-6.283066E-2],"split_indices":[81,143,45,59,117,127,132,0,0,0,0,0,0,0,0],"split_type":[0,0,0,0,0,0,0,0,0,0,0,0,0,0,0],"sum_hessian":[9.54675E3,8.814845E3,7.3190485E2,8.43042E1,8.730541E3,3.5654606E1,6.9625024E2,7.531612E1,8.988083E0,2.643508E2,8.46619E3,2.3353891E1,1.23007145E1,6.789836E2,1.7266634E1],"tree_param":{"num_deleted":"0","num_feature":"146","num_nodes":"15","size_leaf_vector":"1"}},{"base_weights":[-6.156971E-3,-3.2811195E-2,7.9808235E-2,-1.6443215E-1,-1.9386066E-2,1.15013845E-1,-1.0824234E-1,-1.2460154E-2,1.7992072E-2,9.235449E-5,-6.3884463E-3,-1.6148688E-2,8.960805E-3,-2.6470741E-2,4.239122E-3],"categories":[],"categories_nodes":[],"categories_segments":[],"categories_sizes":[],"default_left":[1,0,0,1,0,1,1,0,0,0,0,0,0,0,0],"id":40,"left_children":[1,3,5,7,9,11,13,-1,-1,-1,-1,-1,-1,-1,-1],"loss_changes":[2.173715E1,1.2666635E1,1.4851792E1,1.2065744E1,1.1848763E1,2.2712729E1,2.0551758E1,0E0,0E0,0E0,0E0,0E0,0E0,0E0,0E0],"parents":[2147483647,0,0,1,1,2,2,3,3,4,4,5,5,6,6],"right_children":[2,4,6,8,10,12,14,-1,-1,-1,-1,-1,-1,-1,-1],"split_conditions":[2.4844721E-2,7.936508E-2,6.666667E-1,2.3116148E-1,3.25E0,7.692308E-2,6.451613E-1,-1.2460154E-2,1.7992072E-2,9.235449E-5,-6.3884463E-3,-1.6148688E-2,8.960805E-3,-2.6470741E-2,4.239122E-3],"split_indices":[124,110,47,36,12,96,48,0,0,0,0,0,0,0,0],"split_type":[0,0,0,0,0,0,0,0,0,0,0,0,0,0,0],"sum_hessian":[9.50442E3,7.263229E3,2.2411907E3,6.655646E2,6.597664E3,1.8919827E3,3.4920807E2,6.146939E2,5.0870716E1,5.290447E3,1.3072174E3,1.4362595E2,1.7483567E3,1.24947975E2,2.242601E2],"tree_param":{"num_deleted":"0","num_feature":"146","num_nodes":"15","size_leaf_vector":"1"}},{"base_weights":[-1.50671145E-2,7.847128E-1,-1.7409593E-2,9.7568345E-1,-5.7170955E-3,-1.0779882E-1,-1.0389116E-3,6.962896E-2,-8.637477E-3,-2.7797796E-2,-4.3200436E-3,-0E0,-6.8923205E-2],"categories":[],"categories_nodes":[],"categories_segments":[],"categories_sizes":[],"default_left":[0,1,0,0,0,0,0,0,0,0,0,0,0],"id":41,"left_children":[1,3,5,7,-1,9,11,-1,-1,-1,-1,-1,-1],"loss_changes":[1.7149803E1,5.3165493E0,1.3954109E1,5.173252E0,0E0,1.8143854E1,9.347745E0,0E0,0E0,0E0,0E0,0E0,0E0],"parents":[2147483647,0,0,1,1,2,2,3,3,5,5,6,6],"right_children":[2,4,6,8,-1,10,12,-1,-1,-1,-1,-1,-1],"split_conditions":[-2.25E0,4.181818E0,-2.8125E-1,9.1937983E-1,-5.7170955E-3,5E-1,1E0,6.962896E-2,-8.637477E-3,-2.7797796E-2,-4.3200436E-3,-0E0,-6.8923205E-2],"split_indices":[16,88,117,132,0,29,118,0,0,0,0,0,0],"split_type":[0,0,0,0,0,0,0,0,0,0,0,0,0],"sum_hessian":[9.522899E3,2.6268871E1,9.49663E3,2.2389568E1,3.8793023E0,1.4473502E3,8.04928E3,2.021374E1,2.1758292E0,1.3660551E2,1.3107448E3,8.042356E3,6.9238725E0],"tree_param":{"num_deleted":"0","num_feature":"146","num_nodes":"13","size_leaf_vector":"1"}},{"base_weights":[-1.9161392E-2,-2.4189312E-2,2.4859573E-1,1.3577227E-1,-3.0815138E-2,5.500727E-1,-0E0,9.79428E-3,-9.447808E-2,-1.6150331E-3,-2.7551124E-2,-6.9476543E-3,4.197532E-2,-7.361277E-2,1.2585943E-2],"categories":[],"categories_nodes":[],"categories_segments":[],"categories_sizes":[],"default_left":[0,1,1,0,0,0,0,0,0,0,0,0,0,0,0],"id":42,"left_children":[1,3,5,7,9,11,13,-1,-1,-1,-1,-1,-1,-1,-1],"loss_changes":[1.2626805E1,9.823513E0,1.2424331E1,1.4057587E1,1.605303E1,7.5116234E0,2.3193521E1,0E0,0E0,0E0,0E0,0E0,0E0,0E0,0E0],"parents":[2147483647,0,0,1,1,2,2,3,3,4,4,5,5,6,6],"right_children":[2,4,6,8,10,12,14,-1,-1,-1,-1,-1,-1,-1,-1],"split_conditions":[1.7087895E-2,-4.25E0,6.612903E0,7.6744187E-1,6.04773E1,2.8571429E-2,1.38E-1,9.79428E-3,-9.447808E-2,-1.6150331E-3,-2.7551124E-2,-6.9476543E-3,4.197532E-2,-7.361277E-2,1.2585943E-2],"split_indices":[137,38,112,77,20,47,116,0,0,0,0,0,0,0,0],"split_type":[0,0,0,0,0,0,0,0,0,0,0,0,0,0,0],"sum_hessian":[9.528411E3,9.356491E3,1.7191968E2,3.663625E2,8.990129E3,7.584182E1,9.607785E1,3.6198105E2,4.3814435E0,8.90037E3,8.9757965E1,1.1885061E1,6.395676E1,1.309912E1,8.297874E1],"tree_param":{"num_deleted":"0","num_feature":"146","num_nodes":"15","size_leaf_vector":"1"}},{"base_weights":[-1.4375383E-2,-1.2762894E-2,-7.202692E-1,-9.739198E-3,-3.6175874E-1,3.5990037E-2,-1.7091233E0,1.6207581E-4,-7.003745E-3,-3.273679E-2,4.2591207E-2,-6.8593904E-2,3.2953963E-2,-1.2687974E-1,3.7661763E-3],"categories":[],"categories_nodes":[],"categories_segments":[],"categories_sizes":[],"default_left":[1,1,0,1,0,0,1,0,0,0,0,0,0,0,0],"id":43,"left_children":[1,3,5,7,9,11,13,-1,-1,-1,-1,-1,-1,-1,-1],"loss_changes":[1.0269039E1,9.781185E0,1.6960487E1,1.2475956E1,1.4751836E1,6.4796166E0,8.069077E0,0E0,0E0,0E0,0E0,0E0,0E0,0E0,0E0],"parents":[2147483647,0,0,1,1,2,2,3,3,4,4,5,5,6,6],"right_children":[2,4,6,8,10,12,14,-1,-1,-1,-1,-1,-1,-1,-1],"split_conditions":[1.125E1,8.684211E-1,1.5532233E-2,-1E0,6.1500614E-4,3.465704E-1,1.9E0,1.6207581E-4,-7.003745E-3,-3.273679E-2,4.2591207E-2,-6.8593904E-2,3.2953963E-2,-1.2687974E-1,3.7661763E-3],"split_indices":[42,86,141,144,119,104,35,0,0,0,0,0,0,0,0],"split_type":[0,0,0,0,0,0,0,0,0,0,0,0,0,0,0],"sum_hessian":[9.610212E3,9.59002E3,2.0193003E1,9.510654E3,7.936538E1,1.1149671E1,9.043333E0,8.498956E3,1.0116977E3,6.905925E1,1.03061285E1,2.6745481E0,8.475122E0,7.848646E0,1.1946869E0],"tree_param":{"num_deleted":"0","num_feature":"146","num_nodes":"15","size_leaf_vector":"1"}},{"base_weights":[-7.665327E-3,-3.575588E-1,-3.5151024E-3,3.5110018E-1,-6.506325E-1,2.3133088E-2,-5.057574E-2,4.830402E-2,-1.7472573E-2,-5.5585958E-2,-3.7783434E-4,5.142749E-4,1.0168059E-2,-4.139339E-3,1.0763286E-2],"categories":[],"categories_nodes":[],"categories_segments":[],"categories_sizes":[],"default_left":[0,0,0,1,0,0,1,0,0,0,0,0,0,0,0],"id":44,"left_children":[1,3,5,7,9,11,13,-1,-1,-1,-1,-1,-1,-1,-1],"loss_changes":[1.3573128E1,2.3141205E1,1.1894282E1,9.371914E0,1.2327717E1,1.2561701E1,1.3322646E1,0E0,0E0,0E0,0E0,0E0,0E0,0E0,0E0],"parents":[2147483647,0,0,1,1,2,2,3,3,4,4,5,5,6,6],"right_children":[2,4,6,8,10,12,14,-1,-1,-1,-1,-1,-1,-1,-1],"split_conditions":[-1.8461539E0,-5.4246355E-3,3.375E0,-1.3274336E-2,4.234234E-1,7.5029E0,9E-1,4.830402E-2,-1.7472573E-2,-5.5585958E-2,-3.7783434E-4,5.142749E-4,1.0168059E-2,-4.139339E-3,1.0763286E-2],"split_indices":[70,142,87,124,99,23,48,0,0,0,0,0,0,0,0],"split_type":[0,0,0,0,0,0,0,0,0,0,0,0,0,0,0],"sum_hessian":[9.572992E3,1.09232735E2,9.46376E3,3.1026138E1,7.82066E1,6.0300986E3,3.4336611E3,1.913708E1,1.1889061E1,5.46092E1,2.3597399E1,5.475252E3,5.5484686E2,3.1954023E3,2.382587E2],"tree_param":{"num_deleted":"0","num_feature":"146","num_nodes":"15","size_leaf_vector":"1"}},{"base_weights":[-4.1590612E-3,5.344185E-3,-1.7479798E-1,8.272936E-3,-5.3031063E-1,-3.721153E-1,-6.0179047E-3,1.9055653E-3,-2.8138226E-3,-7.063549E-2,-3.1516247E-3,-1.6403504E-2,-6.610058E-2,1.8247921E-2,-1.6978681E-2],"categories":[],"categories_nodes":[],"categories_segments":[],"categories_sizes":[],"default_left":[0,1,1,0,0,0,0,0,0,0,0,0,0,0,0],"id":45,"left_children":[1,3,5,7,9,11,13,-1,-1,-1,-1,-1,-1,-1,-1],"loss_changes":[1.5719674E1,1.37838E1,1.6687325E1,1.1259125E1,1.3194567E1,1.5797138E1,2.3122404E1,0E0,0E0,0E0,0E0,0E0,0E0,0E0,0E0],"parents":[2147483647,0,0,1,1,2,2,3,3,4,4,5,5,6,6],"right_children":[2,4,6,8,10,12,14,-1,-1,-1,-1,-1,-1,-1,-1],"split_conditions":[8.4E2,1.9981249E1,1.7663044E-1,9.098712E-1,-1.3496932E-1,7.5E-1,1.7805383E-1,1.9055653E-3,-2.8138226E-3,-7.063549E-2,-3.1516247E-3,-1.6403504E-2,-6.610058E-2,1.8247921E-2,-1.6978681E-2],"split_indices":[0,58,86,129,119,28,82,0,0,0,0,0,0,0,0],"split_type":[0,0,0,0,0,0,0,0,0,0,0,0,0,0,0],"sum_hessian":[9.598133E3,9.087129E3,5.110039E2,9.039812E3,4.7317173E1,2.3287012E2,2.781338E2,6.3691694E3,2.670642E3,1.9413448E1,2.7903723E1,2.0489441E2,2.7975718E1,1.2956013E2,1.4857365E2],"tree_param":{"num_deleted":"0","num_feature":"146","num_nodes":"15","size_leaf_vector":"1"}},{"base_weights":[-4.1391184E-3,3.8542675E-3,-1.5568611E-1,-4.833635E-2,3.5056975E-2,-2.7044174E-1,9.505809E-2,2.1981564E-3,-7.4774097E-3,1.06903445E-2,9.741689E-4,3.896107E-3,-2.3353389E-2,2.509134E-3,6.5988116E-2],"categories":[],"categories_nodes":[],"categories_segments":[],"categories_sizes":[],"default_left":[1,0,0,0,0,0,1,0,0,0,0,0,0,0,0],"id":46,"left_children":[1,3,5,7,9,11,13,-1,-1,-1,-1,-1,-1,-1,-1],"loss_changes":[1.1812852E1,1.4888193E1,1.4228463E1,2.141726E1,1.517133E1,1.2951033E1,7.0051746E0,0E0,0E0,0E0,0E0,0E0,0E0,0E0,0E0],"parents":[2147483647,0,0,1,1,2,2,3,3,4,4,5,5,6,6],"right_children":[2,4,6,8,10,12,14,-1,-1,-1,-1,-1,-1,-1,-1],"split_conditions":[5.6626505E-1,4.1304347E-1,1.4193548E0,2.3529412E-1,-8.685446E-2,-2.014652E-1,1.1666666E0,2.1981564E-3,-7.4774097E-3,1.06903445E-2,9.741689E-4,3.896107E-3,-2.3353389E-2,2.509134E-3,6.5988116E-2],"split_indices":[114,48,90,48,31,70,25,0,0,0,0,0,0,0,0],"split_type":[0,0,0,0,0,0,0,0,0,0,0,0,0,0,0],"sum_hessian":[9.63705E3,9.148898E3,4.8815198E2,3.4121934E3,5.7367046E3,3.3735205E2,1.5079994E2,1.5905864E3,1.821607E3,6.824593E2,5.054245E3,8.2707146E1,2.546449E2,1.4426068E2,6.5392585E0],"tree_param":{"num_deleted":"0","num_feature":"146","num_nodes":"15","size_leaf_vector":"1"}},{"base_weights":[6.0839014E-4,-1.191542E-2,9.563084E-2,-6.409875E-2,1.4421536E-2,4.7280172E-1,6.3728616E-2,-2.734705E-3,-2.3487512E-2,-1.4050033E-2,1.5172086E-3,3.726403E-2,-3.9769333E-2,-3.2866208E-3,1.1078497E-2],"categories":[],"categories_nodes":[],"categories_segments":[],"categories_sizes":[],"default_left":[0,0,0,1,0,1,0,0,0,0,0,0,0,0,0],"id":47,"left_children":[1,3,5,7,9,11,13,-1,-1,-1,-1,-1,-1,-1,-1],"loss_changes":[1.1541905E1,1.1733528E1,1.3101608E1,1.7331629E1,1.4200208E1,1.3405373E1,1.4581782E1,0E0,0E0,0E0,0E0,0E0,0E0,0E0,0E0],"parents":[2147483647,0,0,1,1,2,2,3,3,4,4,5,5,6,6],"right_children":[2,4,6,8,10,12,14,-1,-1,-1,-1,-1,-1,-1,-1],"split_conditions":[5.1368535E-3,4E-1,-2.1084337E-1,1.2011528E0,2.2580644E-1,4.620462E-2,8.9920634E-1,-2.734705E-3,-2.3487512E-2,-1.4050033E-2,1.5172086E-3,3.726403E-2,-3.9769333E-2,-3.2866208E-3,1.1078497E-2],"split_indices":[137,25,81,139,78,124,132,0,0,0,0,0,0,0,0],"split_type":[0,0,0,0,0,0,0,0,0,0,0,0,0,0,0],"sum_hessian":[9.633959E3,8.50395E3,1.1300084E3,2.8637368E3,5.640214E3,8.545239E1,1.044556E3,2.7041873E3,1.5954948E2,2.2675848E2,5.413455E3,7.702852E1,8.423879E0,5.1888965E2,5.2566644E2],"tree_param":{"num_deleted":"0","num_feature":"146","num_nodes":"15","size_leaf_vector":"1"}},{"base_weights":[-3.6784075E-2,-3.2287236E-2,-2.8479683E-1,-2.2590104E-2,-2.0383425E-1,-4.754513E-1,1.2849326E-1,6.2843882E-3,-1.9535902E-3,1.6839124E-2,-1.5289737E-2,-4.4211283E-2,2.2728008E-3,-2.1815075E-2,3.773649E-2],"categories":[],"categories_nodes":[],"categories_segments":[],"categories_sizes":[],"default_left":[0,0,0,0,0,0,0,0,0,0,0,0,0,0,0],"id":48,"left_children":[1,3,5,7,9,11,13,-1,-1,-1,-1,-1,-1,-1,-1],"loss_changes":[1.0318725E1,1.534399E1,1.3403626E1,1.0391443E1,1.1070015E1,1.5301754E1,1.249646E1,0E0,0E0,0E0,0E0,0E0,0E0,0E0,0E0],"parents":[2147483647,0,0,1,1,2,2,3,3,4,4,5,5,6,6],"right_children":[2,4,6,8,10,12,14,-1,-1,-1,-1,-1,-1,-1,-1],"split_conditions":[9.4E0,8.4E2,2.25E0,-1.23243086E-1,-1.160373E-1,-1.91967E-4,7.9545456E-1,6.2843882E-3,-1.9535902E-3,1.6839124E-2,-1.5289737E-2,-4.4211283E-2,2.2728008E-3,-2.1815075E-2,3.773649E-2],"split_indices":[109,0,18,41,31,140,105,0,0,0,0,0,0,0,0],"split_type":[0,0,0,0,0,0,0,0,0,0,0,0,0,0,0],"sum_hessian":[9.51368E3,9.348319E3,1.6536073E2,8.853618E3,4.9470062E2,1.146215E2,5.073924E1,6.1024176E2,8.243377E3,4.1889668E1,4.5281097E2,7.826198E1,3.635952E1,2.459275E1,2.6146488E1],"tree_param":{"num_deleted":"0","num_feature":"146","num_nodes":"15","size_leaf_vector":"1"}},{"base_weights":[-9.073568E-3,-7.2621815E-2,2.5881717E-2,-1.439362E-1,-6.5676863E-3,-7.0075357E-1,2.9109893E-2,-5.6704627E-3,-2.1759616E-2,-3.1531283E-3,1.460976E-2,6.615168E-3,-6.69601E-2,-2.4917277E-2,2.31614E-3],"categories":[],"categories_nodes":[],"categories_segments":[],"categories_sizes":[],"default_left":[0,1,0,0,0,0,0,0,0,0,0,0,0,0,0],"id":49,"left_children":[1,3,5,7,9,11,13,-1,-1,-1,-1,-1,-1,-1,-1],"loss_changes":[2.1361967E1,1.5949657E1,1.390048E1,1.732021E1,1.9560482E1,9.315242E0,2.3426914E1,0E0,0E0,0E0,0E0,0E0,0E0,0E0,0E0],"parents":[2147483647,0,0,1,1,2,2,3,3,4,4,5,5,6,6],"right_children":[2,4,6,8,10,12,14,-1,-1,-1,-1,-1,-1,-1,-1],"split_conditions":[-2.4247155E-2,3.8650307E-1,-7.25E0,2.5E0,1.1320755E-1,1.882353E-1,2.8125E-2,-5.6704627E-3,-2.1759616E-2,-3.1531283E-3,1.460976E-2,6.615168E-3,-6.69601E-2,-2.4917277E-2,2.31614E-3],"split_indices":[142,113,42,8,114,95,82,0,0,0,0,0,0,0,0],"split_type":[0,0,0,0,0,0,0,0,0,0,0,0,0,0,0],"sum_hessian":[9.596772E3,3.4146108E3,6.182161E3,1.6350724E3,1.7795385E3,2.5698315E1,6.156463E3,1.3221794E3,3.1289294E2,1.5072252E3,2.7231323E2,7.78944E0,1.7908875E1,1.1939696E2,6.037066E3],"tree_param":{"num_deleted":"0","num_feature":"146","num_nodes":"15","size_leaf_vector":"1"}},{"base_weights":[-1.1961459E-3,-3.460736E-2,3.914506E-2,-3.906186E-3,-1.1583906E-1,-3.7102364E-2,8.6997375E-2,-1.350785E-2,8.781994E-4,-8.620618E-4,-1.5315843E-2,4.777488E-3,-7.409939E-3,4.6189316E-3,2.6968941E-2],"categories":[],"categories_nodes":[],"categories_segments":[],"categories_sizes":[],"default_left":[0,0,0,0,0,0,0,0,0,0,0,0,0,0,0],"id":50,"left_children":[1,3,5,7,9,11,13,-1,-1,-1,-1,-1,-1,-1,-1],"loss_changes":[1.2927433E1,1.3009359E1,1.5859954E1,1.53976145E1,1.9460238E1,1.6218315E1,1.0262287E1,0E0,0E0,0E0,0E0,0E0,0E0,0E0,0E0],"parents":[2147483647,0,0,1,1,2,2,3,3,4,4,5,5,6,6],"right_children":[2,4,6,8,10,12,14,-1,-1,-1,-1,-1,-1,-1,-1],"split_conditions":[9.818331E-1,4.6875E-1,-1.3896297E-1,-5.135135E-1,4.1631E0,6.342857E-1,9.136364E-1,-1.350785E-2,8.781994E-4,-8.620618E-4,-1.5315843E-2,4.777488E-3,-7.409939E-3,4.6189316E-3,2.6968941E-2],"split_indices":[136,47,140,100,23,65,72,0,0,0,0,0,0,0,0],"split_type":[0,0,0,0,0,0,0,0,0,0,0,0,0,0,0],"sum_hessian":[9.593383E3,5.259761E3,4.3336216E3,3.825543E3,1.434218E3,1.6637365E3,2.6698853E3,3.0044907E2,3.525094E3,8.2206555E2,6.1215247E2,6.9776715E2,9.6596924E2,2.5901108E3,7.9774414E1],"tree_param":{"num_deleted":"0","num_feature":"146","num_nodes":"15","size_leaf_vector":"1"}},{"base_weights":[-9.7870175E-3,-4.4104075E-3,-2.8192264E-1,1.31530315E-2,-7.874757E-2,5.011681E-1,-3.6489543E-1,1.5911518E-3,-6.8930923E-3,4.5356248E-4,-1.1168278E-2,6.094221E-2,-3.626363E-2,-4.9991435E-3,-4.30729E-2],"categories":[],"categories_nodes":[],"categories_segments":[],"categories_sizes":[],"default_left":[0,0,0,0,0,0,0,0,0,0,0,0,0,0,0],"id":51,"left_children":[1,3,5,7,9,11,13,-1,-1,-1,-1,-1,-1,-1,-1],"loss_changes":[1.3743401E1,1.2319062E1,1.1788011E1,1.2264317E1,1.6358707E1,9.637841E0,1.5260071E1,0E0,0E0,0E0,0E0,0E0,0E0,0E0,0E0],"parents":[2147483647,0,0,1,1,2,2,3,3,4,4,5,5,6,6],"right_children":[2,4,6,8,10,12,14,-1,-1,-1,-1,-1,-1,-1,-1],"split_conditions":[4.98513E1,2.75E0,-5.0111316E-2,3E0,7.125506E-1,8.5714287E-1,7.5E-1,1.5911518E-3,-6.8930923E-3,4.5356248E-4,-1.1168278E-2,6.094221E-2,-3.626363E-2,-4.9991435E-3,-4.30729E-2],"split_indices":[20,13,141,18,68,114,27,0,0,0,0,0,0,0,0],"split_type":[0,0,0,0,0,0,0,0,0,0,0,0,0,0,0],"sum_hessian":[9.570751E3,9.389018E3,1.8173412E2,7.585036E3,1.8039807E3,1.6159302E1,1.6557481E2,6.8873145E3,6.9772174E2,9.8270844E2,8.2127234E2,1.1711562E1,4.44774E0,9.2170555E1,7.340426E1],"tree_param":{"num_deleted":"0","num_feature":"146","num_nodes":"15","size_leaf_vector":"1"}},{"base_weights":[-5.527076E-3,-8.113507E-3,4.7002113E-1,-6.6091293E-1,-5.7216785E-3,1.527593E-1,1.1863407E0,2.5576023E-2,-5.6137413E-2,8.328036E-3,-9.867795E-4,-9.969647E-2,1.835377E-2,8.326301E-2,-0E0],"categories":[],"categories_nodes":[],"categories_segments":[],"categories_sizes":[],"default_left":[1,0,0,0,0,1,0,0,0,0,0,0,0,0,0],"id":52,"left_children":[1,3,5,7,9,11,13,-1,-1,-1,-1,-1,-1,-1,-1],"loss_changes":[1.1374367E1,1.4285204E1,1.0063081E1,9.948667E0,1.3995684E1,8.49617E0,4.2558155E0,0E0,0E0,0E0,0E0,0E0,0E0,0E0,0E0],"parents":[2147483647,0,0,1,1,2,2,3,3,4,4,5,5,6,6],"right_children":[2,4,6,8,10,12,14,-1,-1,-1,-1,-1,-1,-1,-1],"split_conditions":[8.5E0,-4.228675E-1,7.307692E-1,3.3502537E-1,9.993554E-1,-7.5E-1,2.75E0,2.5576023E-2,-5.6137413E-2,8.328036E-3,-9.867795E-4,-9.969647E-2,1.835377E-2,8.326301E-2,-0E0],"split_indices":[145,31,45,89,59,30,38,0,0,0,0,0,0,0,0],"split_type":[0,0,0,0,0,0,0,0,0,0,0,0,0,0,0],"sum_hessian":[9.587339E3,9.537787E3,4.955172E1,3.3010544E1,9.504776E3,3.5572887E1,1.397883E1,5.647545E0,2.7362999E1,6.441368E2,8.86064E3,1.9287257E0,3.364416E1,1.2765269E1,1.2135607E0],"tree_param":{"num_deleted":"0","num_feature":"146","num_nodes":"15","size_leaf_vector":"1"}},{"base_weights":[-1.3645259E-2,6.0620103E-3,-1.1021344E-1,7.631973E-2,-2.3022572E-2,-4.6731856E-2,-3.0920917E-1,-6.49034E-3,7.620835E-3,-3.5374141E-3,3.1077757E-3,-1.7526941E-3,-4.97581E-2,1.913716E-2,-2.281815E-2],"categories":[],"categories_nodes":[],"categories_segments":[],"categories_sizes":[],"default_left":[1,0,0,0,0,0,0,0,0,0,0,0,0,0,0],"id":53,"left_children":[1,3,5,7,9,11,13,-1,-1,-1,-1,-1,-1,-1,-1],"loss_changes":[1.830457E1,1.627241E1,2.0256021E1,2.0691471E1,1.4477255E1,1.6386019E1,1.5795002E1,0E0,0E0,0E0,0E0,0E0,0E0,0E0,0E0],"parents":[2147483647,0,0,1,1,2,2,3,3,4,4,5,5,6,6],"right_children":[2,4,6,8,10,12,14,-1,-1,-1,-1,-1,-1,-1,-1],"split_conditions":[9.129353E-1,-1.8743109E-2,9.8E-1,2.5E-1,5.323383E-1,3.25E0,-5.4545455E-2,-6.49034E-3,7.620835E-3,-3.5374141E-3,3.1077757E-3,-1.7526941E-3,-4.97581E-2,1.913716E-2,-2.281815E-2],"split_indices":[132,26,24,95,128,5,67,0,0,0,0,0,0,0,0],"split_type":[0,0,0,0,0,0,0,0,0,0,0,0,0,0,0],"sum_hessian":[9.567998E3,7.9388467E3,1.6291516E3,2.333219E3,5.605628E3,1.2389873E3,3.9016428E2,4.855699E2,1.8476492E3,3.815765E3,1.7898629E3,1.2121636E3,2.682371E1,3.51594E1,3.5500485E2],"tree_param":{"num_deleted":"0","num_feature":"146","num_nodes":"15","size_leaf_vector":"1"}},{"base_weights":[1.2546857E-2,-5.846828E-3,7.886728E-2,-1.0394877E-3,-4.0413183E-1,4.8183788E-2,3.3464825E-1,-1.8577052E-4,4.5810018E-2,-4.659689E-2,-3.552161E-3,5.1999595E-3,-1.2116106E-2,-5.492136E-2,2.4618672E-2],"categories":[],"categories_nodes":[],"categories_segments":[],"categories_sizes":[],"default_left":[1,0,0,0,0,0,0,0,0,0,0,0,0,0,0],"id":54,"left_children":[1,3,5,7,9,11,13,-1,-1,-1,-1,-1,-1,-1,-1],"loss_changes":[1.184458E1,1.4084278E1,1.6182554E1,1.0551036E1,1.0136927E1,1.7098877E1,1.852681E1,0E0,0E0,0E0,0E0,0E0,0E0,0E0,0E0],"parents":[2147483647,0,0,1,1,2,2,3,3,4,4,5,5,6,6],"right_children":[2,4,6,8,10,12,14,-1,-1,-1,-1,-1,-1,-1,-1],"split_conditions":[1.761194E0,2.736842E-1,7.2E-1,7E0,4.852941E-1,1.1789473E0,5E-1,-1.8577052E-4,4.5810018E-2,-4.659689E-2,-3.552161E-3,5.1999595E-3,-1.2116106E-2,-5.492136E-2,2.4618672E-2],"split_indices":[64,67,47,13,93,97,132,0,0,0,0,0,0,0,0],"split_type":[0,0,0,0,0,0,0,0,0,0,0,0,0,0,0],"sum_hessian":[9.654659E3,7.5479434E3,2.1067156E3,7.460595E3,8.7348274E1,1.8846804E3,2.2203513E2,7.4423794E3,1.8215769E1,4.1325073E1,4.6023205E1,1.6423535E3,2.4232697E2,1.0722396E1,2.1131273E2],"tree_param":{"num_deleted":"0","num_feature":"146","num_nodes":"15","size_leaf_vector":"1"}},{"base_weights":[-1.43823605E-2,-3.987054E-2,3.4136742E-2,-4.9545333E-2,2.2226697E-1,-1.6128469E-1,5.4328937E-2,-4.8809666E-3,2.4617068E-3,2.0608703E-2,-7.7282037E-3,-3.1140508E-4,-2.8152244E-2,4.292294E-3,-1.458845E-2],"categories":[],"categories_nodes":[],"categories_segments":[],"categories_sizes":[],"default_left":[0,1,0,0,0,0,0,0,0,0,0,0,0,0,0],"id":55,"left_children":[1,3,5,7,9,11,13,-1,-1,-1,-1,-1,-1,-1,-1],"loss_changes":[1.1899047E1,1.5869609E1,1.2928671E1,1.6690886E1,9.120688E0,1.3854473E1,1.3886122E1,0E0,0E0,0E0,0E0,0E0,0E0,0E0,0E0],"parents":[2147483647,0,0,1,1,2,2,3,3,4,4,5,5,6,6],"right_children":[2,4,6,8,10,12,14,-1,-1,-1,-1,-1,-1,-1,-1],"split_conditions":[2.7941176E-1,7E0,2E-1,6.041667E-1,2.1553397E0,7.894737E-1,5.8064514E-1,-4.8809666E-3,2.4617068E-3,2.0608703E-2,-7.7282037E-3,-3.1140508E-4,-2.8152244E-2,4.292294E-3,-1.458845E-2],"split_indices":[82,42,89,46,92,35,69,0,0,0,0,0,0,0,0],"split_type":[0,0,0,0,0,0,0,0,0,0,0,0,0,0,0],"sum_hessian":[9.616801E3,6.3170977E3,3.2997031E3,6.095921E3,2.2117691E2,3.0452692E2,2.995176E3,4.562682E3,1.5332386E3,1.6821121E2,5.2965702E1,2.0249567E2,1.0203124E2,2.8437102E3,1.514659E2],"tree_param":{"num_deleted":"0","num_feature":"146","num_nodes":"15","size_leaf_vector":"1"}},{"base_weights":[3.3946722E-3,-2.079415E-2,7.977085E-2,-6.500998E-2,2.286714E-2,3.8639177E-2,2.5278693E-1,-3.655258E-3,-4.744332E-2,1.7508729E-3,-4.5379594E-2,-1.004136E-3,1.3284726E-2,2.0890497E-2,-6.0323365E-3],"categories":[],"categories_nodes":[],"categories_segments":[],"categories_sizes":[],"default_left":[0,0,1,0,0,0,1,0,0,0,0,0,0,0,0],"id":56,"left_children":[1,3,5,7,9,11,13,-1,-1,-1,-1,-1,-1,-1,-1],"loss_changes":[1.7974356E1,1.4243837E1,1.6399338E1,1.2642883E1,1.579329E1,1.888469E1,1.4235464E1,0E0,0E0,0E0,0E0,0E0,0E0,0E0,0E0],"parents":[2147483647,0,0,1,1,2,2,3,3,4,4,5,5,6,6],"right_children":[2,4,6,8,10,12,14,-1,-1,-1,-1,-1,-1,-1,-1],"split_conditions":[9.1714E0,3.4134614E-1,6.223004E-1,3.3990443E-1,7.085418E1,2.6643598E-1,3.361111E1,-3.655258E-3,-4.744332E-2,1.7508729E-3,-4.5379594E-2,-1.004136E-3,1.3284726E-2,2.0890497E-2,-6.0323365E-3],"split_indices":[20,71,139,71,57,100,126,0,0,0,0,0,0,0,0],"split_type":[0,0,0,0,0,0,0,0,0,0,0,0,0,0,0],"sum_hessian":[9.699465E3,7.357652E3,2.3418135E3,3.6658542E3,3.6917976E3,1.8966764E3,4.4513702E2,3.6412896E3,2.456457E1,3.6655896E3,2.62081E1,1.44665E3,4.5002646E2,3.569901E2,8.814691E1],"tree_param":{"num_deleted":"0","num_feature":"146","num_nodes":"15","size_leaf_vector":"1"}},{"base_weights":[-1.26012815E-2,-3.7907758E-1,-9.503684E-3,1.9136961E-1,-6.7134875E-1,8.764182E-3,-6.328568E-2,4.043179E-2,-4.1682288E-2,-1.420542E-2,-6.723753E-2,-5.7244124E-5,1.0543787E-2,-1.0402757E-2,-4.7392247E-4],"categories":[],"categories_nodes":[],"categories_segments":[],"categories_sizes":[],"default_left":[0,0,1,0,0,0,0,0,0,0,0,0,0,0,0],"id":57,"left_children":[1,3,5,7,9,11,13,-1,-1,-1,-1,-1,-1,-1,-1],"loss_changes":[1.0476078E1,1.3410816E1,9.34787E0,1.06758795E1,8.560497E0,1.1371834E1,1.4181307E1,0E0,0E0,0E0,0E0,0E0,0E0,0E0,0E0],"parents":[2147483647,0,0,1,1,2,2,3,3,4,4,5,5,6,6],"right_children":[2,4,6,8,10,12,14,-1,-1,-1,-1,-1,-1,-1,-1],"split_conditions":[-3.3773246E-1,7.866667E0,4.8387095E-1,5.443038E-1,-1E-1,6.3235295E-1,4.2E2,4.043179E-2,-4.1682288E-2,-1.420542E-2,-6.723753E-2,-5.7244124E-5,1.0543787E-2,-1.0402757E-2,-4.7392247E-4],"split_indices":[31,112,122,103,40,115,0,0,0,0,0,0,0,0,0],"split_type":[0,0,0,0,0,0,0,0,0,0,0,0,0,0,0],"sum_hessian":[9.5405205E3,7.707887E1,9.463441E3,2.510792E1,5.1970955E1,7.051679E3,2.4117622E3,1.7059603E1,8.048318E0,2.708868E1,2.4882275E1,6.652817E3,3.9886246E2,8.1756104E2,1.5942012E3],"tree_param":{"num_deleted":"0","num_feature":"146","num_nodes":"15","size_leaf_vector":"1"}},{"base_weights":[-4.38256E-3,-1.7594036E-2,1.06008664E-1,9.527108E-2,-2.8981956E-2,8.232868E-2,7.1548074E-1,1.1320777E-2,-6.108873E-3,-2.8403597E-2,-1.520915E-3,1.368819E-2,-9.1203843E-4,-7.3405884E-2,5.018598E-2],"categories":[],"categories_nodes":[],"categories_segments":[],"categories_sizes":[],"default_left":[1,1,0,0,0,0,0,0,0,0,0,0,0,0,0],"id":58,"left_children":[1,3,5,7,9,11,13,-1,-1,-1,-1,-1,-1,-1,-1],"loss_changes":[1.3845211E1,1.0910896E1,1.3873417E1,1.3732081E1,1.3332749E1,1.3676445E1,7.502857E0,0E0,0E0,0E0,0E0,0E0,0E0,0E0,0E0],"parents":[2147483647,0,0,1,1,2,2,3,3,4,4,5,5,6,6],"right_children":[2,4,6,8,10,12,14,-1,-1,-1,-1,-1,-1,-1,-1],"split_conditions":[7.25E0,-7.692308E-1,7.2357726E-1,9.012048E-1,-1.8461539E0,1.0494302E-2,-9.090909E-2,1.1320777E-2,-6.108873E-3,-2.8403597E-2,-1.520915E-3,1.368819E-2,-9.1203843E-4,-7.3405884E-2,5.018598E-2],"split_indices":[44,40,127,129,70,143,81,0,0,0,0,0,0,0,0],"split_type":[0,0,0,0,0,0,0,0,0,0,0,0,0,0,0],"sum_hessian":[9.547382E3,8.5345625E3,1.0128185E3,7.746029E2,7.75996E3,9.768318E2,3.598672E1,5.331956E2,2.4140729E2,6.925349E1,7.6907065E3,4.009051E2,5.759267E2,1.2177348E0,3.476899E1],"tree_param":{"num_deleted":"0","num_feature":"146","num_nodes":"15","size_leaf_vector":"1"}},{"base_weights":[9.0758747E-4,3.6787987E-1,-3.38058E-3,6.56345E-1,-0E0,-1.139751E-2,1.4583366E-1,4.3531843E-2,-7.054959E-2,1.0124281E-2,-9.3419425E-2,-1.2928684E-2,-1.8936644E-4,1.1925309E-2,-2.0935588E-2],"categories":[],"categories_nodes":[],"categories_segments":[],"categories_sizes":[],"default_left":[0,0,0,1,1,0,1,0,0,0,0,0,0,0,0],"id":59,"left_children":[1,3,5,7,9,11,13,-1,-1,-1,-1,-1,-1,-1,-1],"loss_changes":[1.5524905E1,1.2622142E1,1.1292006E1,6.6242867E0,1.3707185E1,1.4864869E1,1.1520691E1,0E0,0E0,0E0,0E0,0E0,0E0,0E0,0E0],"parents":[2147483647,0,0,1,1,2,2,3,3,4,4,5,5,6,6],"right_children":[2,4,6,8,10,12,14,-1,-1,-1,-1,-1,-1,-1,-1],"split_conditions":[-8.280255E-2,1.25E0,5.177305E-1,1.1538461E0,9.991078E-1,-1.5454545E0,2.998745E0,4.3531843E-2,-7.054959E-2,1.0124281E-2,-9.3419425E-2,-1.2928684E-2,-1.8936644E-4,1.1925309E-2,-2.0935588E-2],"split_indices":[118,32,100,35,59,68,59,0,0,0,0,0,0,0,0],"split_type":[0,0,0,0,0,0,0,0,0,0,0,0,0,0,0],"sum_hessian":[9.654294E3,1.1354891E2,9.540745E3,6.468544E1,4.886347E1,9.060429E3,4.803167E2,6.3456917E1,1.2285224E0,4.3947956E1,4.9155126E0,3.5547458E2,8.704954E3,4.380709E2,4.224582E1],"tree_param":{"num_deleted":"0","num_feature":"146","num_nodes":"15","size_leaf_vector":"1"}},{"base_weights":[6.4305183E-3,2.1524988E-2,-7.6098636E-2,3.550983E-2,-1.1657704E-1,-1.0323634E-1,2.4055587E-1,1.3249089E-3,9.737675E-3,-8.697425E-3,3.5200138E-2,-3.0759955E-2,-4.223777E-3,3.302651E-2,-1.4467259E-2],"categories":[],"categories_nodes":[],"categories_segments":[],"categories_sizes":[],"default_left":[1,0,0,1,0,1,0,0,0,0,0,0,0,0,0],"id":60,"left_children":[1,3,5,7,9,11,13,-1,-1,-1,-1,-1,-1,-1,-1],"loss_changes":[1.1918868E1,1.563217E1,1.2571022E1,1.24861145E1,1.2943406E1,1.805347E1,1.6682213E1,0E0,0E0,0E0,0E0,0E0,0E0,0E0,0E0],"parents":[2147483647,0,0,1,1,2,2,3,3,4,4,5,5,6,6],"right_children":[2,4,6,8,10,12,14,-1,-1,-1,-1,-1,-1,-1,-1],"split_conditions":[1.9962978E0,3.746178E0,5.4265404E-1,3.6486486E-1,5.220126E-1,-1.434965E-1,3.9930773E0,1.3249089E-3,9.737675E-3,-8.697425E-3,3.5200138E-2,-3.0759955E-2,-4.223777E-3,3.302651E-2,-1.4467259E-2],"split_indices":[59,136,104,121,83,36,59,0,0,0,0,0,0,0,0],"split_type":[0,0,0,0,0,0,0,0,0,0,0,0,0,0,0],"sum_hessian":[9.606605E3,8.1308145E3,1.4757904E3,7.3894214E3,7.413931E2,1.3622008E3,1.1358957E2,6.6558735E3,7.335481E2,7.162966E2,2.509661E1,1.0419637E2,1.2580045E3,7.086245E1,4.272712E1],"tree_param":{"num_deleted":"0","num_feature":"146","num_nodes":"15","size_leaf_vector":"1"}},{"base_weights":[-7.7446047E-3,-5.8876462E-2,2.438551E-2,-2.1425496E-1,-2.7627185E-2,2.2007262E-2,5.4378506E-2,-7.594837E-2,-1.17717385E-2,1.4015782E-2,-2.7869279E-3,1.4342156E-3,-1.1599212E-1],"categories":[],"categories_nodes":[],"categories_segments":[],"categories_sizes":[],"default_left":[0,1,0,1,0,0,0,0,0,0,0,0,0],"id":61,"left_children":[1,3,5,7,9,11,-1,-1,-1,-1,-1,-1,-1],"loss_changes":[1.5852103E1,1.787401E1,1.1323314E1,1.226792E1,1.4241719E1,1.5097202E1,0E0,0E0,0E0,0E0,0E0,0E0,0E0],"parents":[2147483647,0,0,1,1,2,2,3,3,4,4,5,5],"right_children":[2,4,6,8,10,12,-1,-1,-1,-1,-1,-1,-1],"split_conditions":[4.8E2,2.2077923E-1,7.25E0,-5E0,3.7688443E-1,5.5E0,5.4378506E-2,-7.594837E-2,-1.17717385E-2,1.4015782E-2,-2.7869279E-3,1.4342156E-3,-1.1599212E-1],"split_indices":[1,89,13,42,89,11,0,0,0,0,0,0,0],"split_type":[0,0,0,0,0,0,0,0,0,0,0,0,0],"sum_hessian":[9.629146E3,3.7265928E3,5.9025537E3,6.1870593E2,3.107887E3,5.8878677E3,1.4686322E1,1.1274439E1,6.074315E2,1.9986179E2,2.9080251E3,5.8842124E3,3.655133E0],"tree_param":{"num_deleted":"0","num_feature":"146","num_nodes":"13","size_leaf_vector":"1"}}]},"name":"gbtree"},"learner_model_param":{"base_score":"5E-1","boost_from_average":"1","num_class":"0","num_feature":"146","num_target":"1"},"objective":{"name":"reg:squarederror","reg_loss_param":{"scale_pos_weight":"1"}}},"version":[2,1,1]}