{"learner":{"attributes":{"best_iteration":"11","best_score":"8.0"},"feature_names":["deltaTimestampOpeningSection1min","deltaTimestampOpeningSection5min","deltaTimestampOpeningSection30min","candleSizeTicks","diffPriceClosePoc_0_0","diffPriceClosePoc_0_1","diffPriceClosePoc_0_2","diffPriceClosePoc_0_3","diffPriceClosePoc_0_4","diffPriceClosePoc_0_5","diffHighPrice_0_1","diffHighPrice_0_2","diffHighPrice_0_3","diffHighPrice_0_4","diffHighPrice_0_5","diffLowPrice_0_1","diffLowPrice_0_2","diffLowPrice_0_3","diffLowPrice_0_4","diffLowPrice_0_5","diffPriceCloseVWAP","diffPriceCloseVWAPbyIndex","atr","bandWidthBB","perctBB","perct_VA6P","ratio_delta_vol_VA6P","diffPriceClose_VA6PPoc","diffPriceClose_VA6PvaH","diffPriceClose_VA6PvaL","perct_VA11P","ratio_delta_vol_VA11P","diffPriceClose_VA11PPoc","diffPriceClose_VA11PvaH","diffPriceClose_VA11PvaL","perct_VA16P","ratio_delta_vol_VA16P","diffPriceClose_VA16PPoc","diffPriceClose_VA16PvaH","diffPriceClose_VA16PvaL","perct_VA21P","ratio_delta_vol_VA21P","diffPriceClose_VA21PPoc","diffPriceClose_VA21PvaH","diffPriceClose_VA21PvaL","overlap_ratio_VA_6P_11P","overlap_ratio_VA_6P_16P","overlap_ratio_VA_6P_21P","overlap_ratio_VA_11P_21P","poc_diff_6P_11P","poc_diff_ratio_6P_11P","poc_diff_6P_16P","poc_diff_ratio_6P_16P","poc_diff_6P_21P","poc_diff_ratio_6P_21P","poc_diff_11P_21P","poc_diff_ratio_11P_21P","market_regimeADX","range_strength_10_32","range_strength_5_23","is_in_range_10_32","is_in_range_5_23","bearish_reversal_force","bullish_reversal_force","bearish_ask_bid_ratio","bullish_ask_bid_ratio","ratioDeltaBlw","ratioDeltaAbv","diffVolCandle_0_1Ratio","diffVolDelta_0_1Ratio","cumDiffVolDeltaRatio","VolPocVolCandleRatio","pocDeltaPocVolRatio","VolAbv_vol_ratio","VolBlw_vol_ratio","asymetrie_volume","VolCandleMeanxRatio","bearish_ask_ratio","bearish_bid_ratio","bullish_ask_ratio","bullish_bid_ratio","bearish_ask_score","bearish_bid_score","bearish_imnbScore_score","bullish_ask_score","bullish_bid_score","bullish_imnbScore_score","bull_imbalance_low_1","bull_imbalance_low_2","bull_imbalance_low_3","bull_imbalance_high_0","bull_imbalance_high_1","bull_imbalance_high_2","bear_imbalance_low_0","bear_imbalance_low_1","bear_imbalance_low_2","bear_imbalance_high_1","bear_imbalance_high_2","bear_imbalance_high_3","imbalance_score_low","imbalance_score_high","finished_auction_high","finished_auction_low","bearish_ask_abs_ratio_abv","bearish_bid_abs_ratio_abv","bearish_abs_diff_abv","bullish_ask_abs_ratio_blw","bullish_bid_abs_ratio_blw","bullish_abs_diff_blw","bearish_asc_dsc_ratio","bearish_asc_dynamics","bearish_dsc_dynamics","bullish_asc_dsc_ratio","bullish_asc_dynamics","bullish_dsc_dynamics","bearish_asc_ask_bid_imbalance","bearish_dsc_ask_bid_imbalance","bearish_imbalance_evolution","bearish_asc_ask_bid_delta_imbalance","bearish_dsc_ask_bid_delta_imbalance","bullish_asc_ask_bid_imbalance","bullish_dsc_ask_bid_imbalance","bullish_imbalance_evolution","bullish_asc_ask_bid_delta_imbalance","bullish_dsc_ask_bid_delta_imbalance","bearish_absorption_ratio","bullish_absorption_ratio","absorption_intensity_repeat_bearish_vol","bearish_absorption_intensity_repeat_count","bearish_repeatAskBid_ratio","absorption_intensity_repeat_bullish_vol","bullish_absorption_intensity_repeat_count","bullish_repeatAskBid_ratio","count_AbvBlw_asym_ratio","count_blw_tot_ratio","count_abv_tot_ratio","vol_volatility_score","price_volume_dynamic","bearish_absorption_score","bullish_absorption_score","bearish_market_context_score","bullish_market_context_score","bearish_combined_pressure","bullish_combined_pressure","naked_poc_dist_above","naked_poc_dist_below"],"feature_types":["int","int","int","float","float","float","float","float","float","float","float","float","float","float","float","float","float","float","float","float","float","int","float","float","float","float","float","float","float","float","float","float","float","float","float","float","float","float","float","float","float","float","float","float","float","float","float","float","float","float","float","float","float","float","float","float","float","float","float","float","int","int","float","float","float","float","float","float","float","float","float","float","float","float","float","float","float","float","float","float","float","float","float","float","float","float","float","float","float","float","float","float","float","float","float","float","float","float","float","float","float","int","int","float","float","float","float","float","float","float","float","float","float","float","float","float","float","float","float","float","float","float","float","float","float","float","float","float","float","float","float","float","float","float","float","float","float","float","float","float","float","float","float","float","float","float"],"gradient_booster":{"model":{"gbtree_model_param":{"num_parallel_tree":"1","num_trees":"47"},"iteration_indptr":[0,1,2,3,4,5,6,7,8,9,10,11,12,13,14,15,16,17,18,19,20,21,22,23,24,25,26,27,28,29,30,31,32,33,34,35,36,37,38,39,40,41,42,43,44,45,46,47],"tree_info":[0,0,0,0,0,0,0,0,0,0,0,0,0,0,0,0,0,0,0,0,0,0,0,0,0,0,0,0,0,0,0,0,0,0,0,0,0,0,0,0,0,0,0,0,0,0,0],"trees":[{"base_weights":[-4.0632185E-1,-6.68026E-1,-3.9639702E-1,-5.20028E-1,-9.518999E-1,-4.380225E-1,-3.5020414E-1,-5.1190745E-2,-2.355991E-2,-8.972515E-2,-4.753227E-2,-4.7511823E-2,-2.5750468E-2,-1.2138357E-2,-2.181592E-2],"categories":[],"categories_nodes":[],"categories_segments":[],"categories_sizes":[],"default_left":[0,0,0,0,0,0,0,0,0,0,0,0,0,0,0],"id":0,"left_children":[1,3,5,7,9,11,13,-1,-1,-1,-1,-1,-1,-1,-1],"loss_changes":[3.0583008E1,1.6472656E1,2.1842163E1,1.0813217E1,8.667206E0,1.2577148E1,1.2132751E1,0E0,0E0,0E0,0E0,0E0,0E0,0E0,0E0],"parents":[2147483647,0,0,1,1,2,2,3,3,4,4,5,5,6,6],"right_children":[2,4,6,8,10,12,14,-1,-1,-1,-1,-1,-1,-1,-1],"split_conditions":[1.789061E-2,6.343E-1,-3.919149E-2,9.9162084E-5,2.358871E-1,1.2294239E-1,-6.024096E-3,-5.1190745E-2,-2.355991E-2,-8.972515E-2,-4.753227E-2,-4.7511823E-2,-2.5750468E-2,-1.2138357E-2,-2.181592E-2],"split_indices":[138,24,140,54,83,71,123,0,0,0,0,0,0,0,0],"split_type":[0,0,0,0,0,0,0,0,0,0,0,0,0,0,0],"sum_hessian":[1.2349334E4,4.4406094E2,1.1905272E4,2.968349E2,1.4722606E2,6.244076E3,5.661197E3,7.5791306E1,2.2104358E2,2.8272665E1,1.1895339E2,1.0398856E2,6.1400874E3,5.4787994E2,5.113317E3],"tree_param":{"num_deleted":"0","num_feature":"146","num_nodes":"15","size_leaf_vector":"1"}},{"base_weights":[-3.8352105E-1,-5.64557E-1,-3.721867E-1,-8.979787E-1,-4.9096957E-1,-3.9001453E-1,-2.461201E-1,-5.848182E-2,4.592607E-2,-3.0669726E-2,2.887622E-2,-2.5496181E-2,-2.0009695E-2,-1.0875893E-3,-1.7663127E-2],"categories":[],"categories_nodes":[],"categories_segments":[],"categories_sizes":[],"default_left":[0,0,1,0,0,0,0,0,0,0,0,0,0,0,0],"id":1,"left_children":[1,3,5,7,9,11,13,-1,-1,-1,-1,-1,-1,-1,-1],"loss_changes":[2.4094116E1,1.5603088E1,2.5370972E1,1.8511559E1,1.377626E1,1.9784058E1,1.6205177E1,0E0,0E0,0E0,0E0,0E0,0E0,0E0,0E0],"parents":[2147483647,0,0,1,1,2,2,3,3,4,4,5,5,6,6],"right_children":[2,4,6,8,10,12,14,-1,-1,-1,-1,-1,-1,-1,-1],"split_conditions":[6.122449E-1,1.0344828E-1,1.9523809E0,4.296875E-1,5.7291665E0,-3.250802E-2,5.9960327E0,-5.848182E-2,4.592607E-2,-3.0669726E-2,2.887622E-2,-2.5496181E-2,-2.0009695E-2,-1.0875893E-3,-1.7663127E-2],"split_indices":[129,83,90,116,109,140,58,0,0,0,0,0,0,0,0],"split_type":[0,0,0,0,0,0,0,0,0,0,0,0,0,0,0],"sum_hessian":[1.2367919E4,7.193168E2,1.1648603E4,1.2473517E2,5.945816E2,1.0195489E4,1.4531135E3,1.20006546E2,4.728616E0,5.825136E2,1.2068037E1,6.0394766E3,4.156012E3,2.6537866E2,1.1877349E3],"tree_param":{"num_deleted":"0","num_feature":"146","num_nodes":"15","size_leaf_vector":"1"}},{"base_weights":[-3.6351413E-1,-3.569777E-1,-6.8134147E-1,-3.9561462E-1,-3.1302232E-1,-7.7838763E-3,-8.039715E-1,-1.8258592E-2,-2.5095586E-2,-1.5700348E-2,-2.2081882E-2,-7.14745E-2,-3.6144383E-2],"categories":[],"categories_nodes":[],"categories_segments":[],"categories_sizes":[],"default_left":[0,0,0,0,0,0,0,0,0,0,0,0,0],"id":2,"left_children":[1,3,5,7,9,-1,11,-1,-1,-1,-1,-1,-1],"loss_changes":[2.4457031E1,1.9827148E1,1.5501755E1,1.3581726E1,1.5520935E1,0E0,1.2691269E1,0E0,0E0,0E0,0E0,0E0,0E0],"parents":[2147483647,0,0,1,1,2,2,3,3,4,4,6,6],"right_children":[2,4,6,8,10,-1,12,-1,-1,-1,-1,-1,-1],"split_conditions":[4.98513E1,-9.627611E-2,-2.5E-1,-1E0,1E0,-7.7838763E-3,2.8372733E-3,-1.8258592E-2,-2.5095586E-2,-1.5700348E-2,-2.2081882E-2,-7.14745E-2,-3.6144383E-2],"split_indices":[20,119,32,38,6,0,137,0,0,0,0,0,0],"split_type":[0,0,0,0,0,0,0,0,0,0,0,0,0],"sum_hessian":[1.2464393E4,1.2219281E4,2.4511148E2,6.4844043E3,5.7348774E3,4.6724983E1,1.983865E2,1.4288204E3,5.055584E3,3.0753037E3,2.6595735E3,6.233699E1,1.3604951E2],"tree_param":{"num_deleted":"0","num_feature":"146","num_nodes":"13","size_leaf_vector":"1"}},{"base_weights":[-3.268669E-1,-3.3573887E-1,-8.104514E-2,-3.301058E-1,-6.1488545E-1,-1.3156866E-1,4.2906117E-2,-1.4497495E-2,-2.0899659E-2,-5.46822E-2,-1.7406432E-2,2.0815206E-3,-1.7917693E-2],"categories":[],"categories_nodes":[],"categories_segments":[],"categories_sizes":[],"default_left":[0,0,1,1,1,1,0,0,0,0,0,0,0],"id":3,"left_children":[1,3,5,7,9,11,-1,-1,-1,-1,-1,-1,-1],"loss_changes":[2.6723999E1,1.7641235E1,1.7302608E1,2.0018677E1,2.103511E1,1.2007185E1,0E0,0E0,0E0,0E0,0E0,0E0,0E0],"parents":[2147483647,0,0,1,1,2,2,3,3,4,4,5,5],"right_children":[2,4,6,8,10,12,-1,-1,-1,-1,-1,-1,-1],"split_conditions":[9.447415E-2,4.98513E1,5.5E0,-7.692308E-2,6.3095236E-1,2.2160665E-4,4.2906117E-2,-1.4497495E-2,-2.0899659E-2,-5.46822E-2,-1.7406432E-2,2.0815206E-3,-1.7917693E-2],"split_indices":[119,20,145,30,125,52,0,0,0,0,0,0,0],"split_type":[0,0,0,0,0,0,0,0,0,0,0,0,0],"sum_hessian":[1.2474624E4,1.2035385E4,4.392384E2,1.1803925E4,2.3146089E2,4.1545544E2,2.378298E1,2.2350122E3,9.568912E3,1.1673218E2,1.14728714E2,2.0646115E2,2.089943E2],"tree_param":{"num_deleted":"0","num_feature":"146","num_nodes":"13","size_leaf_vector":"1"}},{"base_weights":[-3.1549448E-1,-3.2443327E-1,-1.5933779E-1,-4.75404E-1,-3.1163678E-1,-1.8297748E-1,5.237983E-2,-2.3255238E-2,-3.8580682E-2,-1.694473E-2,-2.1380015E-2,-2.4221387E-2,-6.122604E-3],"categories":[],"categories_nodes":[],"categories_segments":[],"categories_sizes":[],"default_left":[0,0,0,0,0,0,0,0,0,0,0,0,0],"id":4,"left_children":[1,3,5,7,9,11,-1,-1,-1,-1,-1,-1,-1],"loss_changes":[1.6878906E1,2.1809082E1,1.6301134E1,1.1970108E1,1.3259399E1,1.1465593E1,0E0,0E0,0E0,0E0,0E0,0E0,0E0],"parents":[2147483647,0,0,1,1,2,2,3,3,4,4,5,5],"right_children":[2,4,6,8,10,12,-1,-1,-1,-1,-1,-1,-1],"split_conditions":[6.25E-2,6.666667E-1,6.25E0,-1.25E0,2E0,7.519864E-1,5.237983E-2,-2.3255238E-2,-3.8580682E-2,-1.694473E-2,-2.1380015E-2,-2.4221387E-2,-6.122604E-3],"split_indices":[119,129,29,144,13,76,0,0,0,0,0,0,0],"split_type":[0,0,0,0,0,0,0,0,0,0,0,0,0],"sum_hessian":[1.2513233E4,1.1827856E4,6.853772E2,9.139025E2,1.0913953E4,6.7218274E2,1.3194468E1,6.163639E2,2.9753864E2,6.8790137E3,4.03494E3,1.7308444E2,4.990983E2],"tree_param":{"num_deleted":"0","num_feature":"146","num_nodes":"13","size_leaf_vector":"1"}},{"base_weights":[-3.0817315E-1,-3.015888E-1,-5.7126784E-1,-8.6449033E-1,-2.986262E-1,-6.3824123E-1,7.0926785E-3,-7.6266457E-3,-6.265202E-2,-1.7033646E-2,-2.4295218E-2,-7.682655E-3,-4.377662E-2],"categories":[],"categories_nodes":[],"categories_segments":[],"categories_sizes":[],"default_left":[0,1,1,0,1,0,0,0,0,0,0,0,0],"id":5,"left_children":[1,3,5,7,9,11,-1,-1,-1,-1,-1,-1,-1],"loss_changes":[2.0521729E1,1.8787476E1,1.4536812E1,6.9478416E0,1.6429321E1,1.2341385E1,0E0,0E0,0E0,0E0,0E0,0E0,0E0],"parents":[2147483647,0,0,1,1,2,2,3,3,4,4,5,5],"right_children":[2,4,6,8,10,12,-1,-1,-1,-1,-1,-1,-1],"split_conditions":[4.54883E1,-3.7142858E-1,1.4041667E1,-2.25E0,-1E0,-3.5353535E-1,7.0926785E-3,-7.6266457E-3,-6.265202E-2,-1.7033646E-2,-2.4295218E-2,-7.682655E-3,-4.377662E-2],"split_indices":[20,36,126,33,144,67,0,0,0,0,0,0,0],"split_type":[0,0,0,0,0,0,0,0,0,0,0,0,0],"sum_hessian":[1.2519335E4,1.2220426E4,2.9890936E2,6.0068615E1,1.2160357E4,2.7398254E2,2.492682E1,1.3706829E1,4.6361786E1,1.0862465E4,1.2978931E3,4.552363E1,2.284589E2],"tree_param":{"num_deleted":"0","num_feature":"146","num_nodes":"13","size_leaf_vector":"1"}},{"base_weights":[-2.9628995E-1,-2.8955555E-1,-5.713356E-1,-2.955994E-1,-5.9622616E-2,-6.8046373E-1,-1.900123E-1,-1.6777229E-2,-2.2870185E-2,-1.181231E-2,1.068825E-2,-7.00148E-2,-3.543394E-2,-1.329358E-3,-7.183762E-2],"categories":[],"categories_nodes":[],"categories_segments":[],"categories_sizes":[],"default_left":[0,0,0,0,0,0,0,0,0,0,0,0,0,0,0],"id":6,"left_children":[1,3,5,7,9,11,13,-1,-1,-1,-1,-1,-1,-1,-1],"loss_changes":[2.2171143E1,1.667871E1,1.1195366E1,1.4261963E1,1.067528E1,6.871063E0,1.051782E1,0E0,0E0,0E0,0E0,0E0,0E0,0E0,0E0],"parents":[2147483647,0,0,1,1,2,2,3,3,4,4,5,5,6,6],"right_children":[2,4,6,8,10,12,14,-1,-1,-1,-1,-1,-1,-1,-1],"split_conditions":[4.54883E1,1.12021856E-1,8.35206E-1,2.809258E0,2.062937E0,-1.5853658E-1,5.635359E-1,-1.6777229E-2,-2.2870185E-2,-1.181231E-2,1.068825E-2,-7.00148E-2,-3.543394E-2,-1.329358E-3,-7.183762E-2],"split_indices":[20,119,68,136,76,36,134,0,0,0,0,0,0,0,0],"split_type":[0,0,0,0,0,0,0,0,0,0,0,0,0,0,0],"sum_hessian":[1.2587113E4,1.2292754E4,2.943597E2,1.1972977E4,3.19777E2,2.2586153E2,6.849819E1,1.0300887E4,1.6720892E3,2.054561E2,1.1432091E2,2.9394567E1,1.9646696E2,6.084413E1,7.6540627E0],"tree_param":{"num_deleted":"0","num_feature":"146","num_nodes":"15","size_leaf_vector":"1"}},{"base_weights":[-2.5486434E-1,-4.6447194E-1,-2.460295E-1,-4.1748822E-1,-1.2041485E0,-2.7027017E-1,-1.7994969E-1,-2.6907299E-2,1.4393935E-2,-8.839813E-2,4.496795E-3,-1.5805516E-2,-3.687343E-2,1.1296906E-2,-1.1382259E-2],"categories":[],"categories_nodes":[],"categories_segments":[],"categories_sizes":[],"default_left":[0,0,0,0,0,0,0,0,0,0,0,0,0,0,0],"id":7,"left_children":[1,3,5,7,9,11,13,-1,-1,-1,-1,-1,-1,-1,-1],"loss_changes":[2.2546692E1,1.5175156E1,1.89375E1,1.0947418E1,1.1659477E1,1.5367859E1,1.3171898E1,0E0,0E0,0E0,0E0,0E0,0E0,0E0,0E0],"parents":[2147483647,0,0,1,1,2,2,3,3,4,4,5,5,6,6],"right_children":[2,4,6,8,10,12,14,-1,-1,-1,-1,-1,-1,-1,-1],"split_conditions":[2.0238018E-2,8.45E2,5.4761904E-1,9E0,4E0,5.8210945E-1,-2.4087591E-1,-2.6907299E-2,1.4393935E-2,-8.839813E-2,4.496795E-3,-1.5805516E-2,-3.687343E-2,1.1296906E-2,-1.1382259E-2],"split_indices":[138,1,128,39,18,118,81,0,0,0,0,0,0,0,0],"split_type":[0,0,0,0,0,0,0,0,0,0,0,0,0,0,0],"sum_hessian":[1.2668823E4,5.0470297E2,1.216412E4,4.7786804E2,2.6834906E1,8.884536E3,3.2795842E3,4.5668835E2,2.1179714E1,2.2573307E1,4.261599E0,8.755249E3,1.2928673E2,8.998695E1,3.1895972E3],"tree_param":{"num_deleted":"0","num_feature":"146","num_nodes":"15","size_leaf_vector":"1"}},{"base_weights":[-2.4751514E-1,-7.2934085E-1,-2.4488918E-1,-0E0,-8.7911546E-1,-2.3333687E-1,-3.5173225E-1,2.957567E-2,-5.7839543E-2,-1.331272E-2,-2.0862153E-2,-2.228509E-2,6.3631735E-3],"categories":[],"categories_nodes":[],"categories_segments":[],"categories_sizes":[],"default_left":[0,1,0,0,0,0,1,0,0,0,0,0,0],"id":8,"left_children":[1,3,5,-1,7,9,11,-1,-1,-1,-1,-1,-1],"loss_changes":[1.47873535E1,7.6067047E0,1.4860901E1,0E0,8.006084E0,1.28289795E1,1.2542206E1,0E0,0E0,0E0,0E0,0E0,0E0],"parents":[2147483647,0,0,1,1,2,2,4,4,5,5,6,6],"right_children":[2,4,6,-1,8,10,12,-1,-1,-1,-1,-1,-1],"split_conditions":[-6.23147E1,-6.666667E-1,1.0479E0,-0E0,-9.69697E-1,8.25E2,1.8125E0,2.957567E-2,-5.7839543E-2,-1.331272E-2,-2.0862153E-2,-2.228509E-2,6.3631735E-3],"split_indices":[20,35,24,0,99,0,35,0,0,0,0,0,0],"split_type":[0,0,0,0,0,0,0,0,0,0,0,0,0],"sum_hessian":[1.2701913E4,6.4648674E1,1.2637265E4,1.0720171E1,5.3928505E1,1.1417087E4,1.2201777E3,2.224989E0,5.1703518E1,1.050885E4,9.0823694E2,1.1672786E3,5.2899094E1],"tree_param":{"num_deleted":"0","num_feature":"146","num_nodes":"13","size_leaf_vector":"1"}},{"base_weights":[-2.2427395E-1,-2.349275E-1,-1.1308953E-1,-7.330524E-1,-2.3100533E-1,-8.444332E-1,-8.314004E-2,-2.3871262E-2,-7.051568E-2,-8.652124E-3,-1.503097E-2,-7.551559E-2,7.885242E-3,-2.1503258E-2,-2.0798878E-3],"categories":[],"categories_nodes":[],"categories_segments":[],"categories_sizes":[],"default_left":[0,0,0,0,1,1,0,0,0,0,0,0,0,0,0],"id":9,"left_children":[1,3,5,7,9,11,13,-1,-1,-1,-1,-1,-1,-1,-1],"loss_changes":[1.4660278E1,2.1401672E1,2.3524422E1,1.0803978E1,2.0246704E1,1.8991888E1,1.4049086E1,0E0,0E0,0E0,0E0,0E0,0E0,0E0,0E0],"parents":[2147483647,0,0,1,1,2,2,3,3,4,4,5,5,6,6],"right_children":[2,4,6,8,10,12,14,-1,-1,-1,-1,-1,-1,-1,-1],"split_conditions":[7.04E-1,-3.0835736E-1,1.2294239E-1,-1.5E0,-1E-1,6.680162E-1,-1E0,-2.3871262E-2,-7.051568E-2,-8.652124E-3,-1.503097E-2,-7.551559E-2,7.885242E-3,-2.1503258E-2,-2.0798878E-3],"split_indices":[103,36,71,144,40,97,43,0,0,0,0,0,0,0,0],"split_type":[0,0,0,0,0,0,0,0,0,0,0,0,0,0,0],"sum_hessian":[1.2721567E4,1.1599004E4,1.1225631E3,8.655475E1,1.1512449E4,4.1336147E1,1.0812269E3,5.250464E1,3.405011E1,2.2659812E3,9.246468E3,2.937677E1,1.1959377E1,1.5576562E2,9.254613E2],"tree_param":{"num_deleted":"0","num_feature":"146","num_nodes":"15","size_leaf_vector":"1"}},{"base_weights":[-2.1802166E-1,-2.2891901E-1,-1.1721501E-2,-1.5945241E-1,-2.498864E-1,2.1579577E-2,-5.1741505E-1,-8.254165E-3,-3.0422369E-2,-2.3982674E-2,-1.43598905E-2,1.6212113E-2,-4.294082E-3,-5.282995E-2,5.8678733E-3],"categories":[],"categories_nodes":[],"categories_segments":[],"categories_sizes":[],"default_left":[0,0,1,0,0,1,0,0,0,0,0,0,0,0,0],"id":10,"left_children":[1,3,5,7,9,11,13,-1,-1,-1,-1,-1,-1,-1,-1],"loss_changes":[2.8299377E1,1.7075684E1,1.1390713E1,2.0007103E1,1.2121277E1,1.4359595E1,1.0443663E1,0E0,0E0,0E0,0E0,0E0,0E0,0E0,0E0],"parents":[2147483647,0,0,1,1,2,2,3,3,4,4,5,5,6,6],"right_children":[2,4,6,8,10,12,14,-1,-1,-1,-1,-1,-1,-1,-1],"split_conditions":[6.716418E-2,5.0511944E-1,1.2882447E-3,1.9867808E-1,2.5001938E-2,-2E-1,6.550725E-2,-8.254165E-3,-3.0422369E-2,-2.3982674E-2,-1.43598905E-2,1.6212113E-2,-4.294082E-3,-5.282995E-2,5.8678733E-3],"split_indices":[119,79,52,36,138,25,36,0,0,0,0,0,0,0,0],"split_type":[0,0,0,0,0,0,0,0,0,0,0,0,0,0,0],"sum_hessian":[1.2703633E4,1.2061159E4,6.424734E2,2.8109622E3,9.250197E3,6.019628E2,4.0510555E1,2.655951E3,1.5501126E2,5.175945E2,8.732603E3,1.663004E2,4.3566245E2,2.6088984E1,1.4421573E1],"tree_param":{"num_deleted":"0","num_feature":"146","num_nodes":"15","size_leaf_vector":"1"}},{"base_weights":[-1.945496E-1,-6.154585E-1,-1.910026E-1,3.8314506E-3,-7.520872E-1,-6.335614E-2,-1.9978064E-1,-5.8167025E-2,-8.64801E-3,1.604918E-3,-1.09859165E-2,-1.2415776E-2,-2.4632348E-3],"categories":[],"categories_nodes":[],"categories_segments":[],"categories_sizes":[],"default_left":[0,0,0,0,0,1,0,0,0,0,0,0,0],"id":11,"left_children":[1,3,5,-1,7,9,11,-1,-1,-1,-1,-1,-1],"loss_changes":[1.8104248E1,1.0456898E1,1.3940796E1,0E0,1.0508705E1,9.198157E0,1.5395264E1,0E0,0E0,0E0,0E0,0E0,0E0],"parents":[2147483647,0,0,1,1,2,2,4,4,5,5,6,6],"right_children":[2,4,6,-1,8,10,12,-1,-1,-1,-1,-1,-1],"split_conditions":[-3.0835736E-1,-7.3938904E-4,-8.82353E-2,3.8314506E-3,2E0,1E0,6.716418E-2,-5.8167025E-2,-8.64801E-3,1.604918E-3,-1.09859165E-2,-1.2415776E-2,-2.4632348E-3],"split_indices":[36,143,123,0,19,53,119,0,0,0,0,0,0],"split_type":[0,0,0,0,0,0,0,0,0,0,0,0,0],"sum_hessian":[1.281109E4,1.0261733E2,1.2708473E4,1.5971926E1,8.664541E1,8.263056E2,1.1882167E4,6.149767E1,2.5147738E1,4.683899E2,3.5791568E2,1.1282501E4,5.9966583E2],"tree_param":{"num_deleted":"0","num_feature":"146","num_nodes":"13","size_leaf_vector":"1"}},{"base_weights":[-1.8711963E-1,-1.8025967E-1,-3.954115E-1,-1.6448726E-1,-2.4053162E-1,-1.2399436E-1,-5.525857E-1,-9.259977E-3,-1.77809E-2,-1.6390773E-2,-4.7659674E-3,2.277986E-2,-1.8114483E-2,-3.510315E-2,5.816717E-2],"categories":[],"categories_nodes":[],"categories_segments":[],"categories_sizes":[],"default_left":[0,0,0,1,1,1,1,0,0,0,0,0,0,0,0],"id":12,"left_children":[1,3,5,7,9,11,13,-1,-1,-1,-1,-1,-1,-1,-1],"loss_changes":[1.7559143E1,1.1288208E1,1.6314613E1,1.1640198E1,1.36115265E1,1.3833999E1,1.4084702E1,0E0,0E0,0E0,0E0,0E0,0E0,0E0,0E0],"parents":[2147483647,0,0,1,1,2,2,3,3,4,4,5,5,6,6],"right_children":[2,4,6,8,10,12,14,-1,-1,-1,-1,-1,-1,-1,-1],"split_conditions":[3.89268E1,2.75E0,1.3076923E0,7.9944916E0,8.854346E-4,-4.7058824E-1,8.9494824E-1,-9.259977E-3,-1.77809E-2,-1.6390773E-2,-4.7659674E-3,2.277986E-2,-1.8114483E-2,-3.510315E-2,5.816717E-2],"split_indices":[20,18,89,58,56,25,113,0,0,0,0,0,0,0,0],"split_type":[0,0,0,0,0,0,0,0,0,0,0,0,0,0,0],"sum_hessian":[1.2787489E4,1.238716E4,4.0032968E2,9.835999E3,2.5511604E3,1.5018956E2,2.5014012E2,9.207174E3,6.288254E2,2.0971028E3,4.5405768E2,3.7397396E1,1.1279216E2,2.458955E2,4.244618E0],"tree_param":{"num_deleted":"0","num_feature":"146","num_nodes":"15","size_leaf_vector":"1"}},{"base_weights":[-1.7028843E-1,-2.0802131E-1,-1.266534E-1,-1.9910116E-1,-5.3089154E-1,-1.3917154E-1,9.6041024E-2,-7.61937E-3,-1.3959048E-2,-8.332468E-2,-2.669417E-2,-4.306584E-3,-1.0517516E-2,-1.6132575E-2,1.6798418E-2],"categories":[],"categories_nodes":[],"categories_segments":[],"categories_sizes":[],"default_left":[0,1,0,1,0,0,0,0,0,0,0,0,0,0,0],"id":13,"left_children":[1,3,5,7,9,11,13,-1,-1,-1,-1,-1,-1,-1,-1],"loss_changes":[2.0795715E1,1.8908234E1,1.6748993E1,1.6266968E1,1.0275631E1,1.3816666E1,2.1508474E1,0E0,0E0,0E0,0E0,0E0,0E0,0E0,0E0],"parents":[2147483647,0,0,1,1,2,2,3,3,4,4,5,5,6,6],"right_children":[2,4,6,8,10,12,14,-1,-1,-1,-1,-1,-1,-1,-1],"split_conditions":[-9.627611E-2,5.996279E0,9.136364E-1,2.3529412E-1,-5.185185E-1,3.1836E0,2.413975E-1,-7.61937E-3,-1.3959048E-2,-8.332468E-2,-2.669417E-2,-4.306584E-3,-1.0517516E-2,-1.6132575E-2,1.6798418E-2],"split_indices":[119,59,72,35,117,23,136,0,0,0,0,0,0,0,0],"split_type":[0,0,0,0,0,0,0,0,0,0,0,0,0,0,0],"sum_hessian":[1.2869318E4,6.885496E3,5.9838228E3,6.705702E3,1.7979387E2,5.670411E3,3.1341144E2,2.2126226E3,4.4930796E3,1.2850996E1,1.6694287E2,2.0333496E3,3.6370615E3,1.031854E2,2.1022603E2],"tree_param":{"num_deleted":"0","num_feature":"146","num_nodes":"15","size_leaf_vector":"1"}},{"base_weights":[-1.6737193E-1,-3.8735098E-1,-1.6165952E-1,-5.277556E-1,-0E0,-1.5311202E-1,-3.0064294E-1,2.1254033E-2,-3.443329E-2,-3.4367118E-2,9.591215E-3,-8.300649E-3,-1.5454094E-2,-1.930083E-2,3.8491685E-2],"categories":[],"categories_nodes":[],"categories_segments":[],"categories_sizes":[],"default_left":[0,0,0,0,0,0,1,0,0,0,0,0,0,0,0],"id":14,"left_children":[1,3,5,7,9,11,13,-1,-1,-1,-1,-1,-1,-1,-1],"loss_changes":[1.5441895E1,1.7196827E1,1.4308746E1,1.0704605E1,8.26435E0,1.698938E1,1.5410019E1,0E0,0E0,0E0,0E0,0E0,0E0,0E0,0E0],"parents":[2147483647,0,0,1,1,2,2,3,3,4,4,5,5,6,6],"right_children":[2,4,6,8,10,12,14,-1,-1,-1,-1,-1,-1,-1,-1],"split_conditions":[1.0656616E-2,2.0139534E0,9.4837475E-1,0E0,9.9162084E-5,1.0203E0,1.7058823E0,2.1254033E-2,-3.443329E-2,-3.4367118E-2,9.591215E-3,-8.300649E-3,-1.5454094E-2,-1.930083E-2,3.8491685E-2],"split_indices":[138,96,129,17,54,24,30,0,0,0,0,0,0,0,0],"split_type":[0,0,0,0,0,0,0,0,0,0,0,0,0,0,0],"sum_hessian":[1.2823825E4,3.1757535E2,1.250625E4,2.3221086E2,8.536447E1,1.1791592E4,7.146588E2,1.0698735E1,2.2151213E2,1.8259436E1,6.710504E1,1.0428097E4,1.3634948E3,6.997512E2,1.4907616E1],"tree_param":{"num_deleted":"0","num_feature":"146","num_nodes":"15","size_leaf_vector":"1"}},{"base_weights":[-1.561969E-1,-1.9181101E-1,-1.1321213E-1,-5.5449232E-2,-2.0878442E-1,-1.3631113E-1,5.384701E-3,1.4075034E-2,-6.4939857E-3,-1.2010211E-2,-4.3301832E-2,4.214225E-4,-9.376777E-3,6.0830335E-3,-6.7199217E-3],"categories":[],"categories_nodes":[],"categories_segments":[],"categories_sizes":[],"default_left":[0,0,0,0,0,1,0,0,0,0,0,0,0,0,0],"id":15,"left_children":[1,3,5,7,9,11,13,-1,-1,-1,-1,-1,-1,-1,-1],"loss_changes":[1.9371063E1,1.5976135E1,1.618509E1,1.2145073E1,2.2960175E1,1.4842163E1,1.0812329E1,0E0,0E0,0E0,0E0,0E0,0E0,0E0,0E0],"parents":[2147483647,0,0,1,1,2,2,3,3,4,4,5,5,6,6],"right_children":[2,4,6,8,10,12,14,-1,-1,-1,-1,-1,-1,-1,-1],"split_conditions":[-9.42029E-2,-1.5E0,1.2272727E0,-8.302421E-3,6.04773E1,-3.0769232E-1,8.1053695E-5,1.4075034E-2,-6.4939857E-3,-1.2010211E-2,-4.3301832E-2,4.214225E-4,-9.376777E-3,6.0830335E-3,-6.7199217E-3],"split_indices":[119,33,30,143,20,25,56,0,0,0,0,0,0,0,0],"split_type":[0,0,0,0,0,0,0,0,0,0,0,0,0,0,0],"sum_hessian":[1.2885817E4,7.0308887E3,5.8549287E3,7.859344E2,6.2449546E3,4.9079116E3,9.470172E2,1.1790384E2,6.680306E2,6.1597646E3,8.518989E1,6.1678436E2,4.2911274E3,5.2594824E2,4.2106894E2],"tree_param":{"num_deleted":"0","num_feature":"146","num_nodes":"15","size_leaf_vector":"1"}},{"base_weights":[-1.4642882E-1,-4.9431923E-1,-1.4191738E-1,-2.3261257E-1,-8.167247E-1,-1.3818571E-1,-4.41798E-1,-3.1556956E-2,9.28086E-3,-5.878258E-2,6.2488606E-3,-2.7935442E-3,-9.176388E-3,2.399966E-2,-3.6184765E-2],"categories":[],"categories_nodes":[],"categories_segments":[],"categories_sizes":[],"default_left":[0,0,0,1,1,1,1,0,0,0,0,0,0,0,0],"id":16,"left_children":[1,3,5,7,9,11,13,-1,-1,-1,-1,-1,-1,-1,-1],"loss_changes":[1.9430298E1,1.2223907E1,1.35242E1,1.1172336E1,1.1937119E1,1.7707443E1,2.1691963E1,0E0,0E0,0E0,0E0,0E0,0E0,0E0,0E0],"parents":[2147483647,0,0,1,1,2,2,3,3,4,4,5,5,6,6],"right_children":[2,4,6,8,10,12,14,-1,-1,-1,-1,-1,-1,-1,-1],"split_conditions":[-1.8461539E0,1.1320755E-1,6.04773E1,-6.7054003E-1,6.4215684E-1,-1.6666667E-1,-6.315789E-1,-3.1556956E-2,9.28086E-3,-5.878258E-2,6.2488606E-3,-2.7935442E-3,-9.176388E-3,2.399966E-2,-3.6184765E-2],"split_indices":[70,72,20,143,86,30,35,0,0,0,0,0,0,0,0],"split_type":[0,0,0,0,0,0,0,0,0,0,0,0,0,0,0],"sum_hessian":[1.2874538E4,1.5992958E2,1.2714608E4,9.137201E1,6.855756E1,1.2563786E4,1.5082222E2,5.3120304E1,3.8251705E1,5.886862E1,9.688941E0,1.8453757E3,1.071841E4,2.3246052E1,1.27576164E2],"tree_param":{"num_deleted":"0","num_feature":"146","num_nodes":"15","size_leaf_vector":"1"}},{"base_weights":[-1.4548817E-1,-1.5768819E-1,-6.632041E-2,-1.4894901E-1,-3.660589E-1,2.8898964E-2,-1.5981665E-1,-4.3119635E-2,-8.694549E-3,-1.8498307E-2,-6.494929E-2,-1.8793896E-2,4.829796E-3,-8.146077E-3,-3.823356E-2],"categories":[],"categories_nodes":[],"categories_segments":[],"categories_sizes":[],"default_left":[1,0,0,0,1,0,1,0,0,0,0,0,0,0,0],"id":17,"left_children":[1,3,5,7,9,11,13,-1,-1,-1,-1,-1,-1,-1,-1],"loss_changes":[1.2175293E1,1.9656677E1,1.5571651E1,1.867743E1,1.5954205E1,1.5065492E1,8.901819E0,0E0,0E0,0E0,0E0,0E0,0E0,0E0,0E0],"parents":[2147483647,0,0,1,1,2,2,3,3,4,4,5,5,6,6],"right_children":[2,4,6,8,10,12,14,-1,-1,-1,-1,-1,-1,-1,-1],"split_conditions":[6.75E0,3.75E0,7.8368795E-1,7.633588E-3,8.9E0,1E0,8.194517E-2,-4.3119635E-2,-8.694549E-3,-1.8498307E-2,-6.494929E-2,-1.8793896E-2,4.829796E-3,-8.146077E-3,-3.823356E-2],"split_indices":[44,51,62,103,96,19,143,0,0,0,0,0,0,0,0],"split_type":[0,0,0,0,0,0,0,0,0,0,0,0,0,0,0],"sum_hessian":[1.2868761E4,1.1137511E4,1.7312494E3,1.0696334E4,4.4117648E2,8.524602E2,8.7878925E2,5.614188E1,1.0640192E4,4.1257367E2,2.8602806E1,1.0846942E2,7.439908E2,8.4197546E2,3.6813778E1],"tree_param":{"num_deleted":"0","num_feature":"146","num_nodes":"15","size_leaf_vector":"1"}},{"base_weights":[-1.3357386E-1,-1.2581295E-1,-3.655455E-1,-1.3753374E-1,-1.5702376E-2,-4.6497375E-1,-8.616579E-2,-1.7875793E-3,-9.35462E-3,-7.69081E-3,4.0746187E-3,-1.2322427E-2,-4.0628403E-2,3.249582E-2,-1.959708E-2],"categories":[],"categories_nodes":[],"categories_segments":[],"categories_sizes":[],"default_left":[0,0,0,1,0,0,0,0,0,0,0,0,0,0,0],"id":18,"left_children":[1,3,5,7,9,11,13,-1,-1,-1,-1,-1,-1,-1,-1],"loss_changes":[2.256224E1,1.5900284E1,1.0773861E1,2.3088455E1,1.1564988E1,1.5609581E1,1.7180134E1,0E0,0E0,0E0,0E0,0E0,0E0,0E0,0E0],"parents":[2147483647,0,0,1,1,2,2,3,3,4,4,5,5,6,6],"right_children":[2,4,6,8,10,12,14,-1,-1,-1,-1,-1,-1,-1,-1],"split_conditions":[8.5E2,6.0714287E-1,5.151515E-1,-2.1052632E-1,3.6363637E-1,2.92514E1,1.875E-1,-1.7875793E-3,-9.35462E-3,-7.69081E-3,4.0746187E-3,-1.2322427E-2,-4.0628403E-2,3.249582E-2,-1.959708E-2],"split_indices":[1,128,47,30,94,57,111,0,0,0,0,0,0,0,0],"split_type":[0,0,0,0,0,0,0,0,0,0,0,0,0,0,0],"sum_hessian":[1.2858922E4,1.2449101E4,4.0982184E2,1.1242289E4,1.2068113E3,2.98762E2,1.1105983E2,1.716271E3,9.526019E3,5.192033E2,6.876079E2,1.3946785E2,1.5929414E2,2.9129314E1,8.193052E1],"tree_param":{"num_deleted":"0","num_feature":"146","num_nodes":"15","size_leaf_vector":"1"}},{"base_weights":[-1.1555601E-1,-4.214329E-2,-1.309186E-1,-1.9138627E-1,-0E0,-1.3378489E-1,3.0349946E-1,-7.857405E-3,-3.6728453E-2,-3.7557152E-3,1.0214333E-2,-1.0850532E-2,-6.5295896E-3,3.834307E-2,-4.234029E-3],"categories":[],"categories_nodes":[],"categories_segments":[],"categories_sizes":[],"default_left":[1,1,0,0,0,0,0,0,0,0,0,0,0,0,0],"id":19,"left_children":[1,3,5,7,9,11,13,-1,-1,-1,-1,-1,-1,-1,-1],"loss_changes":[1.4404999E1,1.4272289E1,1.318338E1,1.1721277E1,1.8998169E1,1.20950775E1,9.315449E0,0E0,0E0,0E0,0E0,0E0,0E0,0E0,0E0],"parents":[2147483647,0,0,1,1,2,2,3,3,4,4,5,5,6,6],"right_children":[2,4,6,8,10,12,14,-1,-1,-1,-1,-1,-1,-1,-1],"split_conditions":[-1.1111111E-1,-4.3548603E-2,6.75E0,7.0614314E-1,1.75E0,4.2E2,2.8424202E1,-7.857405E-3,-3.6728453E-2,-3.7557152E-3,1.0214333E-2,-1.0850532E-2,-6.5295896E-3,3.834307E-2,-4.234029E-3],"split_indices":[30,142,7,70,19,0,57,0,0,0,0,0,0,0,0],"split_type":[0,0,0,0,0,0,0,0,0,0,0,0,0,0,0],"sum_hessian":[1.2943078E4,2.252799E3,1.0690278E4,4.9762772E2,1.7551715E3,1.0623577E4,6.6701035E1,4.399908E2,5.763688E1,1.2818037E3,4.7336774E2,3.5527446E3,7.070833E3,3.6014877E1,3.0686157E1],"tree_param":{"num_deleted":"0","num_feature":"146","num_nodes":"15","size_leaf_vector":"1"}},{"base_weights":[-1.1203325E-1,-1.2997037E-1,-2.7718576E-2,-1.17488325E-1,-2.5294164E-1,9.9265054E-2,-1.2077443E-1,-7.3381444E-3,4.925351E-3,-1.8049309E-2,-0E0,8.221657E-3,-1.4058694E-2,-6.408439E-3,-5.1840324E-2],"categories":[],"categories_nodes":[],"categories_segments":[],"categories_sizes":[],"default_left":[0,0,0,1,1,1,1,0,0,0,0,0,0,0,0],"id":20,"left_children":[1,3,5,7,9,11,13,-1,-1,-1,-1,-1,-1,-1,-1],"loss_changes":[1.9328415E1,1.58667145E1,2.6914776E1,1.0693924E1,1.2473118E1,1.2298376E1,1.1999847E1,0E0,0E0,0E0,0E0,0E0,0E0,0E0,0E0],"parents":[2147483647,0,0,1,1,2,2,3,3,4,4,5,5,6,6],"right_children":[2,4,6,8,10,12,14,-1,-1,-1,-1,-1,-1,-1,-1],"split_conditions":[5.7251906E-1,3E0,4.6632126E-2,1.2941177E0,5.75E0,-1E0,6.992192E0,-7.3381444E-3,4.925351E-3,-1.8049309E-2,-0E0,8.221657E-3,-1.4058694E-2,-6.408439E-3,-5.1840324E-2],"split_indices":[128,27,31,25,42,144,59,0,0,0,0,0,0,0,0],"split_type":[0,0,0,0,0,0,0,0,0,0,0,0,0,0,0],"sum_hessian":[1.2894505E4,1.0621407E4,2.2730977E3,9.65294E3,9.684668E2,9.56369E2,1.3167285E3,9.400027E3,2.529136E2,8.128957E2,1.5557115E2,8.612532E2,9.511588E1,1.2965211E3,2.0207481E1],"tree_param":{"num_deleted":"0","num_feature":"146","num_nodes":"15","size_leaf_vector":"1"}},{"base_weights":[-1.08857416E-1,-1.1763829E-1,5.2883115E-2,-2.935532E-1,-1.0837979E-1,3.487044E-1,-5.3534202E-2,-1.3763462E-2,-4.5391183E-2,-6.675938E-3,9.02869E-3,2.5873765E-2,-9.537003E-3,-4.987487E-3,7.207135E-2],"categories":[],"categories_nodes":[],"categories_segments":[],"categories_sizes":[],"default_left":[0,1,1,0,1,1,0,0,0,0,0,0,0,0,0],"id":21,"left_children":[1,3,5,7,9,11,13,-1,-1,-1,-1,-1,-1,-1,-1],"loss_changes":[1.8422821E1,1.9490234E1,2.1111464E1,1.650893E1,1.0623886E1,8.052214E0,1.7263365E1,0E0,0E0,0E0,0E0,0E0,0E0,0E0,0E0],"parents":[2147483647,0,0,1,1,2,2,3,3,4,4,5,5,6,6],"right_children":[2,4,6,8,10,12,14,-1,-1,-1,-1,-1,-1,-1,-1],"split_conditions":[6.716418E-2,2.4390243E-2,-2E-1,6.989011E-1,1.9E0,1.2830188E0,6.25E0,-1.3763462E-2,-4.5391183E-2,-6.675938E-3,9.02869E-3,2.5873765E-2,-9.537003E-3,-4.987487E-3,7.207135E-2],"split_indices":[119,92,25,68,35,97,29,0,0,0,0,0,0,0,0],"split_type":[0,0,0,0,0,0,0,0,0,0,0,0,0,0,0],"sum_hessian":[1.2915531E4,1.2257117E4,6.584141E2,6.0500024E2,1.1652116E4,1.7607777E2,4.8233636E2,5.3702814E2,6.797215E1,1.15012705E4,1.508459E2,1.5285237E2,2.3225403E1,4.7314636E2,9.189991E0],"tree_param":{"num_deleted":"0","num_feature":"146","num_nodes":"15","size_leaf_vector":"1"}},{"base_weights":[-1.04130566E-1,-1.1036903E-1,8.326004E-2,-9.867417E-2,-2.0139812E-1,-3.943513E-2,3.9710975E-1,-5.737483E-3,-4.02139E-2,-1.409107E-2,2.0843709E-2,2.6280843E-3,-3.0827954E-2,2.897169E-2,-1.6132748E-2],"categories":[],"categories_nodes":[],"categories_segments":[],"categories_sizes":[],"default_left":[0,0,0,0,1,0,0,0,0,0,0,0,0,0,0],"id":22,"left_children":[1,3,5,7,9,11,13,-1,-1,-1,-1,-1,-1,-1,-1],"loss_changes":[1.5190445E1,1.3007874E1,1.62982E1,1.5141869E1,2.7128792E1,1.2311187E1,7.4093876E0,0E0,0E0,0E0,0E0,0E0,0E0,0E0,0E0],"parents":[2147483647,0,0,1,1,2,2,3,3,4,4,5,5,6,6],"right_children":[2,4,6,8,10,12,14,-1,-1,-1,-1,-1,-1,-1,-1],"split_conditions":[1.2292768E-2,1.3999734E0,6.0747665E-1,6.437247E-1,1.1723788E-3,4E0,4.1884223E-1,-5.737483E-3,-4.02139E-2,-1.409107E-2,2.0843709E-2,2.6280843E-3,-3.0827954E-2,2.897169E-2,-1.6132748E-2],"split_indices":[137,138,122,26,52,53,26,0,0,0,0,0,0,0,0],"split_type":[0,0,0,0,0,0,0,0,0,0,0,0,0,0,0],"sum_hessian":[1.2957378E4,1.2546E4,4.1137796E2,1.1130598E4,1.4154026E3,2.9411545E2,1.17262535E2,1.1085704E4,4.4893578E1,1.333868E3,8.153454E1,2.4942421E2,4.4691216E1,1.05279816E2,1.1982715E1],"tree_param":{"num_deleted":"0","num_feature":"146","num_nodes":"15","size_leaf_vector":"1"}},{"base_weights":[-9.7694434E-2,-6.24729E-1,-9.563802E-2,-8.8181627E-1,4.5991564E-4,-1.4444356E-1,-7.305333E-2,-6.277292E-2,9.163635E-3,2.3000224E-3,-9.790119E-3,-1.5781737E-3,-6.229437E-3],"categories":[],"categories_nodes":[],"categories_segments":[],"categories_sizes":[],"default_left":[0,1,0,0,0,0,0,0,0,0,0,0,0],"id":23,"left_children":[1,3,5,7,-1,9,11,-1,-1,-1,-1,-1,-1],"loss_changes":[1.3136101E1,8.739248E0,1.3929863E1,7.4034977E0,0E0,1.4717308E1,1.2732208E1,0E0,0E0,0E0,0E0,0E0,0E0],"parents":[2147483647,0,0,1,1,2,2,3,3,5,5,6,6],"right_children":[2,4,6,8,-1,10,12,-1,-1,-1,-1,-1,-1],"split_conditions":[-3.7142858E-1,-1.8867925E-2,1E0,7.95E2,4.5991564E-4,-1.8348623E-2,0E0,-6.277292E-2,9.163635E-3,2.3000224E-3,-9.790119E-3,-1.5781737E-3,-6.229437E-3],"split_indices":[36,85,101,0,0,123,33,0,0,0,0,0,0],"split_type":[0,0,0,0,0,0,0,0,0,0,0,0,0],"sum_hessian":[1.2908144E4,4.658183E1,1.28615625E4,3.3961235E1,1.2620594E1,4.0514773E3,8.810085E3,3.0039272E1,3.9219615E0,3.874308E2,3.6640464E3,3.5586357E3,5.251449E3],"tree_param":{"num_deleted":"0","num_feature":"146","num_nodes":"13","size_leaf_vector":"1"}},{"base_weights":[-8.787588E-2,-3.735489E-1,-8.2972184E-2,2.832179E-1,-4.796247E-1,-2.171141E-2,-9.836695E-2,5.653165E-2,-6.0346085E-3,-3.414553E-2,4.6880078E-3,5.7080993E-3,-3.945362E-3,-3.1440093E-3,-7.3264614E-3],"categories":[],"categories_nodes":[],"categories_segments":[],"categories_sizes":[],"default_left":[0,0,0,0,1,0,0,0,0,0,0,0,0,0,0],"id":24,"left_children":[1,3,5,7,9,11,13,-1,-1,-1,-1,-1,-1,-1,-1],"loss_changes":[1.7676682E1,1.5388706E1,1.1925209E1,8.533182E0,1.0280155E1,1.3446154E1,1.1187332E1,0E0,0E0,0E0,0E0,0E0,0E0,0E0,0E0],"parents":[2147483647,0,0,1,1,2,2,3,3,4,4,5,5,6,6],"right_children":[2,4,6,8,10,12,14,-1,-1,-1,-1,-1,-1,-1,-1],"split_conditions":[7.1526825E-2,1.55E2,-1.9148937E-1,-9.2727274E-1,5.503876E-1,1E0,4.5421964E-1,5.653165E-2,-6.0346085E-3,-3.414553E-2,4.6880078E-3,5.7080993E-3,-3.945362E-3,-3.1440093E-3,-7.3264614E-3],"split_indices":[104,1,100,100,123,17,139,0,0,0,0,0,0,0,0],"split_type":[0,0,0,0,0,0,0,0,0,0,0,0,0,0,0],"sum_hessian":[1.2997609E4,2.1396306E2,1.2783646E4,2.8033245E1,1.8592981E2,2.582046E3,1.0201601E4,1.05949135E1,1.7438332E1,1.6107867E2,2.4851131E1,7.0173224E2,1.8803136E3,3.5724402E3,6.62916E3],"tree_param":{"num_deleted":"0","num_feature":"146","num_nodes":"15","size_leaf_vector":"1"}},{"base_weights":[-7.689044E-2,-4.026003E-2,-1.0604051E-1,-4.6864435E-2,3.8474905E-1,-5.5608886E-1,-9.864265E-2,-3.9530275E-3,4.4693016E-3,3.5711385E-2,-7.6096845E-3,-3.7227504E-2,4.1400336E-2,2.3999322E-2,-6.166236E-3],"categories":[],"categories_nodes":[],"categories_segments":[],"categories_sizes":[],"default_left":[1,1,0,1,0,1,0,0,0,0,0,0,0,0,0],"id":25,"left_children":[1,3,5,7,9,11,13,-1,-1,-1,-1,-1,-1,-1,-1],"loss_changes":[1.373687E1,1.5904014E1,2.3299835E1,1.34639225E1,1.0050507E1,1.0196106E1,1.653086E1,0E0,0E0,0E0,0E0,0E0,0E0,0E0,0E0],"parents":[2147483647,0,0,1,1,2,2,3,3,4,4,5,5,6,6],"right_children":[2,4,6,8,10,12,14,-1,-1,-1,-1,-1,-1,-1,-1],"split_conditions":[4.642857E-1,2.8961328E-1,1.5894E0,1.9523809E0,4.6152E0,5E0,9.9856174E-1,-3.9530275E-3,4.4693016E-3,3.5711385E-2,-7.6096845E-3,-3.7227504E-2,4.1400336E-2,2.3999322E-2,-6.166236E-3],"split_indices":[30,143,23,90,23,145,58,0,0,0,0,0,0,0,0],"split_type":[0,0,0,0,0,0,0,0,0,0,0,0,0,0,0],"sum_hessian":[1.3016541E4,5.785948E3,7.230593E3,5.7010654E3,8.488266E1,1.12996635E2,7.117596E3,4.9260337E3,7.750317E2,6.1215405E1,2.3667257E1,1.0861975E2,4.3768835E0,6.3147648E1,7.054448E3],"tree_param":{"num_deleted":"0","num_feature":"146","num_nodes":"15","size_leaf_vector":"1"}},{"base_weights":[-7.654942E-2,-7.301332E-2,-3.3533707E-1,-6.8977736E-2,-3.2338303E-1,-6.4941686E-1,-1.0962277E-1,-4.610162E-3,3.0819091E-3,-2.1585964E-2,4.7255483E-2,1.8345383E-3,-5.0781865E-2,2.8326418E-3,-4.333883E-2],"categories":[],"categories_nodes":[],"categories_segments":[],"categories_sizes":[],"default_left":[0,0,0,0,1,0,0,0,0,0,0,0,0,0,0],"id":26,"left_children":[1,3,5,7,9,11,13,-1,-1,-1,-1,-1,-1,-1,-1],"loss_changes":[1.1427124E1,1.2515091E1,1.1197197E1,1.267627E1,8.442471E0,1.0409092E1,1.0754771E1,0E0,0E0,0E0,0E0,0E0,0E0,0E0,0E0],"parents":[2147483647,0,0,1,1,2,2,3,3,4,4,5,5,6,6],"right_children":[2,4,6,8,10,12,14,-1,-1,-1,-1,-1,-1,-1,-1],"split_conditions":[1.0694444E0,2.9722074E-1,3.1578946E-1,6.25E0,1.8571428E0,5.777778E-1,3E0,-4.610162E-3,3.0819091E-3,-2.1585964E-2,4.7255483E-2,1.8345383E-3,-5.0781865E-2,2.8326418E-3,-4.333883E-2],"split_indices":[69,41,96,34,30,132,34,0,0,0,0,0,0,0,0],"split_type":[0,0,0,0,0,0,0,0,0,0,0,0,0,0,0],"sum_hessian":[1.3002263E4,1.283277E4,1.6949316E2,1.2635097E4,1.9767267E2,6.784208E1,1.0165108E2,1.183107E4,8.040263E2,1.928851E2,4.787573E0,1.4552952E1,5.3289127E1,8.059231E1,2.1058765E1],"tree_param":{"num_deleted":"0","num_feature":"146","num_nodes":"15","size_leaf_vector":"1"}},{"base_weights":[-7.142367E-2,-3.7685655E-2,-9.77721E-2,-5.375036E-2,8.220868E-2,-2.849868E-1,-8.556412E-2,-2.8824229E-2,-2.8064577E-3,9.799048E-3,-9.524827E-3,-1.3413117E-2,-5.3986058E-2,-6.0058325E-3,4.4548395E-3],"categories":[],"categories_nodes":[],"categories_segments":[],"categories_sizes":[],"default_left":[0,1,0,0,0,0,0,0,0,0,0,0,0,0,0],"id":27,"left_children":[1,3,5,7,9,11,13,-1,-1,-1,-1,-1,-1,-1,-1],"loss_changes":[1.1423187E1,1.1010488E1,1.623407E1,1.3982236E1,1.3324398E1,1.4940041E1,1.6619171E1,0E0,0E0,0E0,0E0,0E0,0E0,0E0,0E0],"parents":[2147483647,0,0,1,1,2,2,3,3,4,4,5,5,6,6],"right_children":[2,4,6,8,10,12,14,-1,-1,-1,-1,-1,-1,-1,-1],"split_conditions":[0E0,4.8847926E-1,2.962963E-1,-1.21046506E-1,4.6152E0,4.25E0,2.05E0,-2.8824229E-2,-2.8064577E-3,9.799048E-3,-9.524827E-3,-1.3413117E-2,-5.3986058E-2,-6.0058325E-3,4.4548395E-3],"split_indices":[38,107,91,143,23,145,22,0,0,0,0,0,0,0,0],"split_type":[0,0,0,0,0,0,0,0,0,0,0,0,0,0,0],"sum_hessian":[1.3018689E4,5.7281514E3,7.290538E3,5.0598916E3,6.682598E2,4.390942E2,6.851444E3,7.3952805E1,4.9859385E3,5.0264694E2,1.6561292E2,4.034677E2,3.5626507E1,6.2679497E3,5.834943E2],"tree_param":{"num_deleted":"0","num_feature":"146","num_nodes":"15","size_leaf_vector":"1"}},{"base_weights":[-7.2402045E-2,-6.7949176E-2,-4.3594405E-1,-4.299343E-1,-6.5054245E-2,2.5568512E-1,-5.633882E-1,-3.451641E-2,3.0300822E-2,-6.899171E-3,-2.4701823E-3,-3.4075025E-2,3.6815677E-2,-3.7881445E-2,2.0968378E-2],"categories":[],"categories_nodes":[],"categories_segments":[],"categories_sizes":[],"default_left":[0,0,0,0,0,0,1,0,0,0,0,0,0,0,0],"id":28,"left_children":[1,3,5,7,9,11,13,-1,-1,-1,-1,-1,-1,-1,-1],"loss_changes":[2.0401497E1,1.2853592E1,1.4067301E1,1.4182816E1,1.503381E1,7.5365095E0,9.206848E0,0E0,0E0,0E0,0E0,0E0,0E0,0E0,0E0],"parents":[2147483647,0,0,1,1,2,2,3,3,4,4,5,5,6,6],"right_children":[2,4,6,8,10,12,14,-1,-1,-1,-1,-1,-1,-1,-1],"split_conditions":[6.04773E1,1.5384615E-2,-7.5E-1,1.5330892E-3,1E0,1.2195122E-1,5.939086E-1,-3.451641E-2,3.0300822E-2,-6.899171E-3,-2.4701823E-3,-3.4075025E-2,3.6815677E-2,-3.7881445E-2,2.0968378E-2],"split_indices":[20,127,55,52,101,48,123,0,0,0,0,0,0,0,0],"split_type":[0,0,0,0,0,0,0,0,0,0,0,0,0,0,0],"sum_hessian":[1.296115E4,1.280879E4,1.5236E2,9.712759E1,1.2711662E4,2.2184206E1,1.301758E2,8.527024E1,1.1857341E1,4.0337334E3,8.677929E3,5.607433E0,1.6576773E1,1.2219995E2,7.9758434E0],"tree_param":{"num_deleted":"0","num_feature":"146","num_nodes":"15","size_leaf_vector":"1"}},{"base_weights":[-6.894426E-2,-6.4683355E-2,-2.9826105E-1,-5.6385066E-2,-1.7909722E-1,-4.8243353E-1,1.2167974E-1,-2.7419082E-3,-9.072563E-3,-1.2783399E-2,1.7662397E-2,3.1888233E-3,-3.532822E-2,3.4706105E-2,-1.1290612E-2],"categories":[],"categories_nodes":[],"categories_segments":[],"categories_sizes":[],"default_left":[0,1,0,0,1,0,0,0,0,0,0,0,0,0,0],"id":29,"left_children":[1,3,5,7,9,11,13,-1,-1,-1,-1,-1,-1,-1,-1],"loss_changes":[1.2254181E1,1.1826393E1,1.8376837E1,1.1637062E1,1.42316475E1,1.0207035E1,1.0561787E1,0E0,0E0,0E0,0E0,0E0,0E0,0E0,0E0],"parents":[2147483647,0,0,1,1,2,2,3,3,4,4,5,5,6,6],"right_children":[2,4,6,8,10,12,14,-1,-1,-1,-1,-1,-1,-1,-1],"split_conditions":[9.4E0,4.1E0,2.25E0,1.054E0,4.0263157E0,-1.3333334E-1,6.922688E-2,-2.7419082E-3,-9.072563E-3,-1.2783399E-2,1.7662397E-2,3.1888233E-3,-3.532822E-2,3.4706105E-2,-1.1290612E-2],"split_indices":[109,95,18,24,88,25,31,0,0,0,0,0,0,0,0],"split_type":[0,0,0,0,0,0,0,0,0,0,0,0,0,0,0],"sum_hessian":[1.2966492E4,1.2736231E4,2.3026044E2,1.1885575E4,8.506566E2,1.6171022E2,6.855021E1,1.0729493E4,1.1560817E3,7.9481964E2,5.5837017E1,2.5925722E1,1.357845E2,2.858117E1,3.9969044E1],"tree_param":{"num_deleted":"0","num_feature":"146","num_nodes":"15","size_leaf_vector":"1"}},{"base_weights":[-6.264692E-2,-1.3484201E-1,-4.382423E-2,-1.0953258E-1,-4.1396487E-1,-4.544218E-2,9.2461073E-1,-8.002446E-3,9.713346E-3,-4.3290768E-2,-4.8183086E-3,-3.4645768E-3,3.4753033E-3,-1.847109E-2,6.9635384E-2],"categories":[],"categories_nodes":[],"categories_segments":[],"categories_sizes":[],"default_left":[1,1,0,1,1,0,0,0,0,0,0,0,0,0,0],"id":30,"left_children":[1,3,5,7,9,11,13,-1,-1,-1,-1,-1,-1,-1,-1],"loss_changes":[1.7400867E1,1.8210701E1,1.5227278E1,1.6409206E1,2.1653091E1,1.345619E1,6.223283E0,0E0,0E0,0E0,0E0,0E0,0E0,0E0,0E0],"parents":[2147483647,0,0,1,1,2,2,3,3,4,4,5,5,6,6],"right_children":[2,4,6,8,10,12,14,-1,-1,-1,-1,-1,-1,-1,-1],"split_conditions":[1.682243E-1,4.3E0,6.25E0,5.882353E-2,4.318182E-1,4.521158E-1,6.25E0,-8.002446E-3,9.713346E-3,-4.3290768E-2,-4.8183086E-3,-3.4645768E-3,3.4753033E-3,-1.847109E-2,6.9635384E-2],"split_indices":[90,89,6,85,84,118,39,0,0,0,0,0,0,0,0],"split_type":[0,0,0,0,0,0,0,0,0,0,0,0,0,0,0],"sum_hessian":[1.2951194E4,2.6648147E3,1.028638E4,2.4484946E3,2.163202E2,1.0271589E4,1.47915325E1,2.2499075E3,1.9858716E2,1.09303535E2,1.0701667E2,9.166244E3,1.1053444E3,1.6398048E0,1.3151728E1],"tree_param":{"num_deleted":"0","num_feature":"146","num_nodes":"15","size_leaf_vector":"1"}},{"base_weights":[-5.6525573E-2,-4.0201355E-2,-1.097995E-1,-3.2819033E-2,-2.8561005E-1,-1.3041501E-1,7.542532E-2,-3.1359956E-2,-1.8113188E-3,-1.0902192E-2,-5.1826406E-2,-3.3286687E-2,-7.0591182E-3,9.948338E-3,-1.5466536E-2],"categories":[],"categories_nodes":[],"categories_segments":[],"categories_sizes":[],"default_left":[1,1,0,0,0,0,0,0,0,0,0,0,0,0,0],"id":31,"left_children":[1,3,5,7,9,11,13,-1,-1,-1,-1,-1,-1,-1,-1],"loss_changes":[1.1152767E1,1.7727587E1,1.1668556E1,1.1129874E1,1.5875973E1,1.3344685E1,9.11814E0,0E0,0E0,0E0,0E0,0E0,0E0,0E0,0E0],"parents":[2147483647,0,0,1,1,2,2,3,3,4,4,5,5,6,6],"right_children":[2,4,6,8,10,12,14,-1,-1,-1,-1,-1,-1,-1,-1],"split_conditions":[1E0,5.996279E0,7.6377853E-3,-1.2380953E0,1.3984377E1,-1.8005712E-1,5.25E0,-3.1359956E-2,-1.8113188E-3,-1.0902192E-2,-5.1826406E-2,-3.3286687E-2,-7.0591182E-3,9.948338E-3,-1.5466536E-2],"split_indices":[40,59,137,30,58,143,53,0,0,0,0,0,0,0,0],"split_type":[0,0,0,0,0,0,0,0,0,0,0,0,0,0,0],"sum_hessian":[1.3015649E4,9.980091E3,3.0355583E3,9.6943545E3,2.8573666E2,2.737126E3,2.9843243E2,4.4566776E1,9.649788E3,2.4592493E2,3.981174E1,7.122363E1,2.6659023E3,2.375055E2,6.092693E1],"tree_param":{"num_deleted":"0","num_feature":"146","num_nodes":"15","size_leaf_vector":"1"}},{"base_weights":[-6.093932E-2,-5.728463E-2,-2.9474992E-1,-3.8351417E-2,-9.936589E-2,-4.38968E-1,1.2386794E-1,2.717542E-2,-2.4472787E-3,-1.33559E-2,-4.60676E-3,1.1051858E-2,-3.2964997E-2,-4.414133E-2,1.712979E-2],"categories":[],"categories_nodes":[],"categories_segments":[],"categories_sizes":[],"default_left":[0,0,0,1,0,0,0,0,0,0,0,0,0,0,0],"id":32,"left_children":[1,3,5,7,9,11,13,-1,-1,-1,-1,-1,-1,-1,-1],"loss_changes":[1.0702518E1,1.0045597E1,1.2192358E1,1.1236209E1,1.0556007E1,1.0975735E1,6.71715E0,0E0,0E0,0E0,0E0,0E0,0E0,0E0,0E0],"parents":[2147483647,0,0,1,1,2,2,3,3,4,4,5,5,6,6],"right_children":[2,4,6,8,10,12,14,-1,-1,-1,-1,-1,-1,-1,-1],"split_conditions":[2.9722074E-1,2.75E0,-1.2844036E-2,-1E-5,2E2,4.8165137E-1,5.531915E-1,2.717542E-2,-2.4472787E-3,-1.33559E-2,-4.60676E-3,1.1051858E-2,-3.2964997E-2,-4.414133E-2,1.712979E-2],"split_indices":[41,12,119,95,1,89,132,0,0,0,0,0,0,0,0],"split_type":[0,0,0,0,0,0,0,0,0,0,0,0,0,0,0],"sum_hessian":[1.2993605E4,1.2799783E4,1.9382234E2,8.847325E3,3.9524575E3,1.4602582E2,4.779652E1,4.416647E1,8.803159E3,5.878607E2,3.364597E3,2.0888525E1,1.2513729E2,5.8082E0,4.198832E1],"tree_param":{"num_deleted":"0","num_feature":"146","num_nodes":"15","size_leaf_vector":"1"}},{"base_weights":[-5.4422386E-2,-6.532327E-2,3.6029525E-2,-2.5993967E-2,-8.926569E-2,-1.7175801E-1,7.6659836E-2,-2.8666828E-3,1.2120132E-2,-1.8599428E-2,-4.861247E-3,-2.068648E-3,-3.7726466E-2,2.5872108E-2,8.507135E-4],"categories":[],"categories_nodes":[],"categories_segments":[],"categories_sizes":[],"default_left":[1,0,0,1,1,0,0,0,0,0,0,0,0,0,0],"id":33,"left_children":[1,3,5,7,9,11,13,-1,-1,-1,-1,-1,-1,-1,-1],"loss_changes":[1.2856228E1,1.0810822E1,1.1639696E1,2.2155321E1,1.2018875E1,1.3345608E1,2.5503258E1,0E0,0E0,0E0,0E0,0E0,0E0,0E0,0E0],"parents":[2147483647,0,0,1,1,2,2,3,3,4,4,5,5,6,6],"right_children":[2,4,6,8,10,12,14,-1,-1,-1,-1,-1,-1,-1,-1],"split_conditions":[2.12E0,-5.1948052E-2,5.034965E-1,1.335958E0,1.0989011E-2,-1E0,5.4814816E-1,-2.8666828E-3,1.2120132E-2,-1.8599428E-2,-4.861247E-3,-2.068648E-3,-3.7726466E-2,2.5872108E-2,8.507135E-4],"split_indices":[90,72,77,65,92,144,92,0,0,0,0,0,0,0,0],"split_type":[0,0,0,0,0,0,0,0,0,0,0,0,0,0,0],"sum_hessian":[1.3002205E4,1.16147295E4,1.3874756E3,4.413163E3,7.201567E3,2.2189572E2,1.1655798E3,4.0309287E3,3.8223413E2,2.3706424E2,6.964503E3,1.738958E2,4.799992E1,1.6969E2,9.9588983E2],"tree_param":{"num_deleted":"0","num_feature":"146","num_nodes":"15","size_leaf_vector":"1"}},{"base_weights":[-5.375312E-2,-1.9400215E-1,-4.732514E-2,-3.5897428E-1,-7.2712097E-3,-4.5496244E-2,-7.568824E-1,-2.5460118E-2,1.2895665E-2,2.3640383E-2,-5.753438E-3,5.5324454E-3,-3.1315424E-3,-0E0,-6.8674944E-2],"categories":[],"categories_nodes":[],"categories_segments":[],"categories_sizes":[],"default_left":[0,0,1,0,0,0,0,0,0,0,0,0,0,0,0],"id":34,"left_children":[1,3,5,7,9,11,13,-1,-1,-1,-1,-1,-1,-1,-1],"loss_changes":[1.1382477E1,1.6815144E1,1.5142889E1,1.1790802E1,9.315952E0,1.1891148E1,9.718182E0,0E0,0E0,0E0,0E0,0E0,0E0,0E0,0E0],"parents":[2147483647,0,0,1,1,2,2,3,3,4,4,5,5,6,6],"right_children":[2,4,6,8,10,12,14,-1,-1,-1,-1,-1,-1,-1,-1],"split_conditions":[-1.21046506E-1,3.478261E-1,1.3985851E1,7.75E0,-6.61157E-2,7.608695E-2,1.0989011E-2,-2.5460118E-2,1.2895665E-2,2.3640383E-2,-5.753438E-3,5.5324454E-3,-3.1315424E-3,-0E0,-6.8674944E-2],"split_indices":[143,46,59,39,99,90,92,0,0,0,0,0,0,0,0],"split_type":[0,0,0,0,0,0,0,0,0,0,0,0,0,0,0],"sum_hessian":[1.2926549E4,5.574594E2,1.236909E4,2.9226364E2,2.6519574E2,1.2340204E4,2.8885626E1,2.6343655E2,2.8827087E1,4.4985268E1,2.2021048E2,5.859693E2,1.1754234E4,9.809929E0,1.9075697E1],"tree_param":{"num_deleted":"0","num_feature":"146","num_nodes":"15","size_leaf_vector":"1"}},{"base_weights":[-4.8007898E-2,-2.2390419E-1,-4.1399296E-2,-1.7909573E-1,-1.1495459E0,-4.366875E-2,3.5813653E-1,-1.4797043E-2,2.3193605E-2,-0E0,-9.210777E-2,-5.084639E-3,-1.1195191E-3,3.458451E-2,-3.8017362E-2],"categories":[],"categories_nodes":[],"categories_segments":[],"categories_sizes":[],"default_left":[0,0,0,0,0,0,0,0,0,0,0,0,0,0,0],"id":35,"left_children":[1,3,5,7,9,11,13,-1,-1,-1,-1,-1,-1,-1,-1],"loss_changes":[1.4762854E1,1.7498459E1,1.1011108E1,1.7361832E1,8.014542E0,1.2747957E1,1.542695E1,0E0,0E0,0E0,0E0,0E0,0E0,0E0,0E0],"parents":[2147483647,0,0,1,1,2,2,3,3,4,4,5,5,6,6],"right_children":[2,4,6,8,10,12,14,-1,-1,-1,-1,-1,-1,-1,-1],"split_conditions":[2.7210884E-2,3.25E0,6.75E0,7.5438595E-1,2.0014504E-1,2.9872495E-1,9.461538E-1,-1.4797043E-2,2.3193605E-2,-0E0,-9.210777E-2,-5.084639E-3,-1.1195191E-3,3.458451E-2,-3.8017362E-2],"split_indices":[83,10,7,127,99,71,132,0,0,0,0,0,0,0,0],"split_type":[0,0,0,0,0,0,0,0,0,0,0,0,0,0,0],"sum_hessian":[1.2955214E4,4.616402E2,1.2493573E4,4.4293585E2,1.870432E1,1.2426857E4,6.6715645E1,3.9734955E2,4.558631E1,5.558587E0,1.3145734E1,4.639237E3,7.7876206E3,5.590569E1,1.0809955E1],"tree_param":{"num_deleted":"0","num_feature":"146","num_nodes":"15","size_leaf_vector":"1"}},{"base_weights":[-4.3700676E-2,-5.037555E-2,1.3337184E-1,-3.9969784E-1,-4.753685E-2,8.852261E-2,8.638683E-1,-1.7969371E-3,-4.187797E-2,2.8087816E-3,-3.4161976E-3,1.16011E-2,-1.2038819E-2,-2.1299781E-2,6.361335E-2],"categories":[],"categories_nodes":[],"categories_segments":[],"categories_sizes":[],"default_left":[0,0,1,0,1,0,0,0,0,0,0,0,0,0,0],"id":36,"left_children":[1,3,5,7,9,11,13,-1,-1,-1,-1,-1,-1,-1,-1],"loss_changes":[1.525806E1,1.1901009E1,1.4137301E1,1.008756E1,1.1436834E1,1.3630547E1,7.544136E0,0E0,0E0,0E0,0E0,0E0,0E0,0E0,0E0],"parents":[2147483647,0,0,1,1,2,2,3,3,4,4,5,5,6,6],"right_children":[2,4,6,8,10,12,14,-1,-1,-1,-1,-1,-1,-1,-1],"split_conditions":[9.447415E-2,-3.3773246E-1,5.5E0,1.9302514E-1,-1.5E0,2.25E0,-1.91238E1,-1.7969371E-3,-4.187797E-2,2.8087816E-3,-3.4161976E-3,1.16011E-2,-1.2038819E-2,-2.1299781E-2,6.361335E-2],"split_indices":[119,31,145,69,33,13,20,0,0,0,0,0,0,0,0],"split_type":[0,0,0,0,0,0,0,0,0,0,0,0,0,0,0],"sum_hessian":[1.2976248E4,1.2511643E4,4.6460507E2,9.6308E1,1.2415335E4,4.4051266E2,2.4092403E1,4.558275E1,5.072525E1,1.1461163E3,1.1269219E4,3.2578888E2,1.14723785E2,2.5250916E0,2.156731E1],"tree_param":{"num_deleted":"0","num_feature":"146","num_nodes":"15","size_leaf_vector":"1"}},{"base_weights":[-4.400959E-2,-6.1271895E-2,6.87293E-3,-4.653935E-2,-1.6787532E-1,3.929471E-2,-1.6450074E-1,-6.1047054E-3,-1.1103598E-3,-5.636413E-3,-2.0964928E-2,6.1096466E-4,1.1800583E-2,-2.324736E-2,-1.277692E-3],"categories":[],"categories_nodes":[],"categories_segments":[],"categories_sizes":[],"default_left":[0,0,0,0,0,1,1,0,0,0,0,0,0,0,0],"id":37,"left_children":[1,3,5,7,9,11,13,-1,-1,-1,-1,-1,-1,-1,-1],"loss_changes":[1.14422035E1,1.498122E1,1.8032755E1,1.31507015E1,1.5202728E1,1.2458334E1,1.6134281E1,0E0,0E0,0E0,0E0,0E0,0E0,0E0,0E0],"parents":[2147483647,0,0,1,1,2,2,3,3,4,4,5,5,6,6],"right_children":[2,4,6,8,10,12,14,-1,-1,-1,-1,-1,-1,-1,-1],"split_conditions":[8.6929E0,1.515445E0,3.40334E1,5E-1,8.2E0,6.1025643E-1,4.618182E-1,-6.1047054E-3,-1.1103598E-3,-5.636413E-3,-2.0964928E-2,6.1096466E-4,1.1800583E-2,-2.324736E-2,-1.277692E-3],"split_indices":[20,138,20,77,87,113,125,0,0,0,0,0,0,0,0],"split_type":[0,0,0,0,0,0,0,0,0,0,0,0,0,0,0],"sum_hessian":[1.2958231E4,9.691296E3,3.266935E3,8.525131E3,1.1661647E3,2.7533423E3,5.1359283E2,2.8301733E3,5.694958E3,8.3861725E2,3.2754745E2,2.3337456E3,4.1959647E2,1.9575558E2,3.1783725E2],"tree_param":{"num_deleted":"0","num_feature":"146","num_nodes":"15","size_leaf_vector":"1"}},{"base_weights":[-4.9905427E-2,-2.2582732E-2,-8.8787735E-2,-1.553092E-2,-2.4666311E-1,-1.7233716E-1,-5.680688E-2,-3.501066E-4,-1.1092094E-2,-1.880616E-2,3.9280422E-2,-1.3034706E-2,3.9392235E-3,-3.8197E-3,2.0153493E-2],"categories":[],"categories_nodes":[],"categories_segments":[],"categories_sizes":[],"default_left":[0,1,0,0,0,0,1,0,0,0,0,0,0,0,0],"id":38,"left_children":[1,3,5,7,9,11,13,-1,-1,-1,-1,-1,-1,-1,-1],"loss_changes":[1.3670898E1,1.1790308E1,1.4012917E1,1.2001993E1,1.40769415E1,1.6336147E1,1.0765074E1,0E0,0E0,0E0,0E0,0E0,0E0,0E0,0E0],"parents":[2147483647,0,0,1,1,2,2,3,3,4,4,5,5,6,6],"right_children":[2,4,6,8,10,12,14,-1,-1,-1,-1,-1,-1,-1,-1],"split_conditions":[1.75E0,1.298694E1,5E-1,3.8390012E0,4.2393E0,3.7909434E-3,1.875E0,-3.501066E-4,-1.1092094E-2,-1.880616E-2,3.9280422E-2,-1.3034706E-2,3.9392235E-3,-3.8197E-3,2.0153493E-2],"split_indices":[8,58,77,136,23,137,25,0,0,0,0,0,0,0,0],"split_type":[0,0,0,0,0,0,0,0,0,0,0,0,0,0,0],"sum_hessian":[1.2982477E4,7.642135E3,5.340342E3,7.415004E3,2.2713075E2,1.4673715E3,3.8729705E3,7.024338E3,3.906661E2,2.1304413E2,1.4086623E1,1.2332772E3,2.3409422E2,3.8071865E3,6.578399E1],"tree_param":{"num_deleted":"0","num_feature":"146","num_nodes":"15","size_leaf_vector":"1"}},{"base_weights":[-3.8220122E-2,5.6639597E-2,-4.884396E-2,2.8470272E-1,1.4517471E-2,-4.4906612E-2,-2.9148522E-1,2.9602358E-2,5.406254E-4,-2.965219E-3,9.858799E-3,-6.6943057E-3,-1.7525933E-3,-3.7754018E-2,-2.248359E-3],"categories":[],"categories_nodes":[],"categories_segments":[],"categories_sizes":[],"default_left":[0,0,0,0,0,0,0,0,0,0,0,0,0,0,0],"id":39,"left_children":[1,3,5,7,9,11,13,-1,-1,-1,-1,-1,-1,-1,-1],"loss_changes":[1.3078571E1,1.21405115E1,1.0784334E1,1.1007496E1,1.0791986E1,1.1868298E1,1.5010676E1,0E0,0E0,0E0,0E0,0E0,0E0,0E0,0E0],"parents":[2147483647,0,0,1,1,2,2,3,3,4,4,5,5,6,6],"right_children":[2,4,6,8,10,12,14,-1,-1,-1,-1,-1,-1,-1,-1],"split_conditions":[-6.024096E-3,5.3892213E-1,2.9722074E-1,9E-1,-1.3420884E-2,2.0833333E-1,-1.998157E-2,2.9602358E-2,5.406254E-4,-2.965219E-3,9.858799E-3,-6.6943057E-3,-1.7525933E-3,-3.7754018E-2,-2.248359E-3],"split_indices":[123,92,41,97,140,84,140,0,0,0,0,0,0,0,0],"split_type":[0,0,0,0,0,0,0,0,0,0,0,0,0,0,0],"sum_hessian":[1.2981082E4,1.2966036E3,1.1684479E4,1.9696898E2,1.0996346E3,1.150381E4,1.8066866E2,1.0864959E2,8.83194E1,7.6670807E2,3.3292657E2,2.1424968E3,9.3613125E3,7.439935E1,1.0626931E2],"tree_param":{"num_deleted":"0","num_feature":"146","num_nodes":"15","size_leaf_vector":"1"}},{"base_weights":[-3.1717278E-2,-6.918693E-2,-4.08978E-3,-5.4616436E-2,-3.1994516E-1,1.6851102E-1,-1.962337E-2,-3.2208707E-2,-2.9076028E-3,-3.818822E-2,-6.026783E-3,2.8126797E-2,6.450531E-3,-1.1107181E-2,-4.06867E-4],"categories":[],"categories_nodes":[],"categories_segments":[],"categories_sizes":[],"default_left":[1,0,0,0,0,0,0,0,0,0,0,0,0,0,0],"id":40,"left_children":[1,3,5,7,9,11,13,-1,-1,-1,-1,-1,-1,-1,-1],"loss_changes":[1.3316549E1,1.9578394E1,1.9862259E1,1.4115312E1,1.9885853E1,1.0484011E1,1.4412094E1,0E0,0E0,0E0,0E0,0E0,0E0,0E0,0E0],"parents":[2147483647,0,0,1,1,2,2,3,3,4,4,5,5,6,6],"right_children":[2,4,6,8,10,12,14,-1,-1,-1,-1,-1,-1,-1,-1],"split_conditions":[1.04166664E-1,8.4E2,-6.277696E-2,-3.3773246E-1,8.75E-1,3.5714287E-1,1.0240964E-1,-3.2208707E-2,-2.9076028E-3,-3.818822E-2,-6.026783E-3,2.8126797E-2,6.450531E-3,-1.1107181E-2,-4.06867E-4],"split_indices":[86,2,69,31,129,92,96,0,0,0,0,0,0,0,0],"split_type":[0,0,0,0,0,0,0,0,0,0,0,0,0,0,0],"sum_hessian":[1.2939177E4,5.4740396E3,7.4651377E3,5.179012E3,2.9502707E2,6.09569E2,6.8555684E3,5.8394753E1,5.1206177E3,1.1678958E2,1.7823749E2,9.686699E1,5.1270197E2,4.8213477E2,6.3734336E3],"tree_param":{"num_deleted":"0","num_feature":"146","num_nodes":"15","size_leaf_vector":"1"}},{"base_weights":[-2.8192524E-2,-2.0820685E-2,-1.6085148E-1,-1.4728592E-1,-1.4061608E-2,-4.2056498E-1,-9.3439996E-2,6.1690705E-3,-1.3482781E-2,3.3442955E-2,-9.437518E-4,-1.312032E-3,-3.781122E-2,-4.3479282E-2,-3.1096714E-3],"categories":[],"categories_nodes":[],"categories_segments":[],"categories_sizes":[],"default_left":[0,1,1,0,1,1,0,0,0,0,0,0,0,0,0],"id":41,"left_children":[1,3,5,7,9,11,13,-1,-1,-1,-1,-1,-1,-1,-1],"loss_changes":[1.2476808E1,1.0328514E1,1.1203726E1,1.2302213E1,1.1210882E1,1.07745495E1,1.3297182E1,0E0,0E0,0E0,0E0,0E0,0E0,0E0,0E0],"parents":[2147483647,0,0,1,1,2,2,3,3,4,4,5,5,6,6],"right_children":[2,4,6,8,10,12,14,-1,-1,-1,-1,-1,-1,-1,-1],"split_conditions":[6.2857145E-1,9.756097E-2,3.3333335E-2,2.9834E0,-1E-5,7.857143E-2,-3.67295E1,6.1690705E-3,-1.3482781E-2,3.3442955E-2,-9.437518E-4,-1.312032E-3,-3.781122E-2,-4.3479282E-2,-3.1096714E-3],"split_indices":[69,92,47,23,95,93,20,0,0,0,0,0,0,0,0],"split_type":[0,0,0,0,0,0,0,0,0,0,0,0,0,0,0],"sum_hessian":[1.2961686E4,1.2288467E4,6.732184E2,6.139689E2,1.1674498E4,1.3401405E2,5.3920435E2,1.4332587E2,4.7064304E2,3.243701E1,1.1642062E4,4.897126E1,8.504279E1,2.9993795E1,5.0921054E2],"tree_param":{"num_deleted":"0","num_feature":"146","num_nodes":"15","size_leaf_vector":"1"}},{"base_weights":[-2.5988908E-2,-2.3061762E-2,-2.5068694E-1,-3.7035335E-2,2.5141459E-2,-4.4712815E-1,1.2586062E-1,-2.632525E-3,4.6100584E-3,9.843886E-4,3.9865002E-2,-1.9577944E-3,-4.2209517E-2,-2.5773584E-3,5.378607E-2],"categories":[],"categories_nodes":[],"categories_segments":[],"categories_sizes":[],"default_left":[0,0,0,1,0,0,1,0,0,0,0,0,0,0,0],"id":42,"left_children":[1,3,5,7,9,11,13,-1,-1,-1,-1,-1,-1,-1,-1],"loss_changes":[8.243698E0,8.657969E0,1.2420223E1,8.044875E0,1.5182665E1,1.0905296E1,8.157886E0,0E0,0E0,0E0,0E0,0E0,0E0,0E0,0E0],"parents":[2147483647,0,0,1,1,2,2,3,3,4,4,5,5,6,6],"right_children":[2,4,6,8,10,12,14,-1,-1,-1,-1,-1,-1,-1,-1],"split_conditions":[6.04773E1,-1.91967E-4,2.2477876E-1,1.3333334E0,3E0,5E-1,5.552486E-1,-2.632525E-3,4.6100584E-3,9.843886E-4,3.9865002E-2,-1.9577944E-3,-4.2209517E-2,-2.5773584E-3,5.378607E-2],"split_indices":[20,140,26,25,33,8,120,0,0,0,0,0,0,0,0],"split_type":[0,0,0,0,0,0,0,0,0,0,0,0,0,0,0],"sum_hessian":[1.2992563E4,1.2831655E4,1.6090813E2,9.96545E3,2.8662056E3,1.0746188E2,5.344624E1,9.393149E3,5.7230035E2,2.8311848E3,3.502066E1,4.363986E1,6.3822025E1,4.3762646E1,9.683593E0],"tree_param":{"num_deleted":"0","num_feature":"146","num_nodes":"15","size_leaf_vector":"1"}},{"base_weights":[-3.0875007E-2,-1.2690732E-2,-7.210333E-2,-3.4032155E-2,4.51485E-2,-1.9066426E-1,-4.639018E-2,5.7551777E-3,-2.9869867E-3,1.0862674E-2,3.7148758E-4,-1.4471983E-2,1.5610132E-2,-1.0492227E-3,-1.0448405E-2],"categories":[],"categories_nodes":[],"categories_segments":[],"categories_sizes":[],"default_left":[0,0,1,0,0,1,1,0,0,0,0,0,0,0,0],"id":43,"left_children":[1,3,5,7,9,11,13,-1,-1,-1,-1,-1,-1,-1,-1],"loss_changes":[9.676863E0,1.1176415E1,1.1835533E1,1.3836954E1,1.2743225E1,1.6488295E1,1.1919904E1,0E0,0E0,0E0,0E0,0E0,0E0,0E0,0E0],"parents":[2147483647,0,0,1,1,2,2,3,3,4,4,5,5,6,6],"right_children":[2,4,6,8,10,12,14,-1,-1,-1,-1,-1,-1,-1,-1],"split_conditions":[3.6296192E1,7.594E0,1.4285715E-1,-4.4650286E-3,2.7759E0,6.013986E-1,9.583333E-1,5.7551777E-3,-2.9869867E-3,1.0862674E-2,3.7148758E-4,-1.4471983E-2,1.5610132E-2,-1.0492227E-3,-1.0448405E-2],"split_indices":[57,20,90,137,23,66,40,0,0,0,0,0,0,0,0],"split_type":[0,0,0,0,0,0,0,0,0,0,0,0,0,0,0],"sum_hessian":[1.3029727E4,9.061087E3,3.9686396E3,6.6328774E3,2.4282092E3,6.983301E2,3.2703096E3,7.1769434E2,5.915183E3,5.30263E2,1.8979463E3,6.291301E2,6.919996E1,2.6804517E3,5.898578E2],"tree_param":{"num_deleted":"0","num_feature":"146","num_nodes":"15","size_leaf_vector":"1"}},{"base_weights":[-2.637616E-2,-7.2531134E-2,-3.577155E-3,-6.7263395E-2,-9.5163023E-1,-1.9650078E-1,3.925925E-3,-2.312919E-2,-3.081003E-3,6.364872E-3,-7.01322E-2,-4.6452396E-3,-2.6226921E-2,1.3031238E-2,-3.3427076E-4],"categories":[],"categories_nodes":[],"categories_segments":[],"categories_sizes":[],"default_left":[1,1,0,0,1,1,0,0,0,0,0,0,0,0,0],"id":44,"left_children":[1,3,5,7,9,11,13,-1,-1,-1,-1,-1,-1,-1,-1],"loss_changes":[1.3591854E1,1.8641638E1,1.2824008E1,2.0813555E1,7.046198E0,8.962541E0,1.7368303E1,0E0,0E0,0E0,0E0,0E0,0E0,0E0,0E0],"parents":[2147483647,0,0,1,1,2,2,3,3,4,4,5,5,6,6],"right_children":[2,4,6,8,10,12,14,-1,-1,-1,-1,-1,-1,-1,-1],"split_conditions":[3.75E-1,1.6986206E1,5.344828E-1,-1.14032954E-1,-2.5E-1,9.983763E-1,-3.0769232E-1,-2.312919E-2,-3.081003E-3,6.364872E-3,-7.01322E-2,-4.6452396E-3,-2.6226921E-2,1.3031238E-2,-3.3427076E-4],"split_indices":[48,58,129,143,37,58,25,0,0,0,0,0,0,0,0],"split_type":[0,0,0,0,0,0,0,0,0,0,0,0,0,0,0],"sum_hessian":[1.299345E4,4.2795835E3,8.713866E3,4.256721E3,2.286229E1,3.3034357E2,8.383523E3,1.9322794E2,4.0634932E3,3.2715294E0,1.959076E1,2.2614728E2,1.0419627E2,3.601733E2,8.0233496E3],"tree_param":{"num_deleted":"0","num_feature":"146","num_nodes":"15","size_leaf_vector":"1"}},{"base_weights":[-1.8523855E-2,3.1634965E-3,-6.4613715E-2,1.335865E-2,-1.4499632E-1,-3.1374735E-1,-5.152204E-2,9.0296444E-4,-5.6058243E-2,-1.4231772E-2,1.2987828E-2,-1.099463E-2,-4.69399E-2,-4.6079336E-3,6.6048834E-3],"categories":[],"categories_nodes":[],"categories_segments":[],"categories_sizes":[],"default_left":[0,0,0,1,0,1,1,0,0,0,0,0,0,0,0],"id":45,"left_children":[1,3,5,7,9,11,13,-1,-1,-1,-1,-1,-1,-1,-1],"loss_changes":[1.306353E1,1.3194575E1,1.3207123E1,1.30149145E1,1.914566E1,1.1264004E1,1.6550684E1,0E0,0E0,0E0,0E0,0E0,0E0,0E0,0E0],"parents":[2147483647,0,0,1,1,2,2,3,3,4,4,5,5,6,6],"right_children":[2,4,6,8,10,12,14,-1,-1,-1,-1,-1,-1,-1,-1],"split_conditions":[9.077381E-1,8.25E2,-1.0085227E0,3.1541448E0,2.394015E0,1.75E0,5.863636E-1,9.0296444E-4,-5.6058243E-2,-1.4231772E-2,1.2987828E-2,-1.099463E-2,-4.69399E-2,-4.6079336E-3,6.6048834E-3],"split_indices":[129,0,68,139,76,93,86,0,0,0,0,0,0,0,0],"split_type":[0,0,0,0,0,0,0,0,0,0,0,0,0,0,0],"sum_hessian":[1.3001333E4,8.826098E3,4.1752354E3,8.265787E3,5.6031E2,2.0282826E2,3.9724072E3,8.252834E3,1.2953484E1,4.481462E2,1.1216375E2,1.6247067E2,4.0357582E1,3.4352664E3,5.371409E2],"tree_param":{"num_deleted":"0","num_feature":"146","num_nodes":"15","size_leaf_vector":"1"}},{"base_weights":[-1.9370837E-2,-3.6931954E-2,2.6661191E-2,4.7755547E-2,-5.4208174E-2,-3.3259742E-2,1.0348721E-1,-2.5676172E-2,4.1021835E-3,-2.0016585E-3,-8.698185E-3,1.1688871E-2,-3.8242426E-3,4.118622E-3,1.9445207E-2],"categories":[],"categories_nodes":[],"categories_segments":[],"categories_sizes":[],"default_left":[0,0,0,0,1,0,1,0,0,0,0,0,0,0,0],"id":46,"left_children":[1,3,5,7,9,11,13,-1,-1,-1,-1,-1,-1,-1,-1],"loss_changes":[1.0553717E1,1.3846236E1,1.6582985E1,1.5639409E1,1.4681398E1,1.406015E1,1.1646223E1,0E0,0E0,0E0,0E0,0E0,0E0,0E0,0E0],"parents":[2147483647,0,0,1,1,2,2,3,3,4,4,5,5,6,6],"right_children":[2,4,6,8,10,12,14,-1,-1,-1,-1,-1,-1,-1,-1],"split_conditions":[5.4320985E-1,-8.6021505E-2,2.4951305E-2,-8E0,9.9930805E-1,-2.5E-1,8.181818E-1,-2.5676172E-2,4.1021835E-3,-2.0016585E-3,-8.698185E-3,1.1688871E-2,-3.8242426E-3,4.118622E-3,1.9445207E-2],"split_indices":[128,26,143,43,59,16,48,0,0,0,0,0,0,0,0],"split_type":[0,0,0,0,0,0,0,0,0,0,0,0,0,0,0],"sum_hessian":[1.3038874E4,9.4553545E3,3.5835195E3,1.5911025E3,7.864252E3,2.0058002E3,1.5777195E3,6.3709812E1,1.5273927E3,6.4279175E3,1.4363344E3,2.3291318E2,1.772887E3,1.371808E3,2.0591151E2],"tree_param":{"num_deleted":"0","num_feature":"146","num_nodes":"15","size_leaf_vector":"1"}}]},"name":"gbtree"},"learner_model_param":{"base_score":"5E-1","boost_from_average":"1","num_class":"0","num_feature":"146","num_target":"1"},"objective":{"name":"reg:squarederror","reg_loss_param":{"scale_pos_weight":"1"}}},"version":[2,1,1]}